%YAML:1.0
my_svm: !!opencv-ml-svm
   svm_type: C_SVC
   kernel: { type:RBF, gamma:1.5000000000000001e-004 }
   C: 1.2500000000000000e+001
   term_criteria: { epsilon:1.1920928955078125e-007, iterations:1000 }
   var_all: 50
   var_count: 50
   class_count: 2
   class_labels: !!opencv-matrix
      rows: 1
      cols: 2
      dt: i
      data: [ -1, 1 ]
   sv_total: 1065
   support_vectors:
      - [ 9., 5., 2., 3., 2., 7., 0., 2., 0., 4., 7., 10., 2., 6., 13.,
          1., 0., 4., 3., 1., 1., 10., 4., 1., 4., 1., 1., 3., 2., 2.,
          0., 4., 2., 10., 2., 6., 3., 2., 11., 1., 8., 2., 8., 2., 2.,
          9., 5., 8., 3., 3. ]
      - [ 6., 2., 10., 3., 3., 13., 4., 3., 1., 7., 8., 11., 1., 7., 21.,
          0., 3., 0., 0., 3., 4., 6., 3., 1., 1., 2., 2., 3., 0., 1., 5.,
          4., 4., 6., 12., 1., 1., 3., 6., 2., 1., 2., 4., 4., 2., 3.,
          4., 3., 2., 2. ]
      - [ 3., 1., 8., 2., 5., 6., 3., 5., 3., 0., 4., 13., 7., 2., 3.,
          0., 0., 1., 2., 2., 1., 10., 1., 1., 1., 3., 3., 3., 5., 1.,
          3., 2., 24., 6., 3., 0., 1., 9., 1., 1., 3., 1., 26., 2., 4.,
          8., 0., 0., 7., 0. ]
      - [ 4., 1., 9., 1., 4., 1., 2., 2., 0., 1., 3., 7., 2., 9., 19.,
          0., 3., 1., 9., 6., 1., 16., 0., 0., 2., 2., 2., 2., 8., 5.,
          2., 0., 15., 7., 1., 0., 1., 3., 3., 7., 0., 1., 22., 2., 3.,
          3., 0., 2., 6., 0. ]
      - [ 2., 3., 6., 2., 1., 1., 0., 0., 2., 2., 8., 8., 2., 8., 16.,
          0., 2., 3., 13., 6., 1., 13., 1., 0., 1., 1., 3., 3., 4., 0.,
          2., 2., 25., 2., 4., 0., 0., 2., 2., 0., 0., 1., 34., 0., 2.,
          4., 3., 2., 3., 0. ]
      - [ 2., 20., 7., 2., 2., 4., 1., 3., 3., 0., 0., 5., 6., 3., 2.,
          1., 8., 3., 1., 1., 4., 0., 7., 5., 0., 11., 1., 0., 1., 0.,
          10., 35., 1., 0., 8., 0., 2., 13., 2., 0., 2., 1., 2., 6., 2.,
          0., 5., 0., 8., 0. ]
      - [ 4., 2., 12., 3., 1., 7., 2., 0., 5., 4., 2., 12., 4., 3., 9.,
          0., 1., 3., 2., 1., 1., 6., 13., 2., 3., 1., 2., 1., 2., 3.,
          2., 20., 0., 6., 5., 2., 0., 9., 0., 2., 15., 1., 6., 6., 3.,
          5., 1., 2., 4., 0. ]
      - [ 5., 9., 1., 6., 0., 0., 3., 2., 6., 2., 3., 6., 1., 5., 0., 4.,
          8., 1., 6., 1., 2., 0., 4., 6., 5., 12., 1., 3., 0., 3., 11.,
          28., 2., 0., 6., 0., 12., 1., 0., 5., 5., 2., 0., 1., 4., 2.,
          7., 0., 6., 3. ]
      - [ 9., 1., 4., 2., 0., 0., 2., 2., 1., 3., 5., 3., 7., 2., 11.,
          7., 1., 3., 5., 1., 6., 2., 3., 1., 4., 2., 0., 2., 4., 5., 5.,
          3., 11., 6., 3., 0., 22., 0., 2., 8., 2., 1., 8., 2., 5., 8.,
          3., 0., 2., 11. ]
      - [ 7., 0., 1., 2., 1., 7., 3., 0., 4., 3., 4., 4., 2., 8., 2., 2.,
          0., 3., 2., 3., 1., 5., 4., 0., 2., 5., 4., 4., 2., 12., 0.,
          9., 16., 5., 1., 1., 10., 7., 11., 6., 3., 2., 12., 7., 4., 0.,
          2., 4., 1., 2. ]
      - [ 7., 2., 2., 4., 1., 3., 0., 5., 0., 3., 6., 4., 1., 3., 15.,
          2., 2., 0., 6., 1., 5., 16., 1., 1., 1., 3., 0., 2., 3., 1.,
          2., 3., 27., 6., 3., 0., 8., 1., 2., 1., 1., 0., 26., 8., 3.,
          5., 2., 0., 2., 0. ]
      - [ 25., 2., 4., 1., 0., 3., 3., 2., 1., 0., 2., 3., 5., 4., 0.,
          7., 2., 2., 1., 2., 0., 13., 5., 0., 4., 0., 0., 6., 0., 23.,
          3., 2., 9., 2., 2., 3., 1., 3., 11., 13., 3., 1., 5., 0., 1.,
          4., 3., 6., 4., 4. ]
      - [ 10., 3., 1., 5., 3., 1., 2., 2., 3., 3., 4., 3., 4., 5., 3.,
          2., 2., 1., 5., 5., 8., 11., 4., 0., 1., 4., 3., 3., 4., 2.,
          3., 1., 9., 5., 7., 1., 2., 2., 1., 7., 6., 3., 13., 4., 3.,
          8., 3., 2., 2., 6. ]
      - [ 2., 10., 9., 2., 4., 10., 1., 2., 4., 4., 1., 10., 1., 3., 12.,
          2., 10., 1., 0., 3., 1., 3., 3., 1., 3., 3., 3., 0., 2., 3.,
          5., 12., 0., 2., 11., 1., 5., 12., 1., 0., 1., 1., 2., 7., 3.,
          2., 7., 0., 11., 4. ]
      - [ 6., 1., 8., 4., 5., 8., 0., 0., 4., 5., 10., 11., 5., 10., 12.,
          1., 1., 3., 5., 2., 2., 8., 2., 2., 3., 2., 3., 1., 0., 0., 2.,
          2., 13., 4., 4., 1., 0., 6., 3., 0., 0., 2., 16., 6., 2., 3.,
          3., 1., 8., 0. ]
      - [ 6., 0., 3., 1., 0., 2., 3., 7., 0., 1., 1., 6., 3., 5., 7., 6.,
          5., 1., 2., 2., 1., 2., 2., 0., 8., 2., 0., 7., 10., 22., 4.,
          1., 13., 2., 2., 0., 1., 1., 0., 5., 3., 1., 22., 1., 1., 4.,
          0., 0., 6., 3. ]
      - [ 5., 2., 4., 3., 1., 5., 3., 0., 3., 5., 10., 4., 5., 4., 3.,
          2., 4., 2., 3., 3., 1., 3., 2., 3., 3., 5., 3., 3., 14., 2.,
          3., 1., 13., 6., 8., 0., 9., 5., 1., 3., 2., 3., 18., 6., 5.,
          1., 3., 1., 2., 0. ]
      - [ 4., 0., 3., 5., 5., 6., 1., 0., 8., 2., 1., 6., 6., 10., 27.,
          1., 3., 3., 4., 1., 0., 8., 6., 1., 5., 1., 2., 3., 6., 4., 6.,
          1., 13., 1., 4., 1., 0., 5., 4., 2., 5., 1., 5., 1., 2., 6.,
          2., 3., 2., 0. ]
      - [ 1., 10., 0., 1., 1., 1., 13., 9., 10., 1., 0., 0., 1., 0., 0.,
          12., 10., 6., 2., 0., 8., 0., 1., 1., 13., 16., 0., 6., 0., 1.,
          13., 5., 0., 2., 0., 1., 18., 1., 1., 0., 3., 5., 0., 0., 2.,
          3., 5., 0., 1., 16. ]
      - [ 8., 3., 3., 5., 1., 1., 3., 6., 2., 4., 0., 1., 10., 8., 29.,
          7., 2., 2., 3., 0., 0., 1., 3., 2., 4., 1., 0., 5., 4., 15.,
          1., 3., 0., 11., 3., 3., 11., 0., 0., 2., 2., 2., 10., 2., 2.,
          3., 0., 1., 4., 7. ]
      - [ 3., 3., 0., 4., 0., 0., 4., 0., 0., 1., 0., 0., 1., 3., 1.,
          24., 0., 4., 1., 0., 3., 0., 5., 20., 3., 2., 2., 1., 0., 18.,
          1., 4., 0., 4., 0., 8., 18., 0., 11., 1., 5., 0., 4., 0., 7.,
          2., 1., 10., 2., 19. ]
      - [ 17., 1., 4., 3., 1., 6., 2., 1., 3., 5., 2., 5., 0., 20., 15.,
          2., 2., 1., 5., 2., 4., 12., 3., 0., 3., 3., 1., 1., 1., 4.,
          2., 0., 2., 10., 5., 1., 0., 5., 16., 2., 1., 0., 18., 1., 1.,
          0., 4., 0., 2., 1. ]
      - [ 3., 1., 2., 1., 1., 27., 1., 1., 22., 0., 0., 23., 1., 5., 1.,
          0., 4., 4., 0., 0., 0., 0., 3., 0., 0., 1., 1., 0., 0., 0., 3.,
          10., 0., 0., 17., 2., 0., 33., 5., 0., 7., 2., 0., 1., 1., 0.,
          0., 3., 15., 0. ]
      - [ 11., 17., 0., 9., 1., 0., 8., 5., 4., 1., 1., 0., 1., 2., 0.,
          17., 6., 8., 0., 0., 6., 0., 5., 17., 8., 8., 0., 1., 0., 0.,
          3., 14., 0., 6., 0., 1., 2., 0., 2., 1., 7., 2., 0., 0., 4.,
          0., 7., 1., 1., 13. ]
      - [ 2., 11., 0., 5., 1., 2., 5., 7., 1., 4., 0., 0., 3., 0., 0.,
          9., 8., 1., 1., 0., 5., 0., 7., 7., 12., 12., 0., 3., 1., 14.,
          7., 1., 2., 2., 2., 0., 10., 3., 2., 5., 3., 4., 3., 2., 5.,
          8., 9., 0., 3., 8. ]
      - [ 8., 5., 2., 3., 2., 1., 3., 6., 1., 6., 1., 4., 1., 1., 16.,
          7., 11., 1., 3., 4., 6., 2., 4., 5., 1., 5., 1., 0., 2., 7.,
          4., 11., 5., 6., 3., 0., 10., 6., 1., 2., 2., 1., 4., 6., 3.,
          4., 3., 3., 1., 6. ]
      - [ 5., 1., 9., 4., 1., 1., 3., 4., 6., 3., 6., 1., 5., 9., 4., 1.,
          4., 8., 7., 2., 2., 3., 5., 0., 2., 3., 4., 4., 9., 10., 0.,
          0., 6., 6., 2., 2., 3., 7., 7., 1., 3., 8., 12., 4., 4., 1.,
          3., 2., 2., 1. ]
      - [ 7., 9., 0., 5., 1., 2., 4., 0., 2., 4., 6., 7., 4., 2., 3., 5.,
          2., 5., 3., 3., 3., 2., 3., 8., 4., 3., 2., 3., 2., 1., 1.,
          31., 1., 6., 3., 0., 9., 9., 0., 1., 2., 1., 0., 7., 2., 2.,
          6., 0., 5., 9. ]
      - [ 1., 6., 7., 1., 0., 9., 2., 1., 2., 1., 17., 3., 2., 3., 11.,
          4., 2., 1., 3., 0., 2., 8., 8., 2., 1., 4., 0., 1., 0., 2., 4.,
          15., 3., 6., 3., 3., 11., 6., 4., 1., 9., 1., 21., 1., 2., 1.,
          3., 1., 0., 2. ]
      - [ 7., 1., 6., 3., 3., 2., 2., 2., 9., 2., 4., 4., 4., 4., 2., 2.,
          4., 3., 8., 4., 2., 7., 3., 2., 2., 4., 4., 3., 13., 2., 1.,
          2., 12., 2., 6., 2., 0., 4., 1., 2., 1., 2., 19., 5., 5., 3.,
          4., 2., 4., 5. ]
      - [ 17., 2., 1., 4., 0., 12., 0., 0., 2., 1., 0., 8., 2., 13., 0.,
          5., 2., 2., 0., 0., 3., 0., 3., 3., 0., 3., 0., 0., 0., 2., 4.,
          59., 0., 3., 2., 1., 3., 11., 18., 1., 4., 0., 0., 3., 3., 0.,
          1., 1., 0., 1. ]
      - [ 1., 9., 1., 7., 2., 8., 2., 2., 6., 2., 2., 8., 4., 4., 5., 4.,
          9., 6., 0., 4., 2., 2., 5., 3., 2., 3., 4., 0., 2., 3., 5., 4.,
          0., 7., 8., 0., 15., 8., 5., 0., 1., 1., 0., 6., 5., 2., 6.,
          0., 12., 3. ]
      - [ 12., 6., 7., 0., 1., 10., 3., 1., 1., 2., 1., 11., 4., 4., 14.,
          3., 5., 1., 5., 2., 2., 10., 2., 0., 1., 1., 2., 0., 1., 2.,
          3., 1., 11., 9., 12., 0., 2., 2., 7., 0., 3., 0., 12., 10., 4.,
          2., 1., 2., 4., 1. ]
      - [ 8., 0., 7., 5., 3., 12., 1., 4., 1., 0., 1., 5., 3., 8., 3.,
          3., 6., 3., 5., 3., 1., 7., 3., 4., 3., 0., 0., 4., 12., 2.,
          2., 1., 8., 4., 5., 5., 1., 3., 7., 10., 2., 2., 8., 6., 3.,
          2., 0., 4., 5., 5. ]
      - [ 0., 9., 6., 0., 2., 12., 0., 0., 3., 1., 0., 10., 5., 1., 3.,
          4., 1., 8., 2., 1., 5., 2., 10., 2., 0., 4., 1., 0., 1., 11.,
          2., 12., 2., 2., 5., 2., 7., 19., 0., 2., 15., 0., 2., 5., 1.,
          0., 11., 3., 3., 3. ]
      - [ 15., 5., 3., 2., 3., 3., 4., 2., 3., 3., 2., 1., 4., 7., 7.,
          6., 5., 5., 4., 2., 3., 5., 12., 4., 2., 4., 0., 1., 2., 8.,
          8., 9., 2., 3., 7., 1., 4., 4., 1., 7., 3., 3., 2., 10., 2.,
          0., 4., 2., 1., 1. ]
      - [ 8., 1., 1., 3., 4., 2., 1., 0., 8., 1., 15., 2., 5., 12., 12.,
          4., 4., 7., 5., 3., 2., 5., 0., 3., 1., 2., 1., 0., 6., 3., 4.,
          3., 12., 10., 2., 0., 7., 0., 2., 2., 0., 3., 19., 1., 4., 1.,
          3., 0., 1., 5. ]
      - [ 1., 1., 0., 3., 0., 4., 3., 0., 0., 4., 4., 2., 7., 2., 41.,
          4., 3., 1., 1., 2., 1., 8., 3., 3., 1., 0., 0., 6., 0., 19.,
          4., 0., 7., 6., 3., 3., 0., 2., 24., 2., 3., 1., 6., 0., 3.,
          3., 0., 5., 2., 2. ]
      - [ 1., 1., 2., 0., 2., 4., 2., 2., 3., 3., 3., 4., 6., 2., 2., 4.,
          2., 1., 6., 5., 0., 0., 9., 0., 3., 1., 1., 10., 7., 9., 3.,
          0., 27., 2., 1., 2., 2., 4., 2., 10., 4., 1., 20., 2., 0., 14.,
          0., 4., 3., 5. ]
      - [ 14., 13., 0., 9., 1., 3., 7., 2., 2., 9., 0., 1., 0., 5., 0.,
          13., 2., 3., 0., 1., 9., 0., 0., 7., 7., 5., 1., 2., 0., 0.,
          1., 47., 0., 1., 0., 2., 0., 0., 0., 1., 0., 3., 0., 0., 8.,
          3., 3., 2., 2., 11. ]
      - [ 4., 4., 3., 3., 2., 1., 8., 5., 0., 4., 11., 0., 2., 0., 6.,
          0., 8., 1., 6., 2., 5., 9., 1., 0., 6., 4., 2., 5., 6., 1., 4.,
          1., 21., 3., 4., 2., 4., 4., 2., 0., 0., 2., 25., 5., 6., 1.,
          3., 0., 3., 1. ]
      - [ 6., 2., 10., 4., 1., 22., 0., 0., 4., 4., 2., 15., 4., 6., 24.,
          0., 1., 8., 1., 0., 0., 5., 1., 1., 2., 2., 2., 0., 0., 0., 2.,
          3., 0., 2., 9., 1., 0., 13., 2., 0., 2., 0., 10., 19., 4., 1.,
          0., 1., 4., 0. ]
      - [ 13., 3., 10., 6., 1., 5., 3., 4., 2., 4., 3., 5., 1., 7., 10.,
          0., 4., 0., 8., 1., 1., 1., 1., 1., 2., 3., 1., 1., 6., 7., 2.,
          1., 4., 5., 9., 1., 6., 8., 7., 6., 5., 2., 13., 2., 3., 0.,
          1., 3., 6., 2. ]
      - [ 5., 0., 5., 4., 2., 4., 1., 2., 0., 1., 2., 4., 2., 3., 1., 2.,
          4., 0., 1., 1., 2., 1., 8., 2., 2., 0., 1., 0., 6., 9., 6.,
          10., 20., 1., 2., 2., 13., 3., 3., 6., 8., 1., 30., 2., 2., 2.,
          3., 2., 3., 7. ]
      - [ 2., 0., 12., 2., 4., 4., 6., 1., 2., 2., 4., 3., 3., 3., 16.,
          1., 3., 2., 0., 2., 2., 6., 1., 3., 3., 3., 4., 0., 3., 0., 4.,
          8., 22., 5., 7., 1., 1., 2., 4., 2., 3., 0., 22., 5., 6., 3.,
          1., 2., 4., 1. ]
      - [ 3., 2., 6., 1., 2., 1., 2., 0., 3., 1., 4., 3., 2., 6., 8., 4.,
          2., 3., 4., 2., 1., 6., 3., 1., 6., 4., 5., 4., 10., 8., 1.,
          1., 12., 3., 0., 0., 11., 0., 1., 12., 4., 5., 22., 3., 4., 3.,
          5., 0., 2., 5. ]
      - [ 4., 4., 2., 4., 4., 3., 3., 6., 4., 6., 4., 10., 6., 3., 3.,
          3., 4., 3., 7., 3., 3., 1., 4., 5., 2., 4., 1., 5., 0., 3., 1.,
          1., 5., 2., 7., 3., 2., 9., 4., 1., 1., 2., 17., 10., 4., 6.,
          4., 0., 5., 2. ]
      - [ 4., 2., 5., 6., 5., 11., 4., 2., 3., 6., 0., 5., 4., 9., 9.,
          2., 1., 4., 3., 2., 3., 1., 5., 0., 1., 6., 3., 4., 1., 4., 2.,
          3., 8., 1., 9., 4., 0., 7., 0., 5., 6., 1., 8., 5., 4., 1., 8.,
          1., 8., 4. ]
      - [ 1., 7., 11., 0., 1., 1., 5., 2., 0., 6., 0., 3., 5., 4., 1.,
          6., 5., 6., 5., 1., 3., 4., 8., 3., 4., 5., 0., 2., 7., 4., 2.,
          1., 6., 6., 0., 3., 15., 4., 4., 0., 5., 2., 16., 2., 3., 5.,
          7., 5., 2., 3. ]
      - [ 5., 8., 5., 3., 3., 4., 9., 3., 1., 6., 2., 2., 3., 1., 0., 7.,
          6., 0., 1., 1., 10., 0., 1., 13., 5., 6., 1., 0., 3., 2., 6.,
          8., 1., 3., 8., 0., 18., 9., 0., 3., 1., 5., 0., 3., 7., 2.,
          5., 0., 6., 5. ]
      - [ 6., 5., 0., 0., 1., 7., 5., 2., 1., 4., 6., 6., 5., 3., 0., 5.,
          7., 5., 5., 2., 2., 1., 11., 4., 6., 1., 3., 3., 5., 16., 2.,
          3., 1., 5., 3., 0., 1., 5., 1., 9., 7., 3., 1., 3., 5., 9., 3.,
          0., 6., 6. ]
      - [ 6., 2., 6., 3., 4., 1., 7., 2., 4., 1., 3., 2., 3., 9., 3., 6.,
          2., 8., 7., 3., 5., 0., 3., 1., 2., 4., 3., 2., 9., 5., 6., 1.,
          8., 5., 2., 3., 9., 1., 5., 5., 3., 4., 12., 2., 3., 5., 4.,
          1., 4., 2. ]
      - [ 10., 7., 3., 4., 0., 5., 2., 2., 1., 1., 1., 4., 6., 2., 2.,
          3., 6., 0., 1., 3., 4., 1., 13., 3., 3., 1., 4., 1., 3., 3.,
          6., 7., 5., 10., 5., 1., 5., 6., 1., 4., 10., 2., 18., 2., 4.,
          2., 1., 2., 3., 7. ]
      - [ 6., 3., 3., 5., 3., 6., 2., 5., 2., 1., 3., 6., 3., 5., 11.,
          2., 7., 0., 4., 4., 3., 5., 5., 1., 0., 2., 2., 3., 4., 9., 3.,
          2., 5., 1., 4., 6., 2., 5., 5., 7., 4., 2., 10., 0., 6., 3.,
          2., 8., 8., 2. ]
      - [ 6., 0., 3., 2., 4., 2., 2., 2., 4., 1., 7., 4., 2., 6., 0., 4.,
          2., 3., 11., 3., 3., 8., 1., 0., 1., 2., 1., 1., 6., 0., 3.,
          3., 20., 3., 1., 0., 6., 1., 4., 4., 0., 4., 46., 2., 2., 1.,
          1., 0., 1., 7. ]
      - [ 2., 2., 3., 6., 0., 8., 1., 2., 1., 5., 0., 3., 1., 2., 36.,
          1., 2., 4., 1., 0., 0., 9., 0., 8., 0., 4., 2., 2., 1., 0., 1.,
          0., 1., 4., 11., 22., 0., 5., 1., 1., 0., 3., 0., 13., 5., 3.,
          1., 18., 0., 5. ]
      - [ 1., 0., 5., 4., 1., 4., 4., 5., 2., 1., 4., 6., 8., 1., 2., 6.,
          1., 2., 0., 0., 0., 7., 5., 1., 6., 3., 2., 8., 3., 2., 2., 0.,
          4., 5., 4., 3., 0., 0., 6., 4., 2., 8., 36., 2., 6., 14., 2.,
          3., 2., 3. ]
      - [ 4., 3., 3., 2., 3., 5., 1., 1., 2., 4., 7., 8., 3., 0., 9., 3.,
          3., 1., 1., 3., 4., 11., 2., 6., 1., 5., 2., 0., 5., 1., 4.,
          10., 12., 1., 2., 0., 19., 16., 0., 2., 2., 1., 6., 6., 3., 2.,
          1., 0., 7., 3. ]
      - [ 10., 3., 5., 3., 6., 5., 3., 4., 3., 3., 15., 7., 10., 11., 9.,
          4., 2., 4., 7., 4., 1., 4., 3., 0., 3., 0., 3., 2., 4., 8., 1.,
          2., 1., 4., 4., 2., 0., 3., 4., 2., 2., 4., 5., 4., 0., 1., 3.,
          2., 4., 6. ]
      - [ 13., 4., 4., 3., 1., 7., 3., 4., 2., 5., 7., 5., 1., 3., 5.,
          2., 4., 0., 1., 5., 3., 2., 8., 3., 2., 6., 0., 0., 2., 4., 4.,
          13., 7., 3., 4., 0., 4., 5., 1., 1., 10., 2., 10., 6., 3., 5.,
          2., 0., 6., 5. ]
      - [ 16., 2., 7., 8., 2., 6., 2., 3., 0., 3., 0., 4., 1., 11., 13.,
          3., 3., 1., 4., 2., 4., 7., 3., 2., 2., 1., 2., 5., 5., 6., 1.,
          2., 10., 5., 6., 1., 0., 3., 2., 4., 3., 3., 7., 3., 5., 6.,
          2., 2., 2., 5. ]
      - [ 8., 2., 10., 4., 2., 5., 1., 5., 2., 1., 1., 3., 8., 5., 1.,
          2., 3., 2., 5., 5., 6., 4., 7., 2., 3., 1., 3., 6., 2., 3., 2.,
          1., 2., 3., 9., 1., 3., 6., 1., 5., 1., 3., 4., 6., 2., 3., 1.,
          1., 5., 3. ]
      - [ 15., 7., 0., 5., 2., 7., 5., 2., 1., 2., 1., 2., 2., 4., 4.,
          8., 5., 5., 2., 2., 2., 2., 11., 6., 5., 2., 1., 2., 7., 9.,
          4., 7., 1., 1., 1., 1., 6., 2., 4., 4., 6., 0., 7., 0., 4., 4.,
          10., 0., 2., 8. ]
      - [ 4., 6., 1., 11., 1., 1., 1., 2., 3., 2., 3., 1., 9., 1., 0.,
          6., 4., 1., 5., 0., 2., 0., 10., 3., 5., 6., 0., 4., 1., 2.,
          10., 20., 21., 2., 3., 0., 5., 2., 0., 1., 5., 1., 7., 5., 11.,
          1., 1., 4., 2., 4. ]
      - [ 4., 0., 3., 0., 3., 1., 3., 7., 1., 3., 9., 4., 4., 12., 1.,
          1., 5., 3., 11., 7., 2., 6., 5., 1., 2., 5., 2., 3., 7., 3.,
          2., 0., 16., 6., 3., 0., 3., 1., 1., 4., 2., 1., 22., 3., 3.,
          3., 5., 1., 2., 4. ]
      - [ 1., 4., 7., 1., 2., 10., 0., 2., 6., 4., 2., 10., 11., 4., 0.,
          2., 4., 4., 3., 5., 0., 2., 17., 0., 1., 6., 4., 9., 2., 7.,
          1., 4., 7., 5., 2., 4., 1., 2., 2., 4., 8., 3., 3., 5., 0., 5.,
          4., 5., 4., 1. ]
      - [ 5., 4., 1., 4., 1., 0., 5., 3., 4., 3., 5., 1., 7., 3., 1., 3.,
          4., 2., 10., 5., 5., 2., 3., 1., 4., 2., 1., 3., 20., 2., 3.,
          1., 17., 4., 2., 0., 2., 1., 1., 8., 1., 2., 17., 4., 3., 4.,
          3., 2., 2., 3. ]
      - [ 8., 1., 2., 2., 6., 1., 0., 0., 1., 4., 6., 4., 1., 9., 27.,
          2., 4., 1., 3., 4., 2., 11., 8., 1., 0., 0., 7., 4., 2., 1.,
          2., 2., 9., 7., 3., 2., 1., 15., 2., 4., 7., 0., 11., 1., 1.,
          2., 2., 1., 6., 0. ]
      - [ 11., 3., 24., 0., 10., 2., 0., 0., 6., 0., 0., 6., 2., 3., 11.,
          6., 2., 6., 5., 0., 1., 0., 4., 1., 0., 9., 8., 0., 0., 14.,
          2., 4., 0., 6., 5., 0., 0., 6., 16., 1., 4., 0., 5., 1., 1.,
          2., 2., 0., 4., 7. ]
      - [ 7., 11., 3., 2., 0., 8., 5., 1., 1., 4., 2., 13., 1., 2., 3.,
          16., 1., 0., 2., 1., 1., 4., 0., 5., 0., 4., 0., 1., 2., 1.,
          1., 6., 14., 2., 0., 2., 15., 6., 12., 3., 0., 2., 7., 1., 3.,
          0., 2., 4., 0., 19. ]
      - [ 2., 6., 2., 5., 3., 4., 8., 1., 1., 4., 2., 3., 3., 5., 0., 5.,
          4., 2., 5., 2., 4., 5., 3., 0., 4., 3., 0., 6., 13., 0., 1.,
          3., 15., 3., 4., 5., 2., 6., 0., 2., 4., 0., 18., 4., 2., 2.,
          2., 4., 0., 3. ]
      - [ 5., 9., 2., 6., 2., 1., 1., 5., 0., 5., 1., 3., 6., 2., 3., 2.,
          2., 5., 6., 2., 2., 3., 5., 3., 2., 5., 4., 5., 3., 11., 4.,
          2., 4., 3., 6., 4., 3., 1., 1., 3., 11., 6., 13., 5., 7., 2.,
          4., 2., 4., 4. ]
      - [ 5., 3., 1., 3., 2., 1., 7., 1., 1., 2., 1., 0., 2., 3., 5.,
          15., 5., 3., 1., 0., 7., 0., 4., 5., 1., 7., 5., 5., 2., 9.,
          7., 14., 0., 3., 4., 1., 19., 3., 3., 3., 2., 1., 4., 2., 4.,
          1., 5., 0., 3., 15. ]
      - [ 1., 0., 4., 2., 5., 0., 3., 0., 6., 1., 5., 3., 4., 4., 2., 3.,
          2., 2., 11., 6., 2., 3., 6., 0., 2., 0., 2., 3., 4., 1., 4.,
          0., 11., 1., 0., 0., 2., 4., 0., 3., 2., 0., 20., 1., 4., 4.,
          3., 0., 1., 1. ]
      - [ 10., 0., 2., 8., 1., 8., 1., 0., 1., 1., 5., 9., 8., 11., 34.,
          0., 2., 1., 4., 1., 1., 16., 4., 0., 0., 0., 0., 1., 3., 1.,
          0., 1., 8., 12., 0., 0., 0., 2., 6., 0., 6., 0., 12., 2., 9.,
          0., 0., 3., 6., 0. ]
      - [ 4., 6., 7., 3., 0., 12., 1., 0., 6., 2., 2., 16., 8., 2., 2.,
          10., 4., 6., 3., 0., 2., 2., 2., 0., 0., 7., 0., 0., 1., 11.,
          7., 18., 0., 1., 6., 0., 8., 14., 2., 2., 4., 0., 1., 3., 2.,
          1., 6., 0., 3., 3. ]
      - [ 0., 0., 2., 0., 1., 0., 4., 0., 0., 0., 0., 3., 3., 0., 16.,
          0., 0., 0., 0., 1., 0., 1., 29., 0., 2., 0., 0., 29., 0., 0.,
          0., 0., 0., 0., 1., 0., 4., 0., 0., 0., 28., 2., 2., 0., 0.,
          10., 0., 17., 2., 0. ]
      - [ 3., 6., 3., 0., 3., 5., 4., 4., 1., 6., 3., 9., 3., 3., 10.,
          2., 2., 5., 2., 6., 2., 2., 7., 3., 1., 5., 3., 3., 2., 3., 4.,
          10., 7., 5., 6., 1., 4., 8., 2., 4., 5., 2., 4., 11., 2., 2.,
          5., 2., 2., 3. ]
      - [ 2., 0., 3., 1., 0., 2., 0., 2., 5., 0., 1., 7., 0., 5., 6., 0.,
          0., 7., 4., 2., 1., 13., 7., 1., 0., 0., 1., 0., 0., 0., 1.,
          2., 15., 6., 2., 3., 0., 2., 5., 0., 14., 0., 11., 0., 2., 0.,
          1., 1., 5., 0. ]
      - [ 5., 3., 4., 5., 1., 1., 6., 3., 1., 2., 3., 1., 9., 2., 3., 8.,
          7., 1., 6., 0., 4., 4., 5., 3., 6., 1., 1., 1., 9., 2., 7., 7.,
          13., 1., 3., 0., 12., 3., 0., 3., 8., 3., 7., 4., 1., 1., 3.,
          7., 4., 6. ]
      - [ 4., 3., 10., 4., 1., 1., 7., 1., 1., 2., 7., 4., 4., 0., 5.,
          3., 2., 5., 4., 1., 2., 10., 2., 6., 5., 1., 1., 4., 7., 2.,
          5., 3., 21., 8., 5., 3., 3., 0., 2., 0., 1., 2., 11., 6., 5.,
          3., 4., 6., 2., 1. ]
      - [ 6., 1., 0., 2., 0., 5., 2., 2., 0., 0., 3., 4., 4., 3., 0.,
          10., 5., 5., 0., 0., 0., 12., 5., 9., 1., 0., 0., 15., 1., 0.,
          4., 0., 11., 0., 1., 1., 0., 9., 12., 5., 6., 1., 7., 4., 3.,
          7., 5., 10., 6., 14. ]
      - [ 1., 2., 2., 6., 2., 3., 4., 1., 0., 2., 8., 1., 5., 7., 4., 1.,
          1., 2., 8., 9., 1., 3., 15., 0., 1., 1., 1., 3., 4., 3., 0.,
          2., 22., 1., 4., 0., 0., 1., 0., 2., 10., 5., 35., 0., 4., 4.,
          2., 2., 4., 1. ]
      - [ 8., 1., 2., 1., 1., 5., 1., 1., 3., 1., 8., 3., 5., 3., 25.,
          2., 0., 0., 3., 1., 2., 8., 6., 0., 2., 2., 2., 7., 7., 2., 1.,
          4., 22., 5., 3., 0., 7., 1., 2., 0., 3., 0., 25., 0., 0., 9.,
          2., 1., 1., 2. ]
      - [ 4., 0., 12., 3., 1., 4., 1., 5., 0., 5., 7., 3., 2., 2., 8.,
          3., 4., 1., 5., 7., 2., 5., 2., 3., 5., 2., 2., 4., 11., 3.,
          5., 0., 3., 7., 7., 0., 4., 1., 2., 11., 3., 3., 20., 3., 3.,
          3., 2., 0., 4., 3. ]
      - [ 0., 5., 6., 5., 3., 4., 6., 5., 2., 3., 4., 3., 3., 1., 0., 1.,
          8., 2., 3., 8., 4., 0., 5., 5., 5., 3., 3., 2., 3., 7., 6., 3.,
          11., 1., 9., 4., 1., 7., 0., 2., 8., 3., 8., 6., 3., 4., 5.,
          1., 6., 4. ]
      - [ 0., 0., 6., 5., 2., 3., 5., 3., 3., 7., 3., 4., 10., 3., 0.,
          1., 3., 1., 3., 2., 5., 5., 6., 5., 2., 4., 0., 3., 8., 6., 5.,
          3., 13., 9., 5., 5., 2., 3., 1., 8., 6., 3., 9., 3., 5., 5.,
          0., 2., 2., 3. ]
      - [ 10., 1., 5., 2., 3., 7., 2., 3., 4., 0., 0., 12., 3., 19., 19.,
          1., 1., 1., 3., 0., 7., 1., 4., 0., 3., 2., 1., 2., 3., 17.,
          2., 9., 4., 6., 3., 1., 0., 3., 3., 3., 4., 0., 8., 10., 1.,
          2., 1., 3., 2., 0. ]
      - [ 0., 18., 2., 1., 2., 1., 4., 3., 14., 5., 13., 1., 1., 3., 0.,
          4., 2., 12., 6., 0., 1., 0., 4., 8., 3., 36., 2., 1., 0., 1.,
          2., 2., 2., 0., 2., 1., 20., 1., 1., 0., 4., 2., 2., 0., 0.,
          0., 6., 0., 3., 4. ]
      - [ 3., 5., 4., 4., 0., 1., 2., 10., 4., 2., 2., 2., 1., 0., 2.,
          0., 1., 0., 0., 4., 2., 31., 2., 2., 2., 5., 0., 9., 0., 1.,
          1., 2., 19., 3., 6., 8., 0., 5., 3., 2., 4., 2., 7., 10., 2.,
          8., 2., 11., 3., 1. ]
      - [ 4., 2., 6., 1., 1., 4., 0., 3., 1., 2., 5., 5., 4., 3., 1., 2.,
          0., 0., 3., 4., 1., 3., 5., 3., 7., 2., 4., 9., 16., 2., 0.,
          0., 19., 3., 4., 3., 2., 0., 0., 1., 0., 3., 42., 0., 2., 10.,
          0., 4., 4., 0. ]
      - [ 1., 16., 2., 6., 1., 2., 10., 3., 2., 5., 1., 5., 1., 0., 1.,
          6., 7., 4., 2., 1., 7., 1., 1., 10., 5., 10., 3., 2., 3., 1.,
          8., 17., 0., 3., 2., 0., 18., 4., 0., 2., 0., 1., 0., 12., 4.,
          0., 4., 0., 3., 3. ]
      - [ 10., 10., 4., 6., 3., 9., 5., 3., 1., 1., 0., 8., 3., 4., 18.,
          9., 8., 0., 7., 1., 4., 2., 0., 5., 4., 3., 1., 1., 4., 7.,
          11., 6., 2., 5., 1., 0., 1., 2., 6., 3., 1., 1., 0., 7., 3.,
          1., 4., 0., 2., 3. ]
      - [ 1., 0., 7., 5., 5., 2., 5., 1., 0., 4., 3., 5., 3., 1., 8., 0.,
          1., 1., 5., 4., 1., 4., 2., 3., 1., 2., 4., 5., 9., 1., 1., 2.,
          9., 3., 3., 21., 4., 2., 2., 1., 2., 3., 14., 3., 6., 2., 2.,
          19., 4., 4. ]
      - [ 3., 4., 4., 5., 8., 7., 3., 2., 12., 2., 11., 5., 1., 3., 13.,
          0., 3., 5., 3., 3., 0., 11., 0., 0., 0., 1., 3., 3., 1., 0.,
          2., 1., 11., 8., 4., 3., 0., 11., 7., 0., 0., 2., 18., 6., 0.,
          1., 8., 0., 3., 0. ]
      - [ 2., 0., 9., 5., 2., 4., 2., 5., 3., 1., 8., 4., 6., 10., 10.,
          2., 1., 2., 12., 4., 3., 13., 2., 0., 3., 1., 0., 3., 10., 4.,
          1., 2., 6., 5., 1., 1., 0., 2., 1., 5., 3., 4., 19., 3., 3.,
          3., 2., 3., 4., 1. ]
      - [ 6., 2., 3., 3., 1., 1., 2., 6., 1., 0., 5., 2., 4., 5., 7., 3.,
          5., 2., 8., 4., 2., 5., 8., 1., 1., 2., 2., 2., 10., 16., 0.,
          2., 24., 4., 3., 2., 0., 3., 0., 6., 6., 2., 13., 3., 3., 2.,
          1., 3., 1., 3. ]
      - [ 6., 1., 6., 5., 0., 4., 6., 1., 0., 2., 3., 3., 2., 3., 12.,
          13., 1., 0., 3., 4., 0., 5., 4., 10., 2., 1., 0., 1., 0., 8.,
          0., 5., 3., 4., 5., 16., 6., 3., 3., 1., 2., 0., 3., 9., 3.,
          0., 1., 19., 0., 11. ]
      - [ 1., 12., 1., 8., 0., 0., 2., 2., 2., 1., 2., 0., 4., 0., 22.,
          3., 4., 5., 2., 4., 4., 3., 17., 3., 1., 10., 3., 1., 0., 1.,
          2., 9., 11., 2., 0., 0., 6., 9., 0., 1., 6., 3., 15., 1., 6.,
          1., 4., 0., 1., 6. ]
      - [ 0., 7., 4., 4., 3., 0., 0., 6., 2., 0., 0., 2., 0., 1., 12.,
          0., 0., 0., 0., 4., 0., 7., 4., 1., 0., 4., 4., 35., 2., 0.,
          0., 10., 5., 1., 1., 10., 0., 5., 0., 0., 4., 4., 5., 3., 7.,
          21., 2., 20., 0., 0. ]
      - [ 2., 3., 5., 4., 1., 1., 11., 1., 0., 5., 5., 1., 8., 0., 1.,
          12., 6., 0., 0., 0., 4., 1., 15., 2., 11., 5., 1., 7., 3., 5.,
          6., 1., 5., 2., 0., 2., 16., 0., 0., 3., 5., 3., 6., 0., 5.,
          10., 4., 1., 2., 9. ]
      - [ 1., 4., 7., 4., 1., 6., 3., 5., 0., 1., 2., 7., 5., 4., 34.,
          0., 4., 3., 1., 1., 1., 4., 2., 1., 3., 0., 0., 2., 0., 5., 2.,
          4., 1., 5., 5., 0., 20., 2., 0., 0., 3., 8., 16., 5., 3., 4.,
          4., 2., 3., 2. ]
      - [ 0., 3., 10., 0., 12., 3., 3., 4., 4., 3., 2., 10., 2., 0., 6.,
          0., 3., 7., 0., 0., 0., 5., 8., 0., 3., 1., 6., 1., 0., 0., 1.,
          14., 14., 0., 9., 2., 3., 8., 0., 0., 4., 5., 6., 13., 1., 4.,
          4., 2., 13., 1. ]
      - [ 2., 1., 5., 2., 1., 7., 1., 1., 27., 1., 4., 10., 2., 0., 0.,
          0., 1., 11., 0., 2., 1., 18., 7., 0., 1., 0., 2., 0., 3., 0.,
          2., 4., 22., 0., 8., 1., 0., 11., 2., 0., 8., 0., 20., 8., 1.,
          0., 0., 2., 2., 0. ]
      - [ 6., 2., 4., 1., 2., 2., 0., 2., 3., 1., 8., 4., 7., 6., 0., 4.,
          1., 3., 3., 8., 2., 1., 6., 1., 3., 3., 1., 4., 3., 3., 1., 1.,
          15., 4., 4., 0., 3., 9., 5., 2., 6., 1., 30., 3., 3., 3., 4.,
          1., 4., 7. ]
      - [ 3., 8., 4., 4., 10., 19., 0., 1., 14., 5., 0., 10., 0., 3., 9.,
          0., 0., 6., 3., 0., 5., 3., 0., 3., 0., 5., 6., 0., 0., 0., 2.,
          17., 0., 3., 6., 0., 0., 19., 8., 0., 1., 0., 0., 12., 4., 0.,
          3., 1., 2., 1. ]
      - [ 6., 0., 12., 3., 3., 1., 1., 3., 1., 7., 7., 5., 3., 7., 12.,
          0., 2., 1., 9., 3., 2., 17., 5., 0., 1., 2., 2., 0., 7., 0.,
          3., 1., 19., 5., 5., 0., 0., 6., 0., 2., 0., 2., 19., 4., 2.,
          3., 2., 2., 1., 2. ]
      - [ 3., 9., 0., 3., 4., 12., 2., 8., 16., 2., 0., 9., 3., 4., 3.,
          2., 5., 10., 1., 1., 2., 1., 6., 0., 1., 4., 4., 1., 0., 1.,
          3., 11., 2., 1., 7., 2., 4., 16., 1., 1., 6., 6., 0., 1., 6.,
          3., 6., 2., 5., 0. ]
      - [ 10., 5., 6., 2., 2., 7., 5., 3., 4., 2., 2., 6., 3., 5., 7.,
          2., 4., 2., 3., 2., 2., 3., 6., 5., 2., 3., 3., 7., 4., 4., 4.,
          2., 13., 7., 4., 0., 3., 2., 4., 1., 3., 1., 9., 9., 1., 3.,
          1., 4., 6., 2. ]
      - [ 10., 3., 3., 2., 2., 3., 2., 3., 2., 6., 9., 4., 3., 5., 5.,
          3., 1., 1., 4., 5., 5., 8., 1., 1., 1., 4., 1., 2., 9., 3., 2.,
          1., 13., 9., 2., 1., 0., 5., 0., 5., 1., 4., 26., 1., 6., 5.,
          1., 3., 3., 1. ]
      - [ 8., 10., 3., 9., 7., 9., 1., 2., 2., 3., 2., 1., 1., 8., 10.,
          3., 2., 0., 1., 0., 3., 5., 5., 5., 0., 5., 4., 0., 2., 10.,
          4., 1., 1., 11., 4., 3., 8., 4., 9., 2., 3., 0., 0., 9., 5.,
          2., 3., 2., 4., 4. ]
      - [ 2., 2., 6., 7., 0., 1., 3., 4., 3., 4., 1., 0., 2., 5., 5., 4.,
          3., 4., 3., 1., 4., 24., 0., 3., 7., 2., 2., 4., 5., 2., 4.,
          3., 3., 9., 6., 16., 0., 1., 3., 1., 0., 1., 1., 3., 5., 4.,
          1., 24., 0., 2. ]
      - [ 6., 6., 7., 2., 2., 5., 2., 4., 8., 2., 2., 12., 3., 3., 2.,
          1., 1., 4., 2., 3., 4., 2., 2., 4., 1., 8., 6., 1., 4., 9., 4.,
          14., 3., 2., 12., 0., 0., 6., 2., 2., 3., 3., 13., 3., 3., 2.,
          4., 1., 4., 1. ]
      - [ 9., 5., 10., 5., 5., 4., 5., 5., 3., 2., 0., 4., 4., 5., 19.,
          2., 1., 0., 2., 0., 0., 7., 0., 3., 0., 5., 0., 3., 2., 3., 1.,
          2., 1., 13., 7., 4., 0., 0., 23., 0., 0., 4., 2., 9., 7., 2.,
          1., 3., 4., 4. ]
      - [ 4., 2., 6., 1., 2., 1., 8., 2., 5., 3., 4., 1., 4., 6., 1., 3.,
          3., 4., 3., 2., 4., 3., 3., 3., 7., 5., 2., 6., 18., 9., 5.,
          2., 1., 6., 2., 0., 11., 0., 3., 5., 2., 2., 14., 3., 3., 4.,
          7., 1., 2., 2. ]
      - [ 4., 2., 8., 4., 2., 3., 3., 2., 0., 3., 3., 4., 5., 4., 8., 7.,
          3., 4., 7., 0., 5., 3., 4., 5., 6., 0., 0., 1., 12., 18., 2.,
          1., 4., 1., 7., 2., 0., 1., 0., 5., 3., 5., 12., 4., 4., 3.,
          2., 1., 4., 9. ]
      - [ 10., 4., 13., 4., 2., 2., 3., 3., 4., 1., 2., 8., 3., 4., 4.,
          5., 0., 0., 5., 4., 3., 3., 1., 1., 1., 4., 0., 3., 4., 7., 2.,
          2., 5., 7., 7., 7., 6., 5., 4., 4., 5., 2., 7., 2., 4., 3., 3.,
          9., 4., 4. ]
      - [ 3., 1., 6., 1., 2., 2., 6., 3., 0., 5., 10., 4., 5., 4., 10.,
          3., 2., 1., 12., 1., 2., 1., 3., 2., 3., 1., 4., 3., 14., 4.,
          5., 3., 13., 5., 2., 2., 7., 7., 1., 4., 4., 0., 7., 3., 5.,
          1., 2., 4., 4., 4. ]
      - [ 8., 3., 11., 0., 1., 6., 7., 10., 0., 3., 2., 8., 1., 2., 18.,
          1., 5., 0., 7., 4., 4., 2., 0., 3., 4., 6., 1., 2., 5., 4., 4.,
          5., 3., 11., 7., 6., 2., 2., 3., 2., 2., 5., 2., 6., 1., 3.,
          0., 2., 1., 5. ]
      - [ 18., 2., 3., 7., 1., 3., 4., 4., 0., 0., 0., 4., 4., 16., 15.,
          6., 2., 0., 3., 1., 0., 2., 2., 0., 7., 4., 0., 2., 1., 0., 4.,
          2., 0., 5., 4., 3., 1., 6., 27., 0., 1., 4., 0., 9., 7., 1.,
          2., 6., 2., 6. ]
      - [ 9., 1., 9., 3., 3., 0., 4., 4., 5., 0., 1., 0., 8., 1., 2., 7.,
          1., 7., 6., 0., 1., 0., 5., 0., 2., 4., 1., 5., 8., 16., 2.,
          0., 4., 5., 10., 1., 9., 2., 1., 4., 6., 2., 18., 5., 2., 3.,
          5., 1., 3., 4. ]
      - [ 2., 1., 14., 0., 1., 17., 0., 3., 21., 2., 0., 18., 2., 1., 2.,
          1., 2., 7., 0., 1., 0., 3., 11., 1., 1., 1., 0., 0., 1., 2.,
          1., 3., 1., 3., 5., 5., 0., 17., 10., 0., 10., 2., 1., 3., 4.,
          1., 7., 3., 6., 3. ]
      - [ 7., 1., 6., 4., 2., 10., 0., 1., 8., 0., 0., 12., 2., 7., 25.,
          2., 3., 2., 1., 0., 1., 1., 7., 0., 0., 0., 2., 1., 4., 7., 1.,
          8., 0., 3., 8., 0., 2., 21., 7., 0., 7., 0., 1., 9., 3., 1.,
          1., 0., 10., 2. ]
      - [ 2., 3., 0., 4., 1., 5., 3., 7., 2., 6., 13., 6., 1., 3., 7.,
          0., 3., 2., 8., 5., 3., 2., 0., 1., 4., 7., 0., 2., 0., 2., 0.,
          58., 0., 8., 2., 0., 0., 2., 3., 0., 0., 6., 0., 7., 5., 2.,
          0., 0., 2., 3. ]
      - [ 5., 1., 5., 4., 4., 4., 4., 8., 0., 4., 2., 4., 1., 3., 5., 3.,
          5., 3., 3., 2., 2., 5., 9., 1., 5., 2., 2., 3., 11., 17., 5.,
          3., 11., 4., 3., 0., 8., 4., 5., 0., 5., 5., 9., 1., 3., 2.,
          5., 1., 0., 0. ]
      - [ 6., 2., 6., 5., 1., 2., 5., 4., 2., 4., 2., 2., 5., 6., 0., 5.,
          5., 8., 6., 5., 4., 2., 10., 3., 7., 4., 2., 2., 1., 8., 6.,
          8., 1., 2., 1., 1., 3., 6., 0., 1., 15., 1., 5., 3., 4., 2.,
          4., 3., 5., 5. ]
      - [ 4., 4., 13., 1., 2., 5., 1., 1., 9., 0., 8., 5., 7., 2., 7.,
          1., 4., 1., 7., 5., 2., 8., 0., 1., 0., 3., 3., 1., 5., 1., 3.,
          1., 16., 6., 6., 1., 6., 6., 4., 0., 1., 1., 29., 4., 0., 1.,
          3., 1., 0., 0. ]
      - [ 4., 1., 7., 2., 1., 1., 2., 1., 0., 3., 3., 3., 6., 7., 8., 2.,
          3., 1., 5., 3., 4., 20., 7., 5., 0., 2., 4., 2., 4., 1., 2.,
          1., 9., 1., 2., 1., 7., 5., 0., 2., 1., 2., 34., 3., 2., 8.,
          2., 0., 5., 1. ]
      - [ 4., 2., 12., 3., 1., 2., 0., 0., 3., 2., 12., 4., 5., 7., 17.,
          2., 3., 2., 9., 3., 2., 19., 0., 0., 0., 1., 2., 1., 1., 1.,
          1., 0., 21., 4., 9., 0., 1., 3., 1., 1., 0., 0., 24., 2., 4.,
          3., 1., 2., 2., 1. ]
      - [ 2., 8., 2., 7., 1., 0., 6., 9., 6., 3., 0., 1., 3., 0., 0.,
          10., 7., 10., 5., 1., 0., 2., 5., 4., 8., 13., 1., 7., 0., 4.,
          4., 8., 0., 6., 1., 3., 8., 1., 1., 1., 0., 6., 1., 2., 5., 5.,
          5., 8., 0., 10. ]
      - [ 5., 3., 2., 1., 4., 4., 0., 3., 2., 0., 5., 3., 6., 7., 1., 1.,
          7., 3., 2., 2., 1., 3., 7., 1., 2., 1., 2., 3., 13., 2., 8.,
          42., 9., 2., 4., 2., 3., 4., 1., 4., 6., 1., 11., 0., 0., 3.,
          3., 0., 2., 1. ]
      - [ 5., 4., 5., 5., 2., 4., 4., 0., 6., 6., 3., 3., 5., 3., 4., 1.,
          6., 5., 6., 3., 6., 8., 2., 0., 5., 1., 4., 3., 1., 1., 3., 3.,
          6., 0., 6., 4., 7., 5., 0., 2., 1., 5., 10., 12., 4., 6., 7.,
          4., 3., 1. ]
      - [ 8., 3., 5., 3., 5., 15., 6., 1., 15., 2., 0., 15., 6., 3., 7.,
          2., 0., 12., 2., 1., 0., 2., 1., 0., 2., 4., 2., 1., 1., 1.,
          2., 6., 1., 5., 3., 3., 0., 12., 12., 0., 3., 1., 0., 8., 4.,
          3., 3., 3., 3., 3. ]
      - [ 15., 1., 2., 4., 3., 1., 5., 6., 0., 3., 1., 0., 8., 11., 5.,
          1., 3., 2., 5., 1., 3., 3., 7., 3., 0., 2., 0., 1., 3., 14.,
          4., 4., 1., 5., 1., 0., 3., 4., 13., 17., 1., 1., 17., 3., 5.,
          1., 1., 1., 0., 5. ]
      - [ 3., 3., 26., 3., 1., 3., 4., 5., 4., 7., 5., 4., 1., 4., 15.,
          1., 3., 0., 1., 2., 0., 7., 0., 0., 2., 3., 1., 0., 7., 3., 3.,
          0., 18., 1., 3., 0., 3., 4., 4., 1., 1., 2., 26., 5., 4., 3.,
          1., 0., 3., 0. ]
      - [ 7., 3., 5., 1., 5., 2., 2., 2., 1., 4., 3., 4., 4., 6., 8., 6.,
          4., 1., 6., 4., 4., 6., 3., 1., 1., 2., 2., 3., 7., 8., 1., 2.,
          14., 4., 4., 1., 3., 0., 1., 6., 8., 0., 19., 4., 2., 2., 6.,
          3., 2., 3. ]
      - [ 10., 4., 3., 0., 2., 7., 2., 9., 1., 5., 0., 3., 2., 7., 10.,
          3., 4., 4., 8., 0., 4., 4., 4., 2., 2., 3., 1., 2., 0., 14.,
          2., 4., 2., 11., 13., 0., 1., 3., 6., 3., 2., 6., 3., 0., 1.,
          3., 3., 0., 10., 7. ]
      - [ 4., 2., 2., 2., 0., 1., 2., 2., 1., 3., 3., 3., 5., 5., 1., 5.,
          3., 0., 2., 1., 3., 5., 1., 2., 3., 0., 1., 5., 7., 35., 7.,
          4., 5., 4., 6., 2., 2., 3., 1., 15., 2., 2., 9., 2., 4., 5.,
          3., 3., 8., 4. ]
      - [ 3., 1., 4., 9., 0., 10., 2., 8., 1., 3., 4., 8., 2., 3., 18.,
          4., 1., 0., 0., 3., 3., 6., 3., 0., 5., 2., 0., 1., 1., 30.,
          2., 5., 4., 4., 4., 2., 1., 5., 1., 3., 4., 6., 3., 2., 7., 1.,
          2., 3., 2., 4. ]
      - [ 2., 3., 10., 0., 8., 12., 3., 0., 10., 2., 2., 8., 4., 9., 4.,
          1., 1., 10., 3., 3., 3., 3., 1., 2., 0., 6., 2., 0., 0., 0.,
          0., 17., 0., 14., 2., 7., 0., 17., 17., 0., 0., 0., 0., 0., 1.,
          0., 5., 6., 1., 2. ]
      - [ 5., 0., 5., 0., 5., 4., 5., 0., 8., 1., 6., 2., 3., 4., 1., 1.,
          1., 2., 10., 5., 0., 4., 1., 1., 2., 0., 1., 1., 8., 5., 2.,
          1., 9., 2., 2., 0., 5., 4., 0., 4., 0., 1., 24., 2., 3., 5.,
          3., 0., 3., 3. ]
      - [ 2., 1., 6., 9., 2., 7., 6., 5., 2., 8., 1., 6., 1., 1., 2., 2.,
          8., 4., 7., 2., 9., 1., 1., 3., 5., 5., 2., 5., 3., 2., 8., 8.,
          0., 6., 2., 0., 4., 9., 0., 0., 1., 8., 0., 9., 6., 5., 4., 6.,
          4., 2. ]
      - [ 9., 2., 2., 6., 0., 2., 6., 7., 0., 3., 6., 2., 4., 2., 1., 3.,
          3., 0., 4., 4., 2., 8., 2., 3., 5., 6., 2., 7., 3., 14., 1.,
          2., 21., 6., 6., 2., 3., 4., 1., 0., 0., 1., 8., 3., 7., 9.,
          0., 3., 1., 4. ]
      - [ 9., 1., 0., 1., 0., 6., 3., 2., 2., 2., 9., 9., 7., 10., 0.,
          10., 4., 1., 4., 0., 1., 5., 3., 0., 4., 2., 1., 1., 2., 8.,
          4., 7., 9., 9., 1., 3., 0., 1., 30., 1., 0., 0., 4., 0., 2.,
          3., 3., 2., 2., 12. ]
      - [ 6., 4., 6., 3., 5., 15., 3., 2., 5., 3., 0., 9., 3., 5., 20.,
          6., 4., 1., 0., 1., 3., 2., 4., 2., 0., 4., 3., 2., 0., 2., 4.,
          16., 1., 2., 7., 1., 4., 10., 2., 0., 0., 3., 0., 12., 6., 1.,
          3., 0., 5., 1. ]
      - [ 1., 3., 10., 2., 1., 8., 6., 6., 2., 0., 2., 9., 9., 2., 1.,
          2., 3., 4., 1., 1., 2., 2., 9., 4., 5., 1., 2., 3., 4., 8., 3.,
          6., 2., 2., 6., 1., 11., 6., 1., 1., 11., 0., 10., 5., 5., 3.,
          7., 0., 3., 4. ]
      - [ 2., 4., 4., 0., 3., 1., 2., 4., 0., 4., 4., 4., 5., 4., 2., 2.,
          5., 5., 4., 0., 2., 2., 12., 1., 3., 3., 3., 5., 7., 5., 3.,
          9., 13., 2., 4., 2., 3., 4., 1., 7., 7., 4., 10., 2., 3., 11.,
          3., 4., 3., 3. ]
      - [ 7., 1., 3., 6., 2., 2., 3., 4., 5., 4., 4., 1., 4., 6., 4., 1.,
          5., 3., 7., 2., 2., 3., 9., 3., 0., 10., 3., 2., 8., 2., 4.,
          2., 3., 3., 4., 2., 14., 7., 4., 2., 4., 5., 8., 7., 2., 4.,
          4., 2., 1., 2. ]
      - [ 12., 2., 2., 1., 6., 4., 0., 2., 1., 1., 4., 5., 2., 11., 3.,
          3., 3., 7., 5., 1., 4., 5., 9., 0., 0., 1., 3., 4., 4., 6., 4.,
          1., 3., 9., 3., 2., 0., 4., 13., 11., 6., 0., 12., 4., 0., 2.,
          4., 1., 7., 3. ]
      - [ 6., 0., 4., 3., 2., 0., 10., 4., 6., 7., 5., 0., 3., 1., 0.,
          3., 9., 4., 2., 1., 4., 2., 1., 1., 7., 2., 2., 15., 7., 0.,
          6., 0., 15., 3., 4., 4., 4., 2., 0., 3., 2., 5., 6., 1., 6.,
          13., 0., 7., 5., 3. ]
      - [ 6., 1., 9., 0., 3., 8., 3., 20., 2., 1., 2., 4., 2., 8., 5.,
          0., 1., 6., 3., 0., 2., 2., 1., 3., 4., 7., 1., 6., 0., 0., 1.,
          3., 13., 9., 4., 0., 6., 8., 2., 1., 4., 13., 8., 2., 4., 0.,
          4., 6., 2., 0. ]
      - [ 1., 2., 1., 4., 1., 2., 3., 0., 1., 7., 7., 1., 5., 1., 5., 7.,
          6., 2., 5., 11., 0., 10., 9., 1., 3., 0., 1., 11., 12., 0., 3.,
          0., 22., 2., 2., 1., 0., 3., 1., 3., 7., 2., 13., 0., 1., 4.,
          2., 6., 4., 5. ]
      - [ 7., 1., 14., 7., 0., 0., 1., 4., 2., 0., 0., 2., 5., 15., 35.,
          2., 4., 2., 2., 0., 0., 2., 1., 1., 1., 0., 0., 1., 9., 0., 0.,
          1., 3., 3., 7., 2., 0., 1., 18., 0., 4., 1., 28., 6., 3., 0.,
          0., 1., 1., 3. ]
      - [ 2., 5., 2., 2., 0., 0., 4., 0., 0., 2., 4., 2., 4., 2., 0., 3.,
          8., 2., 5., 0., 5., 1., 1., 4., 3., 6., 2., 5., 2., 1., 10.,
          8., 26., 3., 6., 0., 5., 7., 0., 3., 0., 0., 0., 10., 4., 8.,
          2., 0., 3., 5. ]
      - [ 21., 7., 4., 1., 3., 4., 4., 2., 4., 0., 2., 1., 6., 11., 7.,
          5., 2., 3., 3., 0., 1., 2., 1., 2., 2., 9., 8., 1., 3., 13.,
          2., 1., 2., 1., 4., 3., 1., 4., 15., 5., 3., 2., 13., 0., 0.,
          3., 1., 4., 2., 2. ]
      - [ 5., 6., 3., 5., 2., 3., 2., 6., 5., 6., 0., 2., 6., 4., 9., 3.,
          1., 5., 5., 2., 0., 5., 11., 3., 2., 2., 4., 3., 3., 4., 0.,
          7., 1., 7., 6., 1., 4., 4., 4., 4., 6., 2., 20., 5., 1., 5.,
          2., 0., 3., 1. ]
      - [ 5., 4., 1., 8., 4., 4., 5., 1., 5., 3., 3., 5., 1., 3., 7., 4.,
          6., 2., 4., 2., 2., 1., 3., 9., 2., 2., 2., 7., 0., 8., 10.,
          12., 2., 6., 3., 3., 5., 6., 4., 4., 4., 1., 1., 3., 4., 3.,
          7., 2., 3., 4. ]
      - [ 27., 5., 13., 2., 3., 5., 2., 0., 17., 1., 0., 6., 1., 9., 8.,
          1., 1., 8., 2., 0., 0., 3., 2., 4., 1., 4., 0., 2., 1., 5., 5.,
          6., 1., 4., 4., 1., 5., 9., 5., 3., 4., 2., 4., 1., 4., 0., 2.,
          2., 2., 3. ]
      - [ 7., 0., 5., 5., 2., 3., 2., 5., 4., 7., 3., 3., 8., 1., 15.,
          0., 4., 0., 0., 0., 0., 28., 1., 1., 2., 1., 3., 1., 3., 5.,
          5., 0., 9., 7., 6., 10., 0., 5., 9., 1., 1., 2., 5., 8., 0.,
          1., 0., 11., 0., 1. ]
      - [ 6., 21., 3., 2., 1., 2., 7., 2., 3., 3., 0., 2., 2., 3., 5.,
          7., 3., 4., 3., 0., 8., 1., 2., 10., 2., 16., 0., 0., 0., 2.,
          2., 18., 1., 3., 2., 1., 9., 7., 0., 1., 4., 0., 1., 1., 4.,
          0., 13., 0., 4., 10. ]
      - [ 2., 2., 1., 0., 0., 9., 3., 8., 1., 1., 4., 9., 4., 1., 8., 1.,
          6., 2., 0., 5., 0., 8., 4., 9., 5., 0., 1., 3., 5., 5., 7., 2.,
          2., 3., 4., 5., 16., 7., 3., 4., 4., 2., 9., 5., 3., 5., 2.,
          3., 7., 0. ]
      - [ 6., 0., 5., 4., 4., 1., 1., 3., 0., 3., 1., 2., 4., 6., 3., 6.,
          0., 1., 2., 2., 4., 8., 6., 3., 3., 4., 1., 2., 6., 11., 5.,
          2., 2., 7., 8., 4., 3., 6., 3., 7., 7., 5., 5., 3., 7., 2., 4.,
          4., 2., 12. ]
      - [ 0., 3., 7., 0., 1., 4., 6., 1., 1., 3., 13., 3., 5., 4., 6.,
          1., 3., 2., 5., 2., 1., 7., 6., 1., 2., 6., 3., 5., 7., 3., 3.,
          1., 20., 1., 3., 1., 1., 2., 3., 3., 0., 5., 31., 2., 2., 4.,
          2., 0., 4., 1. ]
      - [ 0., 4., 2., 4., 3., 1., 6., 5., 1., 4., 1., 0., 4., 1., 3.,
          10., 6., 3., 3., 2., 3., 1., 2., 4., 5., 3., 1., 3., 1., 3.,
          7., 2., 0., 4., 6., 19., 2., 4., 0., 0., 2., 3., 1., 20., 6.,
          1., 1., 24., 2., 7. ]
      - [ 3., 0., 3., 5., 4., 3., 0., 0., 10., 1., 0., 1., 3., 4., 28.,
          0., 2., 2., 0., 5., 0., 21., 7., 1., 0., 2., 8., 4., 0., 0.,
          2., 10., 1., 2., 3., 10., 0., 6., 2., 0., 8., 1., 0., 15., 1.,
          3., 0., 14., 5., 0. ]
      - [ 6., 4., 8., 1., 2., 6., 2., 4., 2., 6., 10., 6., 3., 4., 14.,
          0., 5., 2., 6., 3., 4., 13., 6., 0., 5., 1., 4., 3., 2., 0.,
          1., 1., 16., 1., 5., 2., 0., 2., 0., 1., 0., 5., 18., 2., 4.,
          4., 1., 3., 3., 0. ]
      - [ 10., 4., 5., 3., 3., 2., 8., 3., 2., 7., 5., 2., 5., 4., 2.,
          1., 7., 1., 3., 0., 3., 3., 9., 4., 2., 2., 1., 5., 5., 1.,
          11., 6., 8., 1., 2., 0., 10., 2., 0., 4., 9., 3., 12., 2., 6.,
          3., 2., 1., 1., 6. ]
      - [ 20., 4., 3., 8., 0., 13., 3., 2., 1., 1., 2., 9., 4., 25., 4.,
          5., 5., 1., 1., 0., 3., 5., 2., 1., 2., 5., 0., 3., 0., 6., 4.,
          4., 2., 2., 4., 2., 4., 1., 7., 4., 2., 3., 2., 1., 7., 2., 1.,
          2., 1., 7. ]
      - [ 14., 1., 6., 1., 1., 2., 0., 5., 1., 5., 4., 5., 4., 8., 16.,
          3., 3., 0., 2., 5., 2., 15., 2., 0., 4., 1., 1., 3., 11., 10.,
          2., 2., 10., 6., 2., 0., 0., 2., 2., 4., 1., 2., 13., 5., 4.,
          2., 2., 0., 4., 2. ]
      - [ 10., 3., 7., 4., 3., 2., 4., 1., 10., 0., 4., 2., 3., 3., 5.,
          4., 3., 3., 4., 2., 1., 5., 2., 6., 2., 4., 2., 7., 11., 7.,
          4., 1., 5., 6., 1., 3., 10., 6., 1., 3., 0., 4., 6., 6., 7.,
          1., 3., 1., 4., 4. ]
      - [ 0., 0., 1., 3., 0., 3., 4., 1., 0., 1., 1., 4., 2., 2., 2., 0.,
          1., 1., 3., 1., 0., 1., 1., 4., 3., 0., 1., 11., 19., 0., 3.,
          1., 16., 1., 1., 2., 48., 0., 0., 3., 3., 3., 23., 7., 5., 7.,
          0., 5., 3., 0. ]
      - [ 4., 2., 5., 2., 1., 5., 2., 2., 2., 2., 2., 3., 5., 5., 7., 8.,
          2., 3., 7., 1., 1., 4., 7., 3., 1., 2., 1., 8., 7., 2., 5., 5.,
          5., 9., 0., 3., 1., 2., 0., 4., 4., 2., 15., 1., 6., 11., 3.,
          6., 2., 10. ]
      - [ 3., 1., 11., 2., 1., 3., 4., 6., 1., 5., 5., 9., 5., 1., 1.,
          4., 2., 2., 2., 4., 1., 6., 4., 1., 8., 4., 3., 4., 7., 7.,
          11., 2., 7., 4., 3., 1., 6., 7., 5., 3., 0., 4., 8., 2., 7.,
          5., 4., 2., 1., 1. ]
      - [ 8., 4., 7., 4., 1., 7., 3., 2., 1., 3., 8., 5., 2., 9., 5., 2.,
          2., 2., 7., 2., 2., 3., 2., 3., 3., 1., 2., 4., 5., 5., 4., 5.,
          5., 7., 5., 5., 0., 5., 0., 7., 4., 1., 12., 3., 3., 3., 1.,
          9., 4., 3. ]
      - [ 17., 2., 2., 4., 0., 0., 1., 0., 1., 5., 3., 1., 4., 8., 0.,
          6., 5., 4., 1., 0., 4., 4., 8., 1., 2., 5., 1., 2., 0., 7., 8.,
          12., 1., 1., 4., 0., 10., 7., 0., 3., 10., 2., 18., 7., 8., 0.,
          4., 0., 4., 3. ]
      - [ 3., 0., 2., 3., 0., 0., 0., 6., 0., 0., 8., 3., 3., 6., 10.,
          3., 1., 0., 10., 4., 0., 23., 1., 3., 3., 0., 0., 3., 1., 6.,
          0., 0., 27., 5., 3., 1., 0., 0., 2., 6., 0., 7., 23., 1., 2.,
          3., 1., 9., 2., 6. ]
      - [ 42., 0., 2., 1., 1., 2., 3., 2., 0., 3., 3., 2., 2., 15., 2.,
          3., 3., 2., 3., 4., 2., 17., 6., 0., 1., 0., 4., 3., 0., 4.,
          5., 2., 1., 11., 9., 0., 1., 3., 7., 3., 3., 0., 10., 3., 1.,
          2., 1., 1., 0., 5. ]
      - [ 5., 0., 6., 2., 2., 3., 6., 9., 2., 3., 7., 1., 7., 3., 8., 2.,
          3., 3., 3., 5., 2., 9., 4., 0., 4., 2., 1., 6., 5., 5., 5., 0.,
          16., 5., 3., 1., 8., 2., 2., 4., 1., 4., 10., 4., 2., 6., 2.,
          3., 0., 4. ]
      - [ 9., 1., 9., 5., 2., 9., 1., 2., 0., 1., 3., 4., 4., 7., 21.,
          1., 4., 4., 2., 1., 1., 2., 4., 5., 1., 2., 4., 0., 3., 3., 3.,
          6., 3., 8., 6., 2., 1., 5., 13., 0., 10., 2., 1., 6., 3., 0.,
          7., 2., 2., 5. ]
      - [ 6., 6., 0., 2., 0., 8., 0., 4., 1., 1., 2., 2., 2., 6., 7., 2.,
          4., 2., 2., 0., 4., 8., 7., 3., 0., 6., 1., 4., 0., 15., 5.,
          9., 1., 2., 6., 0., 18., 1., 10., 3., 8., 6., 0., 2., 4., 2.,
          6., 2., 5., 5. ]
      - [ 2., 1., 5., 3., 4., 4., 2., 2., 1., 5., 5., 6., 9., 2., 3., 2.,
          2., 0., 3., 5., 0., 3., 3., 3., 2., 1., 0., 8., 18., 5., 2.,
          2., 11., 6., 5., 0., 0., 9., 3., 1., 0., 1., 21., 5., 2., 15.,
          2., 0., 3., 3. ]
      - [ 7., 3., 7., 2., 6., 8., 3., 3., 7., 3., 1., 11., 3., 6., 3.,
          1., 3., 4., 2., 5., 1., 5., 7., 2., 0., 3., 4., 2., 3., 0., 3.,
          11., 0., 4., 7., 2., 0., 8., 1., 2., 6., 0., 4., 10., 4., 1.,
          5., 5., 11., 1. ]
      - [ 6., 0., 7., 3., 3., 1., 2., 1., 2., 4., 8., 3., 9., 6., 12.,
          3., 4., 3., 3., 4., 1., 4., 4., 1., 1., 0., 4., 0., 6., 10.,
          4., 1., 11., 1., 3., 0., 0., 3., 8., 6., 4., 3., 24., 1., 1.,
          3., 4., 0., 3., 5. ]
      - [ 8., 4., 4., 4., 1., 11., 8., 2., 1., 2., 8., 5., 6., 11., 9.,
          4., 1., 0., 1., 3., 3., 6., 0., 3., 1., 4., 3., 4., 5., 6., 2.,
          9., 7., 8., 3., 2., 3., 0., 2., 1., 5., 4., 5., 5., 2., 6., 0.,
          2., 5., 1. ]
      - [ 7., 1., 8., 3., 4., 6., 2., 6., 2., 5., 3., 7., 5., 5., 16.,
          7., 1., 1., 6., 2., 0., 3., 3., 1., 4., 3., 1., 4., 4., 1., 1.,
          3., 5., 9., 4., 2., 3., 3., 5., 3., 4., 3., 12., 3., 2., 5.,
          2., 5., 3., 2. ]
      - [ 5., 3., 1., 1., 1., 0., 8., 6., 3., 5., 1., 1., 5., 0., 0., 6.,
          3., 5., 6., 1., 1., 1., 2., 5., 6., 8., 0., 6., 6., 4., 6., 4.,
          2., 10., 14., 2., 0., 2., 1., 0., 5., 6., 6., 1., 7., 6., 10.,
          0., 13., 5. ]
      - [ 2., 3., 4., 4., 3., 9., 0., 4., 6., 0., 1., 8., 2., 10., 13.,
          0., 6., 4., 2., 1., 0., 5., 1., 1., 2., 0., 2., 1., 3., 8., 5.,
          1., 19., 2., 1., 4., 0., 5., 2., 3., 3., 2., 18., 8., 1., 2.,
          7., 5., 4., 3. ]
      - [ 1., 1., 3., 1., 7., 5., 1., 0., 12., 1., 2., 5., 5., 5., 20.,
          2., 0., 4., 3., 4., 2., 13., 8., 0., 1., 2., 3., 1., 0., 2.,
          2., 6., 6., 3., 6., 5., 0., 13., 2., 2., 7., 4., 13., 7., 0.,
          2., 5., 1., 1., 1. ]
      - [ 4., 0., 9., 2., 7., 5., 1., 0., 4., 4., 6., 9., 2., 5., 12.,
          2., 3., 2., 5., 14., 1., 18., 2., 0., 2., 3., 3., 1., 6., 4.,
          2., 0., 9., 2., 6., 0., 1., 3., 1., 1., 2., 2., 15., 5., 0.,
          2., 5., 1., 6., 1. ]
      - [ 7., 16., 12., 1., 3., 14., 4., 0., 9., 2., 0., 12., 2., 4., 9.,
          1., 1., 5., 0., 1., 2., 3., 0., 5., 1., 9., 6., 1., 0., 1., 2.,
          9., 0., 5., 9., 2., 4., 10., 3., 0., 1., 0., 0., 16., 1., 1.,
          2., 0., 4., 0. ]
      - [ 2., 3., 0., 4., 1., 0., 8., 4., 1., 5., 6., 0., 3., 4., 13.,
          17., 5., 1., 3., 1., 2., 3., 0., 6., 4., 5., 0., 3., 0., 10.,
          1., 1., 6., 3., 4., 7., 13., 3., 1., 3., 0., 4., 2., 17., 2.,
          3., 1., 7., 1., 7. ]
      - [ 1., 6., 2., 2., 4., 2., 6., 16., 1., 2., 4., 10., 3., 3., 12.,
          0., 3., 1., 0., 1., 1., 4., 7., 0., 7., 2., 1., 2., 1., 0., 3.,
          6., 10., 2., 2., 11., 0., 1., 2., 1., 4., 14., 12., 1., 2., 3.,
          3., 11., 8., 0. ]
      - [ 3., 10., 2., 1., 1., 10., 1., 3., 0., 10., 9., 9., 4., 5., 0.,
          3., 0., 0., 4., 0., 5., 0., 7., 2., 2., 2., 3., 2., 9., 3., 2.,
          23., 8., 2., 5., 3., 0., 2., 2., 1., 2., 1., 16., 3., 3., 0.,
          3., 8., 4., 2. ]
      - [ 1., 0., 2., 1., 0., 1., 4., 6., 1., 1., 10., 4., 3., 1., 0.,
          7., 2., 0., 3., 11., 1., 8., 0., 0., 3., 1., 0., 6., 8., 9.,
          4., 0., 30., 6., 0., 1., 9., 0., 1., 9., 0., 5., 19., 0., 0.,
          8., 2., 3., 1., 8. ]
      - [ 12., 3., 2., 3., 0., 3., 1., 6., 0., 3., 1., 0., 3., 10., 6.,
          8., 3., 1., 5., 0., 4., 0., 0., 3., 2., 4., 0., 1., 2., 16.,
          2., 1., 12., 8., 4., 1., 3., 0., 39., 2., 0., 5., 1., 2., 4.,
          2., 4., 0., 1., 7. ]
      - [ 5., 7., 0., 6., 3., 10., 3., 1., 15., 3., 2., 11., 0., 9., 5.,
          5., 0., 8., 2., 1., 2., 1., 3., 3., 3., 7., 2., 2., 0., 3., 0.,
          5., 1., 6., 4., 0., 18., 8., 11., 0., 6., 2., 0., 3., 3., 0.,
          5., 1., 1., 4. ]
      - [ 5., 11., 1., 2., 1., 0., 3., 8., 2., 4., 0., 2., 2., 0., 0.,
          6., 8., 4., 9., 0., 1., 0., 4., 5., 9., 3., 3., 5., 5., 12.,
          7., 14., 2., 3., 2., 2., 11., 1., 3., 3., 3., 5., 1., 1., 5.,
          5., 8., 1., 4., 4. ]
      - [ 5., 4., 10., 3., 1., 9., 3., 3., 2., 1., 7., 5., 5., 3., 8.,
          1., 6., 2., 5., 3., 3., 3., 2., 2., 1., 3., 5., 4., 3., 0., 6.,
          1., 7., 2., 6., 2., 1., 17., 3., 0., 1., 2., 15., 4., 7., 3.,
          2., 1., 7., 1. ]
      - [ 3., 4., 7., 4., 0., 2., 5., 3., 1., 7., 0., 2., 6., 6., 0., 4.,
          3., 1., 5., 2., 3., 1., 12., 2., 2., 5., 4., 4., 1., 5., 4.,
          3., 0., 6., 4., 2., 14., 7., 4., 7., 11., 3., 5., 8., 3., 4.,
          5., 0., 3., 3. ]
      - [ 2., 1., 3., 5., 3., 1., 3., 2., 3., 4., 1., 3., 5., 4., 4., 5.,
          5., 4., 1., 2., 1., 12., 2., 5., 1., 6., 0., 3., 7., 6., 3.,
          3., 3., 8., 5., 15., 2., 3., 0., 0., 1., 3., 0., 12., 10., 3.,
          2., 16., 3., 4. ]
      - [ 0., 13., 1., 2., 0., 0., 9., 3., 3., 7., 2., 0., 3., 1., 0.,
          11., 4., 2., 3., 1., 8., 0., 0., 13., 5., 11., 0., 7., 3., 5.,
          3., 2., 2., 1., 2., 1., 34., 0., 0., 3., 1., 2., 0., 2., 4.,
          6., 4., 2., 0., 15. ]
      - [ 5., 17., 0., 0., 3., 0., 9., 2., 0., 2., 0., 1., 1., 1., 0.,
          13., 1., 4., 1., 1., 4., 0., 3., 9., 6., 4., 1., 4., 0., 25.,
          3., 14., 0., 2., 0., 1., 16., 0., 11., 1., 2., 2., 0., 1., 2.,
          4., 10., 0., 0., 14. ]
      - [ 0., 11., 2., 4., 1., 0., 7., 4., 0., 7., 6., 1., 5., 0., 2.,
          9., 6., 0., 2., 4., 6., 2., 12., 3., 8., 6., 3., 5., 2., 3.,
          11., 13., 1., 0., 5., 0., 2., 7., 0., 3., 8., 2., 3., 1., 3.,
          7., 6., 0., 4., 4. ]
      - [ 11., 3., 3., 4., 1., 2., 5., 6., 0., 2., 1., 1., 6., 9., 1.,
          12., 4., 2., 3., 0., 4., 0., 9., 2., 4., 4., 2., 4., 4., 19.,
          5., 2., 1., 6., 9., 0., 9., 3., 1., 6., 8., 3., 5., 1., 2., 4.,
          1., 0., 1., 5. ]
      - [ 0., 0., 0., 2., 3., 4., 1., 1., 1., 4., 6., 8., 7., 2., 0., 3.,
          6., 1., 1., 2., 0., 1., 9., 0., 5., 0., 3., 8., 5., 13., 4.,
          1., 17., 0., 0., 5., 3., 6., 0., 5., 7., 3., 26., 0., 2., 10.,
          2., 4., 4., 5. ]
      - [ 13., 2., 4., 1., 3., 14., 0., 1., 3., 1., 0., 11., 2., 7., 6.,
          4., 2., 4., 3., 0., 0., 8., 17., 0., 0., 2., 2., 0., 1., 8.,
          1., 8., 3., 4., 2., 0., 1., 11., 4., 12., 14., 0., 4., 2., 2.,
          2., 5., 1., 2., 3. ]
      - [ 2., 3., 9., 3., 5., 4., 7., 5., 3., 2., 7., 3., 5., 1., 3., 4.,
          5., 0., 5., 2., 2., 3., 4., 3., 7., 6., 2., 5., 9., 4., 4., 1.,
          9., 2., 3., 2., 2., 9., 2., 4., 1., 3., 17., 2., 2., 6., 2.,
          1., 2., 3. ]
      - [ 2., 5., 4., 2., 8., 8., 3., 1., 3., 7., 6., 5., 1., 3., 8., 2.,
          4., 2., 1., 3., 4., 11., 5., 1., 5., 2., 5., 2., 0., 5., 5.,
          7., 3., 6., 4., 3., 0., 9., 3., 5., 4., 1., 2., 5., 6., 1., 2.,
          9., 6., 1. ]
      - [ 5., 1., 15., 2., 1., 0., 3., 9., 1., 1., 7., 2., 6., 4., 11.,
          5., 1., 2., 7., 5., 6., 8., 0., 3., 1., 4., 2., 3., 10., 6.,
          2., 0., 6., 12., 7., 0., 1., 2., 2., 3., 3., 3., 8., 4., 0.,
          2., 2., 2., 5., 5. ]
      - [ 3., 1., 0., 3., 1., 0., 8., 4., 0., 1., 4., 1., 4., 5., 3., 9.,
          3., 2., 3., 1., 3., 3., 6., 3., 11., 3., 4., 1., 4., 0., 7.,
          0., 14., 6., 2., 0., 1., 1., 0., 11., 7., 3., 29., 2., 2., 0.,
          5., 1., 4., 11. ]
      - [ 4., 4., 3., 3., 2., 8., 3., 4., 2., 2., 1., 6., 2., 4., 7., 4.,
          5., 2., 4., 1., 3., 2., 5., 2., 3., 3., 5., 3., 6., 2., 7., 3.,
          7., 6., 7., 2., 4., 6., 0., 5., 3., 1., 13., 9., 5., 5., 3.,
          1., 3., 5. ]
      - [ 1., 0., 2., 2., 3., 2., 3., 4., 3., 2., 6., 3., 9., 0., 0., 9.,
          5., 8., 4., 1., 3., 7., 4., 2., 12., 7., 1., 5., 4., 1., 3.,
          0., 11., 3., 4., 4., 0., 3., 0., 2., 5., 1., 26., 3., 2., 6.,
          1., 7., 3., 4. ]
      - [ 1., 1., 7., 0., 2., 5., 2., 1., 3., 2., 9., 4., 2., 3., 2., 1.,
          0., 1., 5., 5., 1., 13., 1., 2., 2., 1., 2., 4., 7., 7., 0.,
          2., 25., 2., 3., 2., 3., 3., 1., 0., 2., 0., 13., 2., 5., 3.,
          3., 4., 2., 0. ]
      - [ 9., 3., 3., 3., 4., 7., 7., 1., 1., 5., 3., 4., 6., 5., 1., 3.,
          2., 5., 10., 2., 4., 9., 7., 4., 1., 2., 3., 1., 3., 7., 3.,
          4., 4., 5., 3., 0., 0., 2., 3., 4., 8., 3., 8., 5., 4., 2., 7.,
          0., 8., 2. ]
      - [ 9., 1., 4., 4., 2., 3., 5., 4., 1., 6., 4., 2., 2., 11., 1.,
          5., 4., 6., 3., 5., 2., 2., 1., 5., 3., 0., 2., 5., 5., 8., 8.,
          3., 5., 4., 5., 5., 11., 4., 3., 4., 1., 4., 2., 3., 7., 1.,
          4., 6., 1., 4. ]
      - [ 1., 3., 7., 4., 4., 3., 4., 2., 4., 5., 5., 4., 1., 5., 8., 4.,
          3., 2., 2., 7., 0., 2., 3., 1., 3., 4., 4., 4., 5., 0., 5., 3.,
          11., 3., 7., 2., 0., 17., 1., 1., 4., 0., 15., 3., 5., 5., 1.,
          0., 9., 4. ]
      - [ 11., 1., 5., 2., 1., 4., 3., 1., 2., 1., 0., 0., 1., 2., 0.,
          11., 5., 5., 14., 0., 2., 0., 5., 4., 3., 7., 0., 1., 0., 11.,
          3., 2., 1., 6., 1., 0., 7., 2., 9., 15., 6., 4., 20., 1., 3.,
          2., 5., 0., 2., 9. ]
      - [ 6., 5., 2., 3., 2., 1., 12., 4., 1., 5., 3., 4., 5., 6., 2.,
          5., 3., 0., 8., 2., 4., 4., 6., 5., 3., 1., 0., 6., 2., 11.,
          2., 6., 14., 6., 3., 0., 6., 5., 0., 3., 2., 1., 9., 4., 0.,
          8., 0., 0., 3., 7. ]
      - [ 4., 2., 1., 3., 1., 5., 6., 7., 0., 0., 0., 7., 2., 6., 8., 2.,
          7., 2., 5., 2., 6., 0., 9., 3., 4., 0., 0., 3., 0., 36., 3.,
          1., 6., 4., 5., 2., 0., 1., 3., 4., 5., 4., 6., 1., 3., 3., 7.,
          0., 8., 4. ]
      - [ 4., 4., 10., 2., 1., 12., 0., 3., 4., 6., 0., 18., 4., 3., 14.,
          2., 5., 4., 1., 1., 1., 5., 2., 3., 0., 3., 5., 0., 0., 2., 4.,
          3., 0., 7., 11., 2., 0., 10., 0., 0., 2., 4., 1., 15., 4., 2.,
          1., 6., 9., 0. ]
      - [ 21., 11., 1., 5., 2., 7., 4., 5., 1., 4., 4., 7., 4., 18., 1.,
          2., 6., 0., 3., 2., 0., 1., 1., 2., 4., 4., 0., 4., 3., 0., 4.,
          8., 1., 5., 5., 0., 26., 1., 4., 1., 3., 2., 0., 3., 3., 1.,
          3., 0., 2., 1. ]
      - [ 19., 3., 3., 5., 2., 7., 0., 0., 7., 1., 7., 7., 1., 23., 12.,
          0., 0., 1., 11., 2., 2., 5., 3., 1., 0., 3., 2., 1., 1., 1.,
          1., 15., 6., 1., 1., 5., 4., 3., 4., 0., 2., 0., 11., 4., 2.,
          0., 4., 7., 0., 0. ]
      - [ 2., 11., 0., 1., 0., 19., 0., 3., 6., 1., 3., 14., 3., 10., 2.,
          4., 2., 2., 0., 0., 1., 2., 1., 3., 2., 9., 1., 2., 0., 2., 1.,
          10., 0., 6., 3., 1., 0., 6., 49., 1., 0., 3., 0., 1., 3., 1.,
          0., 1., 2., 6. ]
      - [ 0., 5., 1., 3., 2., 1., 6., 1., 0., 4., 7., 3., 3., 1., 0., 2.,
          5., 2., 1., 4., 3., 1., 1., 4., 6., 5., 0., 4., 11., 6., 8.,
          4., 33., 2., 1., 1., 4., 1., 0., 11., 0., 2., 17., 2., 5., 5.,
          2., 3., 6., 1. ]
      - [ 9., 5., 1., 3., 0., 0., 4., 2., 0., 2., 2., 1., 6., 12., 3.,
          5., 4., 5., 19., 2., 5., 1., 1., 3., 5., 4., 1., 4., 1., 9.,
          4., 7., 3., 2., 1., 0., 9., 3., 9., 11., 3., 0., 6., 2., 3.,
          3., 6., 0., 1., 9. ]
      - [ 2., 3., 3., 7., 2., 0., 10., 1., 0., 6., 2., 1., 10., 6., 0.,
          9., 10., 1., 3., 1., 0., 1., 6., 3., 7., 3., 0., 5., 7., 0.,
          7., 3., 3., 0., 2., 0., 28., 1., 1., 4., 5., 1., 4., 1., 6.,
          9., 3., 0., 3., 10. ]
      - [ 32., 0., 5., 0., 0., 17., 0., 0., 0., 0., 1., 18., 0., 30.,
          24., 1., 1., 0., 0., 0., 0., 0., 1., 0., 0., 1., 1., 0., 0.,
          0., 0., 20., 0., 6., 7., 0., 0., 10., 11., 0., 3., 0., 0., 7.,
          0., 0., 0., 0., 4., 0. ]
      - [ 11., 0., 4., 6., 4., 8., 0., 1., 0., 2., 1., 6., 3., 17., 13.,
          3., 8., 2., 0., 3., 0., 1., 11., 4., 1., 2., 2., 4., 1., 5.,
          6., 1., 2., 2., 9., 3., 0., 6., 6., 4., 9., 1., 0., 5., 5., 5.,
          4., 4., 3., 2. ]
      - [ 5., 2., 2., 4., 0., 3., 8., 4., 4., 3., 2., 4., 3., 9., 32.,
          1., 1., 1., 4., 0., 5., 1., 4., 5., 8., 8., 0., 4., 1., 10.,
          1., 2., 7., 5., 2., 2., 6., 2., 6., 5., 4., 3., 5., 1., 2., 2.,
          1., 2., 0., 4. ]
      - [ 9., 12., 1., 1., 1., 3., 4., 4., 0., 2., 1., 3., 2., 3., 0.,
          9., 4., 5., 3., 1., 6., 0., 2., 6., 3., 7., 1., 0., 0., 5., 4.,
          12., 0., 4., 6., 0., 31., 3., 1., 6., 1., 1., 0., 6., 6., 0.,
          5., 0., 2., 14. ]
      - [ 7., 9., 3., 2., 2., 8., 4., 4., 1., 3., 3., 7., 8., 2., 3., 5.,
          5., 3., 4., 2., 0., 1., 8., 5., 4., 5., 1., 4., 2., 10., 6.,
          8., 3., 1., 3., 0., 8., 4., 1., 2., 4., 6., 2., 2., 3., 3., 4.,
          1., 11., 3. ]
      - [ 10., 1., 7., 1., 3., 0., 2., 3., 0., 5., 3., 3., 13., 16., 5.,
          0., 2., 2., 14., 7., 4., 9., 9., 2., 3., 0., 1., 1., 3., 5.,
          2., 1., 8., 7., 8., 1., 1., 4., 4., 2., 0., 3., 5., 4., 6., 3.,
          2., 1., 2., 2. ]
      - [ 9., 14., 1., 4., 0., 0., 5., 1., 2., 2., 0., 1., 0., 3., 12.,
          7., 4., 1., 0., 0., 4., 0., 2., 24., 3., 12., 0., 5., 1., 3.,
          4., 29., 1., 6., 0., 0., 7., 0., 3., 0., 3., 0., 0., 0., 6.,
          1., 4., 6., 1., 9. ]
      - [ 4., 1., 7., 2., 4., 11., 1., 2., 7., 2., 10., 11., 1., 8., 8.,
          0., 1., 3., 6., 6., 0., 10., 2., 0., 0., 0., 1., 0., 8., 0.,
          0., 2., 17., 2., 3., 1., 1., 7., 15., 1., 1., 2., 12., 0., 3.,
          6., 0., 2., 7., 2. ]
      - [ 7., 2., 3., 3., 2., 6., 3., 3., 2., 1., 7., 4., 7., 3., 11.,
          1., 2., 3., 2., 5., 6., 7., 4., 2., 6., 4., 3., 5., 15., 7.,
          4., 0., 2., 5., 3., 2., 3., 3., 2., 2., 1., 6., 12., 1., 5.,
          6., 3., 1., 2., 1. ]
      - [ 4., 7., 2., 7., 6., 7., 4., 3., 0., 5., 2., 5., 1., 4., 0., 1.,
          8., 3., 6., 1., 6., 3., 3., 4., 5., 7., 2., 1., 1., 1., 3.,
          16., 3., 3., 6., 7., 4., 11., 2., 0., 0., 0., 0., 6., 6., 2.,
          5., 6., 7., 4. ]
      - [ 4., 2., 6., 4., 1., 3., 2., 1., 7., 4., 3., 4., 2., 3., 31.,
          0., 6., 1., 1., 1., 2., 3., 3., 2., 3., 2., 4., 2., 2., 5., 6.,
          6., 9., 3., 9., 2., 0., 6., 1., 4., 3., 3., 5., 7., 6., 4., 2.,
          1., 7., 2. ]
      - [ 7., 4., 4., 1., 5., 1., 2., 6., 6., 3., 11., 4., 6., 9., 6.,
          2., 4., 0., 8., 8., 1., 4., 3., 0., 3., 1., 9., 1., 2., 4.,
          13., 6., 3., 3., 2., 0., 1., 3., 9., 3., 3., 1., 14., 0., 1.,
          4., 1., 2., 2., 4. ]
      - [ 6., 7., 3., 4., 0., 1., 3., 5., 0., 2., 0., 2., 1., 10., 1.,
          12., 0., 2., 2., 0., 3., 0., 1., 1., 6., 4., 2., 6., 1., 25.,
          3., 6., 0., 16., 3., 2., 1., 3., 23., 1., 3., 4., 0., 1., 2.,
          3., 4., 5., 1., 9. ]
      - [ 2., 6., 4., 2., 2., 4., 2., 0., 2., 3., 2., 3., 0., 2., 3., 2.,
          2., 2., 2., 5., 2., 14., 2., 5., 1., 2., 3., 6., 7., 0., 4.,
          3., 16., 4., 7., 11., 0., 7., 1., 1., 6., 1., 14., 10., 2., 3.,
          3., 13., 2., 0. ]
      - [ 1., 26., 0., 2., 2., 0., 9., 2., 1., 3., 0., 2., 2., 2., 0.,
          11., 5., 3., 1., 2., 8., 0., 1., 7., 2., 13., 2., 1., 0., 3.,
          9., 32., 0., 2., 2., 0., 15., 1., 2., 0., 0., 6., 0., 0., 5.,
          2., 3., 0., 3., 8. ]
      - [ 1., 8., 3., 0., 3., 6., 6., 4., 2., 5., 6., 6., 2., 0., 3., 3.,
          6., 4., 1., 8., 5., 1., 7., 1., 2., 9., 1., 1., 4., 5., 6., 3.,
          5., 2., 6., 1., 16., 10., 0., 0., 1., 4., 7., 3., 4., 2., 3.,
          2., 7., 5. ]
      - [ 1., 3., 5., 1., 0., 4., 4., 0., 3., 3., 7., 4., 7., 6., 10.,
          2., 7., 3., 5., 3., 2., 4., 6., 2., 1., 2., 3., 6., 8., 7.,
          10., 5., 9., 4., 3., 4., 0., 10., 0., 1., 5., 0., 5., 3., 0.,
          6., 1., 5., 9., 1. ]
      - [ 7., 4., 7., 2., 2., 3., 3., 1., 0., 5., 0., 0., 8., 5., 3., 8.,
          5., 2., 2., 1., 4., 3., 4., 2., 2., 1., 1., 4., 1., 19., 2.,
          1., 3., 3., 2., 2., 25., 3., 0., 3., 4., 0., 12., 2., 2., 6.,
          7., 2., 4., 8. ]
      - [ 5., 4., 3., 3., 2., 4., 2., 3., 0., 0., 2., 3., 1., 10., 9.,
          4., 5., 1., 7., 3., 0., 1., 3., 3., 1., 3., 2., 1., 3., 4., 2.,
          3., 12., 7., 3., 0., 11., 2., 4., 2., 4., 5., 26., 6., 6., 4.,
          0., 0., 3., 8. ]
      - [ 6., 2., 5., 2., 3., 2., 2., 2., 1., 5., 7., 11., 2., 5., 11.,
          2., 6., 1., 4., 4., 3., 3., 7., 2., 3., 3., 4., 5., 15., 7.,
          6., 1., 1., 3., 4., 0., 2., 2., 2., 5., 8., 3., 6., 6., 2., 4.,
          3., 1., 5., 1. ]
      - [ 9., 0., 10., 4., 6., 9., 0., 6., 12., 1., 0., 7., 0., 14., 14.,
          0., 1., 2., 2., 0., 0., 3., 3., 0., 2., 3., 1., 3., 0., 5., 1.,
          1., 0., 7., 10., 2., 0., 15., 10., 0., 3., 5., 0., 10., 2., 0.,
          7., 4., 5., 1. ]
      - [ 14., 3., 0., 1., 1., 0., 6., 3., 2., 2., 0., 6., 0., 6., 2.,
          5., 1., 3., 5., 0., 5., 1., 2., 5., 7., 3., 1., 3., 2., 23.,
          2., 13., 0., 7., 3., 0., 6., 8., 16., 0., 4., 3., 4., 2., 2.,
          4., 1., 2., 6., 5. ]
      - [ 10., 6., 5., 2., 1., 1., 1., 1., 1., 2., 2., 1., 3., 1., 0.,
          8., 6., 5., 3., 0., 5., 0., 19., 4., 0., 5., 0., 1., 2., 8.,
          1., 4., 1., 5., 4., 1., 4., 1., 4., 10., 21., 3., 10., 2., 3.,
          1., 6., 0., 12., 4. ]
      - [ 2., 2., 3., 3., 1., 21., 1., 2., 16., 0., 5., 17., 2., 4., 8.,
          2., 4., 6., 1., 0., 1., 0., 3., 1., 2., 2., 1., 0., 0., 8., 4.,
          8., 18., 4., 7., 0., 0., 13., 0., 1., 1., 3., 7., 9., 1., 0.,
          0., 0., 4., 2. ]
      - [ 4., 2., 8., 4., 1., 5., 5., 4., 6., 5., 8., 5., 6., 6., 10.,
          1., 0., 0., 13., 5., 0., 8., 5., 0., 1., 8., 6., 2., 3., 2.,
          3., 2., 4., 6., 3., 2., 8., 2., 3., 1., 1., 1., 14., 6., 3.,
          1., 1., 2., 3., 1. ]
      - [ 8., 4., 0., 1., 0., 0., 5., 3., 3., 1., 2., 0., 4., 3., 0., 4.,
          1., 4., 6., 0., 4., 2., 3., 5., 6., 8., 1., 5., 1., 18., 8.,
          4., 4., 9., 1., 0., 16., 2., 19., 5., 4., 1., 8., 0., 5., 3.,
          1., 1., 0., 8. ]
      - [ 8., 8., 6., 0., 3., 19., 0., 1., 5., 1., 0., 13., 1., 4., 11.,
          1., 1., 1., 1., 0., 2., 0., 9., 4., 0., 4., 2., 0., 0., 4., 5.,
          9., 0., 18., 4., 1., 0., 9., 21., 0., 11., 0., 0., 5., 1., 1.,
          6., 0., 1., 0. ]
      - [ 9., 4., 5., 3., 2., 4., 1., 5., 1., 4., 1., 6., 3., 11., 6.,
          2., 5., 1., 17., 0., 7., 2., 2., 6., 2., 4., 0., 4., 5., 5.,
          6., 3., 3., 8., 6., 0., 4., 3., 2., 0., 1., 0., 7., 10., 3.,
          5., 1., 3., 6., 2. ]
      - [ 8., 8., 4., 5., 1., 1., 7., 3., 2., 4., 3., 2., 4., 4., 5.,
          11., 12., 3., 6., 1., 2., 0., 4., 2., 6., 8., 1., 2., 1., 21.,
          5., 5., 0., 3., 3., 1., 3., 1., 0., 1., 4., 0., 0., 3., 8., 4.,
          5., 1., 5., 7. ]
      - [ 7., 0., 5., 1., 0., 3., 6., 3., 3., 4., 0., 4., 12., 4., 4.,
          9., 3., 1., 5., 1., 7., 3., 3., 2., 5., 7., 1., 4., 2., 8., 3.,
          4., 2., 9., 3., 1., 15., 1., 2., 3., 3., 1., 7., 1., 4., 3.,
          1., 1., 7., 12. ]
      - [ 11., 2., 0., 4., 1., 1., 0., 0., 1., 1., 0., 0., 0., 12., 4.,
          3., 2., 0., 5., 0., 1., 4., 14., 2., 1., 1., 0., 13., 6., 3.,
          1., 4., 3., 0., 1., 5., 0., 0., 0., 6., 16., 0., 37., 3., 3.,
          11., 0., 12., 0., 2. ]
      - [ 2., 7., 7., 4., 2., 9., 4., 5., 20., 5., 1., 3., 3., 2., 6.,
          5., 5., 6., 0., 0., 3., 1., 2., 5., 7., 4., 2., 0., 1., 3., 7.,
          6., 1., 4., 8., 0., 6., 7., 3., 1., 0., 1., 1., 8., 5., 5., 5.,
          2., 3., 4. ]
      - [ 3., 4., 4., 0., 3., 4., 2., 4., 1., 2., 10., 7., 3., 3., 4.,
          3., 6., 0., 5., 8., 1., 0., 5., 4., 3., 3., 3., 5., 6., 2., 3.,
          1., 12., 4., 6., 3., 6., 2., 1., 1., 2., 1., 26., 6., 2., 4.,
          4., 1., 5., 2. ]
      - [ 13., 4., 1., 4., 0., 0., 2., 0., 1., 1., 3., 0., 2., 3., 4.,
          11., 3., 2., 5., 0., 2., 2., 1., 6., 2., 6., 1., 1., 2., 38.,
          2., 6., 5., 4., 5., 4., 1., 2., 2., 3., 1., 1., 2., 16., 3.,
          1., 2., 3., 0., 17. ]
      - [ 17., 4., 5., 9., 2., 3., 3., 2., 0., 1., 9., 5., 3., 5., 16.,
          1., 3., 2., 7., 4., 3., 2., 2., 1., 0., 2., 3., 3., 2., 3., 1.,
          1., 12., 6., 7., 5., 0., 3., 0., 2., 0., 1., 17., 9., 5., 2.,
          0., 3., 2., 2. ]
      - [ 0., 0., 8., 2., 2., 7., 5., 1., 2., 1., 9., 7., 5., 7., 3., 2.,
          1., 1., 5., 3., 2., 13., 1., 2., 2., 2., 1., 4., 13., 4., 1.,
          5., 16., 5., 7., 4., 3., 4., 4., 5., 0., 4., 8., 3., 0., 11.,
          0., 3., 1., 2. ]
      - [ 8., 2., 0., 3., 0., 1., 3., 4., 2., 6., 9., 1., 6., 4., 2., 4.,
          1., 1., 2., 1., 6., 4., 4., 4., 6., 2., 1., 1., 7., 8., 1., 2.,
          37., 3., 2., 0., 1., 0., 0., 3., 4., 0., 28., 1., 1., 6., 4.,
          0., 0., 4. ]
      - [ 2., 1., 2., 3., 2., 0., 2., 2., 3., 6., 12., 1., 10., 2., 1.,
          2., 8., 1., 6., 7., 8., 0., 8., 5., 4., 2., 1., 5., 14., 15.,
          5., 5., 8., 2., 1., 0., 6., 2., 0., 5., 2., 1., 9., 2., 1., 7.,
          3., 0., 3., 3. ]
      - [ 15., 8., 3., 3., 0., 3., 1., 2., 2., 0., 4., 5., 3., 16., 4.,
          3., 0., 1., 1., 1., 5., 2., 4., 3., 3., 5., 1., 0., 3., 4., 2.,
          4., 5., 13., 7., 1., 8., 7., 9., 1., 3., 3., 11., 4., 5., 2.,
          2., 0., 2., 6. ]
      - [ 4., 9., 5., 6., 4., 5., 3., 1., 3., 3., 1., 1., 4., 1., 8., 0.,
          5., 9., 3., 1., 1., 0., 13., 6., 0., 7., 2., 0., 0., 3., 3.,
          4., 1., 15., 1., 1., 1., 4., 4., 5., 8., 4., 14., 3., 10., 2.,
          2., 5., 1., 4. ]
      - [ 1., 8., 0., 0., 1., 0., 10., 4., 0., 1., 3., 0., 8., 0., 0.,
          9., 4., 3., 4., 2., 4., 2., 5., 6., 11., 4., 0., 9., 5., 1.,
          8., 8., 4., 1., 0., 0., 37., 0., 0., 1., 1., 3., 5., 0., 3.,
          6., 5., 0., 2., 11. ]
      - [ 6., 3., 4., 3., 3., 4., 5., 3., 0., 5., 6., 2., 5., 7., 12.,
          2., 5., 0., 7., 7., 6., 8., 1., 0., 7., 1., 2., 4., 4., 1., 3.,
          0., 10., 2., 5., 2., 2., 2., 2., 8., 1., 6., 13., 1., 6., 3.,
          3., 4., 1., 3. ]
      - [ 11., 2., 5., 3., 4., 8., 3., 2., 1., 1., 3., 2., 6., 7., 5.,
          4., 8., 3., 7., 1., 2., 1., 7., 2., 4., 1., 1., 5., 5., 5., 1.,
          1., 7., 9., 5., 2., 0., 6., 2., 13., 3., 3., 8., 3., 4., 1.,
          0., 2., 3., 8. ]
      - [ 11., 0., 2., 9., 0., 1., 8., 4., 0., 4., 4., 0., 2., 2., 6.,
          5., 4., 0., 9., 2., 3., 1., 4., 3., 4., 1., 2., 3., 3., 12.,
          4., 3., 10., 9., 2., 3., 2., 3., 4., 2., 3., 2., 13., 2., 7.,
          5., 1., 5., 7., 4. ]
      - [ 1., 0., 5., 3., 4., 3., 3., 5., 1., 5., 6., 2., 2., 2., 5., 1.,
          2., 1., 5., 2., 4., 2., 3., 3., 1., 2., 4., 3., 15., 18., 0.,
          0., 14., 5., 0., 1., 8., 1., 1., 11., 3., 1., 19., 1., 3., 6.,
          4., 1., 7., 1. ]
      - [ 3., 2., 6., 4., 2., 7., 1., 4., 3., 1., 3., 11., 4., 1., 21.,
          1., 2., 4., 0., 10., 1., 1., 5., 2., 2., 3., 7., 4., 4., 2.,
          2., 6., 16., 1., 5., 0., 0., 10., 0., 1., 4., 2., 15., 4., 0.,
          1., 5., 1., 5., 1. ]
      - [ 14., 3., 2., 6., 1., 1., 1., 3., 0., 2., 1., 3., 3., 2., 2.,
          14., 7., 1., 4., 2., 4., 5., 7., 2., 3., 2., 0., 3., 6., 12.,
          3., 1., 8., 5., 3., 3., 2., 4., 0., 10., 6., 6., 12., 0., 2.,
          2., 5., 1., 3., 8. ]
      - [ 2., 14., 2., 3., 1., 0., 8., 2., 0., 4., 7., 0., 3., 1., 0.,
          2., 4., 2., 2., 0., 1., 2., 0., 4., 3., 12., 1., 5., 5., 0.,
          13., 33., 18., 1., 7., 0., 8., 3., 0., 0., 1., 1., 1., 7., 4.,
          1., 1., 6., 2., 3. ]
      - [ 0., 0., 4., 2., 3., 4., 2., 4., 1., 7., 5., 2., 3., 2., 7., 0.,
          2., 1., 13., 3., 1., 11., 4., 0., 3., 1., 1., 4., 3., 0., 1.,
          0., 14., 0., 2., 1., 0., 0., 0., 0., 5., 2., 16., 1., 0., 8.,
          0., 4., 1., 0. ]
      - [ 15., 1., 6., 1., 0., 1., 3., 6., 1., 5., 5., 3., 2., 9., 27.,
          1., 4., 0., 8., 1., 3., 11., 1., 1., 3., 3., 2., 0., 1., 7.,
          0., 0., 1., 8., 6., 3., 0., 8., 7., 8., 1., 3., 8., 1., 2., 1.,
          2., 1., 6., 3. ]
      - [ 3., 1., 8., 2., 3., 3., 6., 1., 1., 1., 3., 3., 4., 7., 10.,
          2., 3., 2., 2., 3., 2., 7., 2., 5., 5., 0., 1., 0., 3., 7., 3.,
          5., 11., 4., 4., 4., 2., 6., 9., 0., 4., 3., 14., 2., 5., 6.,
          5., 4., 7., 2. ]
      - [ 3., 5., 6., 1., 3., 5., 6., 2., 3., 7., 8., 6., 5., 4., 13.,
          2., 2., 2., 10., 2., 4., 4., 5., 4., 4., 2., 2., 3., 10., 2.,
          2., 1., 8., 1., 1., 0., 1., 5., 0., 2., 4., 3., 13., 2., 2.,
          7., 2., 0., 7., 4. ]
      - [ 6., 1., 1., 0., 0., 0., 2., 5., 0., 5., 1., 1., 21., 4., 8.,
          1., 17., 1., 9., 1., 8., 7., 10., 0., 0., 0., 0., 3., 4., 1.,
          23., 0., 0., 26., 5., 1., 0., 0., 1., 0., 6., 3., 4., 0., 0.,
          1., 0., 1., 11., 2. ]
      - [ 2., 3., 8., 1., 5., 3., 2., 2., 2., 4., 6., 2., 5., 1., 15.,
          3., 3., 1., 7., 4., 3., 9., 2., 2., 1., 0., 1., 2., 6., 0., 4.,
          1., 20., 6., 7., 1., 0., 5., 5., 0., 1., 0., 29., 3., 2., 4.,
          0., 1., 5., 1. ]
      - [ 2., 3., 3., 4., 2., 4., 8., 3., 1., 4., 3., 7., 3., 2., 3., 6.,
          7., 4., 1., 0., 5., 3., 3., 4., 5., 6., 3., 2., 5., 1., 7., 6.,
          4., 5., 6., 0., 15., 9., 0., 1., 1., 8., 4., 4., 4., 4., 2.,
          1., 7., 5. ]
      - [ 6., 1., 3., 1., 3., 19., 1., 0., 26., 0., 1., 18., 1., 5., 3.,
          0., 1., 20., 0., 2., 0., 0., 11., 1., 1., 0., 0., 0., 0., 0.,
          0., 3., 2., 2., 4., 0., 0., 19., 7., 0., 18., 1., 0., 1., 1.,
          0., 10., 0., 8., 0. ]
      - [ 4., 7., 10., 1., 1., 10., 1., 3., 2., 6., 4., 9., 2., 3., 6.,
          3., 6., 2., 3., 1., 4., 6., 6., 1., 1., 6., 3., 6., 2., 3., 5.,
          2., 6., 2., 7., 1., 4., 4., 2., 5., 1., 2., 4., 5., 4., 2., 2.,
          7., 6., 7. ]
      - [ 9., 1., 7., 2., 3., 4., 2., 1., 1., 3., 8., 2., 2., 11., 20.,
          1., 4., 3., 6., 2., 0., 3., 2., 1., 2., 1., 1., 6., 6., 11.,
          3., 3., 9., 4., 5., 3., 0., 6., 5., 2., 5., 0., 7., 5., 5., 4.,
          2., 1., 4., 2. ]
      - [ 8., 12., 5., 3., 0., 4., 3., 5., 14., 4., 1., 5., 4., 5., 1.,
          7., 7., 5., 4., 1., 3., 2., 11., 4., 4., 1., 1., 0., 1., 3.,
          5., 4., 0., 3., 10., 2., 4., 5., 2., 4., 7., 5., 1., 0., 2.,
          3., 6., 1., 3., 5. ]
      - [ 8., 1., 7., 1., 1., 1., 2., 1., 2., 5., 7., 3., 2., 0., 14.,
          2., 0., 0., 0., 1., 3., 12., 2., 3., 2., 0., 1., 6., 6., 6.,
          1., 1., 21., 7., 7., 3., 3., 1., 0., 3., 2., 4., 22., 6., 3.,
          5., 2., 5., 1., 4. ]
      - [ 4., 5., 2., 3., 2., 2., 4., 4., 0., 2., 7., 4., 3., 2., 0., 7.,
          4., 5., 8., 2., 4., 0., 4., 4., 4., 2., 1., 3., 11., 13., 3.,
          3., 7., 6., 4., 1., 15., 1., 2., 2., 4., 3., 14., 2., 4., 3.,
          1., 0., 3., 6. ]
      - [ 1., 3., 6., 4., 3., 3., 7., 7., 3., 2., 4., 4., 3., 8., 8., 1.,
          4., 2., 10., 6., 3., 5., 5., 1., 3., 3., 4., 0., 11., 5., 2.,
          2., 6., 2., 6., 0., 4., 3., 1., 5., 4., 5., 11., 4., 3., 2.,
          2., 0., 5., 4. ]
      - [ 26., 9., 14., 5., 0., 2., 0., 0., 0., 4., 1., 1., 3., 3., 1.,
          3., 5., 4., 3., 3., 5., 1., 5., 9., 3., 8., 1., 2., 0., 6., 8.,
          7., 1., 6., 2., 1., 1., 9., 0., 11., 7., 0., 2., 1., 3., 3.,
          5., 3., 0., 3. ]
      - [ 16., 4., 4., 1., 0., 3., 5., 2., 0., 0., 2., 3., 2., 2., 1.,
          5., 6., 6., 4., 1., 2., 1., 12., 7., 5., 2., 1., 1., 2., 19.,
          6., 7., 1., 3., 1., 1., 6., 4., 2., 10., 12., 2., 3., 1., 3.,
          1., 6., 1., 5., 6. ]
      - [ 3., 6., 3., 2., 0., 7., 5., 2., 1., 3., 2., 8., 7., 7., 2., 4.,
          5., 2., 4., 1., 7., 0., 7., 1., 4., 2., 1., 6., 2., 3., 5.,
          28., 0., 8., 4., 0., 2., 1., 0., 7., 6., 4., 4., 1., 3., 2.,
          6., 3., 7., 3. ]
      - [ 5., 0., 8., 4., 1., 11., 5., 3., 4., 6., 9., 15., 7., 4., 18.,
          0., 7., 1., 1., 2., 4., 6., 3., 2., 3., 2., 1., 3., 0., 0., 5.,
          1., 4., 5., 9., 3., 2., 7., 1., 0., 0., 1., 1., 5., 3., 4., 2.,
          3., 5., 4. ]
      - [ 12., 3., 7., 2., 4., 2., 4., 8., 2., 2., 2., 2., 5., 9., 9.,
          1., 3., 2., 5., 1., 5., 7., 8., 2., 2., 3., 4., 2., 5., 6., 1.,
          0., 8., 8., 2., 0., 1., 3., 2., 6., 4., 4., 11., 1., 5., 2.,
          4., 2., 4., 3. ]
      - [ 6., 2., 9., 2., 5., 1., 5., 4., 0., 2., 9., 4., 3., 10., 2.,
          9., 3., 2., 6., 1., 3., 2., 8., 4., 3., 3., 2., 4., 2., 5., 4.,
          5., 1., 8., 6., 2., 5., 4., 1., 3., 4., 3., 6., 1., 2., 9., 3.,
          1., 4., 7. ]
      - [ 5., 3., 2., 1., 1., 9., 5., 1., 1., 4., 2., 9., 9., 9., 1., 4.,
          8., 4., 2., 2., 4., 1., 7., 2., 7., 5., 0., 7., 6., 4., 7., 5.,
          1., 0., 4., 0., 13., 3., 4., 0., 5., 3., 7., 4., 2., 6., 4.,
          2., 2., 3. ]
      - [ 1., 3., 4., 1., 1., 3., 7., 1., 0., 2., 8., 2., 9., 1., 9., 5.,
          5., 1., 2., 2., 0., 0., 9., 6., 3., 3., 0., 5., 3., 2., 11.,
          1., 9., 1., 2., 0., 15., 0., 0., 1., 9., 2., 23., 3., 1., 11.,
          3., 1., 5., 4. ]
      - [ 0., 11., 8., 0., 3., 3., 3., 4., 3., 3., 5., 4., 5., 4., 3.,
          5., 5., 3., 8., 3., 4., 4., 3., 1., 1., 2., 0., 0., 2., 4., 3.,
          4., 13., 7., 6., 0., 9., 7., 0., 1., 2., 1., 28., 3., 3., 0.,
          4., 1., 2., 2. ]
      - [ 4., 2., 9., 6., 2., 9., 4., 2., 4., 4., 8., 10., 6., 4., 10.,
          2., 2., 2., 3., 2., 1., 2., 6., 1., 5., 1., 3., 2., 6., 4., 2.,
          1., 8., 9., 3., 3., 1., 5., 4., 0., 4., 6., 10., 1., 0., 6.,
          4., 1., 5., 1. ]
      - [ 9., 3., 5., 4., 3., 2., 6., 2., 1., 2., 2., 2., 3., 7., 11.,
          2., 6., 4., 7., 1., 4., 1., 4., 5., 7., 5., 3., 1., 3., 2., 8.,
          7., 7., 1., 3., 2., 8., 8., 4., 1., 2., 0., 13., 2., 4., 1.,
          2., 1., 4., 5. ]
      - [ 13., 4., 2., 4., 2., 7., 0., 0., 5., 1., 0., 10., 8., 12., 1.,
          5., 2., 0., 12., 0., 1., 1., 7., 1., 1., 3., 0., 2., 1., 16.,
          1., 9., 0., 6., 4., 0., 2., 9., 13., 5., 10., 0., 0., 3., 4.,
          4., 2., 1., 5., 2. ]
      - [ 4., 2., 6., 5., 2., 6., 1., 3., 3., 2., 10., 4., 2., 5., 1.,
          0., 4., 4., 5., 6., 2., 8., 2., 0., 2., 5., 2., 0., 7., 2., 4.,
          3., 6., 5., 13., 2., 1., 6., 2., 3., 0., 3., 10., 9., 7., 3.,
          5., 1., 4., 2. ]
      - [ 2., 5., 1., 2., 1., 3., 5., 3., 2., 7., 3., 0., 2., 2., 4., 3.,
          6., 2., 2., 0., 3., 4., 1., 1., 0., 6., 5., 7., 0., 2., 5.,
          13., 22., 6., 8., 0., 2., 8., 0., 4., 1., 2., 1., 5., 0., 9.,
          9., 0., 4., 0. ]
      - [ 6., 1., 4., 4., 1., 3., 0., 7., 2., 3., 5., 5., 2., 3., 13.,
          2., 3., 4., 9., 7., 2., 13., 6., 1., 2., 2., 2., 3., 5., 6.,
          1., 2., 10., 2., 3., 4., 2., 3., 3., 2., 4., 4., 19., 5., 2.,
          2., 1., 2., 1., 2. ]
      - [ 7., 2., 11., 1., 8., 2., 0., 3., 1., 2., 1., 3., 7., 7., 10.,
          4., 2., 1., 1., 7., 2., 5., 6., 1., 2., 6., 4., 2., 9., 4., 3.,
          1., 9., 6., 10., 3., 1., 5., 3., 0., 2., 1., 10., 1., 5., 3.,
          1., 4., 8., 3. ]
      - [ 4., 3., 4., 2., 0., 11., 1., 1., 2., 3., 6., 14., 2., 3., 13.,
          3., 1., 0., 2., 9., 3., 17., 1., 0., 0., 5., 5., 5., 3., 3.,
          2., 3., 14., 0., 8., 1., 4., 4., 1., 1., 1., 3., 6., 10., 0.,
          3., 2., 5., 3., 3. ]
      - [ 6., 1., 7., 2., 2., 5., 4., 6., 0., 3., 1., 3., 3., 7., 6., 6.,
          4., 2., 6., 5., 6., 7., 1., 3., 9., 2., 1., 2., 4., 6., 4., 2.,
          12., 4., 6., 0., 14., 1., 2., 5., 1., 2., 5., 4., 3., 5., 1.,
          1., 1., 7. ]
      - [ 1., 1., 0., 2., 4., 2., 2., 2., 2., 2., 8., 6., 9., 2., 6., 5.,
          1., 2., 4., 4., 0., 21., 8., 3., 3., 0., 1., 0., 7., 2., 2.,
          2., 12., 3., 0., 12., 3., 2., 0., 2., 3., 3., 10., 5., 2., 6.,
          1., 11., 6., 5. ]
      - [ 11., 1., 2., 2., 1., 4., 1., 4., 0., 2., 5., 7., 0., 8., 11.,
          4., 3., 2., 1., 3., 4., 3., 4., 1., 0., 0., 0., 2., 4., 20.,
          2., 3., 7., 6., 3., 6., 2., 3., 7., 10., 6., 0., 6., 6., 4.,
          0., 3., 9., 6., 2. ]
      - [ 12., 4., 1., 6., 2., 7., 2., 4., 1., 1., 2., 4., 6., 2., 5.,
          5., 4., 4., 3., 0., 2., 3., 8., 5., 3., 3., 2., 1., 5., 7., 3.,
          7., 0., 3., 3., 2., 1., 10., 7., 3., 14., 2., 10., 3., 5., 1.,
          3., 1., 2., 6. ]
      - [ 3., 13., 0., 3., 1., 1., 11., 9., 2., 2., 0., 1., 1., 4., 0.,
          9., 4., 3., 10., 0., 5., 3., 1., 3., 8., 9., 0., 5., 0., 8.,
          7., 8., 2., 4., 1., 3., 10., 0., 0., 2., 1., 8., 0., 4., 13.,
          3., 3., 3., 2., 7. ]
      - [ 10., 7., 2., 8., 6., 5., 2., 2., 5., 7., 0., 9., 6., 13., 13.,
          6., 9., 3., 2., 2., 3., 2., 5., 3., 4., 1., 1., 1., 0., 1., 6.,
          1., 0., 5., 7., 1., 2., 3., 9., 0., 4., 1., 0., 3., 10., 1.,
          4., 2., 1., 3. ]
      - [ 3., 1., 5., 9., 1., 8., 2., 6., 3., 0., 0., 9., 3., 3., 15.,
          3., 5., 1., 1., 0., 0., 3., 2., 1., 3., 1., 2., 2., 0., 1., 8.,
          36., 0., 4., 5., 5., 0., 11., 0., 0., 1., 6., 1., 12., 8., 0.,
          1., 4., 2., 3. ]
      - [ 7., 2., 15., 5., 3., 4., 1., 5., 2., 7., 2., 4., 9., 10., 9.,
          4., 4., 0., 2., 1., 4., 8., 2., 1., 3., 2., 7., 4., 3., 0., 4.,
          1., 8., 1., 6., 4., 0., 4., 1., 3., 1., 4., 11., 10., 3., 0.,
          0., 2., 4., 3. ]
      - [ 2., 1., 10., 2., 1., 3., 0., 1., 6., 1., 7., 3., 4., 6., 11.,
          0., 2., 0., 5., 1., 1., 9., 3., 2., 0., 9., 2., 1., 4., 0., 1.,
          1., 13., 3., 0., 2., 9., 0., 5., 10., 1., 4., 39., 2., 2., 2.,
          0., 4., 4., 1. ]
      - [ 8., 3., 0., 0., 1., 5., 0., 1., 1., 1., 16., 5., 2., 8., 0.,
          19., 0., 0., 2., 1., 0., 0., 0., 24., 1., 5., 2., 5., 2., 6.,
          1., 0., 2., 2., 7., 0., 0., 8., 34., 0., 0., 1., 6., 1., 0.,
          4., 0., 1., 2., 13. ]
      - [ 2., 0., 2., 12., 0., 3., 3., 1., 4., 3., 1., 4., 7., 2., 15.,
          1., 2., 5., 1., 0., 0., 6., 2., 5., 2., 1., 0., 6., 1., 0., 0.,
          0., 6., 1., 3., 28., 0., 2., 3., 0., 0., 3., 0., 16., 8., 10.,
          1., 25., 1., 2. ]
      - [ 7., 3., 3., 5., 6., 5., 5., 1., 5., 2., 21., 8., 4., 6., 2.,
          0., 2., 1., 4., 5., 1., 11., 1., 2., 1., 3., 4., 1., 3., 0.,
          4., 1., 16., 2., 0., 4., 0., 13., 2., 0., 0., 1., 14., 7., 5.,
          1., 1., 4., 3., 1. ]
      - [ 12., 2., 2., 0., 5., 2., 4., 9., 0., 2., 1., 2., 4., 5., 11.,
          3., 3., 0., 4., 0., 1., 3., 2., 4., 5., 5., 1., 5., 6., 6., 2.,
          2., 9., 7., 5., 0., 6., 8., 5., 3., 1., 4., 17., 7., 2., 5.,
          3., 1., 2., 2. ]
      - [ 7., 2., 5., 4., 1., 2., 0., 1., 0., 1., 4., 2., 1., 6., 5., 0.,
          2., 3., 7., 0., 1., 10., 3., 1., 1., 0., 1., 11., 9., 1., 5.,
          8., 9., 3., 0., 5., 4., 2., 15., 1., 2., 3., 36., 2., 2., 4.,
          0., 7., 1., 0. ]
      - [ 1., 2., 4., 4., 2., 6., 3., 2., 2., 3., 6., 6., 2., 6., 3., 1.,
          3., 4., 7., 2., 4., 14., 9., 0., 3., 4., 2., 7., 6., 6., 0.,
          2., 8., 6., 2., 2., 4., 3., 4., 1., 7., 2., 12., 2., 6., 2.,
          3., 2., 5., 3. ]
      - [ 14., 8., 3., 1., 2., 6., 2., 2., 6., 2., 0., 3., 0., 10., 7.,
          2., 0., 6., 8., 0., 1., 3., 6., 7., 5., 3., 3., 1., 2., 8., 1.,
          2., 2., 4., 4., 4., 0., 3., 20., 3., 6., 1., 11., 2., 3., 1.,
          2., 3., 3., 4. ]
      - [ 9., 3., 0., 1., 1., 3., 3., 1., 0., 4., 7., 4., 18., 3., 1.,
          6., 5., 3., 1., 5., 5., 0., 10., 3., 4., 1., 1., 4., 6., 6.,
          5., 5., 5., 1., 5., 1., 6., 5., 0., 3., 4., 2., 16., 2., 1.,
          9., 5., 0., 4., 3. ]
      - [ 1., 4., 4., 3., 1., 0., 7., 2., 9., 5., 5., 1., 5., 2., 0.,
          10., 3., 9., 8., 1., 3., 0., 4., 8., 3., 11., 1., 2., 7., 11.,
          3., 17., 5., 1., 2., 2., 8., 4., 0., 1., 4., 1., 0., 3., 4.,
          3., 2., 1., 0., 9. ]
      - [ 2., 2., 3., 3., 3., 1., 13., 3., 2., 4., 3., 2., 2., 4., 2.,
          3., 8., 4., 3., 3., 4., 4., 6., 7., 5., 7., 1., 6., 4., 7., 5.,
          5., 0., 4., 5., 3., 12., 4., 0., 2., 3., 4., 8., 1., 3., 5.,
          5., 2., 0., 8. ]
      - [ 9., 2., 2., 4., 0., 7., 0., 1., 9., 1., 0., 11., 0., 2., 8.,
          5., 5., 6., 2., 0., 2., 0., 4., 0., 0., 1., 1., 0., 0., 19.,
          3., 5., 0., 22., 4., 1., 5., 11., 24., 1., 4., 3., 0., 1., 2.,
          0., 5., 0., 5., 3. ]
      - [ 3., 0., 6., 1., 3., 5., 1., 3., 3., 1., 16., 6., 5., 6., 14.,
          0., 1., 1., 7., 6., 2., 11., 4., 3., 1., 6., 3., 0., 8., 3.,
          0., 0., 11., 3., 6., 0., 3., 3., 3., 3., 1., 3., 19., 1., 3.,
          3., 1., 2., 4., 2. ]
      - [ 6., 2., 4., 8., 2., 3., 2., 2., 3., 2., 5., 6., 0., 5., 3.,
          10., 6., 0., 3., 4., 3., 4., 4., 2., 5., 0., 1., 5., 16., 3.,
          5., 0., 15., 3., 3., 0., 7., 2., 2., 7., 4., 5., 7., 2., 2.,
          8., 2., 0., 2., 5. ]
      - [ 1., 30., 2., 6., 0., 0., 3., 0., 3., 3., 0., 1., 1., 0., 0.,
          1., 11., 3., 4., 0., 6., 0., 1., 6., 2., 12., 2., 3., 1., 2.,
          12., 52., 2., 1., 2., 0., 3., 4., 1., 0., 1., 0., 1., 1., 7.,
          1., 4., 1., 2., 1. ]
      - [ 3., 7., 5., 2., 0., 2., 7., 4., 2., 6., 2., 1., 5., 1., 0., 8.,
          9., 2., 4., 0., 8., 1., 3., 11., 3., 6., 0., 3., 4., 7., 11.,
          14., 1., 3., 9., 0., 13., 0., 0., 3., 1., 1., 2., 1., 3., 5.,
          6., 0., 3., 9. ]
      - [ 16., 2., 4., 3., 0., 10., 1., 3., 0., 2., 1., 11., 3., 18.,
          16., 4., 2., 0., 2., 0., 3., 2., 3., 0., 2., 2., 2., 0., 1.,
          2., 4., 10., 0., 5., 15., 0., 1., 6., 7., 1., 3., 2., 7., 9.,
          2., 3., 2., 0., 7., 1. ]
      - [ 3., 4., 6., 4., 1., 11., 5., 6., 2., 2., 2., 4., 6., 2., 2.,
          4., 9., 5., 5., 3., 4., 1., 4., 10., 5., 9., 2., 2., 2., 10.,
          7., 8., 1., 4., 8., 0., 6., 7., 0., 4., 2., 0., 3., 3., 3., 2.,
          4., 0., 2., 1. ]
      - [ 5., 3., 9., 1., 1., 9., 2., 0., 4., 2., 3., 8., 7., 2., 5., 1.,
          6., 2., 2., 0., 3., 5., 9., 3., 1., 2., 3., 1., 4., 5., 10.,
          25., 2., 4., 4., 1., 3., 5., 0., 5., 16., 0., 4., 4., 3., 0.,
          2., 0., 3., 1. ]
      - [ 7., 3., 6., 4., 2., 3., 5., 5., 5., 2., 4., 4., 3., 1., 2., 0.,
          4., 2., 4., 4., 5., 7., 12., 1., 5., 3., 1., 2., 2., 8., 2.,
          2., 3., 4., 3., 5., 3., 9., 4., 4., 10., 3., 8., 3., 4., 3.,
          1., 6., 4., 3. ]
      - [ 3., 7., 4., 5., 2., 4., 10., 1., 2., 4., 2., 1., 2., 5., 0.,
          4., 5., 7., 4., 3., 4., 3., 7., 8., 10., 3., 1., 4., 5., 4.,
          10., 1., 1., 5., 3., 3., 11., 2., 0., 6., 2., 2., 1., 5., 5.,
          6., 2., 2., 3., 6. ]
      - [ 22., 0., 9., 2., 5., 2., 3., 0., 2., 0., 4., 12., 3., 23., 3.,
          3., 1., 2., 0., 1., 1., 3., 2., 0., 4., 0., 1., 8., 0., 0., 3.,
          0., 5., 1., 3., 2., 0., 1., 25., 0., 3., 0., 3., 6., 1., 12.,
          0., 3., 13., 3. ]
      - [ 8., 1., 3., 6., 0., 3., 6., 1., 0., 8., 6., 5., 12., 10., 8.,
          3., 8., 1., 7., 6., 10., 3., 13., 3., 4., 1., 2., 4., 5., 10.,
          2., 0., 4., 4., 1., 2., 4., 2., 1., 2., 2., 2., 2., 3., 3., 1.,
          3., 2., 1., 2. ]
      - [ 6., 0., 8., 6., 1., 5., 2., 4., 3., 2., 7., 6., 6., 6., 6., 2.,
          1., 3., 4., 3., 2., 6., 7., 2., 2., 6., 3., 5., 5., 3., 3., 8.,
          7., 6., 4., 4., 1., 1., 3., 0., 7., 2., 7., 7., 3., 5., 0., 3.,
          3., 4. ]
      - [ 6., 14., 1., 6., 1., 19., 2., 0., 8., 2., 0., 15., 2., 4., 1.,
          2., 6., 5., 1., 1., 1., 0., 1., 2., 3., 7., 5., 1., 0., 0., 2.,
          28., 0., 3., 6., 0., 2., 10., 5., 0., 0., 1., 0., 6., 7., 2.,
          5., 0., 4., 3. ]
      - [ 1., 5., 0., 0., 4., 3., 2., 2., 34., 0., 0., 4., 0., 0., 0.,
          7., 0., 13., 0., 0., 1., 1., 0., 9., 0., 15., 1., 0., 0., 0.,
          1., 0., 0., 3., 1., 4., 0., 3., 13., 0., 0., 0., 0., 6., 0.,
          1., 5., 3., 0., 8. ]
      - [ 8., 1., 8., 1., 2., 5., 2., 3., 0., 0., 4., 4., 2., 10., 4.,
          0., 2., 3., 8., 2., 3., 7., 13., 3., 1., 2., 5., 4., 0., 12.,
          1., 7., 5., 4., 1., 0., 0., 5., 5., 6., 7., 1., 24., 2., 4.,
          2., 2., 3., 1., 1. ]
      - [ 5., 4., 10., 4., 3., 2., 3., 3., 2., 1., 5., 2., 3., 3., 1.,
          1., 6., 8., 2., 2., 1., 5., 7., 1., 2., 4., 2., 0., 8., 4., 4.,
          3., 3., 5., 8., 3., 5., 2., 5., 8., 9., 0., 11., 7., 7., 2.,
          5., 3., 1., 5. ]
      - [ 5., 3., 1., 1., 0., 3., 8., 2., 5., 1., 7., 0., 3., 2., 1., 4.,
          7., 2., 3., 1., 1., 3., 3., 2., 9., 3., 1., 4., 11., 1., 8.,
          9., 7., 3., 1., 1., 15., 11., 1., 4., 3., 2., 5., 1., 4., 10.,
          7., 1., 6., 5. ]
      - [ 1., 2., 4., 3., 4., 4., 6., 3., 0., 4., 4., 5., 8., 4., 2., 2.,
          3., 3., 5., 5., 3., 9., 3., 4., 4., 5., 3., 4., 10., 14., 9.,
          0., 4., 2., 4., 1., 8., 3., 5., 2., 2., 1., 10., 4., 1., 6.,
          1., 2., 3., 1. ]
      - [ 6., 3., 8., 6., 2., 7., 4., 4., 4., 2., 1., 6., 5., 1., 6., 2.,
          4., 1., 5., 1., 2., 6., 9., 1., 1., 4., 1., 1., 1., 9., 4., 4.,
          2., 6., 11., 2., 3., 9., 4., 6., 9., 3., 6., 5., 2., 0., 3.,
          3., 2., 3. ]
      - [ 25., 2., 6., 1., 0., 6., 3., 1., 1., 0., 4., 3., 4., 7., 3.,
          4., 4., 3., 6., 2., 1., 9., 4., 3., 1., 0., 0., 1., 7., 11.,
          0., 2., 4., 14., 2., 0., 6., 4., 9., 6., 5., 2., 4., 3., 3.,
          5., 5., 0., 1., 3. ]
      - [ 6., 4., 7., 3., 2., 9., 0., 0., 11., 1., 2., 11., 1., 1., 9.,
          1., 2., 9., 0., 1., 2., 1., 3., 0., 0., 2., 6., 1., 3., 1., 1.,
          25., 2., 4., 4., 2., 1., 27., 1., 0., 4., 1., 9., 7., 1., 0.,
          7., 2., 3., 0. ]
      - [ 17., 16., 3., 0., 1., 4., 5., 4., 2., 1., 0., 9., 3., 2., 2.,
          5., 4., 6., 2., 1., 6., 0., 1., 1., 2., 9., 0., 0., 0., 6., 2.,
          30., 0., 2., 6., 0., 7., 10., 0., 2., 1., 2., 0., 6., 4., 0.,
          3., 0., 9., 4. ]
      - [ 21., 3., 0., 2., 1., 15., 0., 4., 1., 2., 0., 8., 1., 4., 7.,
          10., 8., 0., 0., 0., 2., 0., 4., 2., 0., 4., 2., 0., 1., 15.,
          3., 25., 0., 2., 7., 0., 6., 11., 3., 0., 1., 1., 0., 5., 0.,
          0., 5., 0., 5., 9. ]
      - [ 3., 1., 1., 4., 1., 1., 3., 5., 0., 3., 5., 4., 4., 1., 2., 4.,
          3., 1., 2., 5., 2., 5., 9., 0., 7., 1., 1., 5., 3., 6., 1., 1.,
          17., 8., 2., 5., 7., 4., 4., 3., 7., 5., 13., 1., 10., 7., 1.,
          6., 3., 3. ]
      - [ 11., 1., 3., 3., 3., 4., 3., 1., 0., 1., 3., 4., 0., 16., 16.,
          2., 2., 3., 10., 3., 1., 6., 0., 1., 2., 2., 1., 1., 0., 4.,
          2., 0., 5., 8., 2., 16., 0., 3., 10., 5., 2., 0., 17., 4., 2.,
          0., 0., 15., 1., 1. ]
      - [ 3., 11., 0., 5., 0., 1., 10., 8., 2., 7., 1., 2., 0., 2., 2.,
          10., 1., 6., 5., 0., 6., 0., 1., 14., 6., 12., 2., 3., 0., 8.,
          3., 4., 0., 10., 0., 0., 14., 2., 4., 1., 1., 4., 0., 0., 5.,
          2., 8., 1., 2., 11. ]
      - [ 2., 4., 5., 8., 0., 1., 1., 1., 1., 4., 7., 3., 6., 4., 19.,
          1., 5., 2., 0., 7., 1., 4., 2., 1., 1., 3., 2., 5., 5., 3., 5.,
          8., 20., 4., 3., 0., 1., 3., 0., 0., 3., 4., 23., 2., 2., 6.,
          2., 3., 2., 0. ]
      - [ 1., 9., 3., 1., 0., 1., 2., 1., 13., 3., 12., 1., 5., 5., 14.,
          0., 3., 3., 0., 1., 4., 0., 2., 0., 3., 5., 3., 5., 8., 2., 1.,
          4., 14., 2., 4., 0., 0., 3., 2., 3., 2., 1., 35., 3., 6., 3.,
          6., 1., 1., 0. ]
      - [ 6., 3., 7., 4., 3., 11., 3., 2., 7., 4., 0., 9., 2., 3., 14.,
          4., 5., 6., 1., 0., 3., 2., 2., 3., 1., 8., 2., 1., 0., 4., 6.,
          9., 0., 3., 13., 1., 3., 16., 2., 0., 2., 1., 0., 6., 2., 1.,
          2., 0., 11., 2. ]
      - [ 1., 1., 10., 3., 0., 17., 0., 1., 2., 2., 2., 12., 5., 0., 31.,
          2., 2., 1., 0., 0., 2., 2., 3., 0., 1., 4., 1., 4., 2., 0., 2.,
          8., 3., 2., 9., 0., 0., 7., 0., 0., 0., 0., 22., 16., 2., 6.,
          2., 1., 8., 1. ]
      - [ 1., 9., 2., 4., 1., 1., 8., 3., 1., 3., 2., 5., 5., 4., 10.,
          9., 6., 3., 3., 5., 3., 5., 3., 9., 4., 3., 2., 3., 0., 14.,
          6., 4., 0., 6., 1., 1., 14., 3., 3., 5., 4., 0., 1., 1., 2.,
          3., 6., 1., 2., 6. ]
      - [ 5., 3., 5., 4., 5., 6., 1., 1., 2., 7., 0., 5., 6., 3., 7., 7.,
          9., 2., 1., 1., 1., 5., 5., 5., 4., 5., 7., 5., 6., 4., 10.,
          2., 2., 3., 4., 0., 3., 9., 0., 2., 5., 0., 1., 5., 2., 6., 6.,
          2., 4., 7. ]
      - [ 7., 1., 9., 2., 2., 2., 1., 3., 1., 1., 1., 7., 1., 5., 28.,
          1., 2., 3., 3., 2., 0., 28., 4., 0., 2., 1., 1., 2., 0., 0.,
          0., 0., 8., 3., 3., 12., 0., 1., 3., 4., 4., 2., 7., 4., 0.,
          4., 4., 15., 5., 1. ]
      - [ 8., 0., 6., 5., 4., 6., 1., 3., 2., 2., 6., 3., 2., 7., 17.,
          2., 0., 5., 2., 3., 1., 7., 2., 2., 2., 0., 3., 2., 3., 7., 2.,
          3., 8., 8., 1., 4., 0., 4., 2., 8., 3., 6., 15., 2., 2., 2.,
          7., 7., 2., 1. ]
      - [ 8., 4., 6., 1., 2., 6., 3., 3., 5., 4., 2., 3., 2., 2., 4., 4.,
          7., 3., 1., 1., 2., 1., 0., 7., 8., 7., 3., 3., 1., 6., 5., 9.,
          2., 2., 8., 0., 5., 10., 7., 1., 1., 4., 4., 5., 3., 3., 3.,
          2., 7., 10. ]
      - [ 12., 0., 0., 1., 0., 15., 2., 3., 0., 2., 0., 12., 0., 11., 0.,
          3., 4., 0., 0., 0., 0., 0., 30., 0., 3., 0., 9., 2., 0., 0.,
          3., 1., 1., 2., 0., 2., 0., 0., 4., 0., 43., 1., 13., 1., 1.,
          2., 0., 5., 9., 4. ]
      - [ 11., 0., 1., 0., 0., 33., 0., 0., 6., 0., 0., 36., 0., 13.,
          36., 0., 0., 0., 0., 0., 0., 0., 7., 0., 0., 1., 0., 0., 0.,
          0., 0., 6., 0., 3., 3., 0., 0., 2., 28., 0., 7., 0., 0., 4.,
          0., 0., 0., 0., 3., 0. ]
      - [ 4., 4., 15., 1., 2., 0., 2., 7., 1., 3., 5., 1., 6., 7., 12.,
          2., 2., 2., 2., 6., 2., 9., 3., 3., 4., 6., 0., 8., 3., 5., 5.,
          1., 15., 8., 8., 1., 0., 3., 1., 1., 0., 5., 11., 2., 2., 6.,
          2., 0., 1., 1. ]
      - [ 4., 11., 4., 1., 2., 5., 9., 4., 0., 4., 2., 2., 2., 1., 3.,
          5., 5., 1., 3., 3., 2., 0., 4., 8., 4., 12., 1., 1., 5., 5.,
          6., 14., 2., 4., 8., 1., 9., 8., 0., 1., 2., 0., 1., 14., 3.,
          1., 5., 3., 4., 1. ]
      - [ 22., 0., 0., 0., 0., 30., 0., 0., 5., 2., 0., 30., 2., 11.,
          15., 0., 0., 0., 1., 1., 0., 0., 22., 0., 0., 2., 0., 2., 0.,
          0., 0., 7., 1., 1., 0., 0., 0., 2., 6., 0., 21., 1., 0., 1.,
          0., 2., 15., 0., 1., 0. ]
      - [ 2., 8., 3., 2., 2., 2., 2., 2., 8., 5., 11., 6., 2., 3., 2.,
          2., 0., 2., 4., 10., 3., 4., 8., 1., 1., 5., 3., 3., 1., 0.,
          1., 1., 20., 3., 4., 0., 0., 4., 7., 0., 9., 3., 19., 6., 2.,
          4., 3., 2., 5., 0. ]
      - [ 2., 1., 2., 3., 1., 8., 5., 1., 2., 2., 15., 13., 11., 2., 1.,
          0., 5., 2., 1., 7., 0., 3., 5., 0., 3., 0., 4., 2., 4., 0., 1.,
          5., 27., 1., 7., 1., 0., 7., 0., 2., 1., 3., 15., 0., 4., 3.,
          2., 2., 14., 0. ]
      - [ 15., 5., 4., 6., 2., 6., 3., 8., 0., 1., 1., 3., 1., 13., 7.,
          7., 4., 2., 4., 1., 1., 2., 7., 2., 2., 2., 4., 1., 1., 9., 3.,
          2., 2., 3., 2., 2., 0., 5., 11., 9., 6., 2., 8., 2., 2., 2.,
          2., 3., 7., 3. ]
      - [ 5., 1., 3., 4., 3., 11., 0., 0., 5., 1., 2., 5., 0., 3., 31.,
          1., 0., 3., 0., 2., 0., 26., 0., 1., 0., 1., 1., 5., 2., 0.,
          1., 1., 10., 3., 0., 21., 0., 3., 4., 0., 0., 0., 4., 2., 5.,
          2., 4., 21., 1., 2. ]
      - [ 5., 1., 1., 6., 0., 1., 7., 1., 1., 7., 5., 1., 6., 3., 0., 4.,
          2., 2., 2., 1., 2., 3., 5., 1., 9., 1., 2., 11., 6., 16., 6.,
          9., 5., 4., 2., 8., 5., 3., 0., 5., 2., 1., 4., 6., 5., 5., 0.,
          11., 2., 5. ]
      - [ 1., 5., 4., 0., 3., 3., 6., 0., 14., 4., 9., 5., 4., 4., 2.,
          1., 3., 5., 4., 8., 4., 1., 4., 8., 5., 2., 5., 4., 7., 3., 5.,
          2., 8., 1., 6., 0., 3., 11., 0., 4., 4., 2., 8., 0., 1., 3.,
          7., 0., 5., 2. ]
      - [ 5., 3., 2., 1., 1., 2., 6., 6., 1., 4., 5., 2., 4., 9., 2., 6.,
          2., 3., 19., 0., 4., 2., 2., 4., 6., 3., 0., 1., 3., 12., 8.,
          0., 4., 8., 4., 0., 11., 3., 4., 7., 3., 3., 1., 6., 3., 8.,
          1., 0., 1., 5. ]
      - [ 5., 0., 9., 2., 5., 5., 5., 3., 1., 1., 2., 5., 5., 8., 7., 0.,
          4., 1., 3., 5., 0., 5., 1., 0., 4., 2., 4., 2., 1., 5., 3., 3.,
          4., 2., 5., 0., 0., 12., 15., 6., 2., 3., 0., 7., 0., 1., 0.,
          0., 3., 1. ]
      - [ 13., 7., 2., 2., 2., 5., 4., 5., 3., 6., 1., 6., 4., 9., 3.,
          4., 5., 3., 1., 1., 2., 2., 3., 4., 1., 3., 2., 1., 1., 5., 5.,
          24., 1., 8., 3., 1., 1., 9., 1., 4., 8., 5., 0., 5., 4., 1.,
          2., 1., 5., 2. ]
      - [ 9., 12., 2., 4., 0., 3., 4., 3., 0., 2., 2., 2., 2., 1., 2.,
          10., 5., 5., 1., 0., 4., 1., 1., 6., 4., 3., 1., 2., 0., 10.,
          6., 18., 0., 4., 9., 0., 6., 5., 2., 3., 4., 4., 1., 5., 5.,
          6., 3., 1., 7., 10. ]
      - [ 9., 5., 4., 2., 3., 3., 1., 2., 0., 2., 4., 7., 1., 4., 21.,
          3., 4., 4., 2., 4., 2., 10., 2., 1., 3., 1., 2., 4., 6., 7.,
          2., 1., 12., 9., 2., 1., 0., 2., 2., 6., 1., 10., 12., 8., 0.,
          2., 0., 0., 4., 3. ]
      - [ 4., 2., 0., 3., 0., 9., 2., 2., 2., 1., 17., 5., 3., 6., 2.,
          0., 2., 1., 3., 1., 0., 12., 3., 0., 2., 2., 1., 7., 4., 4.,
          1., 6., 39., 2., 5., 2., 0., 8., 1., 1., 2., 2., 13., 4., 2.,
          7., 0., 0., 5., 0. ]
      - [ 6., 4., 6., 1., 2., 7., 2., 1., 2., 1., 2., 10., 7., 4., 7.,
          11., 5., 3., 3., 5., 4., 7., 4., 6., 8., 3., 1., 2., 1., 5.,
          7., 0., 1., 5., 2., 2., 9., 3., 3., 2., 10., 0., 2., 2., 3.,
          2., 2., 0., 4., 11. ]
      - [ 8., 0., 6., 3., 4., 9., 1., 1., 3., 1., 1., 18., 2., 11., 10.,
          0., 1., 4., 5., 0., 3., 3., 3., 3., 4., 1., 2., 2., 0., 1., 2.,
          9., 0., 12., 13., 1., 0., 16., 3., 0., 3., 1., 1., 15., 3., 1.,
          1., 2., 7., 0. ]
      - [ 4., 3., 8., 5., 2., 2., 6., 3., 0., 3., 2., 7., 1., 8., 4., 5.,
          3., 4., 5., 0., 4., 1., 3., 5., 3., 2., 2., 1., 2., 11., 3.,
          7., 4., 4., 4., 1., 3., 6., 5., 13., 5., 7., 9., 1., 8., 2.,
          2., 1., 3., 3. ]
      - [ 4., 3., 1., 5., 1., 4., 4., 8., 1., 5., 1., 9., 4., 3., 17.,
          6., 8., 1., 0., 0., 3., 3., 0., 5., 2., 8., 3., 0., 8., 2., 6.,
          1., 1., 8., 3., 2., 11., 5., 5., 7., 0., 5., 2., 9., 1., 1.,
          3., 3., 5., 3. ]
      - [ 1., 2., 8., 4., 3., 5., 1., 1., 2., 7., 11., 3., 7., 3., 10.,
          0., 3., 2., 3., 5., 0., 16., 7., 0., 3., 1., 5., 2., 2., 1.,
          0., 0., 9., 2., 4., 1., 3., 5., 0., 2., 3., 3., 19., 5., 2.,
          8., 1., 8., 4., 3. ]
      - [ 5., 0., 4., 5., 4., 5., 2., 1., 2., 3., 6., 6., 2., 8., 14.,
          1., 7., 5., 6., 0., 1., 7., 3., 2., 0., 1., 0., 2., 5., 9., 3.,
          1., 10., 4., 10., 1., 0., 3., 0., 2., 1., 2., 18., 4., 4., 6.,
          5., 1., 9., 0. ]
      - [ 2., 2., 4., 1., 1., 1., 3., 0., 1., 4., 7., 3., 6., 4., 7., 0.,
          4., 4., 5., 6., 1., 8., 9., 0., 2., 3., 5., 3., 12., 4., 4.,
          0., 15., 5., 3., 2., 4., 4., 2., 2., 1., 3., 20., 4., 3., 7.,
          4., 0., 3., 2. ]
      - [ 0., 17., 3., 2., 0., 0., 4., 13., 0., 1., 0., 0., 2., 0., 10.,
          6., 3., 3., 0., 0., 3., 0., 0., 12., 1., 16., 0., 0., 0., 16.,
          2., 6., 0., 0., 7., 0., 13., 1., 38., 0., 0., 0., 0., 5., 5.,
          0., 3., 2., 0., 6. ]
      - [ 4., 9., 6., 2., 4., 7., 10., 1., 2., 6., 0., 9., 3., 2., 2.,
          8., 5., 4., 2., 1., 3., 2., 0., 2., 4., 2., 0., 1., 1., 1., 1.,
          11., 1., 4., 11., 0., 13., 20., 1., 0., 1., 2., 5., 10., 4.,
          2., 2., 1., 5., 3. ]
      - [ 6., 3., 4., 3., 2., 0., 7., 5., 3., 5., 7., 3., 5., 9., 12.,
          2., 3., 1., 8., 2., 5., 5., 2., 4., 3., 3., 1., 3., 7., 11.,
          8., 2., 4., 3., 1., 2., 4., 9., 3., 3., 2., 2., 9., 0., 1., 4.,
          0., 1., 4., 4. ]
      - [ 4., 0., 1., 3., 0., 6., 4., 8., 7., 5., 7., 3., 10., 4., 4.,
          4., 1., 0., 2., 4., 6., 2., 2., 4., 1., 1., 0., 2., 9., 8., 2.,
          3., 11., 7., 7., 0., 6., 1., 5., 2., 2., 6., 12., 4., 4., 2.,
          3., 1., 5., 5. ]
      - [ 6., 1., 3., 4., 2., 5., 4., 2., 1., 8., 4., 7., 6., 3., 14.,
          1., 2., 2., 3., 5., 3., 7., 4., 3., 1., 3., 3., 1., 8., 3., 5.,
          3., 13., 2., 2., 5., 1., 8., 3., 6., 4., 2., 10., 2., 3., 5.,
          1., 4., 1., 1. ]
      - [ 18., 2., 1., 4., 3., 2., 2., 6., 7., 2., 5., 0., 0., 4., 7.,
          2., 3., 4., 4., 2., 4., 0., 4., 7., 2., 3., 3., 2., 4., 3., 3.,
          3., 5., 9., 2., 1., 10., 7., 4., 15., 2., 0., 5., 3., 3., 1.,
          5., 1., 3., 8. ]
      - [ 10., 5., 2., 4., 2., 7., 8., 3., 2., 5., 0., 11., 5., 8., 11.,
          4., 6., 3., 3., 1., 1., 2., 3., 8., 6., 2., 1., 0., 3., 4., 3.,
          14., 1., 3., 3., 4., 0., 1., 5., 2., 4., 7., 1., 3., 2., 2.,
          5., 3., 5., 2. ]
      - [ 10., 3., 3., 5., 2., 4., 0., 2., 9., 1., 1., 0., 2., 7., 3.,
          1., 1., 5., 3., 1., 3., 4., 14., 1., 3., 1., 3., 3., 6., 0.,
          6., 8., 4., 6., 6., 3., 0., 6., 3., 2., 21., 2., 5., 2., 7.,
          3., 5., 4., 6., 0. ]
      - [ 18., 1., 0., 1., 0., 9., 4., 3., 5., 2., 7., 11., 3., 13., 1.,
          1., 2., 4., 1., 0., 0., 0., 1., 3., 3., 1., 3., 0., 0., 11.,
          5., 6., 0., 7., 9., 0., 2., 7., 26., 4., 2., 3., 3., 4., 0.,
          1., 4., 0., 5., 4. ]
      - [ 8., 3., 6., 2., 2., 4., 2., 6., 4., 2., 0., 4., 10., 9., 7.,
          3., 8., 1., 5., 0., 3., 4., 5., 0., 4., 1., 4., 4., 1., 4., 4.,
          3., 5., 4., 9., 3., 1., 1., 1., 7., 6., 2., 4., 3., 4., 6., 4.,
          1., 11., 6. ]
      - [ 1., 3., 0., 0., 0., 2., 3., 2., 0., 0., 2., 0., 7., 1., 0., 2.,
          2., 0., 0., 1., 3., 0., 8., 0., 6., 2., 0., 0., 6., 14., 1.,
          0., 4., 10., 2., 0., 0., 0., 19., 32., 7., 1., 11., 0., 0., 4.,
          3., 0., 3., 5. ]
      - [ 14., 3., 1., 5., 0., 6., 2., 1., 0., 6., 4., 2., 3., 9., 11.,
          7., 3., 2., 9., 1., 0., 4., 0., 8., 2., 2., 0., 1., 3., 4., 3.,
          13., 8., 7., 7., 1., 4., 9., 2., 4., 0., 3., 2., 5., 5., 2.,
          0., 1., 1., 10. ]
      - [ 0., 3., 2., 1., 2., 9., 1., 0., 2., 3., 3., 9., 5., 2., 0., 4.,
          4., 1., 1., 17., 0., 12., 9., 0., 4., 2., 2., 4., 4., 13., 1.,
          0., 19., 4., 0., 2., 0., 2., 4., 9., 8., 0., 7., 2., 2., 7.,
          3., 4., 2., 5. ]
      - [ 3., 0., 9., 3., 2., 5., 0., 5., 2., 3., 6., 7., 6., 3., 18.,
          3., 4., 0., 3., 4., 3., 6., 5., 0., 3., 1., 1., 1., 2., 3., 2.,
          2., 8., 7., 7., 2., 0., 6., 4., 2., 7., 6., 13., 6., 2., 2.,
          2., 3., 6., 2. ]
      - [ 11., 1., 3., 4., 1., 7., 4., 2., 0., 0., 2., 5., 4., 6., 3.,
          5., 4., 1., 7., 2., 2., 3., 1., 5., 5., 1., 3., 7., 2., 9., 3.,
          3., 7., 6., 2., 0., 8., 6., 4., 8., 1., 2., 8., 5., 5., 7., 4.,
          2., 3., 7. ]
      - [ 8., 7., 3., 1., 1., 6., 11., 6., 1., 4., 0., 9., 2., 7., 10.,
          9., 2., 4., 1., 0., 1., 1., 3., 5., 11., 7., 1., 1., 0., 8.,
          1., 9., 4., 3., 8., 1., 3., 8., 1., 1., 2., 1., 1., 3., 3., 1.,
          3., 1., 5., 11. ]
      - [ 5., 3., 1., 2., 5., 6., 2., 0., 3., 3., 3., 6., 6., 4., 22.,
          0., 0., 2., 1., 7., 2., 20., 9., 0., 0., 0., 5., 8., 3., 4.,
          1., 1., 7., 5., 4., 0., 0., 5., 4., 4., 8., 0., 8., 3., 3., 6.,
          1., 5., 3., 0. ]
      - [ 7., 2., 1., 3., 4., 5., 3., 3., 7., 3., 2., 8., 8., 8., 6., 1.,
          6., 2., 5., 0., 4., 2., 9., 2., 1., 0., 3., 1., 1., 8., 10.,
          4., 1., 3., 7., 0., 2., 19., 4., 0., 7., 2., 0., 3., 4., 5.,
          4., 1., 8., 2. ]
      - [ 7., 3., 7., 2., 6., 7., 4., 3., 3., 0., 4., 15., 0., 6., 15.,
          0., 5., 3., 2., 1., 2., 3., 7., 0., 5., 4., 2., 2., 1., 9., 2.,
          6., 3., 5., 2., 3., 0., 4., 2., 6., 7., 1., 4., 4., 1., 5., 7.,
          0., 7., 3. ]
      - [ 6., 0., 3., 3., 2., 1., 3., 0., 0., 0., 1., 1., 4., 20., 3.,
          2., 0., 1., 6., 1., 1., 2., 2., 2., 1., 1., 2., 4., 7., 40.,
          3., 0., 4., 6., 6., 0., 5., 1., 16., 10., 1., 4., 8., 1., 2.,
          2., 2., 2., 3., 5. ]
      - [ 3., 6., 2., 3., 0., 1., 13., 3., 1., 5., 1., 0., 1., 6., 2.,
          8., 3., 3., 6., 2., 7., 0., 1., 13., 11., 6., 0., 2., 1., 4.,
          6., 9., 0., 3., 2., 1., 33., 0., 2., 4., 2., 2., 0., 3., 5.,
          2., 1., 1., 1., 9. ]
      - [ 8., 10., 5., 5., 1., 5., 1., 5., 7., 2., 0., 7., 1., 3., 4.,
          7., 8., 0., 1., 2., 12., 8., 1., 3., 0., 12., 1., 4., 0., 18.,
          2., 6., 0., 4., 6., 1., 4., 1., 3., 4., 0., 3., 1., 6., 5., 0.,
          1., 4., 2., 6. ]
      - [ 5., 8., 1., 2., 1., 0., 9., 6., 0., 2., 0., 3., 5., 6., 2.,
