%YAML:1.0
my_svm: !!opencv-ml-svm
   svm_type: C_SVC
   kernel: { type:RBF, gamma:2.2500000000000003e-003 }
   C: 1.2500000000000000e+001
   term_criteria: { epsilon:1.1920928955078125e-007, iterations:1000 }
   var_all: 50
   var_count: 50
   class_count: 2
   class_labels: !!opencv-matrix
      rows: 1
      cols: 2
      dt: i
      data: [ -1, 1 ]
   sv_total: 474
   support_vectors:
      - [ 9., 4., 1., 4., 2., 6., 9., 3., 0., 3., 5., 1., 2., 0., 4., 3.,
          5., 5., 4., 3., 2., 10., 5., 0., 4., 6., 5., 13., 2., 4., 1.,
          6., 0., 0., 1., 8., 3., 5., 3., 3., 3., 2., 2., 2., 6., 9.,
          12., 7., 2., 1. ]
      - [ 2., 2., 2., 5., 1., 2., 1., 6., 1., 1., 4., 6., 2., 4., 5., 0.,
          2., 12., 1., 0., 3., 4., 8., 0., 2., 6., 2., 7., 7., 0., 0.,
          6., 3., 0., 5., 5., 12., 6., 2., 6., 8., 2., 2., 2., 15., 2.,
          8., 2., 16., 0. ]
      - [ 8., 6., 0., 3., 3., 13., 7., 1., 7., 1., 1., 1., 3., 3., 8.,
          4., 1., 8., 7., 2., 1., 6., 4., 4., 2., 4., 2., 7., 5., 5., 4.,
          1., 0., 2., 2., 2., 1., 9., 0., 1., 1., 4., 3., 5., 7., 6.,
          15., 5., 2., 3. ]
      - [ 2., 1., 0., 6., 2., 4., 1., 2., 2., 2., 3., 1., 2., 4., 3., 1.,
          1., 6., 1., 1., 3., 4., 2., 1., 1., 2., 1., 9., 9., 0., 4., 6.,
          0., 3., 2., 7., 10., 2., 4., 0., 4., 4., 5., 0., 7., 3., 10.,
          8., 9., 3. ]
      - [ 4., 2., 1., 4., 5., 7., 3., 1., 7., 1., 1., 0., 8., 2., 6., 3.,
          4., 2., 6., 0., 2., 1., 2., 1., 5., 3., 4., 5., 0., 1., 4., 5.,
          2., 5., 2., 19., 3., 3., 3., 0., 3., 4., 4., 2., 4., 8., 21.,
          4., 3., 10. ]
      - [ 5., 0., 0., 10., 0., 13., 1., 8., 3., 5., 2., 3., 2., 4., 2.,
          3., 2., 11., 3., 2., 2., 5., 6., 1., 3., 5., 4., 5., 0., 1.,
          1., 2., 1., 3., 8., 7., 8., 7., 0., 4., 4., 2., 3., 4., 10.,
          7., 10., 4., 3., 1. ]
      - [ 7., 6., 0., 6., 4., 6., 2., 3., 1., 0., 1., 3., 0., 4., 6., 2.,
          3., 5., 6., 0., 3., 5., 1., 0., 2., 4., 8., 9., 2., 5., 2., 8.,
          5., 4., 1., 16., 5., 7., 1., 2., 1., 0., 3., 2., 7., 9., 10.,
          9., 3., 1. ]
      - [ 3., 2., 3., 3., 4., 8., 4., 8., 4., 0., 2., 4., 10., 9., 7.,
          1., 1., 9., 2., 4., 6., 3., 15., 2., 0., 4., 3., 2., 10., 0.,
          2., 2., 0., 2., 6., 1., 9., 2., 1., 4., 2., 3., 3., 6., 7., 0.,
          10., 2., 3., 2. ]
      - [ 6., 5., 8., 1., 5., 2., 5., 7., 7., 5., 13., 1., 9., 7., 14.,
          4., 1., 1., 0., 5., 2., 1., 4., 1., 5., 0., 2., 3., 0., 1., 3.,
          4., 2., 7., 5., 1., 5., 7., 1., 5., 0., 16., 2., 1., 3., 1.,
          0., 0., 1., 11. ]
      - [ 2., 3., 3., 9., 5., 4., 5., 2., 8., 1., 2., 3., 7., 6., 8., 4.,
          1., 1., 1., 4., 2., 2., 2., 1., 0., 0., 0., 2., 18., 0., 3.,
          5., 1., 4., 1., 15., 2., 10., 2., 1., 8., 8., 1., 5., 1., 0.,
          13., 0., 9., 5. ]
      - [ 4., 3., 8., 2., 4., 6., 6., 0., 9., 5., 0., 6., 8., 2., 10.,
          4., 0., 2., 1., 3., 1., 4., 1., 3., 6., 1., 2., 0., 7., 1., 3.,
          3., 0., 4., 3., 7., 3., 5., 1., 4., 8., 9., 0., 5., 3., 3., 4.,
          2., 10., 14. ]
      - [ 1., 3., 3., 2., 12., 2., 16., 0., 3., 0., 1., 1., 7., 6., 5.,
          2., 0., 1., 1., 3., 6., 8., 0., 5., 1., 1., 7., 0., 18., 0.,
          12., 1., 0., 4., 0., 2., 3., 0., 5., 1., 3., 5., 1., 11., 1.,
          4., 0., 0., 7., 25. ]
      - [ 6., 5., 1., 2., 3., 1., 9., 1., 7., 2., 5., 0., 12., 6., 6.,
          0., 0., 0., 3., 7., 3., 4., 2., 5., 2., 5., 4., 4., 2., 3., 7.,
          3., 1., 8., 2., 15., 1., 0., 4., 2., 4., 6., 3., 8., 1., 4.,
          4., 0., 4., 13. ]
      - [ 2., 5., 1., 3., 3., 8., 4., 5., 11., 1., 2., 3., 4., 2., 9.,
          1., 2., 3., 7., 2., 4., 3., 0., 8., 2., 4., 2., 0., 4., 0., 5.,
          5., 0., 3., 6., 17., 1., 6., 8., 3., 3., 2., 1., 2., 1., 2.,
          11., 2., 10., 7. ]
      - [ 3., 4., 5., 5., 1., 7., 4., 3., 4., 1., 5., 3., 5., 14., 12.,
          2., 0., 4., 1., 4., 4., 3., 3., 14., 8., 2., 0., 0., 0., 0.,
          7., 2., 3., 18., 4., 1., 2., 2., 2., 2., 3., 9., 0., 5., 2.,
          5., 0., 0., 2., 10. ]
      - [ 0., 6., 7., 9., 0., 6., 5., 5., 9., 1., 1., 6., 10., 14., 4.,
          0., 0., 3., 1., 0., 1., 1., 1., 0., 0., 4., 0., 0., 15., 1.,
          2., 0., 4., 5., 2., 2., 13., 1., 0., 2., 5., 5., 1., 6., 22.,
          2., 12., 2., 4., 0. ]
      - [ 1., 2., 1., 17., 2., 12., 2., 8., 2., 4., 2., 2., 4., 9., 3.,
          2., 0., 7., 4., 3., 0., 1., 8., 4., 3., 3., 0., 7., 5., 0., 0.,
          0., 2., 10., 3., 4., 16., 1., 0., 2., 9., 2., 1., 3., 15., 0.,
          4., 2., 5., 3. ]
      - [ 4., 0., 4., 2., 2., 7., 2., 5., 0., 0., 6., 3., 0., 2., 5., 4.,
          3., 2., 2., 0., 0., 4., 2., 0., 2., 3., 1., 0., 1., 3., 2., 5.,
          4., 4., 1., 15., 3., 0., 2., 3., 5., 1., 3., 2., 6., 3., 13.,
          7., 8., 0. ]
      - [ 2., 0., 0., 4., 2., 1., 1., 7., 1., 6., 0., 2., 3., 7., 1., 0.,
          0., 7., 6., 1., 0., 1., 5., 6., 6., 8., 1., 1., 28., 0., 3.,
          4., 1., 2., 5., 17., 10., 4., 1., 3., 7., 3., 7., 3., 3., 3.,
          11., 0., 6., 0. ]
      - [ 8., 2., 1., 7., 1., 4., 1., 7., 2., 4., 4., 1., 5., 1., 3., 0.,
          3., 11., 1., 4., 4., 8., 13., 2., 5., 21., 3., 7., 2., 1., 2.,
          1., 3., 3., 5., 1., 7., 5., 0., 3., 4., 2., 9., 1., 12., 3.,
          0., 4., 0., 0. ]
      - [ 2., 0., 3., 9., 3., 7., 1., 11., 2., 2., 2., 0., 2., 5., 4.,
          0., 2., 19., 4., 1., 2., 5., 8., 0., 2., 5., 6., 9., 2., 1.,
          0., 4., 0., 0., 8., 8., 7., 7., 3., 6., 9., 3., 2., 3., 10.,
          3., 5., 2., 1., 1. ]
      - [ 7., 9., 4., 3., 6., 3., 13., 1., 11., 4., 9., 4., 5., 1., 8.,
          4., 1., 2., 3., 3., 3., 5., 3., 3., 3., 0., 5., 1., 8., 1., 4.,
          4., 0., 4., 4., 3., 1., 6., 0., 2., 4., 2., 3., 9., 8., 1., 2.,
          2., 4., 4. ]
      - [ 8., 3., 4., 5., 1., 4., 7., 7., 3., 3., 1., 1., 2., 3., 1., 2.,
          4., 3., 3., 3., 8., 6., 5., 1., 4., 3., 3., 6., 11., 1., 0.,
          0., 2., 4., 2., 18., 6., 3., 1., 2., 4., 4., 5., 4., 3., 1.,
          4., 2., 17., 2. ]
      - [ 9., 6., 2., 4., 5., 11., 3., 3., 1., 2., 2., 5., 5., 3., 7.,
          4., 3., 3., 2., 1., 3., 5., 1., 2., 2., 8., 0., 0., 6., 6., 3.,
          2., 2., 7., 4., 1., 4., 8., 3., 2., 4., 6., 2., 7., 6., 4., 7.,
          5., 5., 4. ]
      - [ 7., 2., 4., 4., 2., 4., 8., 5., 5., 1., 3., 4., 9., 0., 4., 4.,
          0., 2., 4., 2., 1., 5., 4., 6., 4., 3., 10., 0., 2., 1., 3.,
          7., 1., 2., 1., 9., 1., 7., 4., 3., 3., 7., 2., 6., 2., 4., 4.,
          11., 9., 4. ]
      - [ 9., 5., 8., 8., 3., 4., 6., 2., 0., 2., 1., 6., 4., 8., 4., 8.,
          3., 0., 1., 2., 0., 4., 0., 2., 1., 3., 1., 0., 5., 6., 6., 1.,
          1., 11., 1., 2., 8., 6., 5., 4., 7., 3., 3., 9., 3., 1., 1.,
          0., 7., 15. ]
      - [ 0., 3., 6., 6., 0., 4., 3., 7., 3., 1., 5., 6., 4., 7., 5., 3.,
          4., 7., 0., 5., 4., 1., 9., 1., 0., 6., 0., 0., 13., 0., 4.,
          0., 2., 6., 3., 0., 13., 3., 0., 2., 17., 2., 1., 3., 14., 2.,
          0., 1., 12., 2. ]
      - [ 5., 5., 9., 3., 4., 3., 9., 1., 0., 2., 4., 7., 2., 8., 10.,
          1., 1., 1., 1., 3., 1., 10., 4., 2., 1., 3., 9., 0., 20., 1.,
          4., 0., 0., 5., 2., 3., 1., 3., 4., 8., 5., 8., 5., 8., 3., 0.,
          2., 3., 6., 0. ]
      - [ 3., 6., 5., 11., 2., 2., 15., 3., 1., 2., 5., 10., 6., 9., 7.,
          1., 3., 4., 0., 3., 0., 3., 10., 5., 3., 3., 0., 0., 9., 0.,
          5., 1., 1., 9., 1., 0., 3., 4., 1., 3., 12., 4., 2., 8., 10.,
          0., 0., 0., 1., 4. ]
      - [ 9., 1., 2., 6., 3., 6., 8., 5., 5., 2., 2., 2., 6., 2., 2., 4.,
          1., 3., 6., 1., 3., 3., 3., 4., 4., 2., 1., 1., 4., 2., 3., 4.,
          3., 1., 9., 11., 8., 8., 4., 5., 5., 4., 1., 1., 5., 3., 6.,
          2., 13., 1. ]
      - [ 7., 5., 9., 1., 1., 2., 8., 11., 6., 4., 4., 1., 5., 4., 15.,
          1., 1., 4., 2., 4., 6., 2., 5., 3., 7., 4., 0., 3., 1., 3., 1.,
          0., 3., 9., 11., 1., 4., 2., 1., 3., 2., 11., 2., 9., 7., 0.,
          0., 1., 0., 4. ]
      - [ 7., 1., 3., 1., 3., 2., 1., 5., 2., 2., 3., 3., 2., 4., 8., 3.,
          2., 3., 0., 1., 5., 11., 9., 2., 9., 4., 8., 1., 6., 4., 1.,
          3., 1., 0., 9., 11., 6., 4., 1., 3., 6., 4., 5., 2., 8., 4.,
          5., 6., 5., 1. ]
      - [ 4., 1., 1., 5., 3., 4., 2., 3., 2., 1., 2., 1., 0., 2., 6., 2.,
          6., 3., 0., 0., 1., 3., 0., 3., 3., 8., 4., 7., 9., 1., 4., 3.,
          2., 1., 4., 19., 3., 3., 2., 2., 8., 9., 10., 3., 5., 4., 19.,
          4., 8., 0. ]
      - [ 6., 6., 1., 6., 6., 4., 1., 1., 2., 0., 2., 3., 2., 1., 11.,
          5., 3., 2., 11., 2., 1., 2., 0., 6., 2., 4., 0., 0., 4., 5.,
          3., 12., 6., 5., 2., 16., 4., 7., 8., 1., 6., 4., 1., 4., 2.,
          4., 6., 0., 10., 0. ]
      - [ 1., 6., 5., 7., 3., 10., 3., 10., 1., 2., 4., 2., 0., 3., 6.,
          2., 1., 6., 1., 4., 2., 6., 6., 1., 4., 1., 4., 4., 3., 5., 1.,
          8., 4., 2., 1., 8., 3., 5., 5., 0., 9., 3., 0., 6., 8., 6., 4.,
          8., 4., 2. ]
      - [ 8., 0., 4., 6., 1., 3., 4., 7., 1., 4., 5., 5., 3., 6., 3., 3.,
          2., 3., 2., 1., 6., 10., 10., 3., 5., 2., 8., 3., 2., 2., 8.,
          3., 2., 2., 6., 6., 7., 4., 5., 4., 6., 4., 0., 2., 7., 0., 1.,
          5., 5., 1. ]
      - [ 7., 5., 6., 5., 3., 5., 2., 5., 0., 4., 3., 0., 4., 3., 6., 1.,
          3., 6., 1., 0., 4., 4., 10., 1., 2., 13., 5., 7., 0., 5., 3.,
          6., 6., 2., 8., 0., 10., 6., 3., 6., 2., 7., 4., 0., 5., 3.,
          1., 5., 3., 0. ]
      - [ 8., 12., 4., 2., 3., 7., 5., 3., 3., 0., 3., 7., 3., 4., 18.,
          1., 0., 1., 2., 2., 3., 0., 1., 2., 4., 1., 0., 0., 1., 6., 5.,
          1., 5., 6., 6., 8., 1., 8., 5., 3., 5., 6., 0., 4., 7., 3., 8.,
          5., 5., 3. ]
      - [ 11., 1., 1., 4., 1., 2., 0., 0., 0., 0., 2., 0., 0., 0., 1.,
          5., 1., 0., 8., 1., 0., 5., 0., 0., 1., 4., 3., 2., 12., 1.,
          0., 8., 3., 1., 0., 7., 0., 4., 2., 0., 0., 0., 0., 0., 0., 3.,
          3., 3., 11., 2. ]
      - [ 4., 7., 4., 8., 1., 5., 4., 3., 3., 0., 3., 1., 7., 2., 3., 3.,
          4., 5., 0., 3., 1., 7., 2., 7., 6., 2., 8., 6., 4., 3., 6., 2.,
          1., 4., 7., 13., 5., 3., 2., 6., 2., 4., 2., 2., 2., 2., 3.,
          1., 7., 10. ]
      - [ 1., 7., 4., 0., 1., 2., 8., 8., 5., 0., 1., 7., 11., 8., 11.,
          0., 0., 2., 0., 4., 1., 1., 1., 1., 5., 0., 1., 0., 25., 2.,
          4., 0., 5., 6., 5., 6., 3., 2., 0., 0., 6., 4., 0., 7., 18.,
          1., 1., 1., 10., 4. ]
      - [ 9., 4., 2., 2., 2., 5., 5., 5., 0., 4., 7., 0., 0., 2., 6., 2.,
          8., 5., 4., 1., 0., 5., 4., 3., 8., 13., 14., 5., 2., 1., 6.,
          3., 1., 1., 4., 7., 0., 7., 3., 4., 6., 1., 3., 1., 2., 10.,
          7., 5., 1., 0. ]
      - [ 8., 2., 6., 2., 3., 5., 3., 2., 7., 3., 4., 0., 7., 3., 4., 3.,
          3., 3., 9., 4., 0., 11., 1., 3., 4., 6., 3., 5., 6., 1., 4.,
          4., 1., 4., 1., 1., 2., 6., 4., 8., 5., 4., 3., 4., 7., 4., 1.,
          7., 1., 8. ]
      - [ 5., 4., 10., 3., 2., 4., 7., 6., 2., 2., 2., 3., 5., 4., 5.,
          2., 1., 5., 1., 8., 1., 3., 6., 2., 7., 9., 1., 1., 6., 1., 5.,
          1., 1., 6., 6., 3., 2., 4., 3., 5., 0., 15., 2., 4., 3., 1.,
          0., 0., 2., 19. ]
      - [ 4., 5., 0., 0., 3., 5., 4., 1., 0., 1., 0., 1., 3., 6., 10.,
          3., 3., 0., 5., 1., 2., 9., 1., 4., 4., 7., 11., 1., 8., 3.,
          3., 7., 3., 0., 0., 17., 0., 8., 4., 1., 2., 3., 2., 2., 3.,
          10., 11., 5., 8., 6. ]
      - [ 5., 3., 2., 10., 6., 3., 4., 4., 4., 0., 3., 7., 1., 7., 2.,
          1., 0., 2., 4., 2., 2., 3., 13., 4., 4., 1., 1., 12., 8., 0.,
          5., 3., 1., 4., 2., 9., 7., 3., 2., 1., 7., 5., 0., 4., 11.,
          6., 4., 4., 4., 0. ]
      - [ 7., 7., 6., 7., 1., 6., 6., 4., 5., 1., 9., 1., 8., 4., 3., 4.,
          3., 7., 8., 3., 1., 1., 2., 3., 2., 4., 1., 1., 3., 2., 4., 8.,
          1., 3., 3., 2., 0., 4., 2., 4., 7., 9., 1., 5., 1., 5., 6., 3.,
          5., 7. ]
      - [ 6., 5., 3., 10., 2., 2., 7., 4., 5., 3., 6., 8., 5., 11., 4.,
          2., 1., 7., 0., 2., 3., 1., 8., 3., 0., 2., 1., 2., 9., 2., 2.,
          2., 3., 8., 2., 2., 10., 2., 0., 2., 5., 1., 7., 7., 7., 0.,
          0., 0., 12., 4. ]
      - [ 2., 0., 1., 5., 0., 8., 3., 3., 6., 2., 1., 6., 6., 4., 3., 0.,
          1., 10., 2., 1., 3., 2., 6., 1., 3., 4., 0., 5., 20., 0., 2.,
          1., 0., 2., 4., 2., 6., 6., 4., 1., 3., 2., 7., 3., 8., 0.,
          11., 3., 11., 16. ]
      - [ 2., 2., 2., 7., 1., 3., 1., 4., 2., 5., 2., 4., 3., 12., 5.,
          4., 0., 5., 3., 2., 2., 2., 11., 4., 5., 2., 3., 4., 11., 1.,
          2., 1., 0., 2., 4., 9., 30., 0., 0., 1., 9., 1., 1., 2., 9.,
          0., 3., 2., 9., 1. ]
      - [ 0., 3., 2., 6., 2., 2., 5., 7., 0., 3., 3., 3., 1., 12., 1.,
          3., 3., 5., 5., 1., 3., 4., 10., 3., 3., 4., 3., 4., 6., 2.,
          3., 11., 1., 4., 2., 2., 15., 3., 3., 4., 5., 4., 4., 3., 6.,
          3., 2., 7., 9., 0. ]
      - [ 3., 5., 5., 19., 2., 0., 10., 7., 4., 2., 1., 11., 3., 10., 2.,
          0., 0., 8., 0., 5., 2., 0., 2., 5., 3., 3., 0., 0., 5., 2., 5.,
          0., 3., 4., 0., 0., 19., 4., 0., 1., 11., 8., 1., 6., 8., 1.,
          0., 1., 3., 6. ]
      - [ 6., 7., 3., 10., 6., 5., 8., 7., 3., 1., 3., 3., 5., 4., 8.,
          4., 2., 5., 2., 3., 2., 2., 9., 0., 3., 5., 1., 2., 2., 3., 4.,
          1., 3., 5., 0., 3., 9., 4., 0., 0., 6., 8., 1., 4., 9., 5., 9.,
          3., 2., 0. ]
      - [ 6., 3., 2., 2., 3., 9., 2., 7., 0., 2., 9., 1., 2., 4., 4., 3.,
          1., 5., 3., 3., 5., 11., 4., 3., 5., 4., 7., 0., 2., 1., 2.,
          3., 3., 0., 5., 8., 2., 3., 2., 1., 5., 5., 2., 6., 3., 4.,
          12., 17., 3., 1. ]
      - [ 5., 2., 7., 3., 2., 5., 3., 6., 4., 1., 4., 0., 4., 2., 5., 0.,
          1., 5., 1., 1., 2., 2., 3., 6., 6., 4., 6., 1., 6., 0., 3., 2.,
          4., 6., 2., 16., 2., 0., 2., 4., 6., 4., 2., 1., 2., 1., 24.,
          5., 9., 8. ]
      - [ 10., 3., 9., 3., 1., 1., 0., 3., 7., 6., 8., 0., 13., 1., 13.,
          7., 4., 2., 2., 9., 0., 7., 5., 3., 5., 9., 2., 0., 0., 2., 1.,
          0., 2., 2., 9., 0., 2., 3., 2., 6., 5., 10., 2., 4., 2., 2.,
          0., 0., 0., 13. ]
      - [ 3., 1., 5., 2., 3., 8., 1., 8., 3., 2., 2., 0., 5., 3., 1., 0.,
          2., 15., 4., 3., 1., 2., 9., 2., 2., 5., 2., 12., 9., 1., 2.,
          6., 1., 2., 4., 5., 2., 5., 0., 0., 1., 3., 7., 4., 12., 4.,
          17., 7., 2., 0. ]
      - [ 2., 1., 0., 7., 0., 5., 5., 4., 2., 7., 8., 7., 1., 4., 1., 1.,
          5., 6., 0., 0., 1., 5., 5., 0., 4., 6., 3., 10., 4., 2., 2.,
          2., 2., 2., 3., 8., 4., 9., 0., 2., 7., 1., 3., 1., 17., 5.,
          6., 13., 7., 0. ]
      - [ 11., 5., 6., 4., 2., 3., 5., 3., 5., 3., 10., 1., 3., 1., 7.,
          5., 3., 1., 2., 5., 0., 6., 1., 1., 5., 9., 2., 9., 2., 4., 0.,
          2., 4., 5., 2., 6., 9., 4., 5., 1., 6., 5., 1., 2., 7., 4., 2.,
          8., 0., 3. ]
      - [ 0., 0., 2., 7., 2., 4., 9., 4., 0., 2., 0., 2., 2., 3., 0., 1.,
          4., 11., 1., 1., 5., 2., 2., 6., 2., 3., 4., 1., 33., 0., 2.,
          0., 1., 4., 0., 4., 4., 4., 0., 3., 4., 2., 6., 9., 6., 1.,
          14., 3., 13., 7. ]
      - [ 1., 4., 2., 1., 3., 1., 6., 0., 3., 1., 0., 6., 5., 0., 4., 0.,
          0., 0., 3., 3., 0., 2., 0., 2., 0., 0., 3., 0., 15., 0., 4.,
          2., 0., 1., 1., 11., 0., 3., 0., 0., 0., 1., 0., 3., 0., 3.,
          2., 0., 11., 5. ]
      - [ 4., 6., 3., 6., 1., 6., 2., 2., 3., 4., 2., 2., 1., 5., 5., 2.,
          0., 2., 2., 1., 2., 4., 1., 1., 7., 1., 9., 4., 24., 0., 2.,
          4., 0., 1., 0., 6., 5., 7., 2., 3., 7., 5., 3., 2., 6., 0.,
          22., 4., 4., 5. ]
      - [ 6., 5., 5., 4., 2., 8., 2., 5., 2., 6., 3., 1., 2., 1., 7., 5.,
          1., 6., 2., 4., 3., 8., 3., 6., 4., 2., 2., 5., 6., 3., 2., 1.,
          1., 1., 5., 5., 8., 5., 0., 4., 10., 13., 1., 1., 6., 3., 3.,
          6., 5., 1. ]
      - [ 7., 6., 7., 3., 5., 2., 5., 5., 6., 2., 6., 1., 4., 1., 6., 5.,
          2., 2., 5., 2., 3., 6., 3., 6., 3., 5., 6., 0., 1., 5., 14.,
          2., 2., 6., 3., 6., 1., 4., 3., 5., 5., 4., 2., 5., 2., 5., 2.,
          5., 4., 0. ]
      - [ 5., 7., 2., 11., 0., 3., 3., 4., 2., 6., 3., 2., 7., 4., 4.,
          2., 2., 5., 5., 1., 3., 8., 3., 3., 5., 9., 4., 4., 4., 6., 2.,
          3., 2., 1., 4., 5., 9., 8., 1., 2., 6., 6., 7., 2., 10., 0.,
          1., 1., 2., 1. ]
      - [ 6., 1., 5., 2., 7., 3., 5., 2., 4., 1., 4., 0., 8., 5., 6., 2.,
          0., 1., 6., 4., 5., 9., 0., 3., 7., 4., 0., 4., 0., 1., 8., 5.,
          5., 12., 7., 5., 2., 5., 6., 3., 4., 11., 0., 1., 0., 2., 2.,
          3., 1., 13. ]
      - [ 11., 6., 3., 1., 6., 1., 4., 2., 4., 1., 2., 1., 3., 1., 9.,
          2., 3., 2., 8., 0., 1., 6., 2., 4., 4., 4., 6., 0., 6., 7., 2.,
          12., 2., 3., 3., 9., 0., 5., 8., 8., 1., 1., 4., 2., 1., 3.,
          13., 4., 5., 4. ]
      - [ 5., 3., 1., 6., 11., 12., 14., 0., 9., 0., 4., 6., 1., 2., 0.,
          0., 1., 3., 0., 1., 0., 5., 3., 1., 1., 0., 0., 0., 15., 0.,
          9., 0., 0., 4., 3., 1., 5., 4., 3., 0., 4., 10., 2., 12., 1.,
          13., 3., 3., 11., 8. ]
      - [ 4., 5., 3., 2., 1., 6., 6., 3., 9., 2., 11., 1., 12., 11., 5.,
          3., 0., 4., 2., 0., 4., 1., 4., 2., 4., 0., 1., 0., 1., 3., 7.,
          3., 4., 12., 3., 4., 6., 5., 3., 4., 1., 6., 0., 6., 4., 0.,
          1., 0., 2., 19. ]
      - [ 8., 1., 3., 1., 3., 5., 4., 2., 2., 2., 1., 6., 0., 5., 2., 3.,
          3., 4., 6., 2., 1., 7., 2., 6., 3., 6., 3., 5., 7., 2., 2.,
          10., 0., 2., 1., 15., 0., 4., 4., 2., 3., 0., 3., 4., 0., 3.,
          17., 10., 10., 5. ]
      - [ 1., 0., 0., 4., 0., 7., 1., 7., 2., 5., 0., 5., 5., 13., 2.,
          2., 4., 23., 3., 0., 9., 2., 12., 6., 6., 10., 1., 7., 0., 1.,
          4., 1., 1., 6., 4., 0., 8., 2., 0., 2., 2., 7., 6., 1., 10.,
          2., 4., 0., 2., 1. ]
      - [ 3., 5., 2., 6., 6., 4., 8., 2., 1., 3., 1., 11., 3., 5., 9.,
          1., 0., 3., 1., 2., 1., 6., 0., 5., 4., 1., 6., 0., 15., 0.,
          2., 3., 1., 6., 4., 12., 3., 5., 2., 3., 5., 2., 0., 3., 3.,
          1., 13., 2., 14., 2. ]
      - [ 5., 2., 2., 12., 0., 4., 2., 4., 1., 4., 2., 4., 0., 3., 1.,
          0., 4., 18., 3., 0., 1., 5., 11., 1., 1., 9., 6., 20., 7., 0.,
          2., 6., 5., 3., 1., 8., 4., 5., 2., 0., 8., 1., 3., 2., 4., 2.,
          10., 1., 1., 0. ]
      - [ 13., 2., 0., 3., 3., 7., 2., 2., 2., 3., 1., 2., 1., 2., 7.,
          4., 5., 2., 4., 0., 1., 8., 1., 1., 1., 15., 5., 11., 0., 9.,
          0., 4., 10., 3., 1., 16., 0., 8., 4., 1., 0., 4., 4., 2., 2.,
          10., 8., 3., 2., 1. ]
      - [ 4., 3., 6., 8., 1., 0., 1., 14., 0., 4., 6., 0., 0., 12., 3.,
          3., 2., 19., 3., 1., 2., 3., 10., 3., 7., 8., 3., 17., 0., 1.,
          3., 0., 1., 8., 3., 0., 12., 3., 1., 2., 9., 1., 7., 0., 7.,
          0., 0., 0., 0., 0. ]
      - [ 2., 2., 4., 12., 0., 2., 12., 2., 2., 0., 2., 11., 3., 3., 6.,
          1., 4., 2., 1., 2., 1., 6., 0., 3., 1., 0., 1., 2., 36., 1.,
          5., 1., 0., 3., 2., 4., 7., 2., 2., 1., 10., 5., 1., 9., 16.,
          2., 0., 0., 4., 3. ]
      - [ 6., 9., 4., 1., 5., 0., 14., 4., 11., 0., 3., 3., 9., 0., 4.,
          4., 0., 0., 2., 7., 1., 2., 1., 2., 1., 3., 2., 1., 6., 2., 5.,
          1., 4., 1., 6., 5., 3., 5., 0., 6., 4., 12., 2., 8., 2., 1.,
          0., 1., 6., 21. ]
      - [ 4., 1., 1., 3., 2., 1., 8., 2., 2., 0., 4., 0., 3., 6., 1., 2.,
          3., 5., 2., 2., 6., 6., 14., 2., 2., 3., 8., 7., 8., 0., 5.,
          2., 0., 4., 1., 14., 8., 0., 0., 2., 2., 3., 1., 4., 6., 8.,
          17., 7., 6., 2. ]
      - [ 4., 5., 6., 2., 2., 5., 3., 11., 16., 4., 5., 2., 12., 5., 8.,
          4., 1., 2., 1., 1., 2., 2., 4., 5., 2., 4., 0., 0., 3., 2., 4.,
          0., 3., 7., 5., 0., 5., 4., 1., 4., 9., 15., 1., 3., 2., 3.,
          0., 0., 0., 11. ]
      - [ 7., 7., 9., 4., 3., 2., 1., 11., 4., 2., 6., 0., 6., 2., 9.,
          2., 4., 0., 1., 2., 1., 11., 3., 2., 5., 6., 4., 7., 3., 2.,
          5., 4., 3., 5., 9., 6., 3., 7., 2., 6., 7., 3., 2., 1., 3., 2.,
          2., 0., 1., 3. ]
      - [ 3., 1., 1., 13., 3., 5., 3., 4., 1., 2., 3., 9., 8., 5., 3.,
          1., 0., 16., 3., 0., 0., 2., 8., 0., 1., 3., 0., 5., 5., 1.,
          1., 2., 0., 0., 5., 13., 10., 2., 0., 1., 13., 3., 1., 4., 16.,
          2., 5., 3., 6., 0. ]
      - [ 9., 4., 5., 1., 3., 3., 2., 1., 3., 3., 3., 1., 2., 1., 5., 2.,
          1., 4., 6., 1., 3., 4., 3., 4., 1., 4., 5., 0., 3., 4., 5., 7.,
          3., 1., 4., 16., 0., 10., 5., 4., 4., 2., 5., 3., 2., 3., 20.,
          9., 6., 0. ]
      - [ 1., 12., 3., 4., 5., 4., 7., 3., 11., 0., 0., 4., 9., 2., 13.,
          2., 0., 0., 6., 3., 1., 3., 0., 3., 2., 3., 3., 0., 10., 2.,
          3., 2., 1., 2., 2., 5., 4., 5., 1., 2., 7., 6., 1., 7., 6., 5.,
          4., 2., 6., 13. ]
      - [ 2., 3., 7., 4., 3., 5., 2., 2., 1., 1., 4., 1., 1., 7., 4., 3.,
          4., 2., 0., 2., 3., 6., 4., 2., 1., 1., 4., 4., 11., 2., 7.,
          0., 1., 5., 8., 10., 6., 7., 9., 1., 3., 5., 1., 2., 5., 4.,
          9., 1., 16., 4. ]
      - [ 6., 1., 3., 2., 1., 8., 5., 2., 4., 4., 6., 3., 7., 3., 4., 2.,
          0., 5., 1., 1., 4., 2., 6., 1., 2., 2., 5., 8., 13., 1., 2.,
          5., 1., 6., 2., 4., 4., 3., 3., 2., 7., 9., 3., 4., 2., 4., 4.,
          3., 10., 10. ]
      - [ 1., 4., 12., 1., 0., 1., 11., 7., 8., 0., 2., 1., 4., 9., 7.,
          0., 1., 2., 1., 10., 1., 2., 2., 6., 3., 2., 0., 1., 14., 1.,
          6., 1., 0., 9., 3., 0., 5., 3., 0., 8., 4., 8., 2., 5., 3., 1.,
          0., 0., 6., 22. ]
      - [ 5., 7., 1., 0., 6., 9., 5., 2., 4., 2., 4., 5., 5., 0., 5., 4.,
          3., 0., 11., 1., 0., 2., 0., 3., 4., 2., 4., 0., 0., 1., 7.,
          3., 2., 2., 1., 21., 1., 9., 3., 0., 1., 6., 1., 5., 0., 7.,
          11., 1., 16., 8. ]
      - [ 5., 2., 3., 7., 2., 5., 2., 8., 3., 7., 7., 2., 4., 14., 3.,
          1., 1., 20., 1., 2., 3., 1., 19., 3., 4., 8., 1., 2., 0., 0.,
          2., 0., 5., 4., 1., 1., 6., 8., 2., 3., 1., 5., 6., 4., 4., 0.,
          0., 0., 9., 0. ]
      - [ 3., 0., 4., 14., 0., 7., 5., 4., 1., 4., 1., 13., 4., 7., 2.,
          3., 2., 15., 0., 2., 2., 3., 3., 5., 5., 5., 0., 3., 2., 1.,
          1., 0., 1., 4., 6., 1., 15., 4., 3., 1., 5., 6., 2., 3., 21.,
          1., 1., 4., 1., 0. ]
      - [ 5., 8., 1., 5., 3., 2., 14., 2., 5., 9., 1., 4., 7., 9., 8.,
          0., 0., 3., 1., 3., 2., 0., 2., 4., 7., 0., 0., 0., 29., 1.,
          6., 0., 1., 2., 8., 1., 5., 6., 1., 1., 7., 4., 0., 8., 7., 1.,
          0., 0., 3., 4. ]
      - [ 15., 7., 1., 2., 3., 7., 7., 3., 4., 2., 0., 4., 6., 4., 4.,
          7., 4., 2., 2., 1., 1., 2., 0., 2., 1., 9., 0., 1., 15., 4.,
          6., 0., 7., 9., 0., 5., 4., 4., 1., 6., 1., 6., 2., 4., 3., 2.,
          4., 8., 7., 2. ]
      - [ 5., 4., 4., 10., 2., 6., 5., 6., 8., 3., 0., 4., 3., 6., 7.,
          3., 0., 0., 1., 2., 1., 0., 3., 5., 2., 2., 3., 5., 4., 4., 5.,
          3., 2., 2., 6., 18., 1., 2., 1., 5., 4., 2., 2., 5., 6., 0.,
          16., 0., 9., 3. ]
      - [ 5., 3., 4., 8., 3., 4., 3., 10., 0., 0., 5., 5., 5., 10., 2.,
          2., 0., 7., 1., 3., 2., 1., 11., 3., 2., 5., 4., 7., 8., 3.,
          1., 1., 0., 1., 14., 3., 8., 5., 0., 6., 8., 2., 2., 6., 8.,
          2., 2., 2., 2., 1. ]
      - [ 3., 3., 3., 11., 2., 3., 6., 4., 1., 2., 3., 0., 6., 3., 5.,
          0., 2., 6., 1., 3., 5., 2., 3., 3., 7., 8., 1., 5., 6., 2., 3.,
          1., 1., 6., 5., 5., 18., 1., 2., 1., 14., 3., 5., 5., 8., 0.,
          7., 1., 5., 1. ]
      - [ 5., 1., 1., 10., 0., 2., 1., 1., 2., 0., 4., 2., 2., 8., 7.,
          2., 3., 13., 6., 0., 2., 5., 2., 0., 2., 6., 4., 5., 6., 4.,
          0., 1., 0., 1., 4., 7., 14., 1., 2., 1., 4., 0., 8., 1., 10.,
          10., 11., 11., 5., 3. ]
      - [ 2., 3., 0., 0., 3., 4., 1., 3., 0., 1., 0., 9., 6., 3., 5., 0.,
          2., 2., 0., 0., 1., 1., 11., 9., 1., 2., 1., 7., 4., 0., 2.,
          1., 1., 1., 1., 23., 1., 2., 1., 0., 4., 1., 1., 4., 2., 1.,
          9., 2., 8., 1. ]
      - [ 17., 2., 4., 7., 0., 5., 1., 3., 0., 7., 1., 0., 1., 2., 9.,
          6., 9., 3., 0., 3., 2., 9., 0., 3., 6., 14., 3., 4., 4., 7.,
          1., 1., 3., 2., 6., 1., 3., 8., 0., 1., 12., 6., 7., 3., 6.,
          5., 0., 2., 0., 1. ]
      - [ 8., 0., 2., 5., 3., 5., 3., 2., 5., 3., 6., 4., 4., 4., 2., 3.,
          5., 3., 3., 2., 1., 10., 5., 3., 5., 6., 7., 9., 6., 2., 0.,
          3., 1., 5., 4., 17., 4., 1., 4., 4., 3., 4., 3., 2., 2., 5.,
          0., 2., 8., 2. ]
      - [ 11., 3., 3., 10., 1., 6., 1., 4., 1., 2., 6., 4., 0., 3., 5.,
          8., 0., 1., 3., 5., 0., 7., 6., 0., 2., 1., 3., 7., 4., 2., 1.,
          2., 4., 7., 1., 11., 7., 3., 2., 3., 15., 1., 5., 1., 7., 6.,
          5., 7., 2., 1. ]
      - [ 12., 4., 6., 1., 4., 7., 1., 1., 2., 3., 1., 0., 1., 0., 5.,
          7., 3., 3., 7., 2., 0., 12., 1., 1., 7., 2., 8., 9., 0., 0.,
          0., 4., 1., 1., 2., 26., 0., 3., 1., 1., 2., 1., 4., 1., 0.,
          15., 12., 10., 1., 5. ]
      - [ 10., 1., 6., 3., 3., 1., 4., 8., 1., 6., 8., 3., 4., 14., 3.,
          2., 3., 9., 3., 1., 4., 4., 11., 1., 7., 5., 0., 7., 8., 3.,
          4., 3., 1., 5., 2., 3., 3., 3., 1., 2., 3., 7., 8., 0., 2., 3.,
          3., 4., 0., 0. ]
      - [ 3., 2., 2., 11., 3., 8., 5., 4., 8., 3., 7., 0., 4., 5., 12.,
          3., 1., 2., 4., 4., 2., 3., 2., 5., 3., 2., 1., 0., 4., 1., 7.,
          3., 3., 7., 4., 0., 5., 6., 1., 3., 8., 14., 0., 4., 7., 3.,
          2., 0., 4., 5. ]
      - [ 7., 6., 4., 17., 5., 0., 3., 3., 4., 1., 4., 2., 3., 5., 5.,
          4., 2., 1., 6., 1., 1., 1., 2., 2., 4., 1., 1., 1., 7., 1., 4.,
          0., 1., 3., 1., 6., 8., 2., 0., 4., 30., 5., 0., 3., 2., 4.,
          6., 0., 8., 10. ]
      - [ 4., 5., 3., 2., 0., 6., 2., 7., 2., 2., 6., 0., 1., 11., 5.,
          0., 0., 20., 4., 1., 9., 5., 15., 2., 7., 5., 1., 4., 7., 1.,
          1., 4., 0., 2., 7., 8., 4., 6., 2., 1., 3., 6., 1., 1., 7., 2.,
          8., 0., 0., 0. ]
      - [ 4., 5., 11., 10., 8., 3., 5., 7., 4., 1., 6., 1., 11., 4., 10.,
          1., 3., 3., 2., 3., 1., 2., 2., 4., 3., 4., 4., 5., 2., 2., 5.,
          1., 0., 3., 6., 1., 3., 3., 1., 4., 7., 10., 1., 2., 1., 2.,
          1., 3., 1., 15. ]
      - [ 5., 1., 3., 0., 1., 7., 1., 1., 3., 2., 1., 1., 2., 1., 4., 2.,
          0., 2., 7., 0., 0., 14., 0., 2., 2., 4., 10., 6., 0., 0., 4.,
          8., 1., 1., 2., 27., 0., 7., 2., 0., 1., 5., 4., 4., 1., 7.,
          27., 6., 3., 8. ]
      - [ 8., 5., 7., 4., 1., 6., 6., 8., 5., 0., 7., 8., 10., 3., 4.,
          4., 0., 3., 2., 3., 2., 6., 3., 1., 3., 3., 4., 1., 10., 3.,
          3., 0., 1., 5., 2., 1., 2., 5., 0., 5., 9., 14., 2., 6., 8.,
          1., 1., 1., 2., 2. ]
      - [ 6., 5., 6., 2., 2., 8., 4., 2., 12., 3., 4., 1., 13., 3., 8.,
          2., 1., 1., 2., 5., 4., 7., 1., 3., 2., 1., 0., 0., 1., 1., 3.,
          6., 6., 7., 2., 2., 1., 3., 1., 4., 3., 18., 1., 2., 1., 3.,
          3., 1., 4., 19. ]
      - [ 10., 4., 2., 3., 4., 4., 5., 3., 2., 4., 7., 1., 4., 1., 3.,
          8., 3., 3., 4., 5., 3., 11., 4., 0., 2., 10., 1., 3., 4., 4.,
          2., 4., 6., 4., 1., 9., 4., 8., 4., 2., 0., 3., 2., 7., 4., 3.,
          4., 7., 2., 2. ]
      - [ 4., 8., 1., 0., 8., 2., 5., 2., 7., 2., 3., 7., 3., 1., 8., 0.,
          0., 5., 3., 1., 1., 3., 1., 2., 2., 2., 2., 1., 43., 0., 3.,
          0., 0., 4., 2., 3., 4., 1., 3., 7., 4., 3., 0., 2., 3., 1.,
          10., 3., 9., 11. ]
      - [ 4., 5., 7., 6., 0., 9., 8., 9., 6., 2., 0., 2., 10., 3., 12.,
          0., 2., 11., 0., 3., 0., 1., 5., 3., 4., 6., 4., 3., 0., 3.,
          5., 1., 1., 4., 6., 0., 2., 5., 0., 4., 10., 6., 8., 1., 10.,
          1., 3., 1., 3., 1. ]
      - [ 6., 9., 3., 2., 3., 3., 2., 4., 3., 2., 3., 3., 6., 3., 11.,
          4., 7., 0., 6., 1., 2., 4., 1., 2., 3., 10., 5., 1., 6., 6.,
          5., 0., 4., 1., 2., 11., 3., 5., 4., 1., 2., 6., 4., 2., 7.,
          3., 10., 3., 1., 5. ]
      - [ 4., 7., 2., 2., 1., 10., 5., 2., 3., 0., 2., 6., 4., 1., 9.,
          1., 1., 3., 3., 1., 2., 2., 0., 5., 7., 1., 5., 2., 8., 0., 4.,
          2., 2., 3., 4., 11., 1., 11., 4., 1., 4., 7., 1., 4., 7., 2.,
          6., 3., 14., 10. ]
      - [ 1., 1., 1., 0., 6., 5., 1., 4., 9., 3., 1., 1., 8., 7., 5., 1.,
          2., 1., 2., 1., 1., 9., 0., 1., 2., 4., 6., 2., 11., 0., 2.,
          2., 0., 4., 0., 25., 0., 0., 2., 3., 2., 9., 1., 3., 2., 0.,
          12., 12., 16., 9. ]
      - [ 8., 8., 3., 2., 2., 4., 2., 1., 2., 0., 0., 3., 0., 0., 7., 7.,
          2., 3., 2., 2., 0., 6., 1., 0., 0., 2., 3., 1., 1., 2., 1., 2.,
          4., 2., 1., 10., 4., 4., 1., 2., 1., 0., 1., 4., 3., 5., 15.,
          11., 5., 0. ]
      - [ 5., 0., 0., 5., 5., 6., 4., 8., 1., 2., 2., 3., 3., 6., 5., 2.,
          4., 13., 5., 3., 4., 5., 8., 3., 5., 7., 4., 2., 1., 2., 3.,
          0., 4., 1., 6., 9., 9., 4., 1., 6., 4., 1., 5., 3., 12., 1.,
          2., 3., 3., 0. ]
      - [ 3., 9., 1., 4., 3., 3., 4., 2., 2., 2., 7., 2., 3., 4., 8., 0.,
          3., 6., 5., 2., 0., 6., 1., 5., 1., 9., 10., 1., 5., 2., 1.,
          7., 8., 7., 1., 9., 2., 7., 3., 3., 2., 5., 1., 3., 1., 4.,
          11., 4., 6., 2. ]
      - [ 4., 8., 6., 1., 4., 1., 5., 7., 6., 2., 10., 2., 11., 4., 13.,
          4., 2., 4., 1., 3., 5., 3., 6., 5., 3., 3., 0., 1., 2., 4., 6.,
          4., 2., 4., 4., 0., 1., 5., 1., 5., 4., 16., 0., 2., 3., 5.,
          1., 1., 3., 3. ]
      - [ 5., 6., 4., 3., 4., 5., 6., 3., 13., 2., 4., 1., 1., 3., 7.,
          3., 4., 1., 4., 5., 0., 12., 2., 0., 3., 2., 6., 2., 2., 2.,
          1., 3., 0., 0., 4., 11., 5., 6., 4., 0., 1., 7., 3., 3., 3.,
          12., 6., 4., 0., 12. ]
      - [ 8., 5., 7., 0., 3., 3., 5., 6., 14., 1., 2., 4., 17., 4., 7.,
          4., 1., 7., 1., 5., 3., 2., 5., 2., 6., 0., 2., 3., 2., 2., 7.,
          0., 4., 8., 1., 1., 1., 1., 1., 1., 3., 16., 1., 10., 3., 4.,
          0., 0., 1., 6. ]
      - [ 3., 7., 8., 0., 3., 1., 9., 4., 4., 4., 4., 5., 7., 7., 6., 1.,
          1., 1., 0., 3., 2., 1., 1., 3., 7., 1., 1., 0., 14., 1., 4.,
          2., 2., 8., 2., 1., 4., 2., 1., 6., 9., 5., 1., 6., 6., 1., 0.,
          0., 13., 18. ]
      - [ 5., 0., 1., 2., 5., 3., 2., 1., 3., 3., 8., 0., 2., 2., 1., 1.,
          1., 3., 5., 0., 5., 8., 6., 5., 5., 5., 4., 3., 2., 2., 6., 7.,
          3., 5., 1., 3., 0., 4., 9., 2., 4., 3., 0., 1., 1., 7., 1., 3.,
          0., 1. ]
      - [ 3., 5., 7., 1., 2., 6., 5., 2., 8., 0., 3., 4., 16., 6., 10.,
          1., 0., 3., 1., 10., 2., 1., 1., 3., 3., 1., 2., 0., 1., 6.,
          8., 1., 1., 6., 3., 1., 1., 5., 2., 9., 4., 16., 1., 4., 1.,
          4., 0., 5., 3., 12. ]
      - [ 9., 1., 5., 1., 4., 7., 4., 8., 3., 2., 7., 1., 3., 5., 2., 2.,
          3., 7., 1., 6., 0., 2., 4., 0., 2., 3., 6., 4., 3., 2., 2., 6.,
          2., 0., 10., 3., 6., 1., 4., 5., 4., 3., 0., 4., 7., 5., 8.,
          13., 8., 0. ]
      - [ 5., 4., 3., 8., 3., 7., 8., 4., 6., 2., 3., 8., 1., 5., 4., 3.,
          0., 3., 2., 1., 3., 2., 4., 7., 4., 2., 0., 3., 9., 0., 11.,
          4., 1., 8., 3., 6., 1., 5., 2., 2., 5., 5., 2., 9., 1., 1., 7.,
          1., 8., 4. ]
      - [ 2., 3., 3., 12., 0., 2., 0., 9., 0., 2., 0., 14., 1., 2., 0.,
          1., 2., 12., 3., 4., 1., 3., 6., 0., 3., 6., 2., 9., 11., 2.,
          0., 1., 0., 0., 2., 6., 11., 2., 0., 3., 6., 0., 5., 0., 15.,
          1., 5., 5., 4., 0. ]
      - [ 7., 2., 7., 6., 3., 4., 2., 6., 0., 1., 1., 1., 1., 4., 7., 0.,
          2., 4., 1., 1., 1., 7., 8., 3., 2., 8., 10., 4., 0., 2., 4.,
          5., 5., 7., 3., 8., 3., 1., 3., 8., 5., 5., 6., 6., 3., 4., 4.,
          9., 5., 1. ]
      - [ 6., 0., 3., 3., 2., 3., 5., 5., 2., 3., 7., 1., 5., 3., 4., 4.,
          3., 10., 6., 2., 3., 5., 4., 0., 7., 5., 1., 1., 13., 0., 2.,
          8., 1., 3., 4., 9., 4., 3., 2., 3., 5., 3., 4., 5., 5., 11.,
          5., 3., 2., 2. ]
      - [ 2., 14., 1., 17., 2., 5., 5., 8., 3., 0., 3., 14., 6., 6., 8.,
          0., 0., 8., 0., 0., 0., 1., 4., 0., 2., 0., 0., 0., 3., 0., 2.,
          1., 0., 2., 1., 2., 11., 0., 0., 1., 20., 5., 0., 4., 27., 2.,
          5., 0., 5., 0. ]
      - [ 6., 0., 2., 12., 2., 7., 2., 4., 0., 1., 5., 4., 1., 3., 1.,
          0., 4., 9., 4., 0., 2., 9., 5., 2., 3., 3., 7., 21., 12., 0.,
          1., 4., 0., 1., 3., 1., 4., 6., 1., 2., 8., 1., 1., 1., 6., 4.,
          8., 9., 8., 0. ]
      - [ 7., 2., 2., 3., 3., 15., 0., 1., 3., 2., 4., 2., 0., 2., 6.,
          3., 2., 1., 4., 0., 2., 12., 5., 6., 3., 0., 8., 4., 2., 4.,
          3., 7., 2., 2., 0., 9., 2., 14., 2., 1., 4., 2., 1., 3., 5.,
          8., 11., 4., 12., 0. ]
      - [ 4., 6., 2., 3., 6., 9., 4., 6., 6., 5., 6., 1., 1., 4., 5., 2.,
          0., 2., 8., 3., 1., 3., 4., 2., 3., 2., 2., 0., 2., 1., 8., 1.,
          3., 5., 2., 12., 0., 9., 3., 4., 3., 4., 2., 1., 0., 1., 7.,
          2., 18., 2. ]
      - [ 6., 3., 5., 16., 0., 8., 3., 3., 0., 3., 4., 3., 0., 11., 3.,
          2., 1., 5., 2., 0., 1., 0., 8., 1., 2., 8., 1., 1., 8., 2., 1.,
          0., 2., 3., 2., 2., 17., 4., 0., 4., 6., 2., 8., 0., 31., 0.,
          0., 2., 4., 2. ]
      - [ 1., 10., 2., 8., 0., 4., 7., 5., 15., 1., 2., 3., 8., 5., 8.,
          1., 2., 1., 2., 2., 3., 0., 1., 1., 4., 1., 0., 0., 20., 0.,
          5., 0., 1., 11., 5., 1., 2., 4., 1., 4., 6., 10., 0., 13., 3.,
          0., 2., 0., 9., 6. ]
      - [ 9., 5., 5., 4., 2., 6., 8., 4., 4., 3., 2., 5., 3., 0., 3., 3.,
          2., 1., 5., 3., 3., 2., 1., 6., 2., 2., 2., 0., 5., 1., 3., 9.,
          1., 3., 1., 17., 1., 8., 4., 2., 0., 5., 2., 6., 3., 3., 15.,
          1., 13., 2. ]
      - [ 3., 3., 3., 4., 5., 3., 1., 0., 1., 1., 3., 2., 1., 1., 3., 2.,
          4., 2., 6., 0., 1., 9., 0., 3., 2., 3., 6., 0., 30., 1., 6.,
          5., 1., 3., 2., 20., 3., 5., 4., 3., 3., 5., 1., 4., 3., 2.,
          14., 2., 4., 7. ]
      - [ 8., 7., 7., 2., 3., 3., 4., 2., 1., 7., 3., 1., 2., 1., 5., 3.,
          11., 5., 1., 4., 2., 3., 1., 4., 9., 18., 1., 1., 1., 6., 2.,
          1., 10., 9., 3., 2., 2., 1., 1., 6., 2., 5., 7., 3., 1., 2.,
          9., 3., 2., 3. ]
      - [ 6., 2., 3., 2., 5., 6., 1., 0., 1., 4., 1., 6., 0., 0., 2., 7.,
          4., 3., 3., 1., 1., 5., 5., 4., 4., 7., 9., 12., 3., 0., 2.,
          4., 0., 0., 1., 13., 3., 9., 2., 6., 1., 4., 1., 1., 3., 2.,
          22., 10., 10., 0. ]
      - [ 6., 3., 0., 6., 3., 4., 4., 3., 2., 0., 1., 5., 1., 0., 3., 3.,
          2., 2., 2., 3., 1., 0., 1., 1., 2., 8., 2., 2., 2., 3., 2., 5.,
          0., 3., 3., 8., 7., 4., 5., 2., 2., 3., 8., 3., 4., 1., 10.,
          8., 5., 2. ]
      - [ 6., 0., 2., 3., 1., 7., 3., 6., 3., 5., 10., 1., 3., 4., 3.,
          2., 5., 14., 1., 4., 1., 4., 11., 2., 4., 10., 2., 2., 0., 1.,
          5., 4., 0., 4., 1., 7., 2., 4., 2., 2., 5., 4., 1., 5., 12.,
          4., 7., 9., 2., 0. ]
      - [ 5., 7., 7., 6., 2., 4., 4., 7., 4., 2., 3., 2., 4., 11., 6.,
          2., 1., 1., 0., 0., 7., 2., 10., 2., 2., 3., 0., 1., 18., 1.,
          2., 1., 2., 5., 5., 4., 6., 2., 3., 6., 5., 4., 2., 3., 6., 1.,
          5., 1., 8., 5. ]
      - [ 4., 6., 2., 2., 2., 2., 5., 6., 9., 0., 3., 6., 8., 3., 8., 3.,
          2., 1., 0., 4., 3., 1., 3., 1., 2., 1., 1., 0., 15., 1., 12.,
          3., 1., 6., 2., 7., 0., 2., 2., 1., 7., 2., 2., 0., 0., 1., 4.,
          1., 15., 28. ]
      - [ 5., 2., 4., 5., 6., 1., 4., 2., 7., 3., 6., 1., 4., 6., 5., 2.,
          2., 4., 3., 3., 5., 3., 4., 4., 3., 1., 7., 4., 0., 2., 11.,
          7., 1., 7., 2., 13., 4., 6., 3., 3., 3., 6., 0., 1., 0., 2.,
          11., 4., 4., 5. ]
      - [ 0., 4., 7., 3., 1., 14., 13., 7., 13., 1., 0., 2., 15., 8., 0.,
          1., 0., 4., 0., 6., 0., 0., 3., 4., 2., 0., 0., 0., 8., 1., 8.,
          0., 0., 8., 3., 1., 5., 2., 0., 4., 3., 6., 1., 7., 1., 0., 7.,
          1., 1., 25. ]
      - [ 5., 5., 1., 12., 0., 5., 4., 7., 3., 0., 2., 5., 3., 7., 2.,
          1., 0., 7., 1., 0., 2., 1., 3., 2., 3., 3., 1., 4., 1., 0., 3.,
          5., 0., 0., 7., 8., 9., 6., 3., 2., 10., 2., 5., 5., 15., 6.,
          12., 1., 7., 4. ]
      - [ 7., 0., 4., 8., 4., 7., 1., 3., 0., 6., 5., 5., 0., 1., 4., 2.,
          0., 1., 4., 2., 4., 6., 4., 2., 3., 7., 2., 2., 1., 3., 0., 5.,
          3., 1., 4., 8., 2., 9., 2., 4., 10., 2., 2., 4., 4., 6., 16.,
          9., 11., 0. ]
      - [ 2., 3., 3., 17., 1., 3., 6., 9., 3., 1., 3., 2., 3., 9., 5.,
          1., 0., 8., 1., 3., 3., 2., 5., 0., 3., 6., 1., 11., 4., 0.,
          2., 2., 0., 6., 4., 1., 10., 3., 0., 1., 16., 8., 8., 1., 17.,
          0., 1., 0., 1., 2. ]
      - [ 13., 4., 4., 1., 8., 4., 1., 3., 4., 1., 2., 0., 2., 2., 6.,
          1., 3., 3., 4., 3., 1., 16., 2., 0., 2., 5., 8., 0., 1., 2.,
          1., 6., 1., 1., 2., 18., 0., 7., 3., 2., 7., 4., 4., 1., 1.,
          12., 5., 3., 3., 13. ]
      - [ 5., 7., 4., 0., 4., 2., 7., 1., 6., 0., 2., 4., 2., 2., 9., 5.,
          2., 1., 2., 2., 3., 7., 3., 1., 2., 3., 2., 2., 11., 2., 3.,
          7., 3., 2., 4., 12., 2., 3., 4., 3., 4., 9., 2., 5., 3., 4.,
          1., 1., 19., 6. ]
      - [ 8., 11., 4., 1., 3., 3., 9., 6., 7., 4., 3., 2., 9., 3., 13.,
          2., 3., 0., 0., 4., 1., 4., 2., 1., 12., 5., 1., 2., 6., 6.,
          4., 0., 3., 3., 9., 0., 0., 2., 2., 5., 3., 13., 2., 4., 2.,
          0., 0., 0., 2., 11. ]
      - [ 11., 1., 2., 1., 5., 5., 5., 3., 9., 1., 5., 2., 6., 1., 10.,
          5., 6., 1., 8., 4., 1., 17., 4., 1., 3., 6., 8., 0., 0., 1.,
          5., 2., 5., 1., 4., 0., 0., 3., 4., 4., 1., 12., 0., 5., 0.,
          13., 1., 1., 1., 6. ]
      - [ 11., 4., 8., 1., 7., 3., 4., 6., 5., 2., 6., 0., 9., 5., 8.,
          0., 2., 1., 2., 6., 2., 4., 5., 7., 2., 3., 7., 1., 2., 2., 8.,
          4., 4., 5., 4., 2., 1., 4., 4., 5., 8., 7., 1., 7., 4., 2., 0.,
          1., 3., 2. ]
      - [ 5., 0., 0., 8., 1., 7., 4., 2., 2., 1., 0., 10., 3., 3., 0.,
          3., 0., 6., 4., 1., 0., 3., 0., 2., 4., 0., 2., 7., 0., 4., 2.,
          2., 1., 1., 1., 12., 17., 3., 1., 1., 5., 3., 1., 2., 3., 2.,
          13., 4., 5., 0. ]
      - [ 2., 5., 0., 14., 1., 0., 5., 6., 1., 1., 2., 1., 0., 12., 6.,
          1., 4., 8., 1., 0., 4., 6., 12., 2., 1., 10., 8., 8., 13., 0.,
          3., 1., 1., 1., 2., 0., 18., 0., 0., 2., 6., 2., 8., 3., 13.,
          1., 0., 2., 3., 0. ]
      - [ 8., 1., 1., 5., 0., 7., 2., 10., 1., 2., 1., 3., 0., 3., 7.,
          1., 1., 4., 7., 1., 0., 2., 7., 2., 1., 3., 4., 6., 1., 0., 3.,
          6., 0., 3., 0., 10., 3., 5., 8., 1., 4., 3., 0., 2., 8., 5.,
          9., 8., 7., 3. ]
      - [ 8., 6., 0., 1., 4., 8., 0., 0., 1., 0., 3., 5., 1., 1., 9., 2.,
          0., 1., 5., 1., 0., 8., 1., 1., 2., 5., 7., 0., 5., 4., 3., 2.,
          0., 3., 4., 17., 0., 6., 3., 2., 3., 2., 2., 3., 5., 1., 32.,
          10., 12., 1. ]
      - [ 9., 0., 2., 5., 2., 7., 2., 1., 3., 4., 4., 2., 0., 0., 6., 2.,
          4., 5., 8., 4., 0., 7., 5., 0., 2., 2., 3., 3., 11., 1., 1.,
          3., 2., 0., 3., 19., 2., 12., 3., 1., 10., 3., 2., 2., 4., 4.,
          8., 6., 7., 4. ]
      - [ 5., 0., 4., 7., 3., 2., 0., 9., 0., 5., 8., 1., 4., 9., 3., 1.,
          4., 6., 1., 1., 1., 3., 7., 5., 4., 6., 6., 3., 0., 2., 11.,
          2., 4., 1., 8., 2., 7., 4., 0., 6., 6., 4., 4., 1., 6., 2., 7.,
          7., 8., 0. ]
      - [ 5., 3., 3., 2., 2., 6., 3., 3., 2., 3., 2., 1., 0., 1., 4., 4.,
          6., 3., 2., 1., 1., 11., 12., 5., 4., 6., 8., 9., 0., 3., 2.,
          8., 1., 0., 3., 9., 4., 8., 2., 4., 2., 5., 6., 1., 4., 5., 8.,
          6., 4., 3. ]
      - [ 7., 4., 5., 4., 2., 1., 9., 2., 2., 3., 4., 2., 3., 7., 5., 2.,
          3., 2., 3., 5., 4., 4., 5., 0., 2., 2., 3., 0., 15., 2., 7.,
          5., 0., 6., 2., 5., 8., 2., 3., 3., 6., 8., 3., 9., 2., 2., 5.,
          5., 5., 2. ]
      - [ 2., 1., 4., 15., 2., 1., 1., 6., 2., 1., 5., 0., 1., 9., 7.,
          2., 5., 12., 2., 2., 5., 3., 13., 4., 8., 12., 3., 3., 1., 2.,
          4., 1., 0., 2., 7., 1., 11., 1., 2., 2., 17., 2., 7., 0., 7.,
          0., 0., 1., 0., 1. ]
      - [ 15., 5., 3., 3., 0., 3., 3., 4., 6., 4., 4., 1., 3., 4., 7.,
          4., 9., 0., 6., 2., 0., 11., 2., 1., 3., 7., 7., 4., 1., 5.,
          2., 7., 0., 0., 1., 19., 0., 5., 1., 2., 1., 4., 2., 6., 1.,
          3., 12., 5., 2., 0. ]
      - [ 12., 0., 3., 2., 1., 2., 1., 3., 5., 1., 0., 1., 0., 1., 2.,
          8., 8., 3., 5., 1., 3., 8., 2., 3., 1., 8., 9., 4., 0., 0., 2.,
          7., 2., 2., 3., 11., 0., 7., 4., 3., 1., 4., 5., 1., 2., 12.,
          16., 17., 3., 1. ]
      - [ 9., 2., 7., 1., 1., 11., 4., 5., 11., 2., 4., 1., 3., 2., 6.,
          7., 1., 3., 6., 6., 1., 5., 1., 3., 0., 4., 1., 3., 3., 4., 2.,
          7., 0., 5., 4., 2., 1., 2., 2., 5., 5., 11., 1., 0., 0., 9.,
          4., 2., 1., 21. ]
      - [ 12., 1., 1., 4., 1., 7., 1., 0., 1., 1., 5., 1., 4., 6., 7.,
          5., 3., 8., 3., 2., 2., 3., 5., 0., 3., 12., 2., 8., 0., 3.,
          2., 7., 4., 4., 3., 3., 8., 6., 5., 2., 6., 5., 6., 1., 5., 5.,
          13., 1., 1., 2. ]
      - [ 6., 3., 6., 4., 0., 4., 1., 1., 6., 2., 3., 1., 8., 3., 4., 3.,
          4., 1., 9., 3., 3., 13., 1., 5., 3., 4., 7., 2., 0., 2., 6.,
          7., 0., 2., 2., 10., 3., 7., 6., 2., 3., 4., 3., 3., 5., 4.,
          10., 5., 4., 2. ]
      - [ 3., 7., 1., 6., 2., 5., 6., 7., 4., 2., 1., 7., 10., 3., 3.,
          1., 1., 1., 1., 1., 2., 2., 4., 1., 3., 3., 0., 4., 13., 0.,
          5., 2., 1., 7., 4., 14., 5., 1., 2., 2., 6., 3., 2., 3., 4.,
          5., 7., 1., 19., 3. ]
      - [ 5., 7., 7., 4., 6., 4., 12., 2., 2., 1., 4., 5., 7., 8., 6.,
          5., 5., 1., 3., 4., 4., 8., 1., 2., 1., 4., 3., 0., 6., 5.,
          12., 1., 6., 10., 2., 0., 2., 3., 1., 5., 0., 2., 0., 14., 0.,
          2., 2., 2., 1., 3. ]
      - [ 4., 1., 2., 4., 0., 5., 0., 12., 0., 2., 6., 1., 0., 4., 8.,
          0., 2., 20., 5., 0., 7., 6., 7., 2., 5., 5., 2., 13., 0., 3.,
          0., 5., 1., 1., 7., 9., 3., 6., 9., 4., 5., 4., 3., 2., 5., 4.,
          3., 2., 1., 0. ]
      - [ 9., 1., 2., 6., 2., 6., 1., 9., 0., 1., 4., 1., 0., 3., 1., 1.,
          5., 14., 2., 2., 1., 5., 9., 2., 3., 3., 6., 12., 5., 1., 0.,
          2., 1., 1., 5., 15., 8., 3., 2., 4., 5., 2., 1., 1., 10., 2.,
          11., 5., 5., 0. ]
      - [ 7., 3., 7., 4., 1., 5., 10., 5., 4., 4., 7., 4., 2., 3., 4.,
          3., 6., 4., 4., 3., 1., 9., 5., 2., 4., 7., 6., 0., 2., 4., 3.,
          5., 1., 3., 4., 2., 2., 3., 1., 5., 3., 4., 1., 3., 1., 7., 9.,
          2., 9., 2. ]
      - [ 4., 6., 1., 8., 4., 7., 4., 1., 5., 0., 6., 5., 3., 3., 10.,
          1., 3., 1., 3., 1., 3., 8., 4., 0., 0., 1., 5., 0., 3., 2., 5.,
          4., 1., 4., 3., 8., 11., 7., 1., 1., 4., 5., 3., 4., 8., 3.,
          9., 7., 6., 4. ]
      - [ 4., 7., 1., 6., 3., 5., 2., 2., 0., 1., 4., 6., 1., 4., 4., 4.,
          5., 1., 7., 0., 0., 8., 3., 2., 0., 6., 7., 0., 13., 1., 3.,
          2., 3., 2., 0., 13., 8., 2., 3., 0., 10., 2., 2., 5., 9., 3.,
          10., 6., 9., 1. ]
      - [ 10., 3., 6., 16., 0., 3., 1., 6., 0., 1., 6., 2., 2., 4., 0.,
          8., 1., 4., 6., 1., 2., 5., 7., 1., 4., 0., 3., 3., 9., 0., 7.,
          0., 0., 3., 3., 16., 7., 1., 1., 3., 10., 7., 0., 4., 3., 3.,
          6., 3., 9., 0. ]
      - [ 1., 4., 3., 3., 5., 3., 9., 2., 9., 2., 0., 0., 9., 4., 4., 2.,
          2., 0., 0., 4., 2., 3., 0., 4., 3., 1., 2., 0., 13., 0., 7.,
          0., 0., 6., 4., 1., 2., 5., 5., 3., 1., 10., 1., 6., 2., 2.,
          2., 1., 18., 30. ]
      - [ 1., 6., 0., 11., 2., 7., 6., 15., 1., 0., 0., 1., 8., 16., 2.,
          1., 0., 12., 2., 1., 1., 2., 2., 1., 1., 6., 1., 3., 0., 1.,
          0., 2., 1., 7., 1., 12., 6., 7., 2., 1., 6., 3., 5., 3., 14.,
          4., 10., 2., 1., 3. ]
      - [ 3., 5., 8., 4., 0., 2., 5., 4., 4., 1., 3., 1., 2., 3., 6., 0.,
          2., 1., 5., 1., 2., 7., 2., 3., 1., 8., 9., 2., 6., 0., 2., 5.,
          2., 2., 3., 16., 2., 8., 10., 7., 5., 3., 2., 5., 2., 2., 3.,
          8., 3., 10. ]
      - [ 8., 6., 7., 6., 5., 2., 0., 5., 1., 1., 4., 0., 3., 7., 4., 3.,
          1., 5., 5., 3., 2., 5., 5., 5., 6., 6., 5., 1., 9., 2., 5., 2.,
          1., 2., 6., 7., 6., 0., 1., 7., 6., 2., 1., 2., 7., 5., 4., 9.,
          2., 3. ]
      - [ 1., 1., 1., 2., 5., 4., 12., 4., 12., 1., 1., 4., 11., 1., 1.,
          0., 2., 0., 0., 1., 2., 2., 1., 6., 4., 0., 2., 0., 23., 0.,
          11., 0., 0., 8., 3., 4., 6., 2., 0., 0., 3., 15., 1., 15., 2.,
          0., 0., 1., 17., 8. ]
      - [ 4., 0., 5., 9., 0., 4., 3., 5., 2., 1., 7., 4., 2., 2., 5., 4.,
          5., 3., 2., 5., 2., 6., 10., 2., 4., 4., 3., 4., 3., 0., 6.,
          2., 1., 5., 1., 5., 5., 7., 2., 2., 6., 5., 7., 3., 6., 6., 7.,
          12., 4., 0. ]
      - [ 1., 3., 4., 10., 3., 6., 2., 9., 4., 1., 7., 7., 7., 8., 5.,
          1., 1., 14., 2., 0., 4., 2., 9., 2., 2., 3., 0., 6., 3., 1.,
          3., 1., 1., 5., 3., 0., 14., 0., 0., 3., 6., 6., 3., 3., 15.,
          1., 1., 2., 5., 1. ]
      - [ 4., 4., 2., 1., 2., 10., 3., 4., 2., 3., 3., 0., 6., 6., 8.,
          4., 5., 7., 3., 3., 3., 8., 3., 6., 1., 5., 4., 0., 15., 0.,
          4., 2., 0., 1., 6., 2., 3., 4., 3., 4., 5., 7., 5., 3., 5., 3.,
          5., 5., 7., 1. ]
      - [ 7., 3., 8., 0., 3., 1., 5., 1., 14., 1., 4., 7., 8., 2., 6.,
          1., 0., 2., 0., 4., 5., 2., 0., 4., 1., 0., 1., 0., 27., 0.,
          6., 4., 1., 2., 4., 0., 1., 2., 13., 3., 4., 9., 0., 4., 3.,
          1., 1., 1., 12., 12. ]
      - [ 3., 3., 4., 3., 2., 8., 5., 2., 4., 0., 2., 4., 1., 2., 4., 1.,
          0., 6., 7., 0., 4., 1., 4., 7., 1., 1., 2., 2., 9., 2., 3., 6.,
          1., 4., 6., 9., 2., 3., 5., 3., 8., 2., 2., 3., 2., 2., 14.,
          2., 28., 1. ]
      - [ 4., 1., 4., 6., 1., 3., 3., 8., 4., 5., 7., 1., 1., 6., 5., 1.,
          2., 17., 3., 0., 3., 8., 6., 3., 4., 2., 4., 8., 8., 0., 3.,
          1., 2., 5., 9., 1., 7., 5., 1., 3., 10., 6., 1., 2., 6., 0.,
          4., 1., 4., 1. ]
      - [ 6., 0., 4., 3., 4., 6., 11., 7., 5., 2., 5., 1., 10., 4., 2.,
          2., 2., 1., 9., 7., 4., 7., 3., 1., 0., 0., 0., 0., 3., 1., 8.,
          7., 0., 7., 0., 6., 0., 2., 3., 5., 9., 2., 2., 3., 3., 4., 2.,
          10., 0., 14. ]
      - [ 4., 3., 3., 1., 2., 4., 5., 4., 2., 3., 6., 3., 3., 2., 3., 4.,
          7., 4., 2., 3., 1., 8., 15., 3., 4., 1., 2., 0., 3., 2., 4.,
          8., 2., 1., 3., 12., 0., 5., 3., 6., 1., 4., 1., 4., 1., 6.,
          8., 10., 13., 1. ]
      - [ 8., 3., 3., 2., 1., 3., 1., 2., 3., 3., 5., 3., 3., 2., 2., 7.,
          4., 1., 6., 3., 8., 2., 4., 4., 3., 12., 3., 7., 0., 7., 7.,
          2., 5., 1., 5., 8., 1., 1., 6., 2., 1., 4., 4., 2., 1., 5., 9.,
          10., 2., 9. ]
      - [ 12., 3., 11., 1., 4., 8., 1., 7., 1., 2., 9., 0., 2., 2., 2.,
          4., 3., 4., 6., 3., 1., 12., 5., 1., 6., 7., 5., 1., 0., 2.,
          3., 6., 2., 4., 4., 8., 3., 4., 2., 4., 3., 3., 1., 3., 3., 9.,
          4., 6., 3., 0. ]
      - [ 0., 0., 1., 2., 0., 7., 2., 4., 3., 4., 2., 1., 0., 2., 2., 0.,
          1., 7., 3., 2., 3., 5., 4., 4., 6., 0., 3., 0., 11., 3., 5.,
          3., 4., 7., 1., 8., 3., 3., 8., 0., 2., 7., 1., 2., 1., 4., 2.,
          1., 3., 8. ]
      - [ 13., 2., 5., 2., 1., 2., 0., 7., 5., 0., 3., 1., 6., 3., 7.,
          6., 9., 2., 4., 4., 2., 5., 0., 4., 2., 12., 2., 1., 0., 6.,
          6., 5., 4., 7., 4., 9., 1., 1., 0., 2., 1., 7., 6., 0., 0., 7.,
          12., 10., 0., 2. ]
      - [ 6., 0., 2., 3., 2., 1., 0., 7., 1., 3., 2., 0., 3., 5., 2., 4.,
          5., 12., 1., 0., 2., 12., 7., 2., 2., 10., 7., 7., 2., 3., 1.,
          2., 4., 0., 2., 18., 2., 4., 4., 0., 3., 3., 1., 4., 5., 2.,
          14., 13., 1., 4. ]
      - [ 0., 3., 1., 9., 2., 5., 4., 14., 5., 1., 0., 0., 6., 15., 4.,
          0., 1., 12., 0., 0., 7., 0., 9., 3., 5., 4., 0., 6., 4., 0.,
          3., 0., 3., 13., 5., 1., 15., 2., 0., 5., 10., 5., 2., 2., 10.,
          1., 3., 0., 0., 0. ]
      - [ 2., 2., 6., 1., 0., 5., 2., 10., 0., 4., 6., 1., 3., 7., 3.,
          3., 2., 11., 4., 3., 5., 3., 8., 2., 2., 8., 8., 13., 5., 2.,
          1., 2., 4., 1., 5., 5., 7., 5., 0., 0., 6., 4., 5., 1., 7., 6.,
          5., 1., 4., 0. ]
      - [ 0., 3., 5., 2., 1., 2., 9., 4., 7., 1., 3., 4., 19., 6., 2.,
          0., 0., 1., 2., 4., 4., 0., 0., 1., 3., 1., 0., 0., 12., 0.,
          4., 5., 1., 4., 3., 22., 1., 2., 0., 4., 7., 12., 1., 10., 2.,
          1., 2., 0., 10., 13. ]
      - [ 9., 5., 4., 7., 2., 6., 2., 4., 4., 2., 4., 0., 3., 6., 4., 3.,
          1., 8., 2., 2., 2., 6., 1., 2., 2., 5., 5., 6., 5., 4., 1., 4.,
          3., 3., 2., 6., 6., 8., 1., 1., 6., 6., 5., 4., 12., 2., 2.,
          5., 2., 5. ]
      - [ 3., 6., 5., 2., 5., 6., 4., 0., 5., 0., 5., 0., 5., 0., 4., 3.,
          2., 0., 4., 6., 1., 2., 0., 3., 4., 2., 1., 1., 14., 1., 6.,
          2., 3., 1., 6., 18., 2., 9., 6., 3., 5., 9., 1., 8., 6., 3.,
          3., 3., 4., 8. ]
      - [ 5., 9., 3., 1., 7., 6., 3., 3., 3., 3., 2., 4., 1., 2., 13.,
          7., 3., 1., 6., 1., 2., 4., 3., 1., 0., 4., 2., 2., 0., 4., 1.,
          2., 4., 6., 0., 25., 4., 3., 4., 1., 8., 3., 5., 2., 0., 3.,
          11., 7., 3., 3. ]
      - [ 7., 3., 3., 4., 5., 6., 4., 3., 0., 3., 6., 1., 5., 1., 4., 4.,
          0., 6., 5., 1., 2., 8., 6., 0., 3., 4., 8., 16., 6., 2., 1.,
          2., 1., 0., 2., 9., 4., 7., 3., 1., 5., 1., 1., 3., 5., 3., 9.,
          10., 6., 1. ]
      - [ 5., 2., 2., 1., 3., 3., 0., 1., 4., 2., 0., 0., 0., 0., 7., 4.,
          3., 2., 9., 0., 3., 12., 0., 0., 5., 0., 19., 9., 1., 2., 2.,
          9., 0., 6., 3., 13., 2., 5., 2., 3., 3., 8., 1., 0., 2., 0.,
          17., 13., 4., 8. ]
      - [ 2., 4., 1., 17., 5., 4., 4., 3., 2., 2., 2., 13., 0., 5., 4.,
          0., 1., 7., 0., 1., 2., 4., 3., 1., 4., 3., 1., 7., 5., 0., 1.,
          5., 2., 4., 7., 3., 20., 1., 0., 0., 7., 4., 4., 5., 14., 3.,
          3., 1., 7., 2. ]
      - [ 7., 5., 0., 4., 6., 4., 2., 4., 0., 1., 3., 2., 3., 2., 10.,
          1., 0., 1., 6., 0., 3., 12., 0., 4., 3., 7., 8., 3., 13., 3.,
          6., 1., 2., 2., 5., 9., 6., 4., 1., 1., 5., 2., 3., 7., 4., 4.,
          9., 3., 8., 1. ]
      - [ 9., 4., 1., 11., 5., 1., 3., 3., 1., 4., 2., 6., 1., 3., 12.,
          2., 5., 4., 3., 2., 0., 3., 2., 3., 2., 9., 1., 6., 2., 4., 2.,
          1., 1., 1., 0., 9., 11., 1., 2., 3., 6., 3., 6., 3., 16., 2.,
          4., 8., 6., 1. ]
      - [ 4., 4., 1., 12., 3., 9., 4., 11., 3., 0., 3., 7., 15., 4., 3.,
          3., 1., 0., 2., 2., 3., 3., 2., 2., 0., 0., 1., 4., 15., 1.,
          4., 0., 0., 0., 0., 3., 12., 2., 0., 1., 11., 2., 0., 6., 13.,
          1., 13., 0., 6., 4. ]
      - [ 4., 2., 4., 1., 0., 9., 11., 2., 5., 2., 3., 9., 5., 3., 5.,
          3., 1., 2., 6., 1., 2., 8., 3., 1., 3., 2., 3., 1., 9., 1., 7.,
          2., 1., 4., 6., 14., 0., 4., 2., 3., 3., 4., 0., 7., 3., 2.,
          8., 5., 11., 3. ]
      - [ 9., 4., 2., 0., 2., 5., 5., 3., 6., 1., 0., 4., 0., 0., 6., 5.,
          8., 0., 9., 2., 0., 10., 0., 3., 1., 9., 8., 12., 11., 2., 5.,
          2., 3., 4., 2., 7., 1., 3., 0., 1., 2., 3., 5., 5., 2., 6., 9.,
          5., 5., 3. ]
      - [ 8., 2., 3., 1., 1., 5., 0., 3., 1., 5., 4., 0., 4., 2., 6., 3.,
          3., 3., 6., 0., 4., 6., 5., 3., 2., 7., 4., 3., 0., 4., 1.,
          12., 4., 2., 2., 15., 3., 5., 3., 4., 3., 6., 0., 3., 6., 4.,
          13., 14., 1., 2. ]
      - [ 1., 8., 0., 2., 0., 1., 2., 1., 1., 0., 0., 2., 1., 1., 4., 0.,
          0., 3., 0., 1., 1., 0., 0., 0., 0., 2., 0., 2., 42., 1., 1.,
          0., 0., 1., 0., 2., 2., 2., 0., 1., 9., 0., 2., 5., 8., 0., 9.,
          1., 1., 0. ]
      - [ 1., 1., 2., 3., 1., 12., 7., 6., 5., 4., 5., 6., 10., 13., 1.,
          0., 0., 11., 1., 1., 4., 3., 9., 0., 3., 2., 1., 2., 4., 1.,
          2., 5., 4., 4., 2., 0., 10., 7., 0., 5., 4., 7., 1., 5., 10.,
          6., 1., 5., 3., 0. ]
      - [ 3., 2., 3., 3., 3., 3., 4., 5., 1., 6., 8., 2., 3., 3., 10.,
          3., 0., 11., 2., 3., 1., 6., 4., 4., 8., 9., 8., 2., 6., 2.,
          5., 1., 1., 1., 3., 7., 7., 3., 2., 4., 1., 5., 3., 1., 4., 2.,
          6., 7., 8., 1. ]
      - [ 6., 5., 6., 6., 1., 6., 6., 5., 2., 0., 5., 6., 0., 5., 5., 2.,
          2., 10., 1., 5., 2., 3., 14., 2., 0., 2., 4., 3., 11., 2., 0.,
          3., 2., 3., 0., 7., 6., 5., 1., 3., 5., 7., 2., 2., 5., 3., 6.,
          1., 10., 2. ]
      - [ 2., 2., 4., 9., 3., 8., 0., 2., 2., 4., 5., 6., 4., 3., 5., 5.,
          4., 3., 3., 4., 4., 8., 6., 0., 4., 2., 3., 5., 10., 0., 1.,
          4., 3., 4., 5., 12., 8., 4., 2., 2., 1., 3., 2., 1., 2., 5.,
          9., 3., 8., 1. ]
      - [ 1., 1., 3., 6., 2., 4., 6., 5., 0., 5., 3., 11., 1., 5., 1.,
          1., 1., 4., 0., 0., 1., 3., 6., 6., 4., 6., 2., 15., 8., 0.,
          6., 7., 0., 4., 4., 8., 11., 3., 1., 5., 4., 6., 2., 4., 12.,
          0., 10., 0., 2., 0. ]
      - [ 3., 4., 9., 1., 0., 0., 14., 5., 7., 3., 3., 2., 14., 8., 7.,
          0., 0., 2., 0., 8., 7., 1., 10., 5., 3., 1., 0., 1., 3., 2.,
          8., 0., 1., 18., 1., 0., 1., 1., 0., 4., 3., 5., 1., 11., 4.,
          0., 0., 0., 1., 18. ]
      - [ 5., 3., 3., 10., 0., 5., 0., 2., 4., 0., 1., 0., 3., 5., 4.,
          5., 1., 10., 4., 0., 2., 9., 5., 1., 1., 5., 7., 4., 3., 2.,
          1., 0., 1., 4., 2., 6., 10., 14., 1., 2., 4., 6., 3., 2., 18.,
          3., 8., 6., 4., 1. ]
      - [ 8., 3., 2., 1., 2., 3., 3., 5., 2., 3., 5., 2., 2., 1., 4., 1.,
          4., 6., 3., 0., 1., 8., 4., 1., 3., 13., 7., 1., 7., 9., 0.,
          2., 6., 3., 4., 21., 1., 6., 1., 4., 5., 4., 7., 2., 1., 3.,
          8., 3., 5., 0. ]
      - [ 3., 7., 11., 9., 3., 6., 7., 2., 6., 2., 11., 1., 7., 7., 10.,
          7., 2., 1., 1., 2., 4., 2., 7., 6., 4., 4., 0., 0., 1., 3., 1.,
          2., 3., 4., 4., 0., 3., 4., 4., 6., 4., 6., 1., 5., 4., 2., 0.,
          1., 1., 9. ]
      - [ 4., 5., 9., 5., 2., 8., 6., 9., 8., 1., 4., 4., 7., 4., 9., 0.,
          3., 4., 1., 7., 3., 5., 5., 5., 7., 2., 4., 1., 1., 0., 9., 1.,
          1., 4., 5., 1., 0., 4., 2., 5., 8., 11., 1., 4., 2., 0., 0.,
          3., 0., 6. ]
      - [ 10., 5., 4., 5., 1., 5., 1., 2., 9., 3., 3., 1., 6., 1., 9.,
          6., 6., 1., 6., 2., 0., 8., 0., 1., 4., 6., 5., 1., 0., 2., 6.,
          3., 2., 4., 1., 7., 1., 5., 6., 1., 5., 3., 0., 1., 2., 9., 3.,
          4., 4., 20. ]
      - [ 5., 5., 3., 1., 1., 9., 5., 3., 9., 1., 0., 3., 11., 4., 8.,
          5., 6., 6., 3., 1., 0., 10., 4., 4., 4., 5., 6., 8., 2., 0.,
          3., 4., 0., 1., 2., 7., 0., 8., 3., 1., 2., 3., 0., 3., 5., 1.,
          6., 1., 5., 13. ]
      - [ 8., 2., 10., 0., 6., 6., 5., 2., 8., 3., 5., 6., 11., 3., 8.,
          10., 0., 0., 2., 6., 3., 5., 1., 2., 4., 2., 1., 0., 5., 2.,
          11., 1., 2., 6., 2., 1., 0., 8., 1., 0., 2., 20., 2., 3., 1.,
          6., 0., 0., 0., 8. ]
      - [ 6., 4., 3., 4., 5., 6., 2., 8., 8., 1., 5., 0., 6., 4., 9., 1.,
          4., 1., 4., 3., 3., 6., 13., 4., 3., 2., 0., 12., 6., 4., 5.,
          2., 1., 4., 6., 1., 2., 4., 4., 0., 4., 4., 1., 3., 5., 1., 2.,
          0., 9., 5. ]
      - [ 7., 3., 3., 4., 3., 4., 2., 5., 0., 1., 4., 1., 2., 4., 2., 1.,
          3., 4., 6., 3., 2., 5., 6., 1., 0., 6., 9., 0., 2., 2., 5., 5.,
          2., 0., 2., 6., 9., 0., 6., 5., 4., 2., 4., 1., 9., 5., 4., 8.,
          6., 0. ]
      - [ 5., 1., 2., 3., 1., 3., 1., 6., 2., 4., 0., 4., 0., 2., 4., 2.,
          0., 4., 2., 1., 2., 1., 7., 1., 2., 4., 1., 5., 2., 2., 1., 5.,
          2., 0., 5., 11., 12., 3., 2., 2., 5., 0., 3., 2., 10., 1., 10.,
          7., 12., 2. ]
      - [ 2., 3., 4., 3., 3., 2., 7., 5., 4., 0., 3., 5., 3., 7., 3., 2.,
          1., 3., 4., 3., 5., 6., 3., 2., 5., 2., 2., 4., 15., 0., 3.,
          5., 2., 1., 1., 17., 4., 2., 0., 6., 3., 2., 1., 2., 4., 3.,
          13., 5., 14., 1. ]
      - [ 8., 1., 1., 1., 2., 7., 2., 4., 5., 2., 9., 1., 4., 3., 5., 2.,
          2., 3., 8., 3., 7., 6., 4., 1., 7., 2., 2., 4., 3., 2., 4., 8.,
          3., 7., 1., 8., 4., 7., 5., 0., 7., 7., 2., 1., 7., 5., 6., 2.,
          3., 2. ]
      - [ 10., 3., 2., 6., 4., 6., 2., 2., 0., 3., 5., 0., 2., 5., 6.,
          9., 2., 4., 13., 7., 5., 16., 5., 4., 2., 2., 9., 0., 0., 2.,
          2., 0., 5., 6., 0., 3., 1., 4., 1., 3., 0., 9., 1., 5., 0., 8.,
          5., 6., 6., 1. ]
      - [ 3., 8., 9., 0., 0., 7., 2., 11., 6., 3., 5., 3., 10., 4., 15.,
          4., 0., 2., 1., 3., 3., 6., 4., 1., 8., 0., 0., 0., 1., 2., 4.,
          1., 1., 2., 14., 1., 1., 8., 4., 10., 5., 6., 0., 2., 4., 2.,
          0., 0., 1., 13. ]
      - [ 8., 5., 5., 0., 6., 7., 7., 5., 4., 0., 5., 1., 5., 1., 6., 8.,
          4., 3., 6., 2., 1., 7., 4., 4., 5., 7., 4., 2., 0., 2., 7., 5.,
          4., 8., 2., 3., 2., 4., 4., 1., 2., 7., 2., 5., 1., 3., 1., 3.,
          8., 4. ]
      - [ 8., 1., 2., 15., 2., 4., 4., 2., 2., 1., 1., 1., 6., 7., 4.,
          2., 2., 11., 1., 1., 2., 7., 3., 2., 3., 2., 3., 1., 16., 3.,
          2., 1., 0., 1., 3., 5., 19., 4., 1., 3., 8., 9., 2., 5., 8.,
          5., 0., 1., 2., 2. ]
      - [ 4., 5., 2., 2., 1., 4., 2., 2., 2., 4., 2., 2., 4., 1., 8., 3.,
          1., 5., 2., 1., 1., 5., 4., 1., 5., 3., 4., 8., 26., 4., 1.,
          7., 1., 2., 2., 11., 4., 6., 3., 4., 6., 2., 7., 2., 7., 0.,
          9., 1., 5., 2. ]
      - [ 6., 2., 3., 12., 5., 4., 1., 5., 1., 3., 3., 5., 0., 2., 4.,
          2., 2., 7., 2., 1., 0., 8., 5., 1., 4., 8., 3., 9., 4., 2., 1.,
          2., 3., 0., 6., 2., 8., 5., 4., 3., 17., 11., 4., 0., 3., 3.,
          6., 4., 4., 0. ]
      - [ 2., 5., 4., 1., 4., 1., 4., 3., 13., 3., 3., 1., 2., 3., 6.,
          5., 2., 5., 5., 5., 2., 3., 2., 0., 1., 2., 5., 3., 17., 2.,
          4., 1., 2., 5., 1., 5., 4., 7., 1., 3., 4., 17., 3., 5., 1.,
          1., 2., 0., 14., 6. ]
      - [ 1., 3., 2., 10., 7., 4., 5., 4., 2., 2., 3., 0., 6., 20., 3.,
          2., 1., 8., 1., 0., 4., 2., 10., 4., 2., 3., 1., 2., 4., 0.,
          3., 0., 1., 3., 5., 8., 12., 3., 0., 3., 5., 4., 1., 4., 5.,
          1., 17., 1., 7., 1. ]
      - [ 4., 2., 8., 7., 1., 2., 3., 4., 1., 0., 2., 0., 2., 4., 5., 0.,
          3., 2., 3., 6., 0., 6., 5., 2., 1., 8., 6., 8., 16., 2., 3.,
          8., 2., 4., 2., 10., 8., 6., 0., 4., 5., 5., 4., 1., 4., 3.,
          3., 4., 4., 7. ]
      - [ 3., 7., 1., 5., 2., 2., 2., 2., 1., 1., 3., 3., 4., 3., 5., 3.,
          2., 1., 0., 3., 1., 4., 7., 2., 3., 6., 1., 6., 24., 1., 4.,
          5., 3., 0., 4., 9., 10., 1., 4., 1., 2., 7., 2., 4., 6., 6.,
          2., 2., 15., 5. ]
      - [ 2., 7., 3., 3., 0., 5., 6., 1., 3., 2., 1., 5., 4., 3., 7., 5.,
          3., 10., 2., 4., 2., 8., 2., 1., 1., 4., 1., 5., 16., 3., 6.,
          3., 1., 0., 5., 5., 2., 5., 6., 3., 4., 6., 1., 4., 10., 4.,
          5., 2., 4., 5. ]
      - [ 6., 3., 6., 1., 3., 5., 3., 6., 2., 2., 1., 0., 2., 5., 3., 3.,
          4., 3., 5., 0., 1., 7., 4., 4., 4., 6., 5., 1., 8., 1., 8., 5.,
          0., 3., 3., 7., 3., 6., 2., 3., 3., 3., 5., 3., 4., 13., 5.,
          10., 3., 7. ]
      - [ 6., 2., 7., 12., 3., 6., 1., 10., 0., 3., 2., 4., 4., 4., 7.,
          0., 1., 5., 5., 2., 1., 5., 1., 0., 6., 4., 3., 4., 1., 0., 1.,
          7., 1., 3., 5., 6., 11., 7., 1., 3., 17., 4., 2., 1., 14., 5.,
          1., 1., 1., 0. ]
      - [ 3., 4., 1., 7., 3., 8., 8., 2., 4., 2., 3., 4., 6., 4., 1., 2.,
          0., 0., 2., 2., 5., 4., 6., 2., 5., 2., 5., 0., 11., 2., 7.,
          4., 1., 4., 3., 10., 3., 6., 3., 5., 6., 3., 1., 6., 0., 4.,
          1., 5., 13., 7. ]
      - [ 4., 1., 2., 9., 0., 8., 6., 9., 4., 1., 7., 2., 0., 10., 0.,
          0., 1., 25., 4., 0., 3., 7., 12., 1., 1., 5., 2., 3., 0., 1.,
          2., 2., 0., 2., 4., 5., 6., 3., 0., 3., 3., 4., 10., 2., 6.,
          4., 10., 6., 0., 0. ]
      - [ 2., 3., 2., 10., 0., 3., 9., 3., 2., 2., 6., 14., 5., 11., 2.,
          0., 0., 9., 3., 1., 4., 1., 11., 0., 1., 2., 0., 12., 11., 1.,
          2., 0., 0., 3., 2., 1., 8., 0., 0., 1., 6., 2., 3., 5., 16.,
          3., 4., 1., 12., 1. ]
      - [ 10., 6., 6., 1., 9., 6., 5., 4., 4., 2., 2., 1., 3., 7., 6.,
          2., 5., 1., 4., 3., 2., 3., 1., 6., 0., 5., 4., 0., 1., 4., 3.,
          9., 3., 2., 1., 9., 0., 6., 8., 1., 3., 5., 4., 2., 2., 6., 7.,
          7., 8., 1. ]
      - [ 13., 2., 2., 0., 5., 5., 1., 5., 2., 5., 4., 1., 2., 0., 2.,
          4., 7., 14., 6., 1., 2., 8., 4., 0., 1., 9., 13., 1., 0., 2.,
          2., 8., 4., 1., 5., 9., 1., 4., 5., 2., 2., 5., 2., 5., 1.,
          10., 3., 7., 1., 2. ]
      - [ 8., 3., 1., 7., 3., 4., 3., 5., 5., 1., 2., 4., 2., 5., 6., 2.,
          3., 5., 4., 2., 5., 4., 5., 0., 4., 5., 1., 15., 8., 1., 1.,
          8., 1., 0., 6., 10., 4., 8., 3., 2., 7., 6., 0., 1., 4., 1.,
          6., 2., 5., 2. ]
      - [ 2., 7., 2., 7., 5., 6., 4., 0., 3., 1., 3., 12., 4., 3., 5.,
          1., 0., 1., 4., 1., 3., 4., 1., 3., 2., 1., 2., 1., 19., 0.,
          3., 1., 0., 4., 4., 11., 2., 4., 2., 3., 6., 11., 2., 14., 3.,
          3., 6., 2., 11., 1. ]
      - [ 16., 0., 1., 3., 0., 1., 0., 7., 1., 3., 4., 2., 3., 3., 0.,
          15., 1., 16., 6., 2., 9., 2., 5., 4., 0., 5., 1., 17., 9., 2.,
          4., 1., 2., 7., 8., 5., 4., 1., 0., 0., 2., 5., 4., 0., 7., 2.,
          3., 1., 3., 3. ]
      - [ 8., 5., 5., 0., 3., 9., 0., 6., 9., 7., 9., 0., 10., 1., 7.,
          7., 2., 4., 5., 7., 2., 7., 2., 1., 8., 5., 2., 0., 0., 2., 3.,
          2., 1., 3., 10., 3., 0., 4., 2., 5., 6., 13., 1., 0., 1., 3.,
          0., 1., 0., 9. ]
      - [ 7., 7., 2., 0., 5., 5., 0., 2., 2., 1., 0., 2., 3., 1., 7., 0.,
          3., 0., 6., 1., 2., 4., 1., 2., 1., 5., 7., 2., 2., 1., 6.,
          13., 1., 0., 2., 19., 1., 9., 6., 4., 4., 0., 2., 4., 1., 6.,
          17., 9., 3., 12. ]
      - [ 2., 6., 2., 11., 0., 2., 5., 4., 0., 1., 7., 2., 4., 16., 6.,
          1., 0., 4., 0., 4., 4., 0., 9., 2., 1., 2., 0., 6., 11., 1.,
          9., 1., 1., 9., 4., 0., 16., 4., 0., 4., 14., 5., 1., 4., 14.,
          0., 0., 1., 0., 0. ]
      - [ 5., 5., 6., 12., 5., 7., 2., 6., 3., 4., 2., 2., 1., 5., 6.,
          1., 1., 13., 1., 0., 2., 2., 10., 4., 6., 8., 1., 9., 2., 2.,
          5., 0., 4., 6., 5., 0., 9., 4., 0., 7., 6., 5., 6., 0., 4., 0.,
          1., 2., 3., 0. ]
      - [ 4., 1., 3., 5., 0., 7., 8., 6., 2., 2., 7., 4., 0., 8., 1., 1.,
          1., 29., 2., 0., 1., 7., 8., 2., 0., 6., 2., 2., 1., 0., 2.,
          1., 0., 2., 2., 5., 9., 4., 0., 3., 5., 3., 9., 7., 8., 4., 8.,
          6., 1., 1. ]
      - [ 4., 2., 6., 4., 4., 7., 6., 2., 2., 1., 2., 1., 2., 1., 6., 1.,
          0., 0., 7., 1., 0., 2., 0., 1., 2., 3., 0., 1., 17., 4., 4.,
          2., 1., 4., 1., 13., 1., 2., 6., 7., 6., 3., 1., 2., 10., 5.,
          8., 2., 29., 4. ]
      - [ 7., 7., 7., 2., 2., 3., 2., 5., 6., 2., 6., 1., 6., 8., 11.,
          2., 0., 4., 1., 5., 1., 4., 7., 0., 1., 8., 0., 1., 6., 2., 6.,
          4., 3., 1., 4., 12., 2., 4., 1., 3., 7., 2., 2., 3., 1., 5.,
          2., 0., 5., 17. ]
      - [ 5., 4., 6., 2., 5., 3., 8., 2., 2., 0., 1., 3., 6., 2., 4., 4.,
          6., 5., 7., 2., 0., 7., 5., 4., 0., 6., 9., 7., 4., 0., 5., 2.,
          0., 1., 0., 8., 2., 3., 1., 2., 2., 2., 3., 7., 0., 11., 8.,
          11., 4., 9. ]
      - [ 8., 1., 7., 4., 1., 9., 2., 8., 9., 4., 1., 0., 14., 11., 5.,
          5., 2., 2., 1., 4., 4., 2., 4., 1., 2., 0., 2., 2., 1., 5., 4.,
          0., 4., 11., 5., 2., 1., 6., 0., 6., 8., 14., 0., 1., 4., 1.,
          1., 1., 0., 10. ]
      - [ 5., 0., 3., 4., 0., 6., 2., 3., 4., 1., 0., 3., 1., 3., 1., 3.,
          5., 10., 2., 1., 2., 8., 3., 3., 6., 4., 7., 6., 1., 0., 5.,
          3., 3., 2., 5., 18., 3., 6., 4., 3., 8., 8., 2., 4., 5., 1.,
          12., 1., 3., 7. ]
      - [ 2., 1., 0., 8., 1., 4., 3., 5., 1., 3., 2., 6., 3., 5., 0., 4.,
          4., 3., 2., 3., 1., 7., 13., 0., 4., 10., 3., 3., 4., 4., 0.,
          1., 0., 1., 8., 12., 7., 4., 0., 2., 9., 4., 8., 1., 13., 3.,
          8., 4., 6., 1. ]
      - [ 4., 6., 5., 2., 1., 10., 7., 1., 7., 1., 4., 1., 4., 2., 11.,
          5., 2., 1., 4., 9., 3., 4., 7., 2., 2., 5., 4., 0., 9., 2., 2.,
          3., 1., 0., 10., 5., 2., 7., 1., 2., 5., 3., 3., 2., 4., 2.,
          7., 6., 4., 6. ]
      - [ 2., 2., 2., 15., 2., 18., 2., 7., 1., 5., 2., 5., 4., 6., 4.,
          1., 0., 2., 2., 2., 1., 2., 4., 2., 5., 0., 0., 3., 5., 1., 5.,
          1., 1., 5., 4., 5., 11., 2., 0., 1., 10., 5., 2., 2., 15., 3.,
          18., 0., 2., 1. ]
      - [ 1., 6., 0., 3., 4., 5., 16., 1., 5., 0., 0., 14., 4., 0., 9.,
          3., 2., 0., 1., 2., 0., 3., 0., 1., 3., 4., 2., 0., 31., 0.,
          2., 1., 3., 2., 1., 3., 3., 3., 0., 2., 8., 6., 1., 11., 4.,
          3., 1., 0., 7., 19. ]
      - [ 6., 4., 5., 6., 2., 4., 0., 0., 3., 2., 1., 2., 4., 1., 6., 0.,
          4., 2., 6., 5., 0., 2., 0., 0., 1., 9., 10., 9., 0., 3., 0.,
          8., 0., 0., 2., 23., 0., 4., 4., 1., 3., 2., 4., 3., 6., 9.,
          14., 8., 3., 9. ]
      - [ 9., 4., 2., 7., 3., 7., 5., 4., 7., 5., 2., 2., 10., 4., 3.,
          4., 2., 9., 4., 2., 3., 11., 2., 1., 2., 4., 2., 1., 7., 5.,
          1., 1., 5., 3., 2., 3., 1., 7., 4., 2., 4., 5., 2., 2., 2., 5.,
          2., 5., 4., 7. ]
      - [ 3., 6., 10., 2., 3., 2., 6., 9., 8., 3., 0., 1., 17., 2., 6.,
          2., 2., 0., 3., 6., 6., 3., 2., 2., 2., 3., 0., 0., 2., 1., 5.,
          3., 3., 8., 5., 1., 0., 0., 4., 4., 6., 14., 1., 7., 2., 1.,
          0., 1., 3., 20. ]
      - [ 6., 2., 3., 8., 0., 8., 4., 1., 2., 2., 1., 4., 2., 10., 7.,
          5., 2., 4., 5., 2., 2., 7., 2., 4., 7., 2., 2., 4., 6., 1., 3.,
          4., 0., 0., 9., 9., 7., 4., 1., 3., 5., 2., 1., 2., 6., 4.,
          10., 8., 5., 2. ]
      - [ 8., 0., 3., 6., 6., 3., 6., 4., 4., 1., 7., 8., 1., 1., 6., 4.,
          3., 4., 6., 3., 3., 5., 4., 1., 2., 3., 2., 1., 2., 3., 2., 9.,
          1., 0., 1., 7., 2., 9., 6., 1., 11., 6., 1., 5., 1., 7., 6.,
          7., 7., 2. ]
      - [ 5., 3., 2., 2., 4., 1., 2., 4., 1., 5., 2., 1., 2., 2., 9., 3.,
          1., 2., 4., 4., 1., 7., 4., 9., 6., 5., 3., 0., 0., 2., 5., 2.,
          5., 5., 11., 12., 3., 3., 2., 7., 0., 2., 3., 8., 3., 4., 19.,
          6., 4., 0. ]
      - [ 1., 8., 2., 10., 5., 7., 11., 0., 5., 0., 0., 12., 4., 3., 19.,
          0., 0., 0., 0., 1., 0., 1., 0., 3., 3., 2., 1., 1., 13., 2.,
          4., 3., 3., 3., 5., 10., 4., 4., 2., 2., 5., 5., 2., 8., 7.,
          1., 6., 2., 6., 4. ]
      - [ 2., 8., 3., 0., 2., 5., 7., 4., 6., 6., 2., 5., 14., 3., 8.,
          4., 0., 0., 4., 3., 1., 2., 2., 2., 5., 1., 2., 0., 8., 2., 9.,
          2., 1., 2., 3., 4., 0., 1., 1., 6., 1., 11., 1., 9., 1., 5.,
          4., 2., 3., 23. ]
      - [ 8., 1., 3., 6., 1., 4., 2., 2., 3., 8., 4., 0., 2., 6., 5., 4.,
          3., 22., 2., 3., 5., 4., 6., 1., 7., 9., 4., 5., 4., 2., 1.,
          1., 2., 4., 9., 5., 5., 2., 1., 3., 4., 6., 5., 6., 3., 1., 3.,
          2., 1., 0. ]
      - [ 5., 1., 2., 1., 8., 4., 8., 5., 3., 2., 2., 6., 4., 4., 5., 2.,
          0., 4., 4., 3., 2., 6., 4., 2., 2., 1., 7., 4., 11., 2., 6.,
          8., 4., 2., 1., 8., 2., 5., 2., 4., 4., 7., 1., 4., 6., 4., 3.,
          2., 11., 2. ]
      - [ 6., 2., 5., 6., 5., 5., 3., 3., 0., 2., 7., 4., 2., 2., 4., 3.,
          4., 5., 4., 3., 3., 9., 6., 3., 2., 1., 8., 3., 0., 3., 6., 5.,
          1., 3., 2., 17., 3., 5., 2., 2., 0., 5., 1., 4., 7., 3., 8.,
          10., 3., 0. ]
      - [ 3., 7., 8., 3., 1., 3., 12., 13., 10., 1., 4., 1., 13., 7., 7.,
          2., 1., 0., 1., 3., 4., 1., 1., 1., 1., 2., 0., 0., 21., 5.,
          1., 0., 3., 10., 7., 0., 1., 1., 2., 7., 4., 11., 0., 10., 2.,
          0., 1., 0., 2., 3. ]
      - [ 0., 1., 3., 0., 6., 4., 4., 4., 6., 1., 0., 0., 14., 1., 4.,
          0., 0., 0., 2., 0., 2., 0., 0., 3., 3., 0., 0., 0., 0., 0.,
          13., 4., 0., 10., 0., 13., 0., 5., 6., 2., 1., 5., 0., 2., 0.,
          1., 9., 1., 7., 22. ]
      - [ 3., 7., 4., 1., 4., 2., 9., 2., 0., 2., 1., 3., 1., 2., 4., 2.,
          1., 9., 4., 6., 5., 2., 8., 3., 3., 3., 2., 2., 17., 2., 6.,
          3., 4., 1., 4., 10., 7., 3., 0., 2., 4., 5., 3., 7., 4., 1.,
          14., 2., 6., 0. ]
      - [ 8., 0., 11., 0., 1., 1., 5., 4., 2., 2., 7., 0., 1., 1., 2.,
          4., 7., 2., 3., 6., 5., 9., 6., 3., 4., 7., 9., 0., 0., 5., 2.,
          4., 0., 4., 4., 9., 1., 7., 0., 3., 4., 12., 3., 5., 2., 7.,
          3., 10., 3., 2. ]
      - [ 6., 6., 2., 3., 3., 10., 7., 5., 1., 1., 3., 7., 2., 3., 8.,
          4., 7., 5., 4., 1., 0., 7., 7., 0., 5., 5., 1., 1., 2., 1., 3.,
          2., 2., 3., 4., 6., 9., 4., 2., 2., 8., 6., 0., 5., 6., 3., 9.,
          5., 4., 0. ]
      - [ 4., 5., 3., 2., 5., 15., 3., 1., 4., 2., 4., 1., 1., 1., 9.,
          5., 1., 3., 2., 1., 2., 9., 0., 0., 1., 1., 7., 4., 2., 3., 3.,
          0., 3., 1., 3., 12., 3., 4., 2., 2., 10., 6., 0., 8., 8., 8.,
          13., 4., 3., 6. ]
      - [ 7., 0., 1., 6., 1., 7., 7., 5., 1., 2., 6., 1., 3., 5., 3., 1.,
          0., 17., 4., 2., 5., 6., 10., 0., 3., 6., 2., 5., 3., 3., 4.,
          4., 1., 1., 1., 5., 5., 3., 1., 4., 6., 4., 4., 2., 13., 1.,
          9., 7., 2., 1. ]
      - [ 16., 4., 1., 1., 6., 6., 1., 1., 1., 2., 4., 1., 2., 3., 6.,
          1., 5., 0., 7., 6., 1., 8., 1., 2., 3., 3., 5., 0., 7., 2., 2.,
          8., 0., 0., 0., 17., 4., 4., 5., 0., 2., 1., 2., 1., 1., 6.,
          21., 5., 13., 3. ]
      - [ 5., 5., 8., 1., 2., 6., 10., 3., 10., 3., 4., 3., 13., 3., 3.,
          2., 1., 1., 0., 3., 6., 2., 0., 9., 2., 1., 1., 1., 4., 2., 8.,
          2., 1., 8., 2., 4., 2., 3., 3., 2., 3., 13., 0., 9., 3., 0.,
          2., 0., 12., 10. ]
      - [ 8., 2., 1., 7., 2., 3., 8., 2., 1., 3., 6., 2., 1., 3., 9., 2.,
          1., 5., 1., 0., 5., 2., 12., 3., 2., 1., 3., 5., 16., 3., 1.,
          9., 0., 1., 4., 6., 4., 3., 1., 2., 9., 2., 1., 7., 9., 2., 7.,
          3., 10., 0. ]
      - [ 7., 4., 2., 5., 0., 7., 4., 6., 2., 2., 0., 4., 7., 2., 5., 5.,
          8., 3., 4., 3., 1., 8., 2., 2., 1., 9., 3., 2., 3., 5., 2., 3.,
          1., 1., 2., 15., 3., 4., 1., 2., 11., 2., 5., 6., 5., 3., 5.,
          6., 6., 1. ]
      - [ 3., 2., 2., 3., 4., 6., 0., 1., 5., 3., 2., 3., 4., 6., 5., 2.,
          1., 1., 6., 0., 3., 1., 0., 9., 6., 0., 2., 0., 4., 2., 7., 4.,
          2., 5., 1., 16., 14., 7., 10., 2., 5., 4., 0., 6., 2., 0., 10.,
          0., 5., 10. ]
      - [ 2., 1., 5., 1., 9., 5., 3., 2., 11., 3., 1., 2., 6., 2., 5.,
          2., 2., 0., 4., 3., 0., 5., 4., 0., 2., 2., 9., 0., 0., 0., 4.,
          3., 5., 3., 1., 23., 0., 5., 1., 5., 3., 5., 0., 4., 0., 3.,
          8., 7., 4., 25. ]
      - [ 3., 3., 1., 0., 0., 7., 0., 2., 2., 1., 0., 0., 0., 1., 2., 1.,
          0., 0., 0., 1., 0., 5., 4., 4., 3., 4., 9., 3., 0., 0., 5., 2.,
          0., 3., 2., 19., 0., 3., 0., 2., 1., 2., 0., 2., 3., 1., 13.,
          12., 3., 2. ]
      - [ 12., 1., 0., 7., 3., 8., 0., 1., 2., 2., 0., 6., 3., 1., 7.,
          6., 3., 1., 1., 1., 0., 2., 0., 2., 2., 13., 1., 6., 16., 6.,
          2., 2., 4., 4., 3., 5., 10., 13., 5., 0., 4., 5., 8., 4., 4.,
          4., 2., 3., 3., 2. ]
      - [ 5., 2., 9., 0., 2., 1., 4., 5., 12., 3., 7., 0., 4., 5., 7.,
          2., 1., 5., 3., 7., 8., 1., 9., 3., 6., 1., 3., 0., 11., 1.,
          3., 1., 4., 5., 6., 5., 1., 2., 7., 6., 2., 14., 0., 4., 0.,
          2., 0., 0., 8., 3. ]
      - [ 2., 6., 7., 1., 3., 3., 10., 4., 10., 2., 4., 7., 10., 2., 9.,
          2., 0., 2., 2., 5., 2., 4., 3., 1., 3., 3., 2., 1., 10., 1.,
          7., 5., 1., 3., 6., 8., 0., 3., 5., 6., 1., 5., 3., 4., 0., 1.,
          4., 0., 7., 10. ]
      - [ 6., 2., 2., 11., 1., 8., 0., 2., 0., 5., 4., 5., 2., 3., 4.,
          0., 6., 9., 4., 1., 4., 4., 9., 0., 0., 7., 2., 10., 2., 2.,
          2., 6., 1., 3., 4., 3., 16., 2., 4., 2., 5., 4., 8., 2., 4.,
          3., 6., 1., 6., 4. ]
      - [ 6., 3., 12., 5., 1., 0., 7., 11., 4., 2., 13., 0., 10., 4., 7.,
          1., 4., 8., 1., 10., 2., 4., 6., 3., 5., 3., 0., 1., 1., 4.,
          2., 0., 2., 3., 1., 0., 4., 1., 0., 5., 7., 7., 1., 4., 7., 0.,
          0., 1., 7., 10. ]
      - [ 10., 3., 3., 3., 3., 9., 2., 7., 2., 2., 0., 0., 2., 4., 6.,
          2., 2., 7., 2., 2., 3., 7., 7., 2., 4., 3., 3., 8., 1., 2., 1.,
          6., 2., 1., 6., 16., 5., 15., 2., 5., 5., 4., 1., 2., 4., 3.,
          4., 2., 2., 3. ]
      - [ 2., 1., 4., 2., 1., 6., 0., 0., 0., 4., 3., 0., 1., 1., 1., 1.,
          2., 2., 0., 0., 0., 1., 8., 0., 2., 4., 2., 6., 21., 1., 0.,
          3., 0., 0., 2., 16., 5., 4., 0., 3., 3., 2., 2., 0., 2., 3.,
          20., 7., 4., 1. ]
      - [ 6., 7., 3., 2., 7., 3., 9., 3., 7., 0., 1., 3., 4., 1., 6., 1.,
          2., 3., 2., 4., 2., 6., 2., 1., 5., 1., 2., 4., 14., 1., 0.,
          1., 1., 2., 3., 3., 12., 4., 2., 7., 6., 8., 1., 4., 6., 4.,
          8., 6., 3., 7. ]
      - [ 9., 9., 3., 3., 4., 11., 3., 3., 3., 6., 3., 1., 2., 1., 5.,
          3., 2., 11., 5., 3., 1., 3., 4., 2., 3., 4., 3., 4., 1., 2.,
          5., 4., 2., 1., 2., 9., 3., 10., 2., 0., 9., 3., 6., 3., 4.,
          2., 14., 3., 1., 0. ]
      - [ 11., 4., 4., 4., 0., 8., 3., 4., 2., 5., 10., 0., 1., 5., 3.,
          6., 3., 4., 4., 2., 6., 4., 6., 0., 5., 6., 1., 0., 1., 5., 1.,
          5., 2., 3., 7., 5., 1., 7., 0., 1., 15., 8., 2., 4., 4., 4.,
          1., 3., 3., 7. ]
      - [ 3., 5., 1., 4., 1., 5., 10., 2., 0., 2., 5., 2., 5., 5., 5.,
          3., 5., 10., 3., 2., 3., 7., 8., 3., 5., 3., 4., 8., 8., 2.,
          4., 3., 3., 8., 2., 1., 4., 5., 2., 3., 1., 6., 0., 6., 6., 4.,
          5., 5., 3., 0. ]
      - [ 3., 3., 2., 7., 3., 6., 6., 4., 2., 0., 5., 13., 2., 3., 4.,
          2., 0., 8., 2., 3., 3., 4., 6., 2., 5., 5., 2., 5., 4., 1., 4.,
          2., 1., 1., 2., 13., 3., 2., 2., 1., 5., 4., 3., 2., 1., 3.,
          14., 8., 4., 2. ]
      - [ 2., 3., 5., 9., 0., 0., 6., 11., 0., 2., 4., 5., 12., 11., 1.,
          3., 2., 20., 1., 2., 1., 2., 14., 1., 3., 3., 2., 0., 3., 1.,
          2., 1., 0., 2., 6., 0., 19., 2., 0., 3., 8., 1., 9., 0., 9.,
          1., 1., 1., 5., 2. ]
      - [ 9., 3., 3., 5., 1., 6., 0., 5., 1., 3., 5., 2., 3., 15., 3.,
          2., 4., 21., 2., 3., 3., 6., 8., 2., 3., 7., 1., 2., 5., 1.,
          2., 0., 2., 3., 11., 2., 3., 8., 1., 4., 7., 2., 6., 1., 8.,
          1., 4., 0., 0., 1. ]
      - [ 2., 2., 2., 3., 0., 4., 0., 11., 0., 1., 7., 2., 2., 7., 2.,
          2., 1., 17., 4., 1., 3., 2., 2., 2., 0., 4., 1., 15., 13., 1.,
          1., 2., 0., 2., 2., 6., 12., 1., 2., 0., 3., 2., 4., 2., 10.,
          3., 14., 5., 16., 0. ]
      - [ 4., 0., 5., 4., 4., 5., 8., 1., 5., 3., 5., 10., 3., 2., 1.,
          4., 3., 6., 1., 3., 2., 8., 3., 7., 4., 5., 3., 0., 6., 0., 1.,
          4., 2., 2., 0., 15., 1., 4., 1., 2., 3., 7., 1., 9., 0., 7.,
          9., 3., 9., 6. ]
      - [ 6., 5., 4., 2., 3., 6., 6., 4., 5., 0., 2., 2., 1., 3., 8., 3.,
          2., 0., 2., 2., 0., 7., 2., 4., 3., 4., 4., 3., 17., 1., 12.,
          2., 1., 9., 2., 3., 3., 4., 2., 2., 2., 4., 1., 8., 2., 5., 4.,
          0., 14., 9. ]
      - [ 8., 2., 2., 5., 3., 10., 1., 4., 5., 2., 8., 2., 5., 5., 4.,
          3., 2., 21., 1., 4., 4., 3., 5., 2., 2., 4., 2., 6., 1., 3.,
          1., 3., 0., 4., 5., 4., 4., 7., 0., 2., 5., 4., 8., 0., 5., 1.,
          9., 4., 2., 3. ]
      - [ 3., 2., 4., 6., 2., 4., 7., 3., 2., 2., 0., 5., 4., 5., 7., 3.,
          2., 6., 2., 1., 1., 2., 4., 6., 8., 2., 0., 3., 16., 2., 7.,
          1., 2., 1., 6., 14., 2., 4., 4., 2., 10., 4., 2., 3., 10., 3.,
          1., 1., 7., 3. ]
      - [ 9., 2., 7., 3., 0., 9., 0., 0., 2., 3., 1., 0., 2., 0., 3., 5.,
          3., 5., 8., 2., 0., 8., 1., 3., 5., 3., 5., 7., 10., 2., 5.,
          5., 0., 3., 2., 16., 0., 10., 10., 2., 7., 3., 1., 1., 1., 8.,
          14., 1., 2., 2. ]
      - [ 3., 4., 0., 10., 0., 8., 8., 4., 5., 1., 3., 3., 3., 5., 3.,
          2., 1., 6., 0., 1., 0., 0., 4., 3., 6., 3., 3., 10., 16., 3.,
          5., 1., 1., 2., 6., 3., 6., 5., 2., 0., 2., 6., 2., 7., 16.,
          4., 4., 2., 6., 2. ]
      - [ 4., 2., 6., 3., 3., 3., 0., 4., 3., 5., 3., 0., 2., 3., 2., 7.,
          0., 6., 1., 3., 4., 4., 7., 1., 6., 6., 5., 11., 24., 3., 2.,
          2., 3., 0., 2., 6., 5., 2., 3., 3., 2., 7., 4., 0., 10., 3.,
          3., 6., 5., 1. ]
      - [ 4., 8., 4., 13., 2., 3., 6., 6., 4., 0., 1., 5., 4., 1., 11.,
          1., 0., 2., 0., 4., 3., 0., 5., 1., 2., 0., 2., 3., 20., 0.,
          5., 0., 0., 3., 5., 0., 4., 8., 2., 3., 26., 4., 2., 3., 18.,
          0., 0., 0., 1., 1. ]
      - [ 0., 5., 5., 4., 6., 5., 13., 2., 4., 0., 2., 2., 7., 5., 6.,
          1., 1., 1., 4., 5., 1., 2., 2., 2., 4., 0., 3., 3., 30., 1.,
          7., 4., 0., 2., 1., 6., 3., 1., 5., 4., 4., 2., 1., 9., 5., 0.,
          10., 2., 3., 5. ]
      - [ 1., 5., 4., 8., 2., 12., 4., 4., 3., 0., 5., 2., 6., 5., 3.,
          2., 2., 7., 4., 4., 2., 2., 1., 1., 1., 4., 1., 4., 9., 2., 4.,
          2., 2., 7., 4., 6., 4., 2., 1., 1., 6., 6., 1., 2., 6., 3., 8.,
          10., 7., 8. ]
      - [ 7., 3., 3., 4., 3., 5., 7., 9., 6., 2., 6., 5., 6., 4., 3., 0.,
          4., 12., 1., 3., 1., 3., 2., 3., 3., 2., 0., 1., 5., 3., 1.,
          1., 2., 4., 8., 6., 9., 6., 2., 3., 5., 4., 3., 9., 4., 1., 5.,
          5., 3., 3. ]
      - [ 2., 0., 1., 3., 0., 8., 3., 6., 0., 5., 1., 6., 0., 2., 2., 2.,
          3., 5., 3., 0., 0., 4., 5., 3., 6., 6., 4., 12., 19., 1., 0.,
          3., 0., 0., 3., 19., 0., 4., 1., 0., 7., 0., 5., 4., 6., 2.,
          9., 7., 18., 0. ]
      - [ 0., 0., 3., 12., 0., 4., 2., 8., 1., 2., 8., 0., 3., 11., 0.,
          1., 0., 9., 0., 3., 2., 6., 10., 7., 4., 6., 5., 2., 8., 0.,
          6., 1., 3., 2., 1., 0., 8., 2., 0., 1., 24., 3., 1., 4., 13.,
          0., 0., 0., 12., 3. ]
      - [ 5., 2., 1., 1., 3., 6., 2., 1., 4., 1., 2., 2., 6., 2., 2., 4.,
          2., 3., 5., 3., 2., 4., 4., 4., 5., 2., 4., 2., 12., 1., 4.,
          8., 1., 6., 2., 4., 1., 7., 6., 8., 5., 7., 1., 1., 2., 1.,
          16., 0., 9., 14. ]
      - [ 8., 2., 4., 5., 1., 2., 7., 1., 3., 1., 5., 1., 4., 6., 11.,
          2., 4., 9., 1., 2., 4., 3., 6., 1., 3., 5., 1., 3., 13., 4.,
          3., 0., 3., 3., 6., 3., 7., 5., 1., 4., 10., 5., 4., 3., 7.,
          2., 4., 1., 4., 3. ]
      - [ 4., 3., 1., 7., 0., 1., 2., 3., 2., 2., 6., 12., 0., 2., 3.,
          2., 1., 11., 2., 1., 2., 2., 10., 3., 3., 4., 5., 5., 22., 3.,
          0., 3., 0., 0., 4., 5., 14., 4., 3., 2., 4., 2., 4., 1., 14.,
          2., 3., 2., 9., 0. ]
      - [ 5., 2., 7., 2., 1., 6., 3., 3., 6., 3., 3., 0., 6., 0., 9., 7.,
          2., 4., 1., 0., 3., 3., 2., 4., 2., 4., 11., 2., 3., 2., 1.,
          3., 1., 6., 2., 13., 0., 0., 2., 3., 1., 13., 3., 1., 0., 4.,
          31., 7., 0., 3. ]
      - [ 1., 0., 6., 14., 2., 1., 2., 19., 4., 2., 3., 1., 8., 7., 2.,
          0., 0., 16., 1., 3., 7., 2., 10., 2., 1., 4., 2., 10., 0., 2.,
          3., 4., 0., 1., 9., 1., 11., 2., 1., 3., 4., 5., 5., 2., 12.,
          1., 0., 1., 3., 0. ]
      - [ 2., 3., 1., 5., 0., 8., 2., 13., 3., 3., 1., 4., 3., 12., 0.,
          1., 6., 9., 0., 0., 7., 3., 13., 3., 3., 5., 1., 13., 1., 1.,
          3., 2., 0., 8., 8., 0., 8., 1., 1., 2., 8., 4., 0., 4., 11.,
          0., 9., 0., 6., 0. ]
      - [ 4., 4., 6., 9., 0., 3., 7., 2., 3., 1., 5., 5., 5., 6., 7., 1.,
          1., 3., 5., 4., 2., 4., 5., 1., 5., 3., 2., 0., 11., 0., 3.,
          3., 1., 1., 3., 11., 0., 0., 1., 1., 12., 10., 0., 5., 5., 1.,
          5., 0., 19., 5. ]
      - [ 1., 5., 5., 4., 4., 8., 8., 4., 10., 4., 0., 3., 7., 3., 8.,
          2., 1., 1., 4., 3., 5., 1., 2., 6., 1., 1., 0., 0., 6., 1.,
          11., 2., 2., 10., 3., 4., 3., 1., 3., 4., 3., 4., 0., 5., 1.,
          3., 1., 0., 7., 25. ]
      - [ 6., 4., 0., 4., 3., 6., 0., 1., 2., 2., 5., 1., 3., 1., 7., 5.,
          3., 7., 4., 1., 0., 6., 4., 1., 0., 10., 6., 4., 0., 9., 0.,
          9., 8., 0., 2., 18., 5., 6., 0., 2., 3., 0., 11., 0., 2., 4.,
          10., 10., 5., 0. ]
      - [ 5., 1., 1., 5., 3., 6., 15., 4., 7., 1., 5., 5., 4., 7., 4.,
          1., 0., 7., 0., 5., 2., 6., 6., 1., 3., 3., 1., 5., 12., 1.,
          1., 4., 2., 1., 1., 4., 8., 2., 1., 4., 6., 1., 3., 10., 5.,
          3., 4., 5., 9., 0. ]
      - [ 0., 1., 1., 14., 1., 5., 2., 11., 0., 0., 3., 8., 0., 10., 2.,
          0., 1., 6., 2., 2., 2., 4., 10., 4., 2., 2., 4., 4., 3., 0.,
          0., 3., 0., 3., 4., 20., 7., 3., 1., 3., 7., 1., 8., 4., 14.,
          1., 5., 6., 4., 2. ]
      - [ 1., 6., 1., 4., 2., 3., 13., 5., 7., 1., 2., 6., 6., 5., 7.,
          0., 1., 8., 0., 0., 2., 1., 1., 2., 2., 1., 0., 0., 32., 0.,
          0., 1., 1., 5., 6., 3., 7., 5., 0., 3., 7., 3., 3., 6., 5., 1.,
          9., 2., 10., 4. ]
      - [ 6., 2., 3., 9., 0., 4., 5., 5., 1., 7., 5., 2., 5., 11., 1.,
          4., 1., 17., 5., 4., 5., 9., 6., 2., 7., 6., 3., 4., 1., 0.,
          2., 3., 1., 1., 2., 3., 7., 3., 1., 2., 8., 3., 4., 0., 9., 4.,
          3., 3., 1., 0. ]
      - [ 2., 7., 3., 1., 4., 4., 10., 2., 10., 0., 1., 6., 6., 2., 9.,
          0., 1., 1., 3., 2., 0., 1., 1., 2., 3., 0., 2., 6., 10., 4.,
          4., 3., 0., 0., 3., 13., 6., 4., 2., 5., 6., 3., 2., 9., 5.,
          2., 8., 1., 11., 10. ]
      - [ 4., 4., 1., 9., 1., 2., 3., 6., 1., 2., 3., 4., 1., 6., 3., 1.,
          1., 9., 4., 1., 3., 4., 7., 2., 3., 6., 1., 5., 1., 1., 0., 6.,
          0., 2., 4., 11., 6., 11., 9., 3., 10., 5., 7., 1., 7., 0., 10.,
          2., 7., 0. ]
      - [ 5., 9., 2., 8., 1., 3., 2., 5., 4., 1., 4., 0., 5., 9., 11.,
          3., 1., 5., 4., 4., 4., 4., 0., 1., 2., 10., 5., 8., 4., 9.,
          6., 1., 5., 9., 2., 0., 4., 1., 1., 1., 7., 9., 6., 2., 5., 0.,
          1., 3., 2., 2. ]
      - [ 7., 2., 2., 13., 3., 5., 0., 6., 1., 2., 2., 1., 2., 2., 3.,
          3., 3., 4., 6., 0., 5., 2., 0., 0., 3., 13., 1., 13., 1., 7.,
          0., 4., 5., 2., 1., 9., 10., 3., 4., 1., 14., 1., 9., 2., 11.,
          1., 7., 3., 1., 0. ]
      - [ 1., 14., 2., 2., 3., 4., 4., 5., 13., 1., 1., 1., 16., 4., 27.,
          0., 2., 0., 1., 3., 0., 3., 0., 8., 7., 0., 1., 1., 4., 1., 6.,
          1., 5., 8., 9., 1., 2., 2., 0., 5., 3., 5., 2., 11., 1., 0.,
          1., 0., 5., 4. ]
      - [ 1., 0., 1., 8., 2., 9., 4., 6., 2., 2., 4., 5., 7., 11., 0.,
          1., 0., 11., 2., 0., 5., 5., 11., 1., 0., 2., 2., 6., 5., 0.,
          3., 0., 1., 6., 1., 12., 8., 3., 0., 1., 6., 5., 6., 3., 7.,
          0., 21., 2., 1., 1. ]
      - [ 5., 2., 3., 21., 2., 8., 1., 2., 6., 0., 8., 4., 3., 3., 6.,
          6., 0., 0., 4., 2., 1., 2., 6., 4., 7., 2., 1., 5., 7., 3., 2.,
          0., 4., 3., 5., 4., 10., 6., 1., 3., 9., 4., 1., 5., 10., 4.,
          4., 0., 1., 1. ]
      - [ 7., 13., 12., 0., 4., 2., 3., 10., 11., 2., 2., 0., 11., 0.,
          23., 6., 5., 0., 0., 1., 0., 4., 2., 0., 2., 7., 1., 0., 1.,
          2., 3., 0., 4., 4., 9., 0., 1., 6., 1., 8., 3., 5., 0., 3., 4.,
          0., 0., 0., 0., 18. ]
      - [ 6., 7., 6., 4., 5., 5., 3., 1., 11., 1., 8., 1., 4., 7., 6.,
          2., 1., 1., 3., 0., 2., 7., 4., 3., 3., 3., 8., 0., 1., 1., 3.,
          3., 1., 3., 2., 5., 6., 9., 3., 2., 4., 6., 0., 3., 6., 7., 4.,
          4., 3., 12. ]
      - [ 1., 8., 2., 2., 3., 7., 4., 6., 9., 2., 9., 3., 8., 4., 3., 4.,
          1., 3., 7., 4., 0., 4., 6., 1., 3., 5., 5., 2., 9., 1., 0., 3.,
          0., 3., 2., 3., 6., 5., 0., 3., 8., 3., 3., 4., 8., 3., 9., 2.,
          4., 5. ]
      - [ 7., 9., 2., 0., 0., 7., 3., 1., 7., 5., 5., 1., 3., 2., 14.,
          7., 3., 5., 1., 3., 2., 6., 1., 3., 3., 9., 2., 3., 18., 2.,
          6., 0., 1., 0., 3., 2., 0., 7., 7., 4., 9., 7., 4., 3., 4., 1.,
          1., 0., 4., 3. ]
      - [ 3., 3., 6., 9., 4., 5., 10., 1., 6., 3., 2., 11., 8., 8., 3.,
          1., 1., 3., 3., 3., 3., 2., 6., 5., 2., 0., 2., 2., 15., 0.,
          5., 5., 0., 4., 3., 4., 5., 5., 1., 0., 4., 6., 2., 9., 5., 2.,
          2., 0., 6., 2. ]
      - [ 2., 8., 4., 11., 2., 5., 4., 8., 1., 1., 5., 0., 1., 5., 11.,
          0., 5., 3., 1., 4., 3., 3., 5., 0., 1., 8., 1., 5., 6., 4., 1.,
          0., 6., 3., 3., 4., 8., 1., 1., 3., 10., 4., 3., 0., 10., 3.,
          8., 2., 11., 2. ]
      - [ 6., 5., 2., 2., 4., 10., 0., 0., 1., 4., 7., 4., 2., 5., 3.,
          2., 1., 3., 2., 0., 3., 12., 9., 5., 4., 4., 7., 8., 0., 2.,
          2., 2., 0., 3., 3., 10., 1., 3., 6., 1., 4., 1., 2., 3., 8.,
          4., 13., 9., 6., 2. ]
      - [ 1., 3., 2., 2., 3., 4., 5., 1., 8., 3., 0., 3., 3., 2., 2., 2.,
          3., 1., 2., 2., 4., 7., 2., 6., 3., 2., 7., 1., 16., 0., 7.,
          3., 0., 4., 3., 15., 5., 3., 2., 7., 7., 7., 3., 1., 2., 1.,
          6., 4., 16., 4. ]
      - [ 3., 2., 3., 8., 6., 3., 8., 3., 2., 7., 3., 3., 0., 3., 5., 3.,
          2., 2., 3., 1., 1., 12., 4., 0., 6., 3., 4., 10., 8., 2., 1.,
          4., 1., 0., 4., 5., 5., 8., 4., 1., 10., 10., 4., 1., 4., 3.,
          3., 6., 4., 2. ]
      - [ 0., 2., 5., 10., 2., 6., 2., 8., 0., 0., 5., 0., 2., 5., 0.,
          0., 1., 11., 1., 1., 3., 3., 18., 6., 4., 5., 3., 7., 9., 0.,
          4., 1., 0., 3., 5., 2., 6., 3., 1., 2., 8., 4., 6., 1., 18.,
          2., 9., 2., 4., 0. ]
      - [ 3., 2., 2., 9., 1., 12., 3., 12., 2., 2., 2., 6., 4., 10., 2.,
          4., 1., 15., 1., 0., 3., 0., 8., 4., 11., 3., 0., 5., 4., 0.,
          2., 2., 1., 4., 12., 1., 7., 6., 1., 3., 4., 6., 4., 3., 9.,
          2., 0., 2., 0., 0. ]
      - [ 12., 5., 4., 0., 7., 7., 10., 2., 6., 3., 4., 0., 6., 0., 6.,
          12., 2., 0., 8., 8., 1., 1., 1., 2., 2., 0., 4., 0., 0., 1.,
          3., 3., 1., 7., 0., 1., 0., 4., 5., 5., 1., 10., 0., 12., 0.,
          13., 1., 6., 3., 12. ]
      - [ 10., 4., 7., 2., 2., 9., 3., 3., 8., 1., 3., 3., 9., 2., 8.,
          3., 0., 2., 1., 2., 3., 2., 4., 2., 3., 3., 0., 4., 4., 3., 2.,
          0., 1., 2., 3., 8., 8., 4., 2., 1., 10., 11., 0., 5., 11., 7.,
          6., 0., 7., 3. ]
      - [ 8., 6., 6., 3., 3., 8., 3., 3., 1., 3., 6., 2., 4., 5., 10.,
          0., 2., 3., 6., 5., 2., 6., 3., 3., 5., 1., 5., 3., 7., 4., 3.,
          7., 1., 3., 5., 6., 1., 5., 2., 4., 7., 1., 6., 2., 1., 7., 2.,
          3., 4., 4. ]
      - [ 6., 0., 3., 2., 3., 5., 3., 7., 3., 2., 8., 5., 4., 2., 5., 2.,
          4., 10., 2., 2., 2., 2., 9., 3., 5., 4., 3., 11., 6., 1., 1.,
          3., 1., 3., 3., 4., 4., 1., 1., 3., 8., 2., 3., 4., 10., 4.,
          14., 4., 0., 3. ]
      - [ 8., 9., 4., 5., 1., 4., 22., 1., 9., 1., 2., 6., 9., 1., 10.,
          3., 2., 1., 2., 4., 0., 1., 1., 1., 0., 2., 0., 2., 27., 0.,
          2., 1., 0., 2., 3., 1., 3., 3., 1., 4., 7., 6., 0., 11., 2.,
          2., 0., 2., 1., 12. ]
      - [ 5., 2., 9., 7., 3., 1., 10., 3., 7., 2., 5., 2., 8., 13., 6.,
          3., 1., 8., 3., 9., 0., 1., 2., 1., 4., 3., 1., 1., 4., 2., 4.,
          0., 2., 8., 2., 4., 4., 1., 1., 5., 2., 10., 2., 6., 5., 0.,
          0., 1., 3., 14. ]
      - [ 2., 1., 1., 8., 2., 16., 3., 2., 4., 4., 7., 1., 6., 8., 2.,
          1., 0., 4., 11., 1., 2., 2., 4., 9., 5., 3., 2., 0., 2., 4.,
          12., 5., 3., 11., 1., 3., 1., 6., 6., 1., 5., 5., 3., 1., 2.,
          4., 6., 3., 1., 4. ]
      - [ 5., 7., 1., 1., 2., 9., 6., 2., 5., 2., 1., 1., 5., 1., 3., 1.,
          1., 5., 4., 3., 1., 4., 1., 0., 1., 4., 2., 2., 8., 1., 2., 6.,
          1., 2., 3., 16., 0., 10., 3., 2., 1., 1., 3., 7., 2., 6., 21.,
          5., 12., 8. ]
      - [ 2., 4., 2., 8., 2., 2., 5., 5., 5., 1., 0., 5., 0., 0., 6., 1.,
          0., 0., 2., 0., 1., 4., 3., 1., 1., 3., 4., 2., 11., 1., 1.,
          6., 2., 1., 4., 15., 6., 1., 4., 2., 2., 7., 1., 5., 2., 7.,
          11., 3., 7., 7. ]
      - [ 4., 2., 3., 10., 3., 2., 5., 6., 1., 1., 9., 4., 3., 4., 7.,
          6., 2., 5., 2., 2., 3., 3., 10., 3., 4., 7., 4., 4., 8., 1.,
          3., 3., 2., 1., 3., 3., 15., 3., 1., 3., 5., 2., 4., 4., 12.,
          0., 3., 3., 1., 2. ]
      - [ 2., 5., 2., 3., 0., 5., 7., 2., 1., 0., 2., 3., 4., 4., 1., 3.,
          1., 11., 2., 1., 0., 7., 3., 0., 0., 1., 4., 2., 16., 0., 2.,
          1., 0., 2., 4., 14., 4., 2., 2., 0., 3., 3., 2., 3., 8., 2.,
          12., 7., 11., 1. ]
      - [ 6., 7., 1., 1., 3., 4., 2., 5., 2., 1., 2., 5., 4., 1., 8., 4.,
          1., 3., 3., 1., 1., 2., 1., 0., 1., 0., 1., 4., 4., 4., 3., 6.,
          3., 1., 1., 9., 2., 4., 4., 0., 3., 4., 1., 0., 3., 2., 2., 4.,
          10., 0. ]
      - [ 6., 8., 3., 3., 6., 4., 3., 3., 1., 2., 1., 5., 2., 2., 6., 1.,
          0., 3., 3., 3., 0., 6., 2., 7., 1., 6., 9., 0., 1., 2., 1., 9.,
          3., 0., 1., 12., 2., 3., 2., 3., 2., 0., 1., 5., 2., 1., 9.,
          8., 6., 0. ]
      - [ 3., 2., 3., 11., 1., 11., 9., 3., 2., 2., 1., 3., 1., 3., 1.,
          4., 0., 8., 4., 4., 4., 2., 7., 2., 6., 5., 6., 3., 12., 1.,
          2., 3., 3., 0., 2., 4., 4., 8., 2., 1., 6., 3., 0., 8., 4., 3.,
          12., 4., 6., 1. ]
      - [ 6., 4., 6., 7., 2., 11., 11., 3., 2., 2., 4., 10., 1., 0., 10.,
          2., 2., 7., 1., 6., 2., 3., 7., 2., 5., 8., 2., 1., 6., 2., 2.,
          3., 2., 1., 1., 1., 6., 9., 0., 4., 5., 5., 1., 4., 3., 2., 1.,
          5., 8., 2. ]
      - [ 5., 2., 1., 2., 3., 5., 2., 12., 9., 3., 12., 1., 12., 3., 9.,
          2., 1., 5., 1., 6., 2., 6., 6., 3., 2., 9., 1., 1., 4., 3., 3.,
          4., 2., 7., 3., 3., 2., 8., 5., 3., 0., 8., 5., 2., 4., 2., 2.,
          0., 1., 4. ]
      - [ 7., 4., 11., 1., 2., 6., 4., 2., 7., 3., 3., 1., 4., 2., 4.,
          4., 3., 2., 8., 4., 0., 5., 4., 1., 5., 7., 4., 0., 0., 2., 4.,
          5., 3., 3., 4., 4., 1., 8., 5., 5., 5., 15., 1., 3., 2., 6.,
          3., 0., 1., 12. ]
      - [ 1., 4., 3., 3., 5., 5., 4., 6., 5., 1., 4., 6., 2., 6., 3., 3.,
          0., 3., 7., 1., 0., 2., 2., 2., 2., 9., 2., 0., 26., 0., 4.,
          4., 3., 3., 3., 10., 1., 4., 3., 2., 3., 3., 3., 3., 4., 4.,
          4., 5., 16., 1. ]
      - [ 5., 1., 4., 8., 1., 7., 0., 5., 2., 3., 3., 0., 5., 1., 4., 5.,
          1., 1., 3., 4., 2., 8., 6., 7., 6., 1., 4., 2., 0., 2., 5., 9.,
          4., 3., 6., 7., 3., 3., 4., 10., 6., 4., 2., 3., 5., 3., 11.,
          8., 1., 2. ]
      - [ 3., 5., 3., 5., 6., 8., 5., 0., 2., 4., 2., 2., 2., 1., 5., 2.,
          2., 3., 6., 3., 2., 7., 3., 5., 6., 5., 0., 8., 2., 4., 6., 2.,
          2., 1., 1., 8., 1., 8., 2., 2., 9., 2., 2., 1., 8., 7., 6., 5.,
          14., 2. ]
      - [ 7., 0., 0., 4., 4., 4., 5., 3., 3., 1., 3., 7., 4., 2., 1., 4.,
          3., 3., 4., 2., 0., 6., 1., 2., 1., 4., 9., 6., 12., 1., 8.,
          2., 1., 1., 4., 9., 9., 8., 0., 1., 2., 4., 3., 1., 10., 7.,
          8., 6., 9., 1. ]
      - [ 7., 3., 2., 2., 6., 5., 5., 7., 6., 2., 4., 1., 7., 7., 2., 5.,
          3., 2., 4., 2., 3., 9., 2., 2., 3., 0., 7., 1., 1., 2., 3., 7.,
          1., 5., 0., 10., 3., 6., 1., 3., 2., 7., 4., 3., 0., 7., 10.,
          6., 7., 3. ]
      - [ 4., 7., 4., 2., 3., 2., 7., 1., 8., 0., 4., 3., 3., 7., 6., 4.,
          1., 2., 4., 2., 0., 5., 0., 4., 4., 1., 3., 4., 31., 0., 1.,
          2., 1., 1., 4., 4., 13., 3., 3., 3., 4., 6., 1., 3., 4., 0.,
          0., 1., 15., 5. ]
      - [ 6., 10., 7., 2., 1., 1., 5., 8., 4., 5., 6., 1., 7., 2., 9.,
          2., 1., 0., 3., 9., 4., 3., 1., 0., 1., 12., 2., 4., 2., 0.,
          4., 0., 7., 11., 4., 0., 2., 2., 1., 4., 8., 13., 4., 2., 3.,
          4., 0., 0., 0., 13. ]
      - [ 4., 4., 7., 6., 1., 10., 2., 3., 4., 2., 5., 3., 6., 9., 7.,
          1., 0., 7., 0., 2., 3., 4., 3., 2., 3., 6., 1., 8., 0., 3., 2.,
          1., 0., 2., 4., 14., 8., 7., 2., 3., 5., 3., 1., 1., 6., 5.,
          6., 3., 5., 6. ]
      - [ 6., 6., 2., 5., 1., 6., 0., 5., 2., 3., 3., 6., 1., 7., 8., 2.,
          0., 12., 1., 2., 2., 4., 7., 4., 2., 1., 5., 5., 5., 0., 2.,
          1., 1., 1., 6., 9., 9., 2., 5., 3., 1., 7., 2., 0., 9., 3.,
          19., 1., 4., 2. ]
      - [ 4., 3., 2., 3., 2., 9., 10., 3., 3., 0., 4., 4., 1., 3., 3.,
          4., 1., 2., 5., 1., 1., 5., 0., 2., 4., 2., 7., 3., 8., 2., 5.,
          0., 2., 2., 1., 9., 10., 7., 1., 3., 5., 9., 0., 5., 1., 3.,
          11., 5., 18., 3. ]
      - [ 3., 9., 3., 4., 4., 6., 0., 1., 2., 2., 3., 2., 7., 1., 10.,
          1., 2., 0., 3., 0., 1., 6., 1., 5., 2., 2., 4., 6., 2., 3., 9.,
          4., 1., 0., 1., 23., 3., 6., 3., 4., 5., 15., 1., 5., 0., 4.,
          13., 1., 6., 1. ]
      - [ 10., 5., 1., 18., 7., 4., 1., 1., 5., 1., 4., 2., 2., 1., 4.,
          4., 2., 0., 10., 2., 2., 12., 1., 0., 1., 2., 2., 0., 6., 2.,
          2., 4., 2., 1., 2., 13., 3., 3., 5., 2., 7., 3., 0., 2., 1.,
          9., 19., 8., 2., 0. ]
      - [ 5., 1., 3., 11., 2., 5., 2., 6., 0., 3., 1., 0., 3., 4., 3.,
          1., 2., 23., 1., 6., 1., 1., 9., 1., 3., 12., 5., 20., 2., 2.,
          0., 2., 0., 6., 5., 1., 7., 5., 1., 2., 13., 0., 8., 0., 4.,
          3., 1., 4., 0., 0. ]
      - [ 5., 1., 7., 9., 1., 2., 1., 7., 2., 7., 5., 3., 4., 8., 5., 4.,
          0., 7., 2., 4., 6., 2., 8., 1., 5., 13., 4., 1., 0., 7., 2.,
          3., 4., 3., 7., 3., 0., 5., 1., 3., 8., 1., 5., 5., 9., 4., 1.,
          3., 3., 0. ]
      - [ 8., 10., 1., 5., 0., 7., 2., 3., 1., 0., 1., 2., 0., 3., 12.,
          5., 5., 0., 3., 0., 5., 7., 5., 8., 1., 4., 3., 0., 0., 0., 2.,
          1., 0., 0., 1., 13., 10., 14., 2., 6., 3., 8., 1., 0., 13., 3.,
          15., 6., 2., 0. ]
      - [ 10., 4., 4., 1., 1., 12., 2., 3., 0., 6., 1., 3., 3., 0., 4.,
          3., 1., 1., 8., 2., 0., 10., 4., 2., 10., 6., 6., 1., 8., 4.,
          0., 4., 1., 0., 2., 17., 2., 10., 3., 4., 4., 4., 1., 5., 3.,
          5., 1., 4., 3., 7. ]
      - [ 6., 3., 0., 6., 1., 5., 3., 4., 1., 1., 3., 5., 3., 12., 5.,
          0., 5., 9., 0., 5., 4., 4., 13., 0., 4., 6., 4., 2., 2., 2.,
          6., 5., 3., 4., 3., 5., 2., 1., 4., 2., 3., 6., 2., 3., 13.,
          4., 4., 6., 5., 1. ]
      - [ 2., 3., 10., 4., 2., 1., 5., 4., 7., 0., 6., 0., 9., 10., 8.,
          1., 2., 4., 3., 7., 10., 1., 4., 2., 3., 0., 0., 0., 3., 1.,
          12., 0., 6., 15., 10., 0., 2., 1., 4., 3., 7., 13., 0., 5., 2.,
          2., 0., 0., 0., 6. ]
      - [ 2., 6., 0., 7., 0., 7., 3., 5., 4., 0., 1., 3., 2., 3., 3., 1.,
          4., 12., 1., 3., 3., 4., 6., 4., 6., 7., 4., 12., 4., 0., 2.,
          4., 0., 1., 1., 6., 8., 9., 4., 2., 6., 1., 7., 0., 13., 0.,
          6., 7., 6., 0. ]
      - [ 8., 3., 3., 5., 1., 8., 2., 7., 2., 1., 5., 2., 1., 2., 6., 1.,
          1., 4., 7., 4., 3., 9., 3., 1., 1., 6., 6., 2., 1., 2., 5., 9.,
          3., 4., 4., 7., 2., 10., 3., 3., 5., 5., 3., 0., 5., 8., 6.,
          2., 2., 7. ]
      - [ 0., 1., 5., 4., 1., 6., 11., 2., 2., 2., 3., 8., 7., 2., 1.,
          2., 3., 3., 3., 3., 1., 2., 2., 3., 2., 2., 1., 2., 9., 1., 3.,
          3., 1., 2., 2., 17., 1., 2., 11., 4., 8., 6., 0., 5., 4., 1.,
          7., 1., 17., 11. ]
      - [ 5., 4., 3., 5., 2., 4., 3., 6., 4., 1., 3., 7., 4., 4., 3., 2.,
          3., 3., 2., 2., 1., 3., 3., 2., 3., 6., 5., 5., 7., 1., 0., 4.,
          1., 0., 2., 7., 8., 4., 0., 4., 7., 7., 3., 4., 13., 5., 10.,
          2., 13., 0. ]
      - [ 1., 4., 3., 5., 0., 5., 5., 3., 9., 0., 2., 6., 4., 4., 2., 0.,
          0., 13., 2., 0., 5., 1., 5., 2., 3., 0., 1., 3., 33., 0., 2.,
          2., 1., 3., 14., 2., 10., 1., 1., 4., 7., 7., 1., 4., 7., 3.,
          5., 0., 2., 3. ]
      - [ 6., 0., 3., 4., 0., 3., 2., 15., 1., 2., 6., 8., 5., 3., 1.,
          4., 4., 13., 2., 3., 2., 3., 4., 1., 1., 3., 6., 0., 3., 1.,
          2., 7., 0., 2., 3., 5., 8., 3., 2., 5., 3., 4., 6., 1., 15.,
          4., 9., 7., 5., 0. ]
      - [ 1., 3., 4., 6., 2., 2., 1., 6., 2., 0., 6., 2., 8., 9., 6., 3.,
          0., 13., 1., 1., 6., 1., 2., 4., 4., 1., 1., 20., 4., 1., 4.,
          4., 4., 5., 7., 1., 8., 1., 3., 2., 6., 8., 4., 4., 6., 1., 4.,
          2., 6., 1. ]
      - [ 5., 3., 14., 2., 3., 1., 2., 8., 8., 2., 7., 0., 12., 5., 5.,
          4., 3., 1., 2., 5., 6., 4., 2., 3., 6., 6., 1., 0., 0., 2., 7.,
          0., 4., 9., 10., 1., 0., 1., 1., 11., 4., 12., 4., 2., 1., 1.,
          0., 1., 0., 9. ]
      - [ 11., 6., 1., 7., 4., 5., 1., 1., 3., 4., 0., 1., 2., 6., 11.,
          8., 11., 0., 7., 4., 0., 5., 1., 1., 1., 16., 3., 0., 3., 6.,
          1., 4., 4., 7., 0., 5., 7., 0., 2., 2., 4., 2., 6., 5., 3., 4.,
          2., 4., 7., 2. ]
      - [ 4., 2., 2., 14., 0., 7., 3., 3., 1., 1., 4., 1., 3., 4., 6.,
          3., 1., 7., 2., 0., 2., 1., 2., 1., 4., 5., 2., 9., 15., 2.,
          2., 1., 2., 2., 4., 7., 11., 4., 4., 4., 4., 2., 6., 3., 12.,
          0., 8., 4., 8., 1. ]
      - [ 8., 3., 6., 1., 9., 3., 0., 3., 3., 1., 6., 0., 6., 1., 10.,
          8., 5., 0., 8., 3., 2., 11., 2., 0., 12., 3., 9., 0., 0., 3.,
          8., 7., 1., 3., 3., 1., 1., 8., 3., 4., 5., 5., 0., 0., 2., 5.,
          1., 8., 2., 7. ]
      - [ 3., 0., 2., 2., 1., 6., 5., 5., 3., 1., 6., 3., 4., 8., 1., 1.,
          1., 7., 3., 1., 5., 2., 3., 1., 1., 4., 2., 6., 20., 0., 5.,
          4., 0., 6., 3., 10., 8., 2., 1., 5., 1., 4., 5., 2., 4., 2.,
          14., 2., 13., 2. ]
      - [ 3., 8., 2., 6., 3., 7., 3., 1., 2., 2., 2., 11., 2., 2., 3.,
          2., 0., 7., 3., 0., 2., 2., 0., 3., 6., 3., 4., 4., 9., 1., 4.,
          5., 0., 3., 2., 7., 15., 4., 1., 3., 8., 2., 4., 2., 6., 1.,
          20., 2., 8., 0. ]
      - [ 7., 5., 5., 4., 2., 3., 2., 7., 1., 1., 3., 2., 3., 3., 4., 2.,
          6., 4., 4., 5., 1., 12., 1., 1., 4., 5., 4., 1., 4., 4., 2.,
          3., 1., 5., 3., 6., 2., 5., 5., 3., 9., 3., 1., 3., 6., 4.,
          18., 4., 5., 2. ]
      - [ 2., 2., 1., 15., 2., 2., 3., 5., 1., 2., 5., 11., 2., 8., 3.,
          2., 1., 8., 1., 2., 1., 1., 6., 1., 2., 3., 5., 11., 9., 1.,
          0., 2., 0., 2., 2., 4., 11., 2., 4., 3., 8., 4., 3., 3., 9.,
          1., 7., 1., 16., 0. ]
      - [ 3., 7., 3., 8., 1., 7., 6., 1., 2., 2., 8., 3., 4., 10., 5.,
          2., 3., 0., 1., 5., 1., 2., 3., 5., 10., 7., 3., 2., 8., 1.,
          5., 7., 1., 5., 7., 4., 4., 1., 1., 5., 7., 4., 2., 7., 7., 0.,
          3., 2., 4., 1. ]
      - [ 11., 3., 1., 2., 1., 5., 7., 2., 1., 2., 2., 0., 4., 4., 2.,
          2., 2., 5., 6., 6., 2., 5., 8., 2., 2., 4., 6., 4., 3., 3., 1.,
          3., 3., 6., 2., 11., 0., 4., 8., 3., 2., 4., 1., 4., 3., 5.,
          18., 9., 3., 3. ]
      - [ 5., 0., 2., 9., 3., 7., 2., 8., 1., 1., 5., 2., 2., 2., 0., 1.,
          3., 10., 3., 3., 6., 5., 7., 3., 1., 10., 5., 4., 0., 0., 6.,
          2., 0., 4., 2., 10., 4., 4., 2., 1., 8., 5., 5., 0., 13., 4.,
          7., 7., 6., 0. ]
      - [ 3., 5., 5., 7., 4., 5., 2., 4., 4., 1., 8., 4., 4., 7., 3., 3.,
          1., 5., 1., 1., 5., 10., 5., 0., 4., 1., 7., 5., 7., 0., 5.,
          2., 0., 2., 6., 9., 5., 1., 3., 0., 2., 7., 4., 6., 4., 2., 5.,
          4., 12., 0. ]
      - [ 2., 10., 7., 1., 4., 2., 3., 1., 6., 2., 0., 3., 6., 0., 7.,
          1., 0., 3., 4., 0., 2., 4., 0., 0., 2., 1., 0., 1., 41., 2.,
          2., 5., 2., 2., 4., 9., 4., 5., 2., 2., 3., 3., 1., 1., 5., 1.,
          11., 1., 10., 12. ]
      - [ 5., 4., 2., 7., 3., 4., 5., 3., 2., 0., 4., 2., 1., 8., 7., 1.,
          2., 9., 3., 3., 2., 5., 5., 4., 4., 8., 7., 9., 4., 4., 3., 1.,
          1., 1., 1., 6., 9., 8., 0., 3., 7., 2., 1., 1., 11., 3., 6.,
          2., 6., 2. ]
      - [ 7., 6., 8., 2., 0., 7., 2., 3., 7., 4., 5., 2., 3., 4., 5., 5.,
          3., 5., 4., 3., 2., 4., 2., 3., 9., 4., 1., 2., 3., 3., 8., 7.,
          4., 4., 2., 5., 0., 10., 5., 4., 1., 8., 1., 6., 2., 1., 6.,
          2., 5., 1. ]
      - [ 4., 2., 2., 4., 2., 5., 3., 2., 4., 0., 2., 0., 2., 2., 0., 2.,
          2., 2., 4., 0., 0., 5., 4., 2., 0., 4., 1., 0., 4., 1., 2., 3.,
          2., 0., 1., 8., 1., 6., 4., 0., 4., 3., 1., 0., 6., 0., 12.,
          2., 4., 4. ]
      - [ 9., 0., 2., 13., 0., 2., 0., 3., 5., 1., 2., 5., 3., 1., 3.,
          3., 1., 6., 2., 0., 4., 7., 2., 5., 2., 3., 2., 10., 6., 2.,
          2., 1., 2., 2., 4., 10., 14., 1., 4., 1., 10., 5., 3., 1., 9.,
          3., 9., 3., 9., 3. ]
      - [ 8., 6., 1., 9., 1., 8., 2., 5., 2., 3., 2., 0., 2., 2., 4., 2.,
          3., 11., 0., 1., 3., 2., 3., 3., 6., 8., 5., 3., 1., 2., 0.,
          1., 2., 2., 11., 9., 8., 2., 3., 4., 7., 6., 4., 1., 6., 2.,
          10., 4., 10., 0. ]
      - [ 5., 3., 2., 5., 1., 7., 6., 2., 4., 1., 3., 2., 1., 16., 2.,
          6., 4., 8., 0., 2., 1., 2., 2., 1., 1., 6., 3., 5., 24., 2.,
          1., 0., 2., 10., 2., 9., 6., 13., 0., 2., 2., 6., 3., 2., 5.,
          3., 4., 2., 1., 0. ]
      - [ 2., 0., 1., 3., 3., 5., 3., 3., 7., 2., 6., 6., 6., 3., 6., 1.,
          1., 2., 3., 3., 2., 3., 0., 0., 4., 7., 4., 0., 4., 5., 3., 3.,
          2., 4., 1., 13., 6., 3., 1., 2., 10., 3., 2., 4., 4., 9., 16.,
          2., 14., 3. ]
