%YAML:1.0
my_svm: !!opencv-ml-svm
   svm_type: C_SVC
   kernel: { type:RBF, gamma:1.5000000000000001e-004 }
   C: 6.2500000000000000e+001
   term_criteria: { epsilon:1.1920928955078125e-007, iterations:1000 }
   var_all: 50
   var_count: 50
   class_count: 2
   class_labels: !!opencv-matrix
      rows: 1
      cols: 2
      dt: i
      data: [ -1, 1 ]
   sv_total: 405
   support_vectors:
      - [ 3., 3., 8., 15., 3., 3., 6., 1., 3., 5., 1., 2., 5., 8., 2.,
          3., 3., 2., 0., 1., 2., 11., 1., 12., 3., 0., 1., 2., 0., 3.,
          6., 2., 3., 2., 1., 6., 6., 6., 0., 0., 3., 2., 33., 4., 4.,
          3., 3., 3., 0., 1. ]
      - [ 3., 11., 4., 8., 2., 5., 4., 2., 1., 6., 1., 2., 11., 13., 1.,
          2., 0., 5., 0., 2., 2., 8., 8., 4., 4., 1., 2., 8., 3., 1., 0.,
          2., 0., 3., 7., 9., 5., 4., 6., 0., 1., 3., 7., 6., 7., 6., 2.,
          6., 1., 2. ]
      - [ 1., 7., 3., 7., 8., 4., 2., 9., 8., 2., 4., 2., 13., 3., 3.,
          8., 5., 4., 0., 1., 1., 6., 4., 6., 5., 2., 5., 3., 5., 3., 1.,
          1., 3., 3., 7., 2., 2., 4., 4., 0., 5., 4., 1., 3., 2., 5., 7.,
          5., 3., 4. ]
      - [ 1., 2., 3., 8., 1., 1., 1., 7., 1., 4., 2., 2., 1., 21., 0.,
          3., 5., 0., 0., 2., 1., 35., 3., 1., 1., 2., 4., 1., 0., 1.,
          17., 2., 6., 1., 1., 0., 2., 1., 0., 0., 1., 1., 29., 12., 0.,
          3., 5., 1., 1., 3. ]
      - [ 4., 4., 3., 6., 1., 0., 7., 5., 3., 0., 1., 3., 5., 8., 2., 1.,
          8., 3., 0., 0., 6., 4., 1., 8., 2., 2., 0., 3., 1., 2., 29.,
          3., 8., 2., 2., 4., 4., 3., 4., 5., 2., 2., 7., 0., 6., 2., 3.,
          2., 11., 8. ]
      - [ 0., 1., 1., 15., 2., 4., 0., 4., 4., 1., 4., 3., 1., 8., 0.,
          3., 9., 5., 17., 1., 1., 18., 1., 8., 4., 1., 0., 2., 2., 2.,
          10., 2., 0., 0., 1., 0., 1., 0., 3., 4., 1., 1., 30., 7., 1.,
          2., 3., 1., 8., 3. ]
      - [ 5., 0., 7., 0., 4., 0., 0., 1., 8., 3., 2., 1., 5., 11., 8.,
          1., 1., 9., 0., 1., 18., 4., 3., 5., 7., 2., 1., 2., 3., 1.,
          3., 10., 0., 1., 1., 11., 8., 4., 1., 2., 1., 0., 21., 12., 4.,
          1., 3., 0., 2., 2. ]
      - [ 9., 3., 5., 7., 0., 1., 4., 6., 9., 1., 0., 3., 7., 3., 3., 6.,
          8., 9., 0., 6., 3., 5., 2., 8., 0., 0., 5., 7., 0., 4., 1., 3.,
          1., 3., 9., 3., 7., 9., 4., 0., 0., 7., 2., 0., 1., 5., 15.,
          1., 3., 2. ]
      - [ 4., 9., 3., 3., 0., 3., 3., 4., 6., 0., 1., 4., 6., 4., 2., 5.,
          9., 6., 0., 10., 2., 2., 3., 11., 3., 1., 9., 3., 4., 2., 1.,
          1., 1., 10., 2., 3., 4., 9., 4., 1., 11., 3., 0., 0., 8., 3.,
          8., 4., 1., 4. ]
      - [ 0., 4., 3., 5., 3., 1., 1., 3., 1., 4., 3., 2., 5., 12., 1.,
          3., 8., 0., 0., 2., 2., 34., 3., 5., 4., 1., 0., 1., 1., 0.,
          23., 3., 0., 0., 2., 1., 0., 1., 0., 0., 2., 1., 15., 13., 1.,
          3., 4., 2., 1., 3. ]
      - [ 5., 3., 3., 0., 1., 0., 2., 3., 0., 1., 0., 0., 1., 15., 6.,
          0., 4., 2., 0., 0., 1., 46., 3., 1., 4., 0., 1., 1., 1., 0.,
          45., 0., 0., 2., 2., 0., 2., 4., 3., 0., 3., 3., 1., 18., 3.,
          2., 2., 1., 0., 0. ]
      - [ 3., 1., 6., 11., 3., 7., 3., 2., 4., 3., 3., 1., 11., 2., 5.,
          3., 3., 3., 0., 5., 11., 1., 3., 7., 6., 5., 2., 5., 2., 4.,
          1., 4., 0., 2., 8., 5., 0., 5., 1., 0., 4., 3., 8., 0., 2., 3.,
          10., 7., 8., 4. ]
      - [ 4., 5., 4., 2., 0., 2., 4., 11., 4., 1., 2., 5., 1., 2., 13.,
          2., 10., 5., 0., 5., 6., 4., 2., 2., 8., 3., 2., 5., 5., 1.,
          10., 0., 2., 2., 3., 5., 6., 2., 5., 0., 3., 6., 0., 2., 8.,
          6., 12., 2., 1., 5. ]
      - [ 0., 17., 1., 3., 6., 2., 0., 6., 1., 4., 0., 6., 1., 2., 3.,
          6., 2., 0., 0., 0., 0., 7., 3., 2., 9., 0., 0., 0., 3., 0., 0.,
          1., 28., 0., 1., 0., 0., 2., 14., 0., 0., 4., 4., 36., 3., 9.,
          4., 6., 3., 1. ]
      - [ 0., 4., 2., 4., 4., 4., 5., 7., 2., 5., 4., 3., 6., 3., 2., 4.,
          3., 1., 0., 7., 4., 16., 2., 5., 5., 1., 11., 5., 4., 3., 3.,
          1., 0., 3., 2., 4., 4., 3., 4., 0., 5., 2., 3., 17., 4., 7.,
          5., 5., 1., 1. ]
      - [ 2., 2., 4., 5., 7., 4., 1., 1., 0., 8., 1., 1., 7., 3., 1., 8.,
          1., 0., 0., 0., 0., 21., 12., 3., 14., 1., 0., 1., 5., 2., 0.,
          0., 0., 0., 5., 0., 1., 4., 8., 0., 0., 3., 12., 42., 1., 0.,
          6., 1., 2., 0. ]
      - [ 5., 3., 5., 3., 0., 6., 2., 2., 7., 1., 0., 2., 2., 6., 1., 0.,
          10., 4., 42., 0., 3., 0., 3., 4., 2., 6., 0., 3., 0., 1., 10.,
          1., 0., 0., 2., 0., 6., 8., 0., 23., 1., 0., 15., 0., 3., 0.,
          1., 1., 4., 2. ]
      - [ 3., 1., 10., 1., 11., 4., 0., 2., 4., 10., 2., 3., 5., 4., 4.,
          8., 0., 0., 0., 3., 1., 0., 2., 5., 14., 1., 1., 1., 4., 2.,
          3., 9., 0., 0., 4., 3., 2., 9., 2., 0., 1., 0., 30., 12., 9.,
          1., 3., 3., 2., 1. ]
      - [ 3., 3., 4., 20., 4., 4., 0., 3., 4., 11., 5., 2., 0., 2., 5.,
          3., 10., 7., 0., 5., 2., 0., 0., 8., 3., 2., 1., 2., 1., 2.,
          17., 1., 15., 7., 1., 0., 6., 6., 1., 0., 3., 2., 3., 5., 0.,
          0., 4., 2., 1., 10. ]
      - [ 6., 1., 3., 1., 8., 6., 2., 1., 3., 2., 5., 1., 1., 2., 8., 3.,
          1., 6., 0., 4., 13., 3., 3., 2., 10., 3., 2., 4., 1., 5., 1.,
          17., 0., 2., 5., 5., 4., 5., 2., 0., 10., 2., 1., 3., 6., 4.,
          5., 7., 6., 5. ]
      - [ 1., 0., 7., 10., 6., 0., 0., 1., 12., 1., 0., 0., 1., 29., 23.,
          2., 2., 14., 0., 0., 0., 1., 3., 4., 6., 2., 1., 1., 3., 0.,
          7., 0., 0., 0., 1., 1., 7., 5., 3., 0., 0., 1., 8., 6., 23.,
          0., 5., 3., 1., 0. ]
      - [ 0., 0., 0., 0., 0., 12., 0., 0., 0., 0., 0., 0., 0., 0., 0.,
          0., 0., 0., 89., 0., 2., 0., 0., 0., 0., 16., 0., 3., 0., 0.,
          0., 1., 66., 0., 0., 0., 0., 0., 0., 0., 0., 0., 0., 0., 0.,
          1., 0., 0., 9., 2. ]
      - [ 3., 4., 4., 3., 2., 1., 7., 5., 5., 6., 0., 1., 4., 2., 5., 3.,
          7., 3., 0., 2., 1., 0., 4., 2., 8., 0., 2., 2., 1., 0., 32.,
          6., 5., 2., 3., 9., 5., 6., 1., 0., 2., 3., 1., 18., 0., 5.,
          6., 2., 5., 2. ]
      - [ 4., 7., 8., 5., 1., 4., 2., 4., 0., 6., 3., 0., 8., 7., 0., 0.,
          4., 7., 0., 5., 3., 25., 1., 7., 5., 2., 2., 3., 0., 1., 1.,
          2., 3., 3., 8., 3., 3., 4., 2., 0., 3., 4., 10., 12., 5., 8.,
          4., 0., 0., 2. ]
      - [ 8., 4., 5., 5., 3., 8., 7., 3., 1., 1., 2., 1., 5., 2., 6., 1.,
          1., 1., 0., 6., 6., 3., 5., 0., 3., 1., 4., 4., 1., 5., 0.,
          11., 8., 6., 6., 4., 4., 0., 1., 0., 3., 11., 5., 6., 7., 5.,
          6., 0., 10., 5. ]
      - [ 1., 0., 4., 9., 4., 6., 1., 9., 3., 3., 0., 1., 2., 3., 7., 5.,
          3., 3., 0., 3., 1., 2., 3., 3., 5., 1., 0., 2., 10., 1., 1.,
          0., 3., 2., 7., 1., 3., 3., 12., 0., 1., 6., 8., 9., 10., 3.,
          10., 12., 10., 4. ]
      - [ 1., 2., 3., 6., 2., 4., 5., 15., 3., 2., 6., 4., 5., 5., 5.,
          2., 18., 1., 0., 2., 0., 3., 2., 8., 1., 0., 7., 3., 2., 3.,
          9., 0., 6., 1., 1., 4., 5., 3., 5., 0., 8., 5., 3., 3., 4., 8.,
          11., 0., 2., 3. ]
      - [ 6., 1., 14., 0., 2., 1., 6., 2., 10., 7., 2., 0., 7., 5., 6.,
          1., 2., 4., 0., 6., 17., 0., 6., 5., 4., 1., 2., 1., 2., 1.,
          2., 12., 2., 1., 7., 13., 12., 8., 0., 0., 3., 3., 3., 0., 3.,
          2., 1., 5., 3., 0. ]
      - [ 0., 6., 1., 4., 5., 1., 4., 12., 6., 4., 2., 2., 2., 0., 2.,
          8., 13., 2., 0., 3., 1., 5., 5., 1., 3., 0., 9., 3., 4., 3.,
          7., 2., 12., 6., 2., 2., 6., 2., 2., 0., 8., 10., 0., 7., 3.,
          4., 9., 4., 1., 2. ]
      - [ 8., 3., 5., 3., 0., 5., 6., 10., 5., 0., 4., 5., 9., 3., 3.,
          3., 2., 3., 0., 7., 2., 1., 4., 2., 1., 4., 0., 3., 4., 3., 4.,
          3., 5., 7., 5., 7., 3., 4., 10., 0., 3., 4., 7., 1., 5., 3.,
          12., 1., 4., 4. ]
      - [ 8., 3., 2., 2., 4., 2., 8., 2., 2., 9., 2., 2., 1., 2., 5., 3.,
          4., 3., 0., 2., 1., 19., 2., 1., 4., 1., 3., 1., 1., 6., 4.,
          5., 15., 2., 2., 6., 3., 4., 12., 0., 5., 1., 2., 9., 9., 4.,
          4., 4., 2., 2. ]
      - [ 8., 5., 4., 3., 3., 1., 8., 8., 3., 3., 2., 3., 4., 4., 3., 5.,
          17., 4., 0., 4., 3., 2., 2., 3., 1., 0., 3., 5., 2., 1., 2.,
          5., 5., 5., 4., 6., 2., 3., 1., 0., 8., 9., 0., 1., 4., 6.,
          13., 6., 2., 4. ]
      - [ 0., 0., 3., 2., 7., 5., 4., 0., 2., 6., 1., 4., 4., 3., 5., 1.,
          0., 0., 0., 5., 4., 9., 1., 3., 4., 12., 7., 4., 9., 1., 0.,
          5., 0., 3., 1., 7., 0., 5., 9., 2., 8., 0., 6., 12., 1., 3.,
          0., 2., 6., 3. ]
      - [ 28., 1., 0., 1., 0., 0., 20., 0., 5., 0., 0., 0., 0., 0., 2.,
          1., 1., 28., 0., 0., 12., 2., 0., 0., 0., 0., 0., 0., 1., 0.,
          0., 1., 3., 0., 0., 0., 5., 0., 1., 85., 0., 1., 0., 0., 1.,
          0., 1., 0., 0., 0. ]
      - [ 1., 3., 1., 4., 4., 7., 2., 1., 5., 11., 1., 2., 7., 10., 10.,
          0., 0., 1., 0., 5., 2., 13., 3., 2., 8., 12., 0., 2., 3., 8.,
          0., 2., 0., 0., 0., 5., 0., 3., 2., 0., 3., 1., 33., 4., 3.,
          3., 0., 1., 4., 8. ]
      - [ 2., 3., 1., 13., 4., 8., 0., 8., 2., 4., 4., 0., 0., 2., 0.,
          1., 0., 2., 0., 3., 2., 1., 1., 2., 3., 2., 1., 2., 3., 2., 0.,
          1., 45., 2., 2., 0., 5., 1., 3., 0., 1., 13., 0., 20., 2., 13.,
          6., 0., 8., 2. ]
      - [ 2., 5., 9., 4., 9., 3., 5., 1., 6., 6., 4., 3., 6., 3., 4., 1.,
          0., 6., 0., 0., 9., 4., 4., 2., 3., 4., 3., 2., 1., 9., 0.,
          11., 2., 5., 5., 3., 6., 9., 2., 0., 5., 6., 2., 1., 8., 7.,
          3., 3., 3., 2. ]
      - [ 6., 3., 5., 4., 7., 7., 5., 3., 5., 6., 3., 2., 5., 4., 5., 7.,
          5., 2., 0., 5., 3., 4., 0., 7., 3., 0., 8., 4., 3., 3., 2., 3.,
          2., 1., 7., 4., 5., 10., 7., 0., 8., 2., 4., 3., 4., 2., 6.,
          4., 1., 1. ]
      - [ 2., 2., 6., 3., 1., 7., 2., 3., 3., 6., 0., 2., 11., 7., 2.,
          2., 3., 3., 0., 2., 5., 2., 3., 7., 1., 5., 3., 8., 1., 6., 3.,
          5., 1., 1., 8., 1., 3., 3., 1., 0., 1., 3., 29., 0., 2., 7.,
          1., 2., 12., 9. ]
      - [ 3., 3., 9., 2., 3., 2., 5., 2., 12., 3., 1., 2., 3., 1., 6.,
          3., 6., 5., 0., 2., 2., 2., 9., 4., 2., 0., 7., 6., 2., 4., 2.,
          1., 13., 2., 7., 2., 10., 5., 6., 0., 2., 4., 0., 2., 9., 9.,
          11., 2., 1., 1. ]
      - [ 8., 3., 2., 7., 6., 2., 3., 3., 2., 2., 2., 1., 3., 9., 2., 3.,
          2., 0., 0., 2., 4., 13., 2., 2., 3., 2., 1., 3., 7., 2., 10.,
          5., 2., 3., 6., 1., 2., 4., 8., 0., 1., 5., 10., 23., 2., 2.,
          5., 8., 1., 2. ]
      - [ 4., 1., 7., 3., 8., 4., 7., 2., 10., 12., 0., 1., 1., 6., 9.,
          1., 1., 5., 0., 0., 9., 0., 6., 4., 6., 12., 0., 0., 1., 1.,
          2., 7., 0., 13., 2., 6., 5., 20., 1., 0., 1., 1., 1., 0., 2.,
          0., 2., 4., 7., 6. ]
      - [ 0., 18., 5., 6., 6., 3., 1., 1., 0., 10., 3., 1., 6., 4., 5.,
          5., 1., 0., 0., 2., 0., 15., 2., 3., 3., 1., 2., 2., 1., 2.,
          2., 4., 1., 5., 7., 3., 0., 3., 7., 0., 1., 1., 11., 20., 5.,
          2., 10., 3., 5., 2. ]
      - [ 1., 3., 3., 12., 5., 1., 0., 1., 2., 10., 2., 0., 2., 5., 4.,
          2., 3., 0., 0., 3., 1., 37., 2., 7., 7., 0., 1., 0., 5., 2.,
          5., 1., 0., 0., 5., 0., 0., 2., 10., 0., 1., 0., 10., 28., 6.,
          1., 4., 3., 0., 3. ]
      - [ 1., 0., 5., 5., 2., 1., 0., 1., 6., 11., 2., 2., 7., 0., 5.,
          2., 0., 6., 0., 0., 5., 3., 7., 1., 7., 3., 1., 2., 1., 1., 0.,
          1., 0., 1., 10., 3., 3., 6., 9., 0., 2., 0., 51., 8., 3., 2.,
          1., 8., 1., 4. ]
      - [ 1., 0., 9., 4., 1., 0., 1., 0., 3., 0., 0., 2., 4., 13., 1.,
          0., 6., 0., 0., 0., 2., 53., 0., 26., 0., 0., 1., 0., 0., 0.,
          3., 1., 0., 0., 1., 0., 1., 13., 3., 0., 1., 1., 36., 7., 0.,
          0., 0., 4., 1., 1. ]
      - [ 3., 6., 2., 2., 4., 5., 4., 7., 1., 5., 1., 3., 3., 6., 1., 1.,
          1., 0., 0., 5., 1., 8., 8., 0., 1., 0., 3., 5., 2., 1., 11.,
          2., 24., 2., 5., 0., 5., 0., 3., 0., 1., 3., 13., 14., 5., 5.,
          8., 2., 2., 6. ]
      - [ 3., 12., 7., 2., 2., 1., 0., 3., 3., 2., 1., 3., 9., 7., 8.,
          7., 1., 1., 0., 3., 0., 16., 9., 2., 2., 0., 3., 1., 4., 0.,
          2., 1., 3., 2., 16., 0., 3., 5., 7., 0., 1., 0., 5., 13., 12.,
          4., 5., 6., 2., 1. ]
      - [ 3., 0., 9., 9., 9., 9., 4., 0., 0., 7., 4., 3., 1., 3., 3., 0.,
          0., 2., 0., 4., 5., 6., 2., 4., 11., 8., 0., 0., 0., 7., 0.,
          20., 0., 2., 2., 8., 2., 8., 1., 0., 8., 1., 4., 10., 6., 1.,
          1., 2., 7., 4. ]
      - [ 4., 7., 0., 6., 3., 3., 2., 7., 4., 1., 5., 3., 0., 2., 3., 0.,
          10., 3., 0., 1., 6., 6., 2., 6., 7., 0., 6., 4., 1., 1., 13.,
          2., 22., 0., 1., 2., 4., 1., 5., 0., 3., 2., 3., 13., 7., 3.,
          8., 3., 5., 1. ]
      - [ 2., 1., 7., 2., 1., 3., 5., 3., 7., 4., 0., 5., 8., 4., 3., 1.,
          5., 6., 0., 6., 14., 2., 4., 1., 4., 1., 3., 4., 2., 4., 4.,
          9., 4., 0., 8., 2., 3., 8., 6., 0., 6., 3., 6., 3., 3., 3., 2.,
          7., 10., 1. ]
      - [ 1., 5., 4., 6., 6., 0., 1., 5., 2., 9., 1., 1., 1., 11., 0.,
          3., 0., 5., 0., 0., 1., 13., 3., 13., 1., 0., 1., 2., 4., 4.,
          1., 3., 3., 2., 1., 0., 3., 6., 6., 0., 5., 0., 18., 27., 0.,
          4., 10., 2., 4., 2. ]
      - [ 10., 4., 4., 7., 1., 8., 8., 5., 14., 4., 1., 1., 6., 11., 0.,
          1., 1., 9., 0., 3., 11., 1., 1., 5., 2., 2., 0., 4., 1., 8.,
          1., 5., 0., 0., 2., 2., 14., 4., 3., 1., 2., 6., 3., 0., 1.,
          4., 8., 2., 8., 2. ]
      - [ 12., 9., 3., 4., 0., 8., 10., 2., 9., 4., 3., 1., 4., 0., 6.,
          2., 2., 5., 0., 5., 8., 1., 11., 3., 0., 4., 1., 4., 0., 4.,
          6., 5., 0., 5., 3., 8., 4., 8., 1., 0., 0., 3., 0., 3., 5., 4.,
          4., 3., 5., 8. ]
      - [ 2., 6., 2., 6., 0., 5., 4., 11., 3., 0., 2., 2., 7., 5., 4.,
          3., 22., 6., 0., 3., 1., 0., 3., 5., 1., 11., 1., 7., 0., 3.,
          6., 0., 3., 6., 5., 3., 3., 3., 1., 0., 2., 11., 6., 0., 6.,
          3., 7., 1., 8., 4. ]
      - [ 2., 0., 4., 0., 5., 1., 1., 4., 4., 3., 3., 4., 2., 0., 2., 2.,
          8., 1., 0., 0., 4., 26., 4., 1., 7., 1., 1., 2., 3., 3., 10.,
          4., 9., 1., 3., 1., 1., 2., 6., 0., 4., 4., 21., 22., 5., 2.,
          4., 1., 1., 1. ]
      - [ 2., 5., 0., 8., 0., 3., 3., 9., 3., 3., 1., 2., 1., 4., 3., 4.,
          15., 1., 0., 2., 2., 2., 3., 2., 1., 0., 7., 9., 1., 4., 3.,
          2., 23., 2., 0., 3., 2., 0., 4., 0., 4., 15., 1., 5., 2., 13.,
          13., 1., 2., 5. ]
      - [ 1., 4., 4., 2., 6., 6., 3., 1., 2., 3., 3., 3., 3., 12., 2.,
          1., 6., 2., 0., 4., 6., 18., 1., 2., 10., 4., 0., 1., 2., 10.,
          4., 3., 0., 0., 3., 4., 3., 2., 3., 0., 4., 5., 13., 15., 5.,
          2., 2., 4., 3., 4. ]
      - [ 3., 7., 4., 4., 1., 10., 3., 7., 3., 2., 5., 1., 6., 7., 5.,
          1., 5., 5., 0., 3., 7., 1., 3., 1., 3., 3., 4., 5., 2., 4., 3.,
          7., 7., 3., 3., 2., 6., 3., 3., 0., 3., 9., 2., 3., 4., 6., 8.,
          2., 5., 7. ]
      - [ 3., 4., 2., 7., 0., 3., 2., 12., 5., 3., 3., 1., 4., 5., 4.,
          2., 10., 0., 0., 4., 1., 1., 5., 4., 5., 1., 6., 7., 1., 2.,
          5., 0., 10., 0., 5., 3., 3., 2., 3., 0., 3., 11., 0., 7., 11.,
          4., 14., 3., 5., 4. ]
      - [ 3., 3., 5., 0., 4., 9., 5., 5., 10., 3., 2., 1., 7., 1., 1.,
          3., 0., 3., 0., 2., 10., 1., 7., 2., 1., 6., 8., 8., 0., 7.,
          0., 10., 1., 0., 5., 9., 8., 3., 2., 0., 1., 9., 0., 0., 4.,
          6., 6., 4., 9., 6. ]
      - [ 6., 3., 6., 6., 0., 1., 6., 8., 4., 2., 1., 1., 1., 8., 3., 8.,
          31., 8., 0., 2., 3., 2., 2., 8., 0., 0., 8., 4., 2., 2., 2.,
          2., 4., 2., 2., 4., 5., 10., 5., 0., 4., 4., 2., 0., 7., 3.,
          6., 0., 0., 2. ]
      - [ 7., 8., 2., 11., 1., 2., 3., 6., 8., 3., 1., 1., 5., 6., 2.,
          7., 3., 7., 0., 4., 4., 7., 6., 8., 2., 0., 3., 5., 0., 4., 1.,
          1., 7., 1., 6., 0., 6., 4., 1., 0., 4., 4., 12., 2., 2., 2.,
          5., 0., 15., 2. ]
      - [ 7., 7., 3., 6., 2., 2., 7., 5., 2., 3., 0., 1., 8., 3., 1., 2.,
          7., 2., 0., 1., 2., 2., 3., 1., 3., 1., 5., 11., 0., 1., 15.,
          4., 7., 1., 8., 7., 9., 3., 0., 0., 2., 11., 8., 1., 3., 10.,
          5., 3., 3., 2. ]
      - [ 4., 0., 0., 15., 4., 2., 3., 17., 3., 1., 1., 0., 10., 11., 2.,
          14., 3., 3., 0., 0., 0., 0., 1., 5., 1., 0., 2., 0., 3., 1.,
          1., 3., 12., 5., 3., 1., 2., 0., 1., 0., 2., 8., 11., 0., 5.,
          5., 23., 2., 5., 5. ]
      - [ 11., 7., 3., 5., 3., 10., 5., 7., 6., 3., 1., 2., 2., 4., 4.,
          3., 1., 12., 0., 5., 3., 0., 4., 3., 4., 3., 1., 11., 2., 6.,
          1., 2., 0., 4., 4., 3., 10., 2., 3., 0., 1., 7., 0., 1., 5.,
          6., 3., 4., 5., 8. ]
      - [ 2., 3., 4., 7., 1., 9., 4., 7., 4., 3., 2., 5., 3., 5., 2., 8.,
          1., 1., 0., 4., 4., 1., 2., 2., 0., 6., 0., 3., 0., 3., 3., 1.,
          11., 9., 7., 0., 5., 2., 7., 0., 1., 9., 9., 1., 6., 4., 13.,
          2., 10., 4. ]
      - [ 4., 2., 7., 4., 7., 5., 4., 3., 6., 9., 2., 3., 3., 3., 2., 5.,
          3., 0., 0., 4., 1., 1., 1., 4., 10., 1., 0., 2., 4., 2., 2.,
          2., 4., 1., 3., 4., 8., 8., 6., 0., 9., 4., 3., 8., 12., 4.,
          7., 6., 6., 1. ]
      - [ 1., 4., 3., 10., 2., 0., 2., 7., 5., 5., 1., 1., 3., 11., 8.,
          6., 4., 0., 0., 1., 1., 5., 8., 4., 4., 0., 3., 3., 3., 0., 1.,
          2., 11., 2., 4., 6., 5., 0., 5., 1., 1., 9., 2., 20., 3., 4.,
          9., 4., 2., 4. ]
      - [ 2., 2., 9., 5., 6., 2., 4., 6., 1., 3., 2., 4., 3., 1., 2., 5.,
          1., 3., 0., 7., 8., 0., 5., 2., 4., 19., 0., 0., 1., 2., 1.,
          5., 12., 11., 2., 4., 4., 13., 3., 1., 0., 2., 1., 0., 2., 1.,
          9., 5., 9., 7. ]
      - [ 4., 3., 1., 6., 3., 1., 3., 9., 3., 8., 0., 3., 5., 4., 1., 8.,
          3., 0., 0., 3., 2., 0., 10., 6., 1., 2., 2., 3., 3., 3., 2.,
          1., 11., 4., 8., 1., 1., 3., 7., 0., 0., 4., 17., 10., 5., 4.,
          14., 3., 2., 3. ]
      - [ 5., 5., 2., 4., 5., 1., 6., 6., 8., 3., 2., 1., 5., 4., 1., 3.,
          2., 6., 0., 4., 5., 1., 3., 3., 2., 0., 1., 5., 3., 3., 1., 6.,
          6., 1., 10., 6., 5., 7., 4., 0., 1., 13., 8., 1., 10., 7., 5.,
          5., 1., 4. ]
      - [ 2., 5., 1., 9., 6., 3., 2., 3., 4., 5., 2., 2., 5., 5., 4., 6.,
          2., 2., 0., 0., 0., 17., 3., 3., 8., 3., 0., 2., 2., 0., 7.,
          4., 1., 1., 7., 2., 4., 3., 10., 0., 2., 2., 1., 17., 4., 9.,
          8., 1., 6., 5. ]
      - [ 5., 2., 11., 1., 15., 2., 11., 3., 1., 8., 1., 1., 1., 1., 5.,
          2., 13., 2., 0., 3., 5., 0., 2., 2., 14., 14., 3., 0., 3., 5.,
          2., 0., 1., 5., 5., 7., 10., 10., 5., 0., 2., 0., 0., 0., 0.,
          0., 2., 2., 9., 5. ]
      - [ 4., 0., 7., 6., 0., 1., 9., 7., 1., 4., 3., 2., 9., 7., 6., 3.,
          4., 2., 0., 5., 3., 0., 2., 11., 4., 5., 2., 4., 3., 3., 5.,
          4., 1., 7., 5., 3., 1., 2., 5., 0., 1., 5., 16., 4., 3., 0.,
          4., 4., 8., 6. ]
      - [ 3., 7., 4., 6., 0., 2., 2., 7., 2., 0., 0., 2., 2., 4., 4., 2.,
          20., 2., 0., 0., 0., 19., 4., 7., 4., 0., 3., 1., 0., 4., 37.,
          2., 2., 2., 2., 5., 6., 2., 2., 0., 1., 3., 2., 15., 2., 0.,
          2., 2., 1., 1. ]
      - [ 5., 0., 17., 6., 8., 0., 1., 1., 3., 6., 2., 2., 3., 1., 4.,
          8., 1., 8., 1., 7., 6., 0., 2., 7., 7., 1., 0., 2., 3., 3., 0.,
          4., 0., 3., 4., 2., 6., 13., 1., 0., 0., 4., 24., 8., 3., 0.,
          2., 4., 5., 2. ]
      - [ 0., 2., 1., 2., 16., 2., 2., 4., 1., 8., 4., 1., 3., 4., 5.,
          1., 1., 0., 0., 2., 6., 5., 7., 5., 19., 4., 4., 4., 5., 2.,
          5., 1., 4., 1., 3., 2., 1., 1., 8., 0., 7., 7., 9., 9., 7., 1.,
          1., 10., 3., 0. ]
      - [ 5., 0., 5., 11., 7., 0., 2., 2., 5., 8., 0., 4., 6., 5., 7.,
          1., 2., 1., 0., 2., 0., 3., 8., 5., 11., 4., 4., 1., 1., 2.,
          8., 1., 4., 1., 5., 6., 13., 3., 4., 0., 4., 5., 0., 9., 3.,
          4., 9., 3., 4., 2. ]
      - [ 5., 8., 9., 5., 4., 3., 4., 4., 0., 11., 2., 8., 4., 7., 1.,
          4., 6., 1., 0., 3., 7., 3., 4., 3., 4., 4., 6., 2., 3., 1., 3.,
          4., 0., 3., 7., 4., 2., 4., 6., 0., 3., 3., 0., 7., 5., 6., 6.,
          4., 5., 2. ]
      - [ 7., 3., 2., 7., 2., 1., 8., 5., 11., 1., 3., 2., 4., 1., 5.,
          4., 5., 7., 0., 6., 8., 2., 1., 0., 2., 1., 3., 5., 1., 2., 6.,
          2., 10., 3., 5., 3., 10., 4., 2., 0., 1., 6., 0., 3., 4., 8.,
          7., 5., 7., 5. ]
      - [ 2., 11., 1., 1., 12., 4., 2., 4., 2., 5., 3., 4., 2., 4., 2.,
          1., 4., 2., 0., 2., 3., 18., 1., 3., 11., 1., 2., 4., 4., 1.,
          3., 3., 9., 5., 4., 3., 1., 0., 12., 0., 3., 2., 0., 19., 7.,
          5., 5., 1., 0., 2. ]
      - [ 4., 0., 8., 4., 4., 6., 3., 0., 2., 8., 3., 2., 2., 5., 4., 1.,
          1., 4., 0., 4., 3., 8., 6., 5., 5., 2., 9., 11., 3., 4., 2.,
          5., 0., 7., 3., 8., 3., 13., 5., 0., 6., 0., 1., 9., 3., 2.,
          3., 2., 4., 3. ]
      - [ 1., 5., 4., 4., 12., 2., 3., 4., 3., 6., 4., 4., 2., 5., 3.,
          4., 1., 4., 0., 7., 3., 4., 8., 3., 6., 8., 2., 3., 3., 2., 7.,
          3., 0., 0., 4., 6., 3., 5., 7., 0., 10., 3., 2., 6., 4., 2.,
          4., 5., 7., 3. ]
      - [ 2., 4., 5., 4., 4., 5., 0., 3., 1., 6., 2., 1., 5., 4., 1., 2.,
          2., 1., 0., 3., 2., 23., 7., 6., 9., 0., 5., 5., 0., 4., 3.,
          2., 12., 2., 3., 2., 0., 6., 4., 0., 3., 3., 2., 23., 6., 5.,
          5., 1., 3., 1. ]
      - [ 5., 12., 3., 6., 5., 3., 2., 6., 1., 5., 2., 3., 0., 3., 6.,
          9., 10., 2., 0., 6., 2., 11., 2., 1., 7., 1., 3., 2., 4., 5.,
          5., 1., 6., 1., 1., 1., 2., 4., 15., 0., 5., 10., 1., 6., 2.,
          4., 5., 2., 0., 2. ]
      - [ 2., 4., 2., 9., 0., 3., 2., 10., 8., 0., 3., 3., 14., 7., 1.,
          2., 11., 1., 0., 0., 1., 5., 1., 6., 2., 1., 12., 10., 0., 2.,
          3., 1., 17., 1., 2., 1., 4., 4., 2., 0., 4., 9., 0., 6., 1.,
          4., 11., 0., 5., 3. ]
      - [ 2., 3., 5., 4., 6., 1., 4., 5., 2., 3., 4., 5., 5., 4., 4., 5.,
          0., 0., 0., 7., 0., 19., 6., 4., 4., 1., 0., 1., 2., 0., 2.,
          2., 7., 4., 9., 1., 3., 4., 6., 0., 3., 6., 21., 5., 1., 3.,
          11., 1., 5., 1. ]
      - [ 4., 9., 5., 2., 1., 5., 4., 4., 2., 3., 1., 2., 9., 12., 10.,
          1., 3., 3., 0., 4., 5., 2., 8., 1., 1., 1., 2., 3., 1., 2., 1.,
          9., 3., 3., 6., 4., 1., 4., 7., 0., 1., 9., 3., 1., 9., 6.,
          10., 5., 5., 3. ]
      - [ 1., 0., 1., 0., 0., 5., 3., 0., 4., 6., 0., 0., 0., 0., 3., 0.,
          0., 9., 13., 0., 41., 0., 0., 1., 0., 0., 0., 0., 0., 29., 0.,
          11., 0., 0., 1., 5., 5., 2., 0., 50., 1., 0., 4., 0., 0., 0.,
          1., 3., 0., 1. ]
      - [ 4., 3., 6., 4., 10., 5., 2., 3., 2., 6., 9., 1., 7., 5., 8.,
          2., 2., 3., 0., 10., 4., 5., 0., 1., 7., 3., 2., 3., 1., 4.,
          4., 4., 2., 1., 1., 3., 5., 10., 3., 0., 8., 1., 2., 12., 2.,
          1., 3., 2., 10., 4. ]
      - [ 1., 3., 5., 8., 1., 3., 1., 5., 3., 4., 0., 0., 5., 10., 4.,
          1., 12., 4., 0., 8., 3., 2., 5., 3., 0., 3., 3., 13., 0., 5.,
          3., 7., 0., 1., 8., 6., 3., 1., 1., 2., 5., 9., 1., 1., 0.,
          12., 7., 3., 10., 5. ]
      - [ 3., 3., 2., 12., 7., 3., 3., 1., 5., 7., 4., 3., 5., 8., 4.,
          3., 2., 0., 0., 1., 3., 10., 6., 7., 1., 1., 0., 2., 5., 2.,
          7., 2., 4., 4., 8., 3., 8., 6., 3., 0., 2., 1., 0., 8., 8., 3.,
          9., 2., 3., 6. ]
      - [ 0., 5., 4., 2., 2., 6., 2., 1., 7., 4., 2., 2., 4., 2., 3., 2.,
          13., 3., 0., 3., 1., 4., 3., 7., 7., 1., 10., 1., 6., 3., 9.,
          2., 1., 3., 2., 3., 7., 7., 8., 0., 16., 3., 9., 0., 8., 2.,
          5., 3., 1., 1. ]
      - [ 7., 6., 2., 4., 1., 2., 5., 6., 7., 0., 1., 1., 4., 0., 6., 2.,
          13., 5., 0., 4., 2., 8., 3., 0., 4., 0., 10., 6., 1., 1., 3.,
          1., 9., 2., 2., 4., 10., 6., 3., 0., 15., 6., 0., 3., 7., 3.,
          8., 3., 2., 2. ]
      - [ 0., 11., 3., 1., 2., 4., 2., 4., 3., 5., 6., 2., 3., 4., 5.,
          7., 7., 4., 0., 4., 5., 4., 4., 0., 7., 2., 5., 9., 2., 3., 0.,
          7., 9., 2., 1., 2., 2., 2., 4., 0., 6., 6., 3., 9., 3., 8.,
          12., 3., 3., 3. ]
      - [ 4., 2., 15., 1., 4., 1., 3., 2., 6., 3., 1., 2., 12., 2., 2.,
          2., 4., 10., 0., 2., 9., 1., 3., 7., 3., 4., 4., 6., 0., 5.,
          2., 6., 4., 4., 1., 10., 8., 9., 1., 0., 5., 3., 1., 2., 3.,
          5., 4., 5., 1., 7. ]
      - [ 4., 0., 10., 3., 0., 3., 2., 10., 11., 7., 0., 1., 8., 4., 8.,
          1., 12., 5., 0., 2., 3., 0., 1., 4., 2., 1., 0., 1., 0., 1.,
          8., 4., 1., 10., 5., 6., 7., 19., 1., 0., 0., 10., 1., 0., 4.,
          0., 3., 5., 3., 9. ]
      - [ 3., 6., 4., 5., 4., 3., 3., 2., 2., 2., 4., 4., 5., 4., 7., 4.,
          8., 3., 0., 3., 9., 6., 5., 2., 4., 0., 9., 1., 2., 1., 1., 5.,
          1., 3., 8., 3., 5., 6., 12., 0., 8., 3., 1., 7., 5., 3., 6.,
          3., 3., 2. ]
      - [ 1., 6., 5., 7., 2., 2., 4., 4., 5., 13., 2., 0., 0., 9., 4.,
          12., 4., 0., 0., 6., 0., 4., 5., 0., 6., 3., 2., 1., 5., 5.,
          3., 1., 1., 1., 3., 2., 5., 4., 9., 0., 2., 2., 0., 10., 6.,
          6., 13., 5., 3., 7. ]
      - [ 11., 6., 6., 5., 2., 2., 6., 4., 5., 4., 2., 5., 6., 9., 0.,
          1., 2., 6., 0., 4., 4., 2., 2., 6., 1., 0., 4., 5., 2., 2., 3.,
          5., 4., 0., 11., 3., 1., 3., 5., 1., 4., 12., 10., 1., 1., 3.,
          7., 4., 5., 3. ]
      - [ 2., 6., 0., 15., 5., 8., 0., 5., 0., 0., 8., 3., 4., 0., 0.,
          0., 0., 2., 1., 4., 0., 8., 0., 0., 9., 8., 0., 8., 0., 1., 0.,
          4., 29., 0., 3., 1., 1., 1., 2., 1., 0., 6., 0., 30., 2., 6.,
          1., 1., 12., 4. ]
      - [ 4., 7., 7., 8., 7., 2., 4., 1., 0., 6., 0., 1., 4., 11., 6.,
          4., 1., 5., 0., 1., 4., 5., 6., 5., 4., 1., 2., 4., 2., 2., 3.,
          3., 0., 1., 8., 1., 1., 3., 5., 0., 5., 2., 29., 3., 7., 5.,
          2., 6., 1., 1. ]
      - [ 5., 1., 4., 6., 3., 4., 1., 5., 0., 4., 0., 4., 3., 4., 5., 4.,
          11., 2., 1., 1., 1., 7., 4., 13., 4., 0., 5., 4., 2., 1., 22.,
          3., 7., 1., 0., 8., 4., 4., 1., 0., 1., 3., 13., 8., 3., 4.,
          6., 2., 0., 1. ]
      - [ 1., 3., 2., 15., 2., 1., 2., 5., 2., 4., 2., 2., 16., 8., 3.,
          7., 4., 4., 0., 3., 2., 1., 9., 8., 2., 0., 3., 3., 6., 1., 2.,
          2., 1., 0., 17., 1., 1., 2., 5., 0., 2., 6., 9., 4., 6., 9.,
          5., 4., 1., 3. ]
      - [ 2., 2., 2., 6., 3., 5., 7., 2., 3., 5., 4., 2., 9., 5., 5., 3.,
          1., 2., 0., 5., 6., 1., 10., 2., 4., 4., 0., 5., 4., 1., 0.,
          1., 3., 5., 12., 4., 4., 6., 5., 0., 2., 1., 7., 0., 7., 3.,
          6., 7., 8., 10. ]
      - [ 5., 0., 8., 2., 3., 6., 8., 3., 2., 9., 2., 3., 4., 3., 5., 3.,
          0., 4., 0., 2., 4., 0., 9., 2., 3., 0., 1., 8., 3., 6., 0.,
          10., 2., 3., 5., 6., 2., 6., 2., 0., 5., 2., 18., 3., 6., 5.,
          4., 6., 1., 6. ]
      - [ 1., 3., 1., 10., 9., 1., 6., 9., 1., 11., 1., 3., 3., 7., 2.,
          5., 4., 1., 0., 1., 1., 8., 7., 3., 6., 3., 4., 0., 7., 0., 4.,
          0., 3., 2., 4., 3., 1., 1., 12., 0., 1., 4., 3., 26., 1., 2.,
          6., 0., 7., 2. ]
      - [ 3., 9., 1., 7., 1., 2., 1., 7., 6., 8., 1., 1., 5., 5., 1., 3.,
          9., 1., 0., 2., 0., 22., 3., 6., 5., 0., 5., 3., 4., 3., 4.,
          0., 13., 1., 5., 2., 3., 3., 3., 0., 2., 3., 4., 10., 4., 3.,
          12., 3., 1., 0. ]
      - [ 3., 2., 2., 7., 4., 4., 2., 5., 2., 5., 4., 2., 8., 7., 6., 1.,
          2., 1., 0., 2., 2., 3., 3., 4., 11., 3., 7., 1., 0., 3., 3.,
          1., 2., 2., 5., 8., 10., 3., 3., 0., 1., 4., 6., 11., 5., 6.,
          8., 5., 7., 4. ]
      - [ 9., 2., 6., 3., 0., 1., 11., 0., 4., 0., 2., 0., 6., 3., 8.,
          0., 3., 7., 0., 0., 25., 10., 4., 8., 0., 5., 1., 1., 2., 1.,
          0., 21., 0., 1., 0., 4., 5., 30., 1., 0., 1., 0., 3., 1., 1.,
          0., 0., 4., 7., 0. ]
      - [ 16., 1., 3., 6., 2., 2., 9., 4., 4., 12., 3., 1., 8., 7., 6.,
          3., 26., 9., 0., 1., 1., 1., 0., 7., 1., 0., 11., 0., 0., 1.,
          2., 2., 5., 2., 1., 2., 2., 5., 1., 0., 2., 4., 1., 6., 0., 2.,
          7., 2., 6., 3. ]
      - [ 2., 4., 6., 9., 7., 0., 3., 3., 2., 10., 3., 1., 7., 2., 2.,
          2., 4., 3., 0., 6., 7., 2., 5., 3., 2., 7., 1., 4., 1., 3., 1.,
          5., 3., 2., 15., 3., 3., 9., 6., 0., 4., 4., 7., 7., 8., 2.,
          2., 5., 2., 1. ]
      - [ 1., 4., 2., 10., 9., 2., 2., 6., 1., 4., 3., 1., 4., 3., 6.,
          3., 2., 3., 1., 8., 1., 1., 2., 5., 4., 0., 2., 2., 4., 1., 4.,
          4., 9., 3., 5., 5., 4., 4., 9., 0., 6., 5., 0., 9., 13., 2.,
          9., 6., 5., 3. ]
      - [ 3., 5., 4., 2., 14., 2., 1., 0., 1., 16., 5., 3., 3., 4., 5.,
          1., 0., 7., 0., 1., 1., 27., 3., 2., 13., 1., 1., 0., 1., 6.,
          0., 1., 0., 2., 7., 4., 4., 3., 1., 1., 5., 1., 5., 27., 2.,
          1., 2., 0., 1., 1. ]
      - [ 11., 0., 13., 2., 0., 4., 15., 1., 2., 6., 2., 0., 2., 4., 4.,
          2., 1., 9., 0., 1., 30., 0., 1., 9., 2., 5., 0., 0., 1., 2.,
          3., 13., 1., 2., 3., 3., 2., 17., 2., 0., 0., 1., 7., 0., 4.,
          0., 2., 4., 1., 6. ]
      - [ 8., 0., 5., 3., 3., 4., 1., 6., 3., 4., 6., 3., 1., 0., 7., 1.,
          0., 1., 0., 6., 2., 0., 7., 2., 7., 1., 1., 6., 5., 7., 0., 0.,
          8., 2., 4., 8., 6., 6., 11., 0., 6., 6., 5., 1., 13., 5., 6.,
          7., 4., 2. ]
      - [ 8., 0., 7., 4., 1., 0., 2., 9., 7., 0., 1., 4., 4., 7., 1., 0.,
          20., 6., 0., 1., 2., 12., 7., 12., 2., 0., 1., 1., 3., 1., 24.,
          3., 9., 1., 1., 0., 1., 0., 8., 0., 1., 12., 0., 1., 4., 5.,
          4., 1., 2., 0. ]
      - [ 4., 2., 6., 1., 3., 5., 4., 10., 4., 0., 3., 0., 3., 1., 8.,
          2., 7., 2., 0., 3., 3., 2., 2., 1., 5., 1., 8., 12., 3., 5.,
          1., 3., 1., 1., 4., 5., 3., 6., 4., 0., 10., 6., 0., 16., 4.,
          7., 10., 2., 2., 5. ]
      - [ 1., 2., 9., 8., 9., 3., 2., 1., 3., 15., 6., 2., 3., 2., 8.,
          0., 2., 1., 0., 3., 0., 5., 5., 4., 8., 1., 4., 2., 0., 2., 1.,
          4., 2., 1., 5., 3., 3., 7., 4., 0., 7., 1., 2., 23., 9., 4.,
          4., 3., 3., 3. ]
      - [ 2., 0., 1., 0., 3., 1., 1., 3., 4., 7., 0., 0., 5., 2., 9., 3.,
          5., 1., 0., 6., 3., 6., 5., 3., 6., 2., 1., 1., 0., 3., 47.,
          9., 0., 1., 1., 3., 2., 0., 2., 0., 3., 4., 1., 26., 3., 6.,
          6., 0., 0., 3. ]
      - [ 4., 1., 2., 11., 3., 4., 3., 5., 4., 17., 1., 0., 10., 2., 6.,
          2., 2., 3., 0., 0., 6., 0., 5., 15., 6., 14., 0., 1., 0., 5.,
          2., 1., 0., 1., 1., 0., 4., 4., 0., 0., 3., 7., 14., 10., 1.,
          0., 5., 1., 7., 7. ]
      - [ 14., 5., 10., 4., 0., 5., 3., 3., 8., 3., 4., 0., 2., 0., 1.,
          4., 0., 12., 1., 2., 11., 0., 4., 7., 0., 3., 0., 3., 0., 0.,
          7., 7., 7., 2., 5., 4., 7., 11., 2., 1., 0., 4., 13., 0., 3.,
          2., 10., 3., 3., 1. ]
      - [ 6., 5., 9., 3., 2., 4., 4., 2., 6., 3., 0., 2., 6., 3., 7., 2.,
          2., 3., 0., 2., 10., 3., 9., 1., 5., 0., 2., 3., 1., 1., 2.,
          12., 4., 0., 8., 6., 8., 7., 4., 0., 2., 1., 5., 5., 8., 5.,
          4., 6., 2., 5. ]
      - [ 3., 2., 5., 0., 9., 4., 2., 1., 3., 2., 4., 4., 4., 3., 3., 3.,
          6., 3., 0., 9., 0., 8., 4., 3., 3., 0., 4., 4., 6., 1., 3., 0.,
          5., 1., 4., 6., 4., 3., 14., 0., 5., 1., 3., 13., 15., 4., 5.,
          9., 2., 0. ]
      - [ 2., 1., 3., 5., 6., 2., 2., 1., 2., 13., 3., 4., 7., 15., 2.,
          5., 4., 1., 0., 3., 4., 20., 3., 3., 5., 3., 2., 1., 2., 2.,
          5., 4., 0., 0., 3., 1., 2., 4., 5., 0., 1., 0., 25., 12., 2.,
          3., 2., 1., 2., 2. ]
      - [ 2., 1., 3., 5., 5., 1., 4., 8., 1., 7., 2., 5., 8., 3., 4., 2.,
          1., 0., 0., 5., 5., 2., 8., 16., 4., 1., 1., 2., 2., 1., 7.,
          3., 4., 2., 3., 3., 3., 1., 2., 0., 1., 5., 24., 5., 8., 3.,
          5., 6., 3., 3. ]
      - [ 2., 3., 7., 1., 9., 0., 2., 2., 1., 1., 4., 5., 5., 6., 4., 6.,
          1., 0., 0., 5., 5., 8., 7., 2., 4., 3., 2., 0., 6., 3., 2., 5.,
          2., 1., 7., 3., 4., 4., 9., 0., 5., 7., 20., 9., 3., 3., 1.,
          5., 2., 4. ]
      - [ 4., 0., 9., 5., 2., 11., 5., 1., 5., 8., 1., 3., 7., 2., 3.,
          1., 1., 6., 0., 3., 6., 0., 1., 0., 4., 3., 1., 5., 2., 5., 1.,
          16., 5., 1., 7., 4., 6., 3., 4., 2., 5., 1., 1., 10., 7., 6.,
          4., 5., 4., 4. ]
      - [ 5., 4., 4., 6., 7., 6., 9., 2., 1., 2., 2., 1., 4., 1., 10.,
          4., 1., 5., 0., 5., 5., 0., 5., 5., 5., 2., 2., 5., 2., 5., 5.,
          3., 1., 4., 3., 1., 9., 7., 8., 0., 1., 2., 0., 8., 3., 5., 9.,
          9., 4., 3. ]
      - [ 0., 0., 6., 4., 11., 1., 0., 0., 5., 14., 5., 0., 2., 1., 4.,
          1., 0., 4., 0., 5., 2., 2., 5., 2., 18., 9., 0., 2., 0., 4.,
          1., 6., 0., 1., 4., 6., 8., 0., 0., 0., 0., 0., 50., 7., 2.,
          1., 1., 1., 2., 3. ]
      - [ 4., 3., 2., 8., 8., 4., 3., 3., 3., 7., 4., 2., 2., 0., 2., 4.,
          0., 0., 0., 6., 2., 21., 8., 4., 10., 3., 1., 2., 2., 5., 1.,
          4., 6., 1., 1., 3., 2., 0., 5., 0., 3., 2., 2., 27., 5., 2.,
          3., 3., 2., 6. ]
      - [ 3., 7., 4., 2., 4., 3., 2., 3., 4., 1., 1., 1., 7., 7., 5., 0.,
          5., 4., 0., 2., 3., 16., 1., 5., 2., 0., 6., 6., 4., 1., 11.,
          3., 2., 4., 7., 2., 7., 3., 3., 0., 4., 1., 19., 5., 3., 3.,
          3., 6., 4., 1. ]
      - [ 5., 3., 1., 2., 0., 10., 4., 8., 5., 2., 3., 0., 2., 0., 4.,
          1., 6., 4., 0., 2., 3., 1., 0., 5., 2., 4., 4., 11., 0., 1.,
          3., 1., 14., 1., 2., 2., 7., 4., 5., 0., 3., 6., 5., 3., 8.,
          15., 13., 6., 7., 2. ]
      - [ 1., 0., 2., 11., 0., 3., 0., 17., 5., 1., 1., 0., 8., 20., 0.,
          2., 4., 4., 0., 0., 2., 0., 0., 4., 0., 2., 1., 7., 0., 3., 4.,
          4., 26., 1., 2., 0., 6., 2., 1., 1., 4., 23., 1., 0., 1., 3.,
          12., 0., 8., 3. ]
      - [ 6., 3., 7., 4., 1., 3., 4., 2., 3., 2., 0., 3., 4., 10., 2.,
          0., 4., 13., 0., 0., 10., 41., 0., 2., 2., 0., 2., 3., 0., 0.,
          3., 5., 0., 0., 4., 2., 5., 6., 1., 1., 0., 3., 8., 15., 3.,
          4., 1., 1., 6., 1. ]
      - [ 1., 11., 5., 2., 2., 0., 2., 9., 1., 2., 1., 0., 7., 2., 3.,
          6., 14., 2., 0., 3., 1., 7., 9., 1., 3., 0., 5., 2., 6., 2.,
          3., 1., 3., 1., 13., 1., 6., 4., 9., 0., 5., 0., 6., 4., 12.,
          5., 9., 7., 1., 1. ]
      - [ 4., 5., 0., 4., 3., 1., 7., 8., 6., 3., 1., 3., 14., 8., 5.,
          6., 7., 2., 0., 6., 3., 3., 4., 3., 4., 0., 7., 4., 4., 3., 3.,
          1., 7., 1., 3., 2., 7., 2., 5., 0., 7., 6., 0., 0., 9., 5., 3.,
          1., 5., 5. ]
      - [ 2., 6., 8., 6., 8., 1., 0., 0., 1., 10., 2., 7., 9., 8., 4.,
          3., 5., 6., 0., 0., 1., 14., 5., 2., 4., 3., 4., 1., 1., 1.,
          0., 1., 0., 1., 7., 3., 2., 5., 9., 0., 0., 0., 10., 13., 4.,
          7., 7., 0., 5., 4. ]
      - [ 0., 3., 1., 9., 1., 1., 0., 12., 0., 0., 0., 2., 1., 8., 0.,
          2., 3., 0., 0., 2., 4., 0., 2., 0., 0., 16., 4., 3., 0., 3.,
          0., 5., 0., 8., 0., 2., 0., 1., 3., 0., 1., 8., 1., 0., 0., 2.,
          7., 0., 21., 14. ]
      - [ 2., 6., 3., 6., 10., 3., 2., 2., 1., 6., 7., 3., 2., 8., 5.,
          4., 2., 1., 0., 4., 1., 24., 1., 5., 6., 0., 3., 4., 3., 0.,
          3., 1., 7., 1., 2., 3., 3., 2., 4., 0., 1., 2., 20., 6., 7.,
          1., 4., 5., 3., 1. ]
      - [ 2., 11., 3., 1., 5., 2., 4., 4., 3., 3., 4., 5., 1., 5., 6.,
          1., 20., 2., 0., 3., 1., 10., 2., 4., 6., 1., 7., 9., 0., 4.,
          8., 0., 6., 1., 1., 3., 2., 2., 3., 0., 4., 9., 0., 1., 3., 8.,
          10., 2., 5., 3. ]
      - [ 1., 3., 4., 2., 6., 2., 2., 6., 10., 0., 1., 0., 0., 1., 6.,
          3., 13., 5., 0., 4., 3., 2., 0., 5., 3., 0., 15., 3., 1., 7.,
          11., 0., 8., 2., 0., 5., 14., 6., 3., 0., 12., 5., 0., 1., 5.,
          3., 8., 3., 3., 3. ]
      - [ 13., 4., 3., 4., 1., 6., 5., 3., 9., 2., 4., 4., 3., 5., 3.,
          1., 5., 10., 1., 3., 4., 9., 1., 1., 1., 1., 6., 10., 2., 5.,
          0., 4., 4., 2., 2., 3., 10., 1., 3., 1., 6., 5., 0., 1., 2.,
          6., 8., 2., 5., 6. ]
      - [ 4., 5., 5., 4., 6., 2., 1., 2., 2., 7., 2., 4., 4., 10., 3.,
          9., 2., 1., 0., 3., 0., 12., 5., 4., 9., 5., 1., 4., 4., 2.,
          3., 1., 1., 2., 8., 1., 3., 2., 10., 0., 1., 1., 5., 11., 3.,
          2., 12., 5., 4., 3. ]
      - [ 0., 2., 1., 20., 5., 0., 0., 11., 0., 2., 0., 0., 1., 3., 0.,
          1., 0., 2., 0., 0., 0., 31., 1., 3., 5., 1., 1., 0., 1., 1.,
          4., 1., 26., 0., 3., 0., 0., 2., 1., 0., 0., 9., 3., 38., 0.,
          0., 10., 0., 10., 1. ]
      - [ 5., 1., 10., 5., 5., 3., 5., 4., 8., 5., 0., 1., 9., 2., 4.,
          0., 2., 2., 0., 1., 3., 1., 1., 16., 9., 15., 0., 2., 2., 2.,
          9., 2., 1., 2., 7., 4., 6., 7., 1., 0., 0., 3., 10., 2., 1.,
          1., 2., 0., 19., 1. ]
      - [ 4., 3., 9., 3., 3., 2., 3., 1., 3., 8., 6., 2., 3., 10., 9.,
          4., 2., 3., 0., 5., 4., 5., 4., 5., 3., 2., 0., 8., 1., 3., 3.,
          10., 1., 1., 6., 6., 5., 7., 4., 0., 1., 4., 15., 2., 10., 0.,
          1., 2., 3., 1. ]
      - [ 2., 3., 2., 8., 6., 4., 7., 5., 0., 3., 4., 5., 13., 10., 3.,
          2., 2., 2., 0., 4., 2., 0., 2., 3., 6., 0., 0., 3., 2., 3., 3.,
          1., 4., 5., 5., 4., 1., 2., 9., 2., 2., 1., 2., 17., 6., 5.,
          12., 2., 5., 6. ]
      - [ 0., 5., 1., 5., 2., 1., 2., 2., 1., 8., 2., 2., 6., 10., 0.,
          1., 3., 1., 0., 5., 2., 2., 6., 14., 4., 2., 3., 2., 1., 0.,
          5., 5., 1., 2., 7., 3., 2., 0., 4., 0., 1., 1., 51., 8., 0.,
          4., 5., 2., 2., 5. ]
      - [ 3., 6., 5., 3., 6., 0., 4., 6., 7., 3., 0., 3., 4., 9., 5., 3.,
          12., 4., 0., 4., 0., 8., 2., 2., 4., 0., 8., 4., 2., 4., 4.,
          0., 6., 3., 2., 7., 8., 7., 4., 0., 6., 4., 1., 2., 2., 3., 9.,
          2., 5., 4. ]
      - [ 0., 3., 3., 8., 8., 7., 0., 1., 3., 15., 2., 3., 4., 6., 2.,
          2., 0., 2., 0., 5., 6., 0., 7., 6., 7., 5., 1., 4., 1., 2., 2.,
          2., 0., 5., 3., 2., 4., 0., 2., 0., 1., 3., 16., 13., 0., 5.,
          4., 2., 11., 12. ]
      - [ 4., 12., 3., 4., 5., 1., 2., 5., 6., 3., 3., 1., 2., 5., 4.,
          7., 15., 2., 0., 4., 2., 4., 1., 2., 6., 2., 12., 2., 2., 2.,
          2., 2., 9., 1., 5., 2., 5., 2., 6., 0., 5., 7., 1., 4., 5., 5.,
          9., 2., 1., 4. ]
      - [ 5., 2., 3., 4., 4., 6., 2., 3., 6., 2., 4., 1., 4., 1., 7., 3.,
          0., 8., 0., 9., 9., 0., 7., 2., 8., 2., 2., 9., 1., 5., 0., 5.,
          2., 4., 4., 7., 5., 6., 1., 0., 2., 3., 0., 1., 7., 6., 4., 9.,
          10., 5. ]
      - [ 5., 3., 2., 8., 5., 4., 4., 3., 3., 10., 1., 2., 4., 5., 8.,
          3., 3., 2., 0., 6., 3., 2., 6., 5., 8., 1., 2., 2., 1., 1., 0.,
          6., 2., 6., 6., 2., 2., 1., 2., 0., 3., 4., 12., 11., 1., 3.,
          4., 1., 11., 11. ]
      - [ 1., 0., 10., 7., 6., 1., 3., 0., 1., 4., 1., 1., 2., 16., 2.,
          0., 18., 2., 2., 1., 14., 0., 1., 4., 4., 30., 2., 2., 0., 4.,
          3., 18., 0., 1., 2., 7., 1., 8., 0., 0., 2., 1., 9., 3., 0.,
          1., 1., 1., 2., 1. ]
      - [ 5., 5., 6., 1., 1., 0., 4., 2., 8., 4., 2., 3., 7., 6., 4., 2.,
          2., 6., 1., 4., 8., 4., 4., 5., 4., 1., 1., 5., 3., 4., 0., 9.,
          4., 2., 11., 5., 4., 5., 5., 0., 5., 1., 12., 5., 4., 6., 0.,
          3., 4., 3. ]
      - [ 6., 0., 3., 5., 2., 3., 2., 17., 10., 4., 0., 0., 1., 5., 2.,
          2., 26., 6., 0., 1., 3., 0., 0., 8., 0., 1., 8., 7., 0., 6.,
          11., 3., 2., 2., 1., 4., 7., 4., 0., 0., 6., 8., 1., 1., 1.,
          8., 7., 0., 5., 1. ]
      - [ 4., 6., 8., 2., 2., 3., 8., 2., 4., 4., 0., 3., 4., 8., 6., 0.,
          0., 6., 0., 0., 11., 3., 5., 1., 4., 0., 1., 6., 3., 2., 0.,
          10., 2., 1., 7., 10., 10., 10., 5., 0., 4., 4., 2., 0., 5., 3.,
          3., 5., 5., 9. ]
      - [ 2., 2., 6., 3., 2., 5., 2., 5., 2., 10., 1., 0., 3., 2., 4.,
          4., 7., 2., 2., 2., 2., 17., 8., 2., 3., 2., 1., 1., 0., 10.,
          17., 1., 0., 0., 5., 6., 5., 5., 3., 0., 2., 3., 6., 14., 2.,
          1., 8., 2., 5., 3. ]
      - [ 6., 7., 7., 3., 6., 4., 2., 3., 1., 3., 1., 2., 0., 1., 6., 2.,
          1., 3., 0., 6., 15., 4., 3., 4., 4., 1., 3., 2., 4., 1., 9.,
          11., 2., 3., 2., 3., 8., 11., 6., 0., 5., 5., 0., 1., 9., 3.,
          5., 5., 2., 5. ]
      - [ 10., 4., 3., 5., 1., 5., 3., 3., 12., 0., 2., 0., 8., 1., 4.,
          0., 6., 11., 0., 2., 6., 0., 4., 5., 1., 2., 6., 7., 1., 8.,
          3., 4., 4., 1., 5., 10., 10., 8., 1., 0., 7., 6., 0., 0., 1.,
          5., 4., 2., 3., 6. ]
      - [ 3., 16., 2., 6., 1., 0., 1., 3., 4., 7., 0., 5., 7., 9., 2.,
          2., 3., 2., 0., 4., 1., 15., 12., 4., 2., 0., 3., 2., 4., 0.,
          1., 0., 2., 2., 12., 1., 9., 2., 8., 0., 1., 4., 0., 1., 3.,
          10., 14., 1., 5., 4. ]
      - [ 3., 6., 4., 7., 4., 5., 9., 2., 2., 6., 5., 5., 4., 5., 6., 4.,
          8., 0., 0., 3., 2., 4., 7., 3., 6., 1., 7., 3., 1., 1., 15.,
          1., 1., 1., 4., 2., 5., 2., 3., 0., 6., 4., 2., 11., 5., 4.,
          4., 1., 4., 2. ]
      - [ 4., 2., 1., 3., 2., 4., 8., 3., 1., 6., 4., 5., 8., 1., 10.,
          6., 9., 4., 0., 4., 5., 6., 1., 3., 6., 1., 6., 0., 4., 3., 4.,
          1., 1., 3., 5., 4., 4., 6., 7., 0., 3., 2., 5., 6., 6., 3., 8.,
          3., 5., 4. ]
      - [ 2., 4., 2., 5., 0., 1., 4., 7., 3., 1., 4., 4., 5., 6., 2., 6.,
          44., 7., 0., 5., 1., 2., 1., 5., 0., 0., 12., 7., 3., 1., 2.,
          0., 0., 2., 4., 0., 0., 4., 4., 1., 4., 10., 2., 0., 1., 2.,
          14., 1., 3., 2. ]
      - [ 4., 0., 8., 1., 19., 0., 0., 0., 0., 12., 3., 10., 2., 0., 0.,
          0., 0., 0., 0., 6., 2., 13., 3., 2., 15., 19., 1., 0., 4., 0.,
          0., 10., 0., 2., 4., 6., 0., 8., 2., 3., 12., 0., 2., 3., 1.,
          1., 1., 4., 5., 5. ]
      - [ 2., 7., 3., 2., 14., 3., 3., 5., 4., 3., 1., 0., 4., 0., 3.,
          2., 5., 1., 0., 3., 2., 13., 5., 4., 10., 0., 3., 2., 6., 2.,
          3., 6., 3., 2., 1., 3., 4., 7., 7., 0., 2., 4., 0., 26., 5.,
          3., 7., 3., 1., 1. ]
      - [ 1., 5., 5., 3., 3., 6., 2., 3., 6., 6., 0., 3., 2., 7., 1., 3.,
          8., 3., 0., 2., 4., 2., 8., 2., 2., 2., 4., 4., 0., 6., 10.,
          8., 3., 3., 6., 5., 9., 9., 1., 0., 5., 3., 8., 3., 5., 5., 5.,
          5., 1., 3. ]
      - [ 2., 7., 3., 8., 0., 4., 4., 1., 2., 5., 3., 4., 3., 4., 0.,
          10., 0., 1., 0., 3., 2., 28., 8., 4., 4., 0., 3., 3., 1., 2.,
          2., 4., 3., 1., 5., 2., 4., 3., 6., 0., 3., 1., 7., 22., 1.,
          4., 6., 2., 0., 5. ]
      - [ 10., 6., 5., 3., 0., 5., 2., 0., 9., 2., 6., 0., 6., 4., 7.,
          0., 1., 5., 0., 4., 21., 0., 4., 1., 2., 3., 0., 2., 2., 2.,
          0., 22., 1., 2., 7., 9., 6., 9., 3., 0., 2., 5., 0., 1., 2.,
          2., 1., 3., 9., 4. ]
      - [ 3., 0., 7., 3., 6., 9., 5., 0., 6., 6., 3., 1., 8., 9., 2., 0.,
          12., 3., 0., 3., 4., 2., 3., 6., 2., 1., 2., 2., 1., 7., 4.,
          0., 1., 7., 3., 4., 5., 5., 0., 0., 7., 3., 15., 2., 3., 4.,
          2., 4., 6., 9. ]
      - [ 16., 1., 3., 11., 2., 9., 10., 1., 12., 1., 3., 2., 1., 0., 2.,
          1., 1., 11., 1., 2., 4., 2., 4., 0., 1., 2., 2., 14., 1., 6.,
          0., 2., 3., 2., 1., 6., 14., 3., 5., 4., 1., 2., 0., 2., 4.,
          9., 1., 3., 9., 3. ]
      - [ 1., 6., 3., 7., 2., 6., 0., 1., 1., 3., 2., 2., 5., 15., 4.,
          1., 13., 1., 0., 1., 1., 5., 4., 4., 1., 8., 2., 1., 3., 5.,
          8., 2., 9., 3., 2., 4., 1., 2., 11., 0., 5., 3., 5., 6., 4.,
          3., 6., 2., 13., 3. ]
      - [ 3., 3., 9., 9., 1., 3., 3., 1., 5., 3., 3., 1., 7., 6., 1., 5.,
          4., 5., 0., 6., 7., 2., 6., 2., 2., 0., 1., 1., 3., 3., 9., 9.,
          0., 2., 8., 4., 3., 11., 6., 0., 1., 0., 3., 3., 3., 9., 4.,
          9., 6., 5. ]
      - [ 1., 8., 5., 1., 2., 5., 1., 1., 0., 4., 3., 5., 10., 6., 2.,
          10., 4., 1., 0., 7., 2., 7., 20., 1., 1., 0., 1., 0., 8., 3.,
          2., 0., 2., 3., 8., 1., 1., 5., 6., 0., 0., 4., 7., 8., 8., 4.,
          12., 7., 4., 0. ]
      - [ 5., 1., 7., 5., 0., 4., 3., 1., 11., 2., 1., 2., 12., 3., 0.,
          0., 2., 7., 0., 3., 12., 0., 5., 7., 2., 4., 3., 6., 0., 5.,
          8., 7., 1., 2., 9., 2., 10., 4., 0., 2., 1., 7., 18., 0., 1.,
          1., 4., 1., 6., 3. ]
      - [ 4., 0., 27., 0., 2., 0., 4., 0., 10., 0., 0., 6., 2., 0., 9.,
          0., 3., 18., 3., 0., 23., 5., 0., 3., 8., 0., 0., 0., 0., 0.,
          0., 3., 0., 0., 1., 16., 3., 38., 4., 1., 0., 0., 0., 1., 7.,
          0., 0., 0., 0., 0. ]
      - [ 7., 2., 3., 4., 6., 9., 8., 5., 14., 2., 1., 1., 5., 0., 8.,
          1., 0., 11., 1., 2., 6., 0., 2., 1., 5., 3., 4., 13., 1., 7.,
          0., 2., 5., 3., 2., 5., 10., 6., 0., 1., 5., 7., 0., 0., 3.,
          7., 1., 2., 8., 3. ]
      - [ 3., 2., 13., 3., 9., 3., 8., 1., 4., 4., 0., 3., 4., 1., 7.,
          2., 3., 2., 0., 1., 0., 7., 3., 1., 14., 3., 2., 4., 2., 3.,
          17., 2., 6., 2., 5., 3., 6., 12., 3., 0., 4., 4., 1., 4., 8.,
          2., 2., 5., 1., 1. ]
      - [ 1., 1., 3., 13., 3., 2., 1., 1., 1., 5., 3., 5., 6., 6., 1.,
          0., 0., 1., 0., 1., 0., 41., 4., 7., 4., 1., 0., 1., 0., 2.,
          1., 1., 2., 2., 7., 0., 0., 0., 4., 0., 2., 0., 17., 40., 3.,
          1., 1., 2., 0., 4. ]
      - [ 0., 2., 1., 5., 15., 0., 2., 10., 5., 2., 4., 3., 1., 0., 6.,
          4., 3., 0., 0., 1., 1., 10., 4., 0., 16., 0., 0., 1., 9., 3.,
          0., 2., 13., 0., 4., 1., 3., 2., 12., 0., 2., 4., 0., 30., 4.,
          2., 7., 4., 2., 0. ]
      - [ 6., 10., 2., 3., 7., 4., 7., 1., 2., 4., 0., 6., 5., 5., 7.,
          3., 0., 5., 0., 6., 9., 2., 10., 4., 5., 2., 1., 2., 0., 3.,
          2., 4., 1., 0., 12., 5., 5., 7., 4., 0., 3., 1., 0., 8., 6.,
          2., 7., 4., 6., 2. ]
      - [ 4., 3., 3., 2., 2., 1., 3., 4., 1., 3., 1., 0., 8., 10., 2.,
          0., 15., 1., 0., 4., 14., 0., 1., 4., 1., 4., 3., 3., 0., 2.,
          19., 26., 5., 2., 6., 4., 4., 6., 0., 0., 3., 6., 7., 0., 1.,
          4., 2., 5., 0., 1. ]
      - [ 8., 1., 4., 1., 7., 8., 2., 0., 6., 5., 3., 1., 4., 4., 5., 0.,
          0., 5., 0., 2., 18., 5., 9., 1., 6., 7., 3., 3., 2., 6., 2.,
          6., 1., 0., 5., 12., 4., 6., 2., 0., 5., 0., 10., 12., 0., 1.,
          0., 2., 3., 3. ]
      - [ 1., 1., 2., 14., 1., 5., 3., 3., 1., 11., 5., 1., 3., 0., 8.,
          3., 13., 8., 0., 3., 0., 20., 1., 9., 3., 2., 3., 0., 2., 1.,
          8., 0., 19., 2., 1., 1., 3., 6., 1., 0., 0., 5., 4., 7., 2.,
          2., 1., 2., 4., 5. ]
      - [ 3., 4., 7., 2., 1., 4., 7., 3., 3., 3., 1., 5., 3., 5., 4., 5.,
          3., 7., 0., 6., 1., 4., 5., 2., 8., 3., 5., 3., 2., 1., 3., 2.,
          4., 0., 3., 4., 4., 7., 4., 0., 5., 5., 4., 6., 7., 3., 6., 8.,
          6., 9. ]
      - [ 4., 8., 5., 6., 2., 3., 1., 5., 5., 1., 4., 3., 9., 4., 10.,
          6., 7., 5., 0., 4., 2., 1., 3., 6., 3., 0., 3., 1., 4., 3., 4.,
          0., 1., 0., 9., 2., 5., 4., 6., 0., 5., 4., 5., 3., 10., 5.,
          14., 4., 0., 1. ]
      - [ 2., 7., 3., 10., 4., 0., 2., 2., 2., 8., 4., 0., 7., 3., 3.,
          4., 1., 3., 0., 5., 8., 0., 8., 6., 1., 1., 0., 6., 1., 2., 2.,
          5., 0., 3., 10., 4., 2., 2., 4., 0., 0., 1., 30., 7., 2., 6.,
          5., 2., 7., 5. ]
      - [ 2., 2., 2., 5., 1., 3., 2., 5., 7., 5., 4., 2., 0., 7., 5., 0.,
          4., 1., 0., 1., 2., 2., 1., 4., 2., 2., 0., 7., 3., 3., 34.,
          1., 0., 1., 2., 9., 9., 1., 7., 0., 5., 5., 5., 8., 8., 5., 3.,
          4., 6., 3. ]
      - [ 4., 4., 4., 3., 4., 4., 3., 2., 2., 7., 2., 3., 3., 1., 9., 1.,
          0., 6., 0., 5., 8., 0., 10., 2., 2., 3., 1., 3., 3., 3., 0.,
          9., 8., 5., 6., 6., 3., 8., 1., 0., 2., 6., 1., 2., 15., 8.,
          3., 6., 5., 5. ]
      - [ 2., 1., 17., 3., 3., 7., 4., 1., 3., 8., 3., 3., 5., 6., 9.,
          2., 2., 1., 0., 3., 3., 0., 3., 6., 5., 0., 4., 2., 1., 4., 5.,
          3., 0., 5., 2., 8., 5., 13., 4., 0., 6., 1., 0., 0., 9., 2.,
          5., 6., 6., 9. ]
      - [ 4., 5., 2., 3., 2., 4., 5., 4., 6., 3., 2., 3., 6., 1., 5., 7.,
          6., 2., 0., 4., 3., 3., 1., 9., 5., 1., 6., 10., 2., 4., 0.,
          1., 15., 2., 1., 3., 0., 4., 7., 0., 2., 4., 3., 4., 5., 7.,
          8., 5., 4., 8. ]
      - [ 1., 1., 6., 8., 0., 3., 1., 5., 21., 4., 1., 0., 9., 20., 2.,
          1., 3., 6., 0., 4., 7., 1., 2., 17., 0., 1., 3., 1., 0., 4.,
          12., 7., 0., 1., 2., 2., 2., 2., 0., 0., 1., 3., 25., 0., 4.,
          1., 2., 0., 4., 1. ]
      - [ 2., 9., 3., 4., 4., 1., 2., 3., 2., 5., 7., 3., 2., 3., 5., 6.,
          7., 5., 0., 6., 0., 4., 6., 4., 4., 3., 4., 4., 4., 0., 1., 1.,
          8., 4., 3., 1., 3., 2., 12., 0., 4., 8., 2., 11., 7., 10., 6.,
          1., 3., 1. ]
      - [ 1., 2., 3., 9., 7., 4., 0., 4., 5., 12., 3., 5., 6., 7., 3.,
          4., 5., 0., 0., 2., 4., 12., 4., 11., 6., 1., 5., 1., 1., 1.,
          3., 2., 0., 1., 3., 1., 1., 2., 7., 0., 3., 2., 8., 15., 1.,
          1., 9., 2., 5., 6. ]
      - [ 6., 2., 12., 4., 6., 3., 1., 2., 2., 9., 7., 3., 3., 1., 5.,
          2., 1., 1., 0., 6., 4., 2., 2., 2., 12., 4., 7., 0., 4., 3.,
          2., 8., 2., 0., 5., 7., 1., 10., 5., 0., 5., 2., 9., 5., 3.,
          2., 2., 5., 7., 4. ]
      - [ 4., 4., 1., 6., 2., 8., 1., 9., 3., 4., 7., 1., 7., 6., 4., 3.,
          6., 4., 0., 7., 3., 0., 6., 0., 2., 0., 9., 5., 3., 5., 0., 1.,
          3., 7., 0., 0., 9., 8., 6., 0., 5., 6., 0., 0., 1., 7., 12.,
          5., 4., 6. ]
      - [ 5., 1., 13., 5., 6., 3., 3., 0., 8., 10., 3., 1., 8., 4., 3.,
          1., 0., 6., 0., 5., 9., 7., 5., 4., 6., 3., 2., 3., 1., 5., 1.,
          9., 0., 2., 8., 7., 1., 15., 0., 0., 4., 0., 3., 0., 3., 2.,
          1., 4., 8., 2. ]
      - [ 3., 1., 10., 5., 0., 5., 5., 4., 9., 3., 4., 1., 5., 2., 3.,
          1., 2., 14., 3., 6., 9., 0., 5., 10., 2., 2., 0., 2., 0., 3.,
          4., 5., 1., 4., 8., 6., 11., 11., 1., 1., 4., 4., 3., 0., 2.,
          1., 5., 2., 5., 3. ]
      - [ 21., 3., 1., 7., 1., 1., 8., 0., 0., 0., 2., 5., 1., 3., 6.,
          2., 31., 12., 0., 3., 0., 5., 0., 2., 0., 0., 1., 19., 0., 0.,
          6., 0., 17., 0., 0., 2., 2., 2., 0., 0., 0., 4., 1., 0., 8.,
          14., 2., 3., 0., 5. ]
      - [ 3., 3., 10., 9., 5., 3., 5., 2., 7., 3., 3., 1., 3., 9., 5.,
          3., 4., 2., 0., 6., 5., 3., 3., 4., 8., 1., 5., 3., 3., 9., 3.,
          5., 0., 2., 8., 4., 3., 7., 3., 0., 1., 1., 3., 1., 5., 4., 8.,
          3., 5., 4. ]
      - [ 4., 4., 16., 0., 2., 1., 4., 1., 6., 4., 3., 4., 7., 4., 2.,
          3., 0., 3., 0., 2., 17., 4., 3., 1., 3., 1., 4., 6., 2., 1.,
          0., 15., 1., 0., 9., 7., 2., 12., 3., 0., 2., 5., 6., 0., 4.,
          3., 3., 6., 5., 6. ]
      - [ 9., 4., 5., 2., 2., 7., 4., 5., 4., 1., 1., 1., 5., 6., 6., 2.,
          3., 3., 0., 3., 8., 6., 4., 4., 2., 0., 2., 5., 1., 2., 8., 4.,
          9., 5., 7., 2., 8., 4., 6., 0., 3., 4., 10., 2., 3., 5., 5.,
          3., 3., 2. ]
      - [ 4., 0., 5., 6., 4., 3., 2., 2., 4., 11., 4., 2., 7., 7., 4.,
          2., 6., 1., 0., 9., 7., 0., 9., 2., 4., 7., 1., 1., 2., 4., 5.,
          7., 0., 2., 9., 0., 6., 7., 1., 1., 2., 4., 10., 7., 3., 0.,
          4., 1., 8., 3. ]
      - [ 4., 2., 3., 7., 2., 3., 1., 9., 3., 2., 2., 1., 0., 9., 5., 0.,
          5., 0., 0., 1., 2., 13., 5., 3., 7., 1., 1., 6., 0., 2., 30.,
          1., 13., 0., 3., 3., 7., 0., 2., 0., 1., 5., 3., 17., 2., 5.,
          6., 0., 2., 1. ]
      - [ 4., 4., 1., 10., 0., 7., 3., 6., 3., 0., 4., 2., 4., 2., 2.,
          5., 10., 7., 0., 1., 2., 1., 1., 2., 1., 1., 9., 10., 0., 3.,
          3., 0., 14., 5., 3., 1., 8., 5., 5., 0., 8., 14., 1., 1., 4.,
          2., 15., 0., 4., 2. ]
      - [ 3., 8., 3., 10., 3., 4., 1., 6., 5., 8., 6., 5., 1., 4., 3.,
          5., 2., 0., 0., 6., 1., 11., 7., 6., 10., 0., 2., 3., 1., 4.,
          9., 2., 1., 3., 4., 1., 6., 2., 6., 0., 2., 2., 0., 9., 10.,
          0., 9., 1., 2., 3. ]
      - [ 4., 9., 2., 5., 0., 0., 0., 1., 5., 1., 1., 0., 0., 0., 2., 1.,
          17., 2., 0., 0., 1., 1., 6., 0., 3., 0., 2., 1., 0., 1., 51.,
          2., 3., 0., 2., 3., 4., 0., 0., 0., 2., 3., 0., 6., 2., 3., 2.,
          1., 2., 0. ]
      - [ 6., 8., 1., 5., 4., 3., 1., 9., 1., 5., 2., 4., 4., 5., 4., 4.,
          6., 5., 0., 6., 0., 6., 3., 2., 7., 0., 4., 5., 3., 0., 2., 1.,
          7., 3., 6., 3., 5., 2., 9., 0., 1., 1., 0., 4., 13., 7., 11.,
          5., 2., 5. ]
      - [ 1., 4., 4., 4., 2., 3., 2., 10., 1., 2., 4., 1., 5., 11., 8.,
          0., 4., 0., 0., 1., 1., 6., 3., 5., 5., 2., 3., 7., 2., 5., 6.,
          2., 8., 1., 2., 6., 2., 5., 8., 0., 0., 6., 14., 5., 9., 4.,
          10., 3., 2., 1. ]
      - [ 0., 3., 4., 2., 1., 3., 2., 13., 9., 0., 3., 1., 2., 0., 0.,
          1., 22., 3., 0., 1., 1., 0., 4., 2., 3., 0., 11., 7., 0., 0.,
          31., 2., 11., 1., 1., 3., 7., 3., 0., 0., 5., 7., 0., 1., 3.,
          5., 12., 4., 4., 2. ]
      - [ 5., 2., 4., 0., 3., 8., 5., 2., 6., 4., 3., 2., 5., 3., 3., 1.,
          12., 2., 0., 4., 6., 0., 3., 3., 3., 0., 5., 5., 2., 5., 4.,
          6., 7., 6., 4., 2., 7., 7., 1., 0., 3., 9., 6., 5., 1., 2.,
          11., 4., 4., 5. ]
      - [ 0., 2., 1., 7., 9., 1., 1., 2., 1., 5., 1., 3., 3., 3., 1., 1.,
          7., 0., 0., 3., 1., 28., 6., 7., 9., 0., 1., 1., 0., 1., 23.,
          0., 2., 1., 0., 3., 4., 2., 3., 0., 2., 1., 14., 33., 4., 0.,
          1., 2., 0., 0. ]
      - [ 5., 2., 5., 12., 2., 5., 4., 7., 6., 0., 7., 2., 3., 3., 8.,
          1., 2., 8., 1., 2., 1., 0., 1., 2., 2., 1., 6., 6., 2., 9., 1.,
          2., 4., 5., 1., 5., 1., 1., 1., 2., 3., 6., 3., 2., 5., 6.,
          15., 3., 15., 4. ]
      - [ 3., 2., 2., 6., 3., 7., 2., 4., 0., 3., 2., 2., 0., 8., 0., 1.,
          9., 1., 0., 0., 2., 8., 1., 14., 4., 1., 1., 9., 2., 2., 19.,
          0., 17., 3., 3., 1., 1., 0., 5., 0., 0., 14., 0., 17., 2., 9.,
          3., 1., 5., 1. ]
      - [ 5., 4., 5., 8., 2., 0., 2., 4., 5., 8., 0., 1., 7., 4., 1., 4.,
          3., 0., 0., 3., 2., 19., 5., 4., 1., 0., 0., 0., 4., 1., 3.,
          0., 1., 1., 7., 4., 2., 7., 8., 0., 5., 4., 27., 18., 2., 0.,
          7., 1., 1., 0. ]
      - [ 0., 8., 2., 2., 3., 1., 3., 1., 4., 3., 2., 9., 6., 9., 1., 3.,
          3., 4., 0., 3., 2., 4., 5., 3., 4., 0., 1., 4., 4., 2., 2., 7.,
          3., 3., 13., 6., 6., 5., 13., 0., 4., 5., 6., 3., 10., 1., 5.,
          4., 4., 4. ]
      - [ 6., 9., 3., 7., 2., 0., 3., 1., 4., 4., 1., 3., 6., 13., 0.,
          1., 11., 8., 0., 2., 1., 2., 3., 5., 2., 0., 5., 4., 2., 0.,
          5., 3., 2., 2., 14., 1., 5., 4., 7., 0., 4., 5., 12., 7., 0.,
          2., 6., 2., 7., 4. ]
      - [ 9., 3., 3., 6., 2., 3., 5., 5., 9., 0., 2., 1., 3., 0., 10.,
          2., 6., 11., 0., 1., 6., 5., 1., 4., 2., 1., 2., 4., 4., 3.,
          1., 0., 12., 1., 4., 5., 6., 7., 6., 1., 4., 7., 0., 0., 8.,
          6., 7., 3., 3., 6. ]
      - [ 0., 1., 0., 9., 0., 12., 0., 1., 0., 0., 22., 1., 0., 1., 5.,
          2., 0., 0., 5., 14., 1., 0., 1., 0., 0., 36., 0., 13., 1., 1.,
          0., 6., 5., 3., 1., 0., 0., 1., 2., 0., 0., 7., 0., 1., 6.,
          10., 0., 6., 17., 9. ]
      - [ 1., 3., 6., 3., 0., 1., 6., 9., 4., 7., 0., 0., 4., 4., 2., 1.,
          27., 2., 0., 2., 0., 3., 0., 5., 4., 0., 9., 1., 1., 3., 23.,
          1., 12., 2., 3., 1., 5., 3., 1., 0., 7., 9., 0., 7., 3., 5.,
          5., 1., 2., 3. ]
      - [ 2., 1., 3., 12., 2., 2., 1., 3., 3., 0., 1., 0., 3., 8., 1.,
          0., 20., 3., 0., 2., 1., 45., 1., 9., 0., 0., 6., 3., 0., 0.,
          10., 3., 2., 5., 0., 1., 2., 3., 1., 0., 6., 4., 0., 13., 3.,
          5., 7., 2., 0., 2. ]
      - [ 4., 4., 3., 5., 2., 1., 3., 3., 2., 7., 2., 0., 5., 5., 3., 1.,
          6., 4., 0., 1., 7., 3., 8., 3., 2., 2., 3., 4., 3., 0., 21.,
          15., 9., 0., 5., 2., 2., 2., 2., 0., 6., 8., 11., 3., 3., 3.,
          6., 1., 4., 2. ]
      - [ 14., 4., 4., 5., 1., 4., 4., 4., 6., 2., 2., 0., 1., 2., 3.,
          5., 4., 10., 0., 6., 10., 0., 2., 1., 3., 3., 6., 13., 3., 2.,
          0., 3., 5., 2., 3., 6., 10., 3., 3., 2., 6., 9., 0., 0., 4.,
          6., 5., 3., 5., 1. ]
      - [ 5., 0., 5., 3., 4., 5., 1., 7., 8., 3., 0., 1., 7., 3., 0., 1.,
          12., 1., 0., 5., 17., 0., 7., 3., 3., 2., 1., 1., 3., 4., 6.,
          19., 0., 6., 10., 3., 5., 2., 3., 2., 2., 3., 6., 0., 1., 0.,
          7., 2., 7., 4. ]
      - [ 1., 0., 8., 3., 0., 1., 2., 2., 0., 6., 1., 0., 14., 8., 9.,
          1., 0., 2., 0., 2., 9., 0., 6., 5., 0., 12., 1., 2., 0., 3.,
          0., 15., 1., 3., 15., 1., 2., 13., 1., 0., 1., 7., 23., 0., 2.,
          0., 2., 4., 12., 1. ]
      - [ 8., 2., 0., 2., 10., 7., 6., 5., 3., 0., 5., 5., 1., 3., 11.,
          1., 1., 4., 2., 0., 3., 11., 1., 0., 7., 0., 0., 5., 0., 0.,
          2., 3., 4., 6., 0., 3., 2., 0., 2., 2., 1., 11., 22., 16., 3.,
          8., 5., 0., 5., 3. ]
      - [ 3., 1., 8., 6., 3., 1., 1., 2., 2., 5., 3., 1., 7., 9., 4., 2.,
          1., 2., 0., 4., 2., 19., 2., 6., 3., 0., 1., 1., 0., 2., 5.,
          2., 0., 4., 16., 1., 2., 4., 8., 0., 6., 0., 15., 15., 3., 2.,
          4., 1., 9., 2. ]
      - [ 1., 3., 1., 8., 4., 1., 1., 9., 2., 3., 3., 1., 10., 6., 3.,
          2., 5., 1., 0., 2., 1., 10., 3., 7., 6., 0., 1., 5., 3., 1.,
          12., 1., 6., 2., 3., 2., 5., 1., 9., 0., 4., 6., 4., 12., 5.,
          2., 14., 4., 3., 2. ]
      - [ 2., 5., 1., 6., 8., 0., 3., 11., 1., 9., 0., 0., 8., 5., 4.,
          3., 8., 1., 0., 0., 1., 3., 3., 10., 9., 1., 2., 0., 3., 0.,
          4., 1., 12., 0., 5., 0., 2., 1., 8., 0., 2., 9., 13., 12., 4.,
          4., 8., 3., 3., 2. ]
      - [ 0., 1., 6., 5., 7., 1., 1., 3., 6., 13., 3., 0., 6., 4., 4.,
          3., 3., 1., 0., 1., 3., 8., 1., 9., 9., 4., 4., 2., 3., 0., 6.,
          2., 0., 2., 6., 4., 5., 3., 2., 0., 0., 0., 12., 30., 0., 1.,
          3., 4., 8., 1. ]
      - [ 4., 9., 2., 3., 0., 2., 3., 12., 5., 0., 4., 1., 4., 1., 4.,
          5., 32., 2., 0., 4., 2., 3., 1., 1., 0., 0., 8., 7., 4., 0.,
          1., 7., 5., 2., 2., 1., 5., 4., 7., 0., 9., 9., 1., 0., 5., 4.,
          10., 1., 4., 0. ]
      - [ 5., 5., 11., 4., 0., 10., 1., 1., 4., 1., 2., 3., 10., 6., 2.,
          1., 6., 3., 1., 1., 9., 0., 2., 2., 3., 1., 3., 4., 2., 1., 5.,
          9., 5., 4., 9., 7., 6., 7., 1., 0., 3., 4., 5., 1., 1., 3., 8.,
          4., 8., 6. ]
      - [ 7., 3., 10., 6., 6., 3., 3., 6., 4., 12., 0., 0., 8., 4., 1.,
          5., 0., 2., 0., 1., 1., 0., 4., 10., 5., 4., 3., 6., 0., 1.,
          1., 6., 1., 7., 4., 2., 4., 9., 2., 0., 1., 4., 5., 13., 1.,
          2., 14., 1., 6., 2. ]
      - [ 2., 2., 8., 5., 1., 2., 3., 11., 1., 5., 2., 1., 8., 8., 1.,
          6., 6., 6., 0., 4., 2., 3., 3., 0., 2., 0., 3., 3., 1., 1., 2.,
          6., 2., 1., 12., 0., 2., 10., 1., 0., 1., 4., 29., 0., 2., 3.,
          13., 3., 5., 5. ]
      - [ 0., 9., 3., 6., 4., 3., 4., 5., 6., 3., 2., 1., 6., 8., 4.,
          10., 1., 5., 0., 3., 0., 17., 7., 5., 1., 0., 2., 5., 2., 2.,
          5., 2., 5., 5., 3., 3., 3., 1., 10., 0., 1., 2., 3., 7., 5.,
          8., 6., 2., 2., 3. ]
      - [ 4., 3., 0., 7., 0., 6., 2., 11., 2., 0., 3., 0., 0., 8., 3.,
          1., 26., 5., 0., 4., 0., 0., 0., 1., 0., 0., 11., 12., 6., 2.,
          1., 0., 9., 0., 1., 0., 9., 1., 12., 0., 7., 15., 0., 0., 3.,
          11., 7., 2., 2., 3. ]
      - [ 8., 4., 3., 5., 1., 3., 5., 3., 7., 4., 2., 0., 4., 3., 6., 2.,
          2., 4., 0., 5., 2., 5., 4., 6., 2., 5., 3., 9., 1., 1., 1., 6.,
          3., 4., 3., 3., 7., 4., 1., 1., 4., 13., 3., 8., 3., 6., 9.,
          2., 11., 0. ]
      - [ 3., 6., 3., 6., 1., 3., 0., 8., 6., 4., 2., 1., 4., 5., 3., 1.,
          12., 2., 0., 3., 2., 0., 2., 3., 2., 3., 9., 5., 5., 3., 6.,
          0., 16., 3., 0., 1., 3., 2., 4., 0., 8., 13., 1., 2., 3., 11.,
          6., 3., 6., 5. ]
      - [ 4., 2., 2., 8., 4., 2., 6., 5., 10., 5., 1., 1., 5., 6., 6.,
          6., 2., 5., 0., 4., 6., 0., 5., 9., 3., 0., 1., 3., 3., 1., 3.,
          2., 4., 2., 4., 1., 7., 6., 1., 0., 0., 6., 7., 1., 8., 7.,
          10., 6., 8., 2. ]
      - [ 7., 0., 7., 2., 2., 6., 4., 0., 9., 7., 0., 0., 12., 5., 4.,
          0., 0., 10., 0., 2., 20., 2., 0., 2., 3., 1., 1., 3., 2., 5.,
          0., 24., 0., 3., 7., 6., 4., 7., 3., 0., 5., 1., 7., 1., 1.,
          2., 2., 3., 4., 4. ]
      - [ 1., 7., 4., 2., 6., 5., 0., 1., 2., 6., 8., 0., 1., 1., 5., 6.,
          2., 2., 0., 9., 2., 6., 2., 5., 7., 11., 1., 2., 9., 1., 1.,
          4., 0., 6., 0., 7., 4., 3., 10., 0., 7., 5., 2., 14., 6., 1.,
          4., 4., 4., 4. ]
      - [ 5., 1., 3., 4., 2., 2., 3., 9., 7., 2., 5., 3., 7., 9., 5., 5.,
          9., 3., 0., 2., 1., 3., 3., 2., 2., 2., 2., 1., 1., 5., 10.,
          1., 5., 0., 3., 1., 6., 6., 3., 0., 3., 7., 13., 4., 6., 7.,
          9., 4., 3., 2. ]
      - [ 2., 3., 7., 1., 4., 2., 1., 3., 6., 5., 5., 3., 4., 4., 6., 3.,
          18., 1., 0., 3., 6., 6., 2., 6., 2., 1., 3., 3., 1., 4., 13.,
          2., 2., 0., 2., 8., 6., 8., 2., 0., 4., 7., 5., 2., 5., 6., 7.,
          1., 3., 2. ]
      - [ 3., 13., 1., 0., 1., 9., 3., 1., 3., 5., 7., 12., 12., 14., 4.,
          1., 1., 5., 6., 2., 3., 6., 5., 2., 1., 3., 0., 6., 0., 2., 0.,
          4., 4., 3., 4., 0., 1., 1., 1., 0., 11., 6., 17., 0., 0., 6.,
          5., 0., 5., 1. ]
      - [ 2., 3., 5., 3., 7., 4., 1., 2., 1., 4., 3., 6., 7., 1., 5., 1.,
          2., 1., 0., 6., 4., 21., 3., 4., 7., 3., 11., 1., 4., 1., 1.,
          5., 6., 1., 7., 3., 1., 3., 6., 0., 8., 1., 1., 8., 3., 5.,
          10., 6., 1., 2. ]
      - [ 0., 2., 3., 6., 3., 2., 1., 5., 0., 12., 4., 2., 5., 3., 5.,
          3., 5., 2., 0., 6., 7., 3., 6., 3., 2., 2., 3., 6., 5., 3., 1.,
          8., 1., 0., 7., 1., 7., 4., 6., 0., 3., 7., 3., 7., 11., 3.,
          2., 12., 5., 3. ]
      - [ 2., 7., 6., 8., 7., 1., 3., 1., 2., 10., 3., 2., 6., 4., 2.,
          3., 2., 2., 0., 3., 3., 13., 10., 6., 9., 3., 1., 2., 3., 1.,
          6., 1., 7., 1., 2., 5., 4., 3., 8., 0., 0., 1., 0., 19., 6.,
          3., 6., 2., 1., 1. ]
      - [ 6., 2., 4., 8., 3., 6., 2., 2., 2., 1., 1., 5., 3., 1., 5., 4.,
          18., 1., 0., 0., 1., 24., 1., 6., 5., 1., 7., 2., 1., 2., 12.,
          0., 0., 0., 1., 1., 6., 3., 4., 0., 5., 1., 4., 22., 2., 4.,
          3., 2., 5., 1. ]
      - [ 0., 8., 4., 2., 0., 5., 3., 12., 5., 1., 1., 2., 5., 2., 6.,
          9., 24., 3., 0., 3., 0., 2., 2., 3., 0., 1., 7., 3., 7., 1.,
          6., 1., 3., 0., 1., 0., 4., 4., 6., 0., 5., 7., 1., 3., 4., 9.,
          14., 5., 5., 1. ]
      - [ 1., 6., 1., 8., 3., 3., 4., 1., 3., 1., 2., 2., 4., 8., 2., 2.,
          16., 2., 0., 2., 0., 16., 5., 13., 2., 1., 4., 1., 0., 2., 49.,
          0., 1., 1., 0., 1., 6., 1., 0., 0., 3., 3., 0., 10., 2., 1.,
          3., 2., 1., 1. ]
      - [ 5., 4., 2., 5., 5., 8., 9., 6., 5., 5., 4., 3., 2., 3., 4., 3.,
          5., 2., 0., 5., 1., 0., 7., 1., 8., 0., 3., 5., 6., 0., 3., 1.,
          8., 3., 3., 1., 4., 3., 5., 0., 5., 4., 2., 4., 9., 6., 6., 5.,
          6., 6. ]
      - [ 3., 5., 3., 1., 6., 9., 2., 9., 1., 7., 6., 1., 4., 1., 3., 6.,
          9., 0., 0., 3., 7., 5., 2., 3., 5., 3., 1., 1., 3., 4., 0.,
          13., 8., 0., 4., 7., 2., 2., 3., 0., 2., 3., 23., 6., 2., 0.,
          6., 1., 2., 3. ]
      - [ 3., 1., 4., 5., 1., 0., 2., 2., 7., 4., 4., 2., 7., 5., 2., 3.,
          18., 6., 0., 3., 1., 3., 3., 2., 5., 0., 10., 2., 1., 8., 4.,
          1., 0., 2., 8., 1., 6., 8., 1., 0., 9., 0., 14., 9., 2., 3.,
          9., 2., 7., 1. ]
      - [ 5., 0., 12., 1., 1., 7., 5., 6., 3., 0., 4., 0., 2., 4., 1.,
          1., 1., 15., 0., 1., 14., 0., 2., 5., 1., 1., 5., 5., 1., 8.,
          1., 11., 4., 1., 4., 6., 10., 11., 0., 1., 5., 9., 0., 0., 3.,
          1., 4., 6., 10., 2. ]
      - [ 4., 8., 1., 8., 2., 2., 3., 14., 4., 0., 2., 2., 4., 8., 5.,
          4., 16., 2., 0., 2., 1., 1., 0., 1., 5., 0., 16., 9., 0., 3.,
          4., 1., 7., 0., 1., 0., 9., 3., 2., 0., 7., 12., 0., 3., 8.,
          6., 10., 0., 0., 0. ]
      - [ 2., 2., 12., 5., 8., 5., 3., 3., 1., 9., 2., 3., 3., 6., 5.,
          1., 0., 3., 0., 5., 5., 1., 5., 5., 2., 1., 3., 5., 1., 1., 1.,
          8., 3., 0., 7., 7., 3., 7., 1., 0., 2., 5., 14., 5., 9., 3.,
          3., 7., 4., 4. ]
      - [ 4., 18., 1., 5., 3., 5., 4., 4., 0., 4., 1., 3., 2., 3., 5.,
          5., 4., 1., 0., 3., 1., 22., 2., 2., 3., 0., 5., 5., 3., 5.,
          4., 2., 2., 0., 3., 5., 7., 0., 11., 0., 3., 5., 1., 5., 8.,
          9., 4., 2., 4., 2. ]
      - [ 2., 6., 6., 6., 6., 2., 2., 1., 5., 6., 4., 2., 1., 2., 6., 3.,
          9., 3., 0., 2., 4., 18., 3., 7., 1., 1., 4., 2., 1., 7., 8.,
          10., 2., 0., 0., 6., 1., 6., 2., 0., 3., 4., 7., 13., 2., 2.,
          2., 5., 2., 3. ]
      - [ 5., 5., 6., 5., 3., 4., 3., 4., 5., 5., 2., 3., 4., 1., 6., 2.,
          0., 2., 1., 3., 5., 5., 0., 2., 4., 4., 2., 5., 3., 0., 2., 7.,
          5., 5., 8., 2., 6., 7., 5., 0., 5., 7., 0., 12., 5., 8., 5.,
          1., 4., 7. ]
      - [ 0., 1., 1., 22., 2., 0., 0., 7., 1., 6., 0., 1., 7., 11., 6.,
          1., 2., 1., 0., 5., 1., 0., 6., 1., 5., 4., 0., 2., 2., 6., 0.,
          4., 4., 5., 11., 1., 1., 3., 2., 0., 0., 6., 11., 0., 8., 2.,
          13., 3., 20., 5. ]
      - [ 7., 5., 0., 9., 2., 5., 1., 12., 2., 1., 3., 1., 2., 4., 4.,
          12., 4., 5., 0., 4., 1., 2., 3., 0., 5., 9., 2., 5., 6., 2.,
          2., 2., 13., 5., 1., 1., 4., 1., 16., 0., 0., 5., 0., 1., 5.,
          3., 13., 0., 9., 1. ]
      - [ 5., 4., 2., 3., 0., 3., 1., 7., 5., 9., 0., 1., 5., 11., 0.,
          0., 16., 5., 2., 5., 1., 1., 5., 4., 2., 1., 9., 3., 6., 4.,
          7., 4., 4., 0., 3., 0., 6., 2., 6., 1., 5., 6., 5., 1., 5., 3.,
          10., 3., 9., 0. ]
      - [ 3., 11., 4., 2., 2., 1., 2., 0., 1., 1., 5., 3., 5., 4., 4.,
          3., 4., 1., 0., 4., 3., 11., 2., 1., 4., 0., 1., 1., 4., 2.,
          7., 9., 0., 0., 2., 1., 1., 10., 8., 0., 5., 3., 25., 9., 8.,
          6., 6., 8., 3., 1. ]
      - [ 3., 3., 9., 3., 5., 5., 4., 6., 2., 1., 0., 1., 1., 0., 8., 2.,
          1., 4., 0., 1., 11., 1., 0., 1., 6., 31., 3., 4., 3., 2., 0.,
          2., 7., 8., 2., 7., 2., 16., 1., 0., 0., 6., 0., 0., 1., 3.,
          4., 2., 10., 8. ]
      - [ 5., 2., 3., 5., 0., 0., 8., 4., 3., 2., 0., 3., 14., 8., 7.,
          4., 1., 5., 0., 6., 2., 1., 13., 3., 3., 2., 2., 2., 0., 1.,
          3., 5., 5., 4., 13., 3., 3., 1., 1., 0., 0., 8., 19., 3., 4.,
          1., 3., 3., 8., 4. ]
      - [ 5., 2., 2., 2., 0., 3., 1., 10., 6., 2., 2., 0., 8., 6., 2.,
          1., 13., 6., 0., 1., 4., 1., 5., 2., 2., 1., 12., 5., 0., 4.,
          6., 3., 5., 0., 2., 4., 16., 4., 1., 1., 6., 12., 6., 2., 2.,
          5., 8., 3., 3., 3. ]
      - [ 3., 9., 3., 4., 4., 4., 9., 4., 2., 2., 5., 1., 2., 6., 3., 8.,
          5., 4., 0., 5., 3., 9., 4., 0., 5., 1., 2., 2., 2., 1., 3., 2.,
          5., 3., 4., 2., 5., 2., 2., 0., 4., 3., 15., 2., 5., 8., 15.,
          4., 1., 3. ]
      - [ 14., 3., 15., 1., 2., 1., 11., 9., 3., 3., 0., 1., 2., 2., 4.,
          2., 4., 2., 0., 2., 7., 0., 0., 2., 4., 15., 0., 4., 2., 2.,
          1., 9., 1., 2., 1., 7., 3., 15., 5., 0., 0., 4., 4., 1., 4.,
          9., 5., 5., 7., 1. ]
      - [ 12., 6., 2., 3., 4., 6., 14., 7., 2., 3., 2., 11., 1., 0., 0.,
          2., 6., 5., 0., 3., 4., 11., 0., 3., 1., 8., 3., 3., 2., 0.,
          1., 5., 8., 3., 0., 8., 7., 1., 3., 0., 6., 2., 4., 13., 0.,
          1., 4., 3., 2., 5. ]
      - [ 1., 7., 0., 4., 3., 3., 3., 2., 1., 2., 4., 4., 3., 1., 6., 2.,
          16., 1., 0., 2., 1., 21., 3., 2., 4., 0., 4., 4., 5., 1., 27.,
          0., 3., 1., 1., 2., 3., 0., 7., 0., 9., 1., 3., 13., 4., 3.,
          6., 1., 3., 4. ]
      - [ 2., 1., 9., 5., 1., 3., 0., 1., 5., 4., 1., 1., 7., 8., 7., 0.,
          0., 7., 0., 2., 10., 0., 5., 3., 10., 5., 2., 3., 0., 7., 4.,
          7., 0., 1., 3., 4., 4., 12., 1., 0., 3., 2., 29., 3., 3., 1.,
          3., 3., 5., 3. ]
      - [ 4., 6., 6., 9., 6., 3., 1., 2., 1., 5., 3., 6., 1., 5., 4., 5.,
          3., 3., 0., 3., 4., 0., 6., 3., 3., 2., 3., 6., 6., 3., 0., 1.,
          3., 3., 6., 5., 1., 6., 8., 0., 4., 8., 4., 5., 4., 9., 9., 5.,
          4., 3. ]
      - [ 7., 2., 3., 9., 9., 2., 4., 2., 5., 7., 5., 1., 4., 7., 2., 2.,
          2., 3., 0., 1., 8., 1., 5., 9., 11., 2., 4., 1., 0., 1., 1.,
          9., 3., 5., 4., 4., 6., 3., 0., 2., 9., 2., 7., 8., 2., 2., 4.,
          1., 4., 6. ]
      - [ 0., 7., 4., 6., 6., 2., 1., 0., 4., 5., 3., 2., 3., 6., 2., 5.,
          17., 2., 0., 6., 4., 4., 2., 12., 8., 3., 4., 3., 1., 3., 4.,
          1., 3., 4., 3., 4., 2., 2., 6., 0., 7., 0., 7., 4., 3., 2., 6.,
          3., 6., 8. ]
      - [ 4., 1., 0., 6., 19., 7., 0., 12., 5., 5., 9., 0., 1., 6., 1.,
          0., 9., 1., 0., 5., 1., 4., 2., 3., 14., 1., 3., 2., 2., 1.,
          3., 0., 1., 1., 3., 3., 8., 2., 2., 0., 9., 7., 15., 12., 3.,
          2., 2., 0., 0., 3. ]
      - [ 3., 0., 7., 8., 2., 6., 3., 2., 6., 11., 1., 0., 5., 5., 4.,
          0., 0., 5., 5., 3., 29., 0., 2., 2., 0., 2., 0., 2., 0., 5.,
          1., 17., 0., 4., 1., 9., 3., 7., 0., 3., 1., 5., 15., 0., 0.,
          0., 1., 1., 7., 7. ]
      - [ 9., 4., 5., 2., 3., 5., 7., 2., 3., 0., 1., 3., 9., 11., 5.,
          2., 1., 5., 0., 5., 10., 2., 5., 4., 4., 1., 2., 4., 0., 3.,
          2., 9., 3., 4., 4., 8., 6., 5., 3., 0., 2., 2., 2., 0., 3., 9.,
          5., 5., 8., 3. ]
      - [ 6., 6., 4., 5., 2., 10., 5., 2., 7., 2., 4., 4., 6., 2., 5.,
          4., 9., 6., 0., 3., 5., 6., 4., 2., 6., 1., 6., 1., 2., 2., 4.,
          2., 2., 4., 5., 6., 3., 5., 1., 1., 7., 1., 1., 3., 6., 7., 7.,
          2., 2., 4. ]
      - [ 3., 2., 7., 4., 9., 0., 9., 2., 4., 3., 5., 0., 2., 6., 6., 2.,
          0., 4., 0., 6., 5., 2., 2., 6., 6., 1., 5., 3., 6., 4., 1., 9.,
          1., 2., 1., 7., 5., 8., 11., 0., 8., 1., 3., 6., 6., 3., 7.,
          2., 2., 3. ]
      - [ 5., 3., 2., 8., 5., 1., 4., 3., 5., 5., 3., 4., 3., 4., 4., 3.,
          13., 2., 0., 6., 5., 4., 4., 5., 0., 5., 6., 5., 4., 0., 5.,
          3., 3., 2., 5., 3., 4., 4., 4., 0., 5., 4., 1., 3., 8., 4., 8.,
          4., 3., 6. ]
      - [ 7., 5., 3., 4., 0., 5., 4., 5., 3., 0., 4., 1., 5., 1., 3., 3.,
          7., 5., 0., 3., 3., 3., 7., 6., 2., 1., 10., 4., 0., 8., 2.,
          2., 4., 2., 5., 6., 6., 2., 4., 0., 1., 6., 2., 0., 8., 5.,
          16., 10., 5., 3. ]
      - [ 2., 2., 0., 5., 0., 0., 1., 2., 2., 5., 1., 3., 3., 21., 0.,
          1., 9., 1., 0., 0., 0., 34., 2., 10., 0., 1., 3., 0., 0., 1.,
          6., 3., 0., 1., 5., 0., 0., 0., 4., 0., 5., 3., 35., 21., 3.,
          1., 2., 0., 2., 0. ]
      - [ 2., 1., 5., 3., 3., 5., 6., 4., 1., 3., 1., 2., 3., 3., 8., 4.,
          2., 4., 0., 8., 10., 2., 2., 5., 7., 11., 3., 4., 5., 4., 1.,
          4., 5., 7., 9., 6., 3., 7., 3., 0., 3., 1., 3., 1., 7., 2., 5.,
          4., 4., 4. ]
      - [ 3., 5., 7., 7., 1., 0., 4., 1., 4., 7., 1., 5., 14., 11., 2.,
          7., 8., 5., 0., 4., 0., 3., 8., 6., 2., 0., 1., 3., 3., 0., 4.,
          3., 2., 6., 9., 2., 4., 2., 8., 0., 0., 3., 16., 5., 3., 4.,
          6., 2., 0., 0. ]
      - [ 2., 4., 3., 7., 12., 1., 3., 3., 0., 6., 2., 1., 6., 10., 1.,
          0., 0., 0., 0., 4., 1., 20., 6., 1., 8., 2., 5., 2., 3., 1.,
          7., 2., 2., 4., 5., 2., 2., 5., 6., 0., 0., 2., 9., 21., 3.,
          3., 6., 2., 4., 1. ]
      - [ 11., 9., 1., 2., 2., 2., 4., 6., 2., 2., 3., 6., 5., 9., 1.,
          5., 2., 7., 0., 6., 4., 0., 4., 2., 1., 0., 3., 3., 2., 5., 0.,
          3., 2., 3., 6., 2., 5., 2., 13., 0., 1., 5., 2., 4., 3., 10.,
          12., 3., 8., 7. ]
      - [ 4., 5., 3., 6., 3., 1., 2., 3., 2., 1., 2., 3., 3., 12., 4.,
          0., 3., 2., 0., 2., 4., 19., 3., 4., 1., 2., 6., 3., 0., 4.,
          17., 3., 7., 3., 4., 2., 4., 0., 4., 0., 3., 3., 6., 9., 2.,
          3., 6., 1., 7., 9. ]
      - [ 2., 2., 1., 1., 8., 0., 5., 3., 0., 3., 2., 4., 5., 2., 2., 8.,
          0., 0., 0., 5., 2., 3., 10., 6., 6., 2., 0., 1., 6., 0., 1.,
          5., 0., 1., 5., 1., 0., 2., 10., 0., 0., 1., 14., 49., 5., 3.,
          8., 4., 2., 0. ]
      - [ 0., 1., 3., 13., 8., 11., 1., 1., 0., 12., 4., 0., 0., 1., 2.,
          2., 0., 0., 0., 3., 0., 1., 1., 8., 8., 12., 0., 6., 1., 0.,
          0., 0., 8., 4., 0., 0., 1., 2., 0., 0., 0., 4., 8., 37., 1.,
          4., 2., 0., 11., 19. ]
      - [ 0., 10., 2., 6., 3., 0., 1., 1., 2., 2., 1., 1., 4., 9., 2.,
          6., 9., 1., 0., 1., 0., 37., 7., 7., 3., 1., 2., 0., 1., 1.,
          31., 0., 1., 0., 8., 0., 0., 1., 3., 0., 1., 2., 10., 19., 1.,
          0., 2., 0., 1., 0. ]
      - [ 9., 0., 7., 2., 7., 4., 6., 0., 7., 7., 2., 1., 2., 0., 7., 3.,
          0., 8., 0., 7., 16., 1., 2., 3., 5., 2., 3., 7., 1., 9., 0.,
          12., 2., 0., 1., 7., 2., 6., 0., 1., 1., 6., 3., 3., 6., 6.,
          3., 7., 4., 2. ]
      - [ 3., 2., 9., 1., 14., 4., 3., 5., 2., 4., 0., 1., 2., 4., 2.,
          4., 9., 8., 0., 1., 1., 3., 3., 4., 9., 0., 4., 2., 3., 1., 8.,
          4., 2., 2., 1., 1., 6., 5., 6., 0., 13., 3., 6., 16., 5., 2.,
          4., 5., 3., 0. ]
      - [ 7., 3., 7., 6., 0., 5., 8., 2., 14., 1., 0., 1., 2., 4., 2.,
          3., 1., 9., 1., 5., 24., 0., 0., 3., 0., 6., 1., 5., 1., 10.,
          0., 10., 1., 4., 4., 4., 9., 7., 2., 5., 0., 9., 0., 0., 1.,
          2., 0., 2., 9., 1. ]
      - [ 8., 5., 2., 2., 0., 7., 7., 4., 9., 1., 2., 5., 3., 4., 1., 3.,
          4., 10., 2., 6., 7., 9., 1., 1., 1., 1., 4., 5., 0., 6., 1.,
          2., 3., 6., 5., 4., 7., 3., 5., 3., 4., 7., 0., 1., 3., 9., 6.,
          2., 5., 4. ]
      - [ 5., 0., 4., 14., 7., 0., 3., 11., 2., 1., 1., 2., 8., 7., 1.,
          9., 2., 2., 0., 2., 1., 0., 1., 8., 7., 5., 1., 3., 4., 1., 2.,
          3., 2., 6., 8., 1., 1., 7., 9., 0., 5., 3., 6., 5., 4., 3.,
          15., 1., 6., 1. ]
      - [ 2., 4., 2., 3., 1., 3., 1., 8., 8., 3., 2., 2., 3., 5., 3., 2.,
          4., 3., 0., 1., 3., 8., 4., 0., 4., 0., 7., 5., 3., 1., 6., 5.,
          9., 4., 10., 1., 3., 2., 1., 0., 5., 10., 17., 5., 7., 6., 6.,
          3., 2., 3. ]
      - [ 2., 2., 6., 9., 5., 0., 3., 3., 13., 7., 3., 1., 19., 4., 1.,
          1., 2., 4., 1., 1., 0., 0., 7., 10., 8., 2., 2., 3., 5., 0.,
          0., 1., 0., 1., 20., 2., 7., 7., 4., 0., 2., 2., 7., 0., 4.,
          1., 5., 5., 4., 5. ]
      - [ 2., 3., 2., 10., 2., 2., 2., 4., 11., 3., 0., 1., 12., 17., 2.,
          1., 1., 4., 0., 2., 4., 1., 4., 9., 4., 1., 4., 2., 0., 1., 3.,
          5., 6., 1., 6., 1., 5., 4., 3., 0., 4., 8., 9., 4., 3., 5., 7.,
          3., 7., 5. ]
      - [ 10., 0., 2., 5., 1., 19., 1., 4., 5., 2., 2., 1., 2., 1., 2.,
          1., 2., 8., 6., 5., 20., 0., 3., 3., 2., 5., 1., 11., 0., 11.,
          0., 6., 2., 2., 1., 2., 6., 2., 1., 4., 1., 5., 1., 2., 4., 4.,
          3., 3., 7., 9. ]
      - [ 7., 4., 5., 5., 2., 4., 6., 3., 3., 7., 5., 2., 3., 0., 6., 3.,
          4., 3., 0., 8., 4., 1., 3., 3., 2., 3., 4., 0., 6., 3., 10.,
          8., 2., 1., 5., 6., 4., 6., 5., 0., 2., 3., 6., 4., 11., 3.,
          2., 8., 3., 2. ]
      - [ 2., 18., 2., 9., 1., 1., 3., 5., 5., 2., 4., 2., 5., 7., 4.,
          5., 2., 3., 0., 2., 0., 5., 7., 4., 4., 1., 5., 7., 3., 0., 5.,
          0., 2., 4., 9., 0., 5., 1., 9., 0., 2., 4., 0., 6., 6., 6.,
          11., 3., 5., 4. ]
      - [ 4., 0., 18., 1., 8., 0., 2., 1., 2., 3., 2., 0., 4., 0., 14.,
          2., 2., 2., 0., 5., 5., 0., 3., 3., 6., 12., 2., 0., 3., 2.,
          0., 8., 0., 4., 5., 10., 1., 23., 0., 0., 1., 0., 9., 0., 13.,
          1., 3., 12., 3., 1. ]
      - [ 0., 1., 0., 12., 2., 1., 5., 2., 3., 2., 3., 2., 1., 2., 4.,
          1., 36., 1., 0., 2., 0., 5., 1., 0., 5., 1., 14., 3., 1., 3.,
          22., 2., 5., 2., 1., 2., 8., 0., 2., 0., 8., 3., 0., 5., 5.,
          3., 6., 4., 6., 3. ]
      - [ 1., 1., 5., 7., 0., 3., 7., 9., 4., 4., 5., 0., 2., 2., 4., 1.,
          2., 1., 0., 5., 4., 5., 3., 2., 4., 8., 6., 1., 2., 2., 0., 3.,
          3., 4., 1., 9., 3., 2., 1., 0., 8., 4., 0., 22., 6., 5., 9.,
          3., 9., 8. ]
      - [ 3., 2., 6., 1., 6., 4., 3., 1., 3., 6., 2., 3., 13., 1., 7.,
          0., 2., 4., 0., 5., 9., 1., 9., 0., 9., 4., 2., 1., 2., 8., 1.,
          11., 0., 6., 12., 6., 5., 7., 3., 0., 5., 0., 9., 2., 3., 0.,
          1., 3., 3., 7. ]
      - [ 7., 3., 1., 19., 5., 5., 5., 1., 4., 8., 1., 1., 0., 0., 3.,
          2., 5., 3., 0., 6., 0., 9., 2., 2., 2., 3., 8., 2., 7., 3., 0.,
          1., 19., 0., 1., 4., 7., 2., 4., 0., 10., 5., 0., 10., 8., 3.,
          1., 1., 3., 1. ]
      - [ 4., 5., 3., 4., 6., 3., 7., 2., 4., 2., 2., 6., 9., 6., 13.,
          1., 2., 2., 0., 6., 6., 1., 1., 3., 9., 0., 2., 7., 1., 6., 0.,
          6., 1., 3., 5., 7., 4., 9., 5., 0., 3., 2., 4., 3., 5., 3., 5.,
          5., 1., 6. ]
      - [ 2., 3., 5., 6., 5., 2., 4., 5., 8., 4., 1., 2., 2., 9., 5., 0.,
          5., 3., 0., 3., 3., 8., 3., 5., 11., 7., 1., 1., 1., 3., 12.,
          3., 2., 1., 1., 1., 13., 5., 2., 0., 4., 3., 1., 11., 7., 0.,
          6., 2., 6., 3. ]
      - [ 3., 0., 11., 3., 7., 7., 4., 2., 2., 3., 1., 2., 5., 4., 7.,
          3., 1., 2., 0., 5., 7., 8., 3., 6., 11., 4., 5., 0., 1., 2.,
          2., 5., 0., 1., 2., 2., 6., 18., 4., 0., 8., 0., 3., 10., 9.,
          1., 0., 3., 3., 4. ]
      - [ 5., 4., 9., 0., 8., 1., 1., 1., 3., 12., 2., 4., 6., 1., 4.,
          1., 1., 5., 0., 4., 7., 7., 3., 3., 4., 6., 3., 1., 2., 2., 4.,
          11., 2., 2., 8., 5., 4., 7., 5., 0., 4., 3., 7., 4., 3., 0.,
          6., 7., 5., 3. ]
      - [ 1., 0., 1., 2., 3., 0., 2., 1., 9., 0., 2., 0., 2., 9., 5., 9.,
          13., 1., 13., 12., 0., 1., 0., 2., 6., 4., 13., 3., 2., 2., 8.,
          1., 2., 0., 0., 15., 11., 2., 1., 6., 12., 1., 0., 2., 5., 2.,
          6., 2., 4., 2. ]
      - [ 2., 6., 4., 4., 1., 0., 1., 0., 1., 6., 4., 3., 2., 11., 1.,
          0., 6., 2., 0., 3., 1., 34., 3., 8., 1., 0., 3., 5., 1., 2.,
          3., 1., 4., 1., 4., 2., 3., 3., 3., 0., 5., 1., 10., 23., 8.,
          6., 2., 2., 4., 0. ]
      - [ 2., 4., 2., 4., 3., 5., 2., 4., 1., 3., 1., 7., 1., 1., 2., 2.,
          8., 1., 0., 1., 0., 35., 5., 4., 1., 0., 3., 5., 3., 2., 17.,
          2., 1., 2., 3., 3., 3., 3., 6., 0., 1., 3., 4., 23., 7., 2.,
          2., 3., 3., 0. ]
      - [ 2., 6., 2., 11., 4., 3., 2., 7., 1., 3., 4., 2., 1., 5., 4.,
          0., 3., 3., 0., 1., 2., 7., 6., 5., 5., 1., 6., 3., 1., 4., 5.,
          0., 15., 0., 2., 1., 3., 3., 6., 0., 4., 5., 6., 15., 3., 4.,
          10., 4., 7., 3. ]
      - [ 3., 9., 1., 2., 5., 3., 4., 6., 5., 1., 8., 4., 0., 0., 4., 2.,
          1., 0., 0., 5., 0., 3., 2., 0., 10., 0., 6., 7., 6., 1., 0.,
          1., 14., 0., 0., 1., 4., 0., 11., 0., 16., 4., 0., 13., 8.,
          12., 11., 5., 2., 1. ]
      - [ 5., 0., 7., 7., 1., 5., 2., 5., 17., 2., 4., 1., 16., 4., 0.,
          1., 1., 11., 0., 0., 12., 0., 1., 6., 0., 4., 3., 3., 0., 9.,
          1., 12., 0., 3., 12., 3., 9., 5., 1., 0., 1., 6., 3., 0., 1.,
          2., 5., 2., 6., 1. ]
      - [ 2., 3., 2., 3., 6., 4., 5., 6., 6., 4., 2., 2., 7., 2., 4., 5.,
          6., 2., 0., 1., 2., 8., 3., 2., 8., 1., 6., 4., 2., 3., 8., 8.,
          3., 3., 7., 2., 3., 1., 6., 0., 2., 4., 0., 8., 5., 5., 17.,
          3., 2., 2. ]
      - [ 7., 3., 4., 4., 2., 6., 10., 4., 6., 4., 0., 0., 5., 0., 2.,
          2., 1., 3., 0., 2., 18., 0., 2., 1., 3., 3., 2., 3., 1., 10.,
          0., 8., 2., 3., 1., 12., 14., 4., 8., 0., 1., 4., 2., 0., 9.,
          2., 4., 7., 8., 3. ]
      - [ 6., 2., 5., 7., 4., 2., 0., 6., 6., 7., 0., 2., 4., 5., 6., 3.,
          32., 1., 0., 4., 5., 3., 2., 7., 2., 0., 7., 3., 1., 1., 14.,
          2., 3., 4., 5., 1., 7., 3., 1., 0., 6., 2., 3., 0., 3., 0., 6.,
          2., 2., 4. ]
      - [ 2., 1., 8., 1., 5., 0., 4., 4., 2., 4., 0., 1., 2., 32., 2.,
          2., 7., 2., 0., 3., 4., 0., 3., 3., 6., 0., 0., 1., 3., 3., 6.,
          7., 1., 4., 4., 10., 2., 7., 1., 0., 2., 8., 20., 1., 1., 5.,
          2., 0., 11., 3. ]
      - [ 0., 2., 11., 2., 7., 6., 3., 1., 3., 7., 3., 7., 7., 5., 7.,
          4., 0., 1., 0., 4., 8., 2., 7., 8., 7., 6., 2., 1., 0., 2., 1.,
          9., 0., 2., 7., 2., 7., 10., 3., 0., 4., 2., 2., 6., 4., 5.,
          0., 2., 3., 8. ]
      - [ 0., 4., 1., 5., 3., 0., 1., 1., 3., 8., 1., 3., 10., 1., 1.,
          5., 0., 2., 0., 4., 3., 1., 16., 2., 7., 1., 1., 1., 8., 1.,
          5., 1., 0., 3., 7., 1., 1., 4., 14., 0., 1., 0., 26., 18., 5.,
          3., 10., 6., 2., 0. ]
      - [ 3., 6., 4., 5., 5., 2., 5., 12., 4., 4., 2., 2., 3., 3., 5.,
          4., 4., 1., 0., 4., 5., 1., 1., 4., 6., 4., 5., 7., 1., 1., 3.,
          2., 14., 0., 2., 2., 0., 2., 7., 0., 1., 10., 2., 3., 3., 11.,
          10., 3., 9., 3. ]
      - [ 8., 0., 2., 1., 5., 5., 2., 3., 4., 15., 1., 1., 14., 1., 2.,
          1., 3., 4., 0., 2., 13., 0., 4., 3., 4., 8., 0., 0., 2., 3.,
          0., 19., 0., 5., 11., 5., 3., 4., 2., 0., 3., 0., 14., 0., 1.,
          0., 5., 5., 8., 5. ]
      - [ 1., 5., 3., 6., 0., 2., 1., 12., 8., 2., 0., 1., 6., 7., 3.,
          5., 12., 3., 0., 0., 0., 4., 1., 6., 1., 0., 8., 5., 2., 0.,
          18., 1., 10., 1., 4., 1., 9., 4., 3., 0., 7., 12., 2., 2., 2.,
          6., 9., 1., 1., 4. ]
      - [ 3., 3., 1., 8., 1., 3., 2., 11., 2., 1., 2., 2., 9., 10., 4.,
          5., 16., 4., 0., 4., 0., 4., 0., 8., 1., 0., 5., 3., 2., 1.,
          3., 0., 13., 0., 10., 3., 5., 1., 5., 0., 4., 1., 2., 5., 0.,
          6., 16., 1., 6., 5. ]
      - [ 0., 1., 3., 4., 1., 3., 4., 6., 1., 4., 3., 2., 1., 1., 2., 6.,
          2., 1., 0., 5., 0., 1., 2., 5., 5., 1., 1., 2., 2., 4., 2., 2.,
          7., 2., 6., 2., 4., 3., 3., 0., 1., 2., 69., 0., 4., 3., 7.,
          0., 6., 4. ]
      - [ 4., 1., 1., 4., 2., 9., 4., 7., 6., 3., 5., 2., 8., 4., 4., 4.,
          5., 5., 0., 5., 4., 1., 5., 1., 8., 1., 8., 5., 1., 4., 2., 5.,
          5., 1., 5., 3., 10., 4., 1., 0., 9., 8., 0., 3., 3., 3., 9.,
          3., 4., 2. ]
      - [ 5., 6., 3., 7., 3., 2., 5., 5., 5., 4., 0., 2., 8., 2., 1., 5.,
          10., 5., 0., 2., 3., 18., 6., 3., 2., 0., 3., 4., 2., 3., 13.,
          2., 2., 0., 4., 2., 7., 3., 5., 0., 5., 2., 1., 4., 5., 7., 7.,
          4., 2., 1. ]
      - [ 1., 2., 8., 3., 0., 4., 0., 4., 8., 10., 1., 1., 0., 9., 9.,
          2., 3., 4., 0., 4., 5., 8., 7., 3., 6., 0., 2., 4., 1., 2., 3.,
          9., 5., 1., 8., 6., 5., 6., 0., 0., 2., 3., 6., 4., 9., 8., 8.,
          2., 2., 3. ]
      - [ 3., 5., 3., 6., 4., 3., 1., 5., 5., 6., 1., 4., 5., 7., 7., 1.,
          8., 3., 0., 4., 1., 0., 3., 5., 8., 0., 7., 3., 2., 1., 15.,
          0., 2., 1., 6., 2., 10., 4., 8., 0., 6., 2., 4., 3., 3., 3.,
          9., 6., 4., 1. ]
      - [ 2., 8., 4., 1., 1., 1., 3., 4., 5., 2., 3., 2., 5., 1., 0., 1.,
          4., 1., 0., 0., 5., 48., 5., 1., 5., 0., 3., 3., 0., 6., 5.,
          3., 6., 0., 5., 4., 3., 8., 7., 0., 5., 1., 0., 6., 3., 6., 5.,
          4., 1., 4. ]
      - [ 2., 3., 7., 1., 6., 0., 0., 2., 2., 7., 1., 4., 4., 4., 2., 6.,
          0., 0., 0., 2., 1., 4., 7., 6., 4., 0., 1., 2., 10., 0., 2.,
          0., 0., 1., 8., 2., 2., 5., 19., 0., 0., 0., 21., 41., 1., 0.,
          5., 1., 2., 2. ]
      - [ 5., 5., 0., 2., 17., 1., 6., 1., 1., 2., 1., 0., 1., 3., 4.,
          7., 0., 1., 0., 4., 1., 33., 2., 3., 14., 2., 3., 0., 4., 0.,
          3., 1., 0., 0., 5., 5., 3., 2., 6., 0., 2., 1., 1., 36., 5.,
          3., 3., 1., 0., 0. ]
      - [ 4., 1., 7., 5., 11., 6., 3., 2., 1., 5., 3., 2., 1., 4., 13.,
          1., 0., 1., 0., 6., 15., 3., 6., 4., 12., 8., 2., 0., 1., 2.,
          0., 17., 0., 3., 8., 6., 1., 5., 1., 0., 1., 0., 5., 7., 8.,
          0., 1., 3., 4., 2. ]
      - [ 8., 5., 5., 1., 3., 4., 2., 4., 0., 4., 4., 2., 4., 2., 6., 2.,
          10., 6., 0., 3., 3., 0., 4., 0., 2., 3., 8., 3., 2., 7., 1.,
          4., 4., 3., 3., 3., 5., 7., 6., 0., 1., 11., 2., 4., 7., 8.,
          7., 7., 2., 8. ]
      - [ 4., 8., 8., 5., 2., 4., 0., 4., 3., 5., 1., 1., 9., 8., 11.,
          2., 10., 4., 0., 2., 3., 3., 2., 3., 2., 0., 5., 1., 2., 6.,
          3., 2., 10., 1., 5., 2., 8., 3., 5., 0., 3., 2., 0., 2., 8.,
          5., 12., 3., 6., 2. ]
      - [ 3., 4., 7., 5., 2., 2., 6., 4., 2., 10., 1., 6., 4., 12., 5.,
          4., 3., 5., 0., 3., 1., 3., 2., 3., 3., 0., 3., 2., 4., 0.,
          22., 1., 3., 3., 8., 3., 3., 6., 5., 0., 0., 5., 8., 7., 3.,
          4., 6., 2., 2., 0. ]
      - [ 20., 3., 3., 5., 4., 3., 15., 1., 3., 2., 3., 6., 3., 2., 5.,
          0., 5., 10., 0., 4., 24., 1., 1., 8., 3., 2., 1., 3., 1., 4.,
          4., 4., 1., 0., 0., 4., 10., 5., 4., 0., 4., 2., 1., 1., 3.,
          3., 2., 5., 1., 1. ]
      - [ 1., 4., 3., 7., 2., 4., 2., 12., 3., 1., 2., 0., 5., 7., 2.,
          1., 19., 4., 0., 5., 4., 0., 2., 8., 1., 2., 9., 0., 2., 1.,
          8., 0., 16., 1., 3., 2., 4., 3., 1., 0., 5., 11., 0., 0., 4.,
          7., 9., 2., 10., 2. ]
      - [ 0., 9., 1., 8., 8., 3., 3., 7., 1., 4., 7., 0., 3., 4., 2., 6.,
          5., 3., 0., 7., 0., 1., 5., 2., 5., 1., 4., 3., 8., 0., 1., 0.,
          21., 2., 1., 0., 0., 1., 13., 0., 3., 7., 0., 9., 9., 4., 10.,
          3., 4., 2. ]
      - [ 6., 4., 0., 8., 3., 5., 6., 4., 6., 1., 2., 0., 0., 4., 4., 2.,
          9., 4., 0., 1., 2., 4., 4., 0., 0., 3., 7., 7., 2., 3., 5., 5.,
          11., 1., 4., 3., 11., 1., 5., 0., 4., 4., 0., 10., 8., 9., 11.,
          0., 4., 3. ]
      - [ 4., 6., 5., 7., 2., 3., 3., 3., 3., 1., 0., 3., 3., 6., 3., 3.,
          1., 2., 0., 3., 12., 13., 3., 7., 3., 1., 1., 0., 8., 0., 42.,
          1., 0., 1., 0., 3., 0., 2., 11., 0., 0., 3., 5., 7., 2., 1.,
          2., 1., 3., 7. ]
      - [ 3., 4., 4., 5., 2., 3., 0., 9., 4., 2., 0., 4., 4., 15., 7.,
          0., 5., 3., 0., 4., 2., 4., 3., 3., 1., 1., 3., 2., 4., 1., 4.,
          3., 6., 0., 5., 6., 2., 11., 9., 0., 2., 9., 20., 1., 3., 3.,
          4., 3., 3., 4. ]
      - [ 2., 7., 7., 6., 5., 9., 4., 0., 8., 7., 3., 2., 2., 3., 4., 3.,
          2., 6., 0., 3., 10., 9., 2., 4., 3., 2., 3., 4., 0., 1., 1.,
          6., 1., 4., 0., 3., 5., 3., 2., 0., 3., 5., 5., 4., 3., 3., 9.,
          3., 11., 8. ]
      - [ 2., 7., 4., 9., 4., 1., 3., 5., 0., 4., 1., 0., 8., 9., 3., 5.,
          6., 3., 0., 1., 0., 3., 3., 2., 6., 0., 3., 1., 5., 2., 12.,
          2., 2., 2., 7., 1., 4., 4., 10., 0., 2., 4., 23., 5., 5., 5.,
          4., 2., 5., 2. ]
      - [ 2., 3., 2., 7., 13., 2., 3., 0., 1., 3., 0., 4., 2., 7., 2.,
          7., 2., 2., 0., 3., 0., 22., 2., 0., 13., 1., 2., 1., 12., 0.,
          3., 3., 0., 0., 7., 2., 2., 2., 20., 0., 0., 3., 4., 18., 2.,
          1., 10., 3., 0., 2. ]
      - [ 3., 5., 6., 3., 1., 3., 5., 2., 11., 2., 0., 1., 16., 3., 3.,
          1., 0., 6., 0., 0., 13., 1., 3., 4., 5., 2., 1., 5., 2., 7.,
          0., 15., 0., 2., 9., 6., 8., 8., 5., 0., 2., 2., 12., 0., 2.,
          3., 6., 2., 4., 0. ]
      - [ 1., 4., 5., 14., 4., 11., 2., 2., 3., 8., 5., 1., 3., 5., 2.,
          3., 2., 2., 1., 4., 4., 1., 3., 2., 6., 1., 1., 8., 2., 1., 0.,
          3., 3., 3., 2., 1., 3., 3., 5., 0., 0., 8., 2., 36., 2., 6.,
          4., 0., 4., 4. ]
      - [ 4., 1., 1., 7., 0., 11., 4., 5., 6., 13., 2., 2., 8., 8., 2.,
          6., 1., 5., 2., 2., 7., 0., 4., 2., 0., 3., 1., 10., 2., 1.,
          2., 5., 5., 3., 3., 3., 5., 3., 2., 2., 3., 9., 7., 2., 3., 3.,
          5., 1., 9., 5. ]
      - [ 4., 6., 1., 10., 2., 3., 5., 7., 6., 5., 2., 1., 3., 4., 5.,
          7., 3., 3., 0., 0., 2., 1., 1., 8., 4., 1., 2., 4., 2., 4., 0.,
          1., 8., 3., 5., 1., 6., 3., 5., 0., 7., 10., 4., 8., 5., 4.,
          10., 4., 4., 6. ]
      - [ 0., 0., 8., 5., 11., 2., 2., 4., 4., 7., 1., 3., 8., 16., 4.,
          2., 6., 1., 0., 1., 10., 0., 3., 1., 7., 5., 1., 0., 0., 3.,
          12., 10., 1., 4., 3., 5., 5., 8., 1., 2., 1., 5., 9., 0., 1.,
          2., 6., 1., 9., 1. ]
      - [ 6., 4., 2., 4., 0., 5., 3., 9., 4., 7., 1., 4., 8., 7., 1., 5.,
          5., 5., 0., 8., 4., 0., 4., 2., 2., 1., 7., 9., 2., 0., 1., 3.,
          3., 4., 7., 5., 5., 1., 3., 0., 1., 11., 0., 1., 6., 9., 8.,
          4., 6., 3. ]
      - [ 0., 6., 0., 10., 3., 2., 1., 7., 4., 7., 1., 2., 4., 5., 2.,
          2., 9., 1., 0., 1., 1., 5., 4., 3., 1., 0., 8., 4., 2., 0.,
          14., 2., 12., 2., 6., 2., 6., 0., 10., 0., 0., 9., 3., 13., 0.,
          5., 15., 1., 4., 2. ]
      - [ 4., 6., 3., 9., 8., 1., 2., 2., 4., 5., 0., 0., 5., 9., 8., 3.,
          1., 2., 0., 4., 1., 9., 3., 4., 6., 3., 2., 3., 1., 1., 2., 0.,
          15., 3., 6., 6., 0., 4., 8., 0., 1., 3., 3., 12., 5., 7., 6.,
          3., 3., 4. ]
      - [ 8., 4., 5., 5., 7., 6., 1., 1., 2., 6., 5., 7., 3., 4., 8., 2.,
          3., 4., 0., 4., 6., 13., 9., 3., 2., 0., 2., 3., 1., 1., 0.,
          2., 1., 1., 5., 2., 8., 8., 3., 0., 2., 1., 6., 13., 4., 5.,
          3., 2., 7., 2. ]
      - [ 4., 10., 7., 1., 4., 5., 4., 0., 3., 6., 3., 5., 2., 3., 1.,
          5., 3., 1., 0., 5., 3., 18., 0., 2., 3., 3., 6., 5., 2., 5.,
          2., 5., 2., 1., 2., 9., 4., 3., 6., 0., 4., 1., 7., 15., 4.,
          4., 3., 2., 4., 3. ]
      - [ 10., 3., 3., 2., 3., 4., 5., 3., 3., 0., 4., 2., 4., 5., 3.,
          2., 11., 0., 0., 5., 10., 1., 0., 3., 3., 0., 2., 6., 1., 2.,
          10., 10., 2., 3., 6., 5., 3., 2., 4., 0., 3., 2., 7., 3., 7.,
          4., 5., 12., 4., 8. ]
      - [ 5., 0., 9., 0., 7., 3., 2., 1., 4., 6., 4., 3., 6., 0., 6., 1.,
          2., 1., 0., 6., 10., 0., 2., 3., 9., 11., 4., 4., 1., 4., 2.,
          8., 3., 4., 4., 8., 6., 8., 2., 0., 4., 2., 7., 1., 6., 4., 4.,
          4., 4., 5. ]
      - [ 3., 7., 2., 5., 1., 5., 4., 4., 1., 7., 7., 2., 4., 4., 5., 4.,
          1., 0., 0., 3., 5., 7., 12., 2., 4., 2., 2., 7., 2., 0., 2.,
          1., 4., 0., 5., 7., 6., 5., 8., 0., 2., 3., 1., 13., 7., 5.,
          9., 4., 0., 7. ]
      - [ 4., 6., 3., 3., 3., 6., 1., 6., 3., 0., 5., 0., 3., 2., 6., 4.,
          10., 2., 0., 7., 0., 2., 1., 0., 2., 1., 10., 3., 8., 4., 4.,
          3., 12., 2., 2., 1., 6., 3., 9., 0., 8., 4., 0., 4., 8., 5.,
          11., 3., 5., 5. ]
      - [ 7., 0., 9., 9., 4., 5., 8., 2., 4., 4., 0., 2., 0., 5., 4., 0.,
          6., 8., 2., 3., 5., 0., 2., 4., 7., 16., 3., 5., 1., 2., 2.,
          3., 1., 2., 1., 2., 9., 11., 1., 0., 3., 4., 0., 3., 8., 2.,
          2., 2., 11., 6. ]
      - [ 6., 17., 10., 5., 4., 2., 3., 5., 2., 5., 1., 6., 5., 4., 1.,
          6., 4., 3., 0., 3., 5., 8., 5., 2., 5., 0., 3., 2., 1., 2., 3.,
          2., 2., 1., 14., 3., 6., 6., 9., 0., 1., 0., 1., 3., 4., 2.,
          5., 5., 4., 4. ]
      - [ 1., 2., 3., 2., 19., 5., 5., 2., 1., 8., 5., 2., 0., 2., 3.,
          3., 0., 1., 0., 7., 3., 6., 2., 2., 14., 3., 3., 1., 7., 1.,
          3., 7., 0., 1., 1., 5., 2., 5., 7., 0., 4., 1., 8., 34., 3.,
          0., 3., 1., 1., 1. ]
      - [ 5., 1., 5., 7., 8., 3., 2., 1., 5., 13., 7., 4., 2., 5., 4.,
          3., 0., 6., 0., 3., 2., 4., 6., 2., 4., 2., 4., 1., 0., 6., 0.,
          8., 0., 2., 6., 6., 5., 5., 3., 0., 5., 0., 16., 4., 3., 4.,
          6., 4., 5., 3. ]
      - [ 3., 1., 8., 8., 2., 4., 5., 4., 4., 4., 2., 1., 7., 1., 8., 6.,
          16., 5., 0., 2., 3., 1., 3., 5., 2., 1., 3., 3., 1., 3., 22.,
          5., 5., 4., 3., 1., 3., 5., 5., 0., 1., 6., 0., 1., 3., 2., 7.,
          1., 7., 3. ]
      - [ 3., 1., 0., 1., 0., 12., 3., 3., 2., 0., 3., 0., 0., 0., 0.,
          2., 1., 3., 48., 1., 0., 0., 0., 2., 0., 4., 1., 4., 0., 5.,
          1., 0., 8., 2., 0., 0., 0., 0., 0., 55., 4., 7., 9., 0., 0.,
          4., 2., 1., 2., 6. ]
      - [ 1., 4., 1., 1., 1., 2., 2., 16., 1., 2., 4., 4., 0., 3., 1.,
          6., 29., 2., 0., 4., 0., 4., 1., 5., 1., 0., 18., 5., 3., 2.,
          3., 0., 11., 1., 1., 0., 4., 0., 5., 0., 17., 10., 2., 3., 3.,
          6., 7., 1., 1., 3. ]
      - [ 4., 7., 2., 1., 1., 2., 3., 3., 4., 2., 1., 0., 5., 15., 2.,
          3., 0., 4., 0., 5., 4., 0., 2., 1., 1., 6., 0., 10., 3., 7.,
          1., 5., 2., 3., 8., 3., 2., 2., 8., 0., 1., 15., 33., 0., 0.,
          6., 5., 0., 8., 2. ]
      - [ 9., 0., 8., 1., 7., 14., 3., 0., 2., 3., 3., 5., 0., 0., 4.,
          0., 0., 8., 2., 2., 28., 1., 0., 0., 6., 13., 2., 2., 0., 5.,
          0., 15., 0., 3., 0., 8., 2., 4., 2., 4., 8., 0., 0., 1., 3.,
          3., 0., 1., 10., 9. ]
      - [ 4., 4., 5., 14., 0., 3., 1., 2., 4., 9., 3., 0., 6., 7., 1.,
          2., 6., 3., 0., 1., 1., 11., 2., 15., 2., 0., 3., 3., 0., 2.,
          1., 4., 8., 0., 6., 3., 0., 1., 1., 0., 3., 4., 21., 20., 0.,
          2., 3., 2., 6., 1. ]
      - [ 1., 2., 8., 3., 3., 1., 0., 4., 5., 3., 1., 2., 6., 12., 7.,
          2., 5., 4., 0., 4., 4., 6., 4., 7., 6., 0., 3., 5., 4., 5., 4.,
          4., 2., 0., 8., 6., 7., 11., 1., 0., 2., 6., 3., 4., 5., 1.,
          9., 3., 3., 4. ]
      - [ 2., 4., 2., 3., 7., 6., 4., 6., 1., 3., 2., 5., 5., 4., 7., 8.,
          1., 0., 0., 2., 3., 7., 6., 7., 9., 0., 3., 2., 3., 2., 6., 2.,
          3., 5., 4., 0., 2., 0., 7., 0., 5., 5., 7., 14., 6., 5., 2.,
          4., 4., 5. ]
      - [ 4., 5., 7., 9., 4., 8., 8., 4., 1., 7., 0., 0., 2., 1., 5., 1.,
          6., 3., 0., 6., 2., 1., 5., 2., 3., 2., 4., 3., 2., 3., 1., 5.,
          3., 5., 6., 0., 7., 9., 2., 0., 3., 6., 0., 4., 8., 9., 7., 5.,
          6., 6. ]
      - [ 6., 1., 6., 1., 11., 5., 4., 8., 3., 4., 4., 4., 2., 3., 1.,
          7., 3., 5., 0., 5., 1., 0., 0., 1., 5., 15., 11., 4., 1., 1.,
          4., 3., 2., 2., 2., 4., 3., 2., 4., 0., 15., 8., 1., 2., 0.,
          3., 9., 2., 6., 6. ]
      - [ 4., 2., 3., 4., 3., 5., 3., 3., 4., 4., 2., 0., 11., 2., 8.,
          0., 0., 3., 0., 6., 17., 0., 12., 3., 5., 1., 0., 1., 2., 2.,
          0., 15., 0., 3., 14., 7., 9., 9., 1., 0., 1., 1., 12., 2., 4.,
          3., 0., 2., 5., 2. ]
      - [ 3., 8., 2., 5., 4., 0., 1., 6., 5., 3., 4., 1., 5., 3., 6., 3.,
          10., 3., 0., 2., 3., 4., 5., 6., 4., 2., 7., 9., 3., 4., 5.,
          4., 4., 0., 1., 4., 5., 5., 3., 0., 9., 6., 0., 1., 8., 6.,
          11., 5., 1., 2. ]
      - [ 1., 1., 4., 1., 9., 5., 5., 1., 3., 13., 2., 1., 1., 1., 3.,
          7., 0., 4., 0., 7., 4., 0., 5., 1., 11., 1., 7., 5., 9., 5.,
          0., 0., 0., 6., 1., 3., 2., 3., 17., 2., 8., 2., 4., 6., 4.,
          0., 7., 6., 5., 7. ]
      - [ 0., 9., 7., 6., 3., 1., 1., 2., 5., 4., 3., 3., 15., 13., 4.,
          2., 2., 3., 0., 5., 1., 1., 8., 4., 3., 1., 3., 2., 4., 0., 2.,
          7., 0., 6., 15., 3., 2., 2., 8., 0., 4., 3., 9., 2., 6., 3.,
          5., 2., 6., 1. ]
      - [ 8., 0., 12., 2., 0., 4., 6., 4., 7., 2., 0., 1., 9., 1., 4.,
          0., 1., 10., 0., 4., 15., 0., 1., 4., 0., 2., 0., 3., 0., 6.,
          0., 15., 3., 2., 6., 8., 7., 16., 0., 0., 4., 3., 9., 1., 2.,
          0., 4., 2., 9., 4. ]
      - [ 1., 1., 8., 3., 6., 4., 6., 2., 5., 4., 2., 1., 7., 3., 7., 3.,
          2., 5., 0., 4., 4., 1., 4., 1., 2., 4., 5., 5., 6., 5., 0., 6.,
          3., 2., 6., 10., 5., 5., 0., 0., 5., 5., 3., 3., 5., 8., 7.,
          2., 10., 4. ]
      - [ 5., 7., 2., 1., 1., 6., 4., 4., 9., 6., 2., 0., 7., 4., 7., 2.,
          5., 3., 0., 2., 8., 1., 6., 3., 5., 1., 5., 8., 4., 4., 2., 7.,
          7., 2., 3., 0., 4., 0., 1., 0., 6., 8., 1., 3., 4., 6., 11.,
          2., 2., 9. ]
      - [ 1., 0., 8., 3., 4., 3., 4., 7., 3., 11., 4., 2., 2., 3., 5.,
          1., 2., 2., 0., 7., 9., 0., 3., 7., 8., 9., 1., 0., 0., 4., 4.,
          5., 0., 4., 1., 5., 3., 5., 0., 0., 3., 4., 26., 0., 9., 0.,
          3., 7., 6., 3. ]
      - [ 2., 2., 2., 5., 5., 1., 1., 2., 3., 13., 1., 3., 6., 3., 1.,
          4., 4., 5., 0., 3., 3., 4., 3., 10., 7., 4., 2., 1., 2., 1.,
          8., 2., 0., 0., 6., 2., 3., 6., 3., 0., 2., 2., 32., 8., 2.,
          3., 5., 5., 5., 3. ]
      - [ 3., 4., 4., 3., 0., 3., 9., 1., 5., 5., 1., 4., 1., 1., 4., 1.,
          5., 4., 0., 1., 3., 16., 3., 3., 3., 1., 4., 1., 0., 2., 35.,
          4., 6., 1., 2., 5., 8., 3., 1., 0., 0., 2., 7., 8., 6., 9., 1.,
          6., 1., 0. ]
      - [ 0., 2., 4., 6., 6., 2., 0., 3., 1., 5., 3., 1., 6., 9., 1., 1.,
          6., 0., 0., 2., 4., 35., 2., 2., 7., 1., 1., 2., 3., 8., 8.,
          4., 0., 1., 3., 1., 1., 1., 5., 0., 6., 1., 19., 14., 1., 2.,
          5., 1., 1., 3. ]
      - [ 1., 0., 10., 3., 7., 5., 0., 2., 3., 10., 1., 6., 3., 1., 4.,
          2., 1., 2., 1., 3., 5., 4., 2., 4., 11., 21., 5., 4., 0., 0.,
          1., 7., 1., 2., 1., 6., 6., 9., 2., 0., 9., 1., 2., 8., 0., 2.,
          3., 1., 11., 7. ]
      - [ 4., 3., 2., 12., 0., 4., 3., 7., 2., 3., 2., 2., 4., 3., 4.,
          1., 13., 8., 0., 4., 1., 2., 5., 5., 2., 0., 3., 6., 4., 3.,
          5., 0., 15., 1., 1., 1., 3., 3., 4., 0., 3., 9., 7., 2., 4.,
          7., 14., 1., 5., 3. ]
      - [ 8., 4., 6., 8., 3., 5., 8., 4., 5., 1., 6., 2., 2., 3., 3., 1.,
          8., 5., 0., 3., 4., 7., 4., 7., 3., 1., 4., 3., 3., 2., 1., 2.,
          2., 3., 6., 2., 2., 5., 7., 0., 2., 5., 2., 4., 7., 6., 9., 5.,
          3., 4. ]
      - [ 0., 0., 0., 4., 0., 11., 0., 6., 0., 0., 6., 0., 0., 0., 0.,
          1., 0., 0., 48., 3., 0., 0., 0., 0., 0., 9., 4., 10., 0., 0.,
          1., 0., 31., 0., 1., 0., 0., 0., 1., 28., 6., 10., 5., 0., 0.,
          8., 3., 0., 4., 0. ]
      - [ 5., 2., 7., 2., 1., 1., 4., 6., 4., 1., 1., 4., 8., 5., 4., 4.,
          21., 5., 0., 4., 6., 1., 3., 3., 1., 0., 8., 5., 1., 1., 6.,
          4., 2., 4., 3., 3., 6., 9., 5., 0., 4., 5., 2., 1., 1., 6., 9.,
          2., 7., 3. ]
      - [ 1., 4., 4., 5., 5., 7., 3., 5., 3., 1., 3., 1., 4., 6., 6., 4.,
          0., 2., 0., 5., 9., 5., 12., 4., 3., 0., 0., 3., 2., 6., 4.,
          5., 2., 3., 4., 3., 2., 5., 4., 0., 7., 2., 5., 10., 4., 4.,
          11., 5., 2., 5. ]
      - [ 17., 1., 0., 2., 6., 2., 15., 2., 3., 1., 0., 7., 1., 9., 5.,
          1., 2., 10., 0., 0., 18., 0., 3., 2., 2., 11., 4., 2., 2., 3.,
          2., 5., 10., 4., 1., 11., 7., 1., 4., 0., 9., 2., 2., 0., 1.,
          3., 2., 1., 4., 1. ]
      - [ 4., 3., 1., 8., 0., 4., 2., 7., 7., 3., 1., 2., 3., 13., 6.,
          2., 11., 3., 0., 1., 2., 13., 1., 4., 8., 2., 2., 6., 1., 2.,
          6., 0., 9., 1., 0., 3., 6., 4., 4., 0., 4., 3., 2., 6., 4., 7.,
          6., 5., 6., 2. ]
      - [ 3., 2., 7., 5., 5., 2., 4., 2., 15., 4., 2., 1., 5., 2., 5.,
          1., 1., 2., 0., 5., 17., 1., 1., 2., 6., 4., 3., 3., 1., 6.,
          2., 13., 0., 1., 7., 7., 9., 12., 1., 0., 3., 6., 3., 2., 4.,
          1., 1., 6., 2., 3. ]
      - [ 6., 6., 8., 6., 4., 5., 5., 0., 5., 4., 5., 3., 3., 4., 3., 1.,
          10., 9., 0., 5., 8., 3., 3., 5., 6., 3., 3., 2., 4., 3., 2.,
          3., 3., 7., 2., 7., 3., 7., 3., 0., 5., 2., 2., 1., 7., 2., 5.,
          3., 2., 2. ]
      - [ 0., 2., 2., 13., 8., 2., 2., 14., 0., 7., 2., 0., 6., 1., 0.,
          4., 0., 0., 0., 1., 0., 0., 6., 8., 6., 7., 1., 0., 1., 1., 4.,
          1., 16., 5., 5., 0., 2., 0., 3., 0., 2., 8., 7., 14., 3., 5.,
          14., 1., 12., 4. ]
      - [ 6., 2., 3., 3., 3., 5., 5., 4., 3., 0., 1., 1., 13., 4., 6.,
          5., 2., 1., 0., 6., 3., 1., 1., 3., 3., 9., 1., 5., 1., 3., 1.,
          1., 1., 4., 10., 3., 7., 9., 7., 0., 1., 5., 3., 16., 1., 5.,
          10., 3., 6., 4. ]
      - [ 12., 0., 14., 1., 1., 2., 9., 1., 6., 2., 2., 0., 9., 3., 4.,
          0., 1., 12., 0., 3., 10., 7., 4., 7., 2., 2., 1., 1., 0., 5.,
          2., 7., 0., 4., 6., 1., 8., 18., 0., 0., 2., 0., 9., 0., 7.,
          0., 3., 9., 2., 2. ]
      - [ 6., 6., 0., 6., 1., 5., 3., 10., 9., 2., 2., 0., 3., 9., 5.,
          1., 11., 7., 1., 1., 2., 2., 1., 3., 3., 0., 6., 4., 2., 8.,
          5., 1., 5., 3., 1., 3., 15., 4., 3., 0., 6., 9., 0., 1., 6.,
          3., 3., 3., 5., 6. ]
      - [ 5., 3., 7., 6., 10., 6., 3., 0., 2., 5., 2., 1., 3., 0., 6.,
          2., 1., 5., 0., 2., 9., 1., 8., 4., 3., 6., 2., 3., 2., 4., 1.,
          19., 0., 3., 5., 12., 4., 9., 3., 0., 0., 2., 1., 8., 10., 2.,
          2., 7., 0., 1. ]
      - [ 12., 0., 4., 0., 0., 1., 3., 2., 5., 0., 1., 0., 3., 0., 0.,
          0., 0., 4., 30., 1., 3., 0., 3., 1., 0., 3., 0., 0., 1., 1.,
          0., 1., 2., 1., 4., 1., 1., 4., 1., 36., 3., 0., 57., 0., 3.,
          1., 0., 2., 2., 4. ]
      - [ 6., 2., 8., 1., 2., 3., 3., 3., 46., 2., 0., 2., 4., 2., 5.,
          4., 2., 7., 0., 5., 6., 3., 2., 5., 4., 4., 1., 1., 1., 2., 1.,
          4., 9., 0., 3., 2., 2., 8., 3., 7., 3., 1., 3., 1., 1., 3., 3.,
          3., 5., 3. ]
   decision_functions:
      -
         sv_count: 405
         rho: -1.9241969194686115e+000
         alpha: [ 6.8374685980123200e+000, 7.1688404299223638e+000,
             3.3057921094482494e+000, 8.5875294559055781e+000,
             1.3081546578300319e+001, 1.5775079508986254e+000,
             2.0417999399590538e+000, 6.3424204003262510e+000,
             5.1946019163317070e+000, 5.3932427138667851e+000,
             3.0801728996810618e+000, 2.4093101205597875e+000,
