%YAML:1.0
my_svm: !!opencv-ml-svm
   svm_type: C_SVC
   kernel: { type:RBF, gamma:1.0000000000000001e-005 }
   C: 1.0000000000000001e-001
   term_criteria: { epsilon:1.1920928955078125e-007, iterations:1000 }
   var_all: 50
   var_count: 50
   class_count: 2
   class_labels: !!opencv-matrix
      rows: 1
      cols: 2
      dt: i
      data: [ -1, 1 ]
   sv_total: 358
   support_vectors:
      - [ 8., 2., 3., 1., 8., 0., 2., 5., 2., 3., 3., 2., 3., 0., 11.,
          5., 0., 5., 1., 0., 3., 2., 7., 1., 1., 1., 3., 2., 0., 4., 3.,
          0., 3., 3., 2., 4., 2., 1., 1., 2., 2., 0., 0., 0., 1., 2., 4.,
          4., 5., 6. ]
      - [ 4., 11., 14., 1., 4., 1., 4., 3., 2., 4., 8., 2., 3., 4., 7.,
          5., 3., 5., 2., 0., 0., 2., 0., 5., 5., 4., 0., 1., 1., 1., 4.,
          6., 1., 6., 4., 4., 6., 2., 6., 4., 3., 4., 8., 15., 3., 5.,
          2., 8., 1., 2. ]
      - [ 2., 4., 0., 4., 3., 5., 12., 2., 14., 3., 1., 1., 4., 9., 16.,
          2., 4., 2., 1., 0., 1., 1., 0., 0., 11., 1., 5., 4., 17., 3.,
          0., 2., 2., 1., 1., 2., 6., 2., 4., 3., 18., 2., 4., 4., 3.,
          1., 2., 5., 2., 4. ]
      - [ 3., 13., 2., 0., 2., 2., 4., 2., 0., 3., 2., 0., 2., 6., 10.,
          4., 1., 2., 2., 2., 1., 0., 3., 0., 7., 2., 2., 1., 4., 4., 2.,
          10., 0., 4., 4., 3., 4., 2., 4., 1., 6., 3., 3., 2., 1., 3.,
          1., 1., 7., 5. ]
      - [ 1., 1., 2., 3., 3., 2., 10., 5., 8., 3., 1., 0., 3., 19., 2.,
          2., 2., 2., 1., 1., 1., 1., 3., 4., 1., 4., 5., 2., 4., 0., 0.,
          4., 5., 4., 6., 3., 6., 5., 5., 1., 5., 3., 6., 16., 5., 6.,
          4., 1., 10., 9. ]
      - [ 0., 5., 10., 3., 3., 1., 0., 0., 0., 5., 1., 4., 3., 0., 0.,
          3., 2., 2., 2., 0., 0., 0., 1., 1., 1., 4., 2., 7., 1., 1., 1.,
          6., 3., 5., 0., 1., 4., 1., 5., 6., 1., 4., 6., 2., 3., 0., 6.,
          10., 4., 3. ]
      - [ 0., 5., 1., 2., 0., 1., 4., 4., 6., 0., 2., 2., 1., 8., 11.,
          3., 2., 3., 1., 1., 2., 1., 4., 2., 5., 2., 3., 3., 5., 4., 2.,
          2., 2., 5., 1., 1., 4., 2., 2., 4., 17., 1., 1., 5., 1., 4.,
          0., 3., 10., 6. ]
      - [ 2., 8., 13., 2., 2., 6., 2., 2., 6., 6., 2., 8., 5., 1., 5.,
          2., 3., 8., 1., 3., 2., 2., 0., 0., 5., 2., 4., 3., 5., 2., 0.,
          7., 7., 2., 8., 1., 5., 4., 4., 4., 6., 3., 7., 7., 7., 0., 0.,
          5., 9., 2. ]
      - [ 0., 20., 5., 1., 1., 0., 3., 1., 5., 1., 2., 4., 0., 0., 9.,
          4., 2., 2., 1., 0., 1., 0., 2., 0., 5., 0., 4., 3., 1., 3., 2.,
          6., 5., 3., 1., 1., 3., 3., 0., 5., 3., 3., 7., 0., 2., 1., 5.,
          5., 12., 2. ]
      - [ 2., 9., 1., 3., 1., 3., 6., 0., 8., 1., 4., 1., 1., 27., 6.,
          5., 0., 3., 4., 2., 1., 0., 2., 1., 6., 0., 5., 3., 2., 1., 3.,
          7., 3., 3., 1., 1., 4., 1., 5., 4., 7., 3., 4., 29., 3., 3.,
          6., 1., 4., 0. ]
      - [ 4., 1., 0., 2., 1., 4., 4., 4., 1., 2., 2., 0., 0., 36., 0.,
          1., 3., 0., 0., 0., 2., 1., 0., 10., 0., 1., 2., 1., 5., 1.,
          0., 0., 0., 0., 0., 0., 6., 0., 10., 4., 8., 2., 1., 44., 4.,
          5., 6., 0., 3., 5. ]
      - [ 3., 1., 3., 1., 1., 1., 6., 8., 8., 4., 1., 1., 4., 1., 4., 5.,
          1., 3., 1., 0., 1., 1., 2., 1., 5., 2., 0., 7., 0., 0., 2.,
          26., 4., 1., 6., 1., 7., 8., 4., 1., 4., 0., 7., 5., 13., 1.,
          2., 7., 24., 1. ]
      - [ 7., 26., 1., 0., 3., 1., 0., 4., 2., 2., 2., 1., 4., 0., 9.,
          1., 2., 1., 0., 0., 2., 2., 3., 0., 0., 1., 1., 4., 0., 2., 3.,
          5., 7., 1., 2., 1., 0., 1., 0., 6., 0., 0., 6., 0., 1., 1., 0.,
          4., 9., 0. ]
      - [ 3., 8., 6., 1., 5., 2., 3., 6., 5., 2., 4., 0., 4., 3., 23.,
          1., 0., 3., 4., 1., 0., 1., 4., 0., 1., 1., 4., 2., 3., 1., 6.,
          1., 2., 4., 8., 5., 7., 2., 2., 3., 4., 1., 8., 2., 11., 2.,
          0., 3., 24., 4. ]
      - [ 0., 3., 1., 8., 1., 8., 10., 3., 8., 1., 3., 1., 2., 5., 0.,
          4., 5., 1., 5., 3., 2., 4., 0., 5., 4., 4., 7., 3., 5., 5., 5.,
          2., 2., 2., 0., 2., 11., 0., 9., 1., 7., 8., 6., 10., 4., 2.,
          7., 1., 2., 8. ]
      - [ 1., 8., 1., 3., 5., 2., 6., 1., 5., 1., 2., 1., 0., 14., 4.,
          2., 2., 3., 1., 0., 3., 0., 1., 0., 6., 1., 3., 1., 5., 3., 4.,
          2., 2., 2., 1., 0., 6., 1., 6., 5., 5., 5., 3., 17., 3., 2.,
          2., 3., 4., 9. ]
      - [ 1., 21., 3., 2., 3., 1., 3., 2., 5., 4., 2., 1., 1., 2., 0.,
          5., 1., 1., 0., 2., 0., 1., 1., 0., 6., 5., 8., 6., 1., 1., 3.,
          17., 4., 2., 0., 1., 7., 0., 5., 1., 4., 3., 6., 8., 4., 1.,
          4., 4., 2., 1. ]
      - [ 4., 6., 19., 1., 6., 1., 7., 2., 0., 2., 6., 5., 4., 6., 7.,
          0., 1., 1., 0., 2., 3., 0., 6., 6., 2., 2., 3., 2., 5., 2., 0.,
          2., 5., 3., 4., 1., 8., 4., 6., 1., 1., 4., 4., 14., 3., 5.,
          7., 8., 2., 8. ]
      - [ 0., 15., 9., 2., 1., 2., 8., 2., 11., 3., 1., 2., 2., 10., 8.,
          4., 3., 2., 0., 0., 2., 0., 2., 2., 6., 3., 2., 8., 3., 11.,
          1., 12., 4., 4., 2., 1., 2., 2., 2., 4., 10., 2., 3., 10., 0.,
          1., 2., 5., 7., 3. ]
      - [ 1., 13., 7., 3., 7., 2., 1., 0., 5., 5., 4., 3., 3., 0., 5.,
          0., 1., 3., 10., 0., 0., 1., 2., 1., 1., 9., 0., 10., 0., 14.,
          8., 11., 9., 1., 2., 2., 4., 4., 0., 1., 2., 4., 8., 0., 4.,
          2., 3., 9., 14., 2. ]
      - [ 2., 0., 2., 3., 3., 6., 4., 4., 4., 7., 7., 4., 4., 8., 7., 7.,
          1., 1., 1., 1., 3., 4., 0., 2., 7., 9., 2., 2., 2., 3., 4., 0.,
          1., 6., 0., 8., 9., 0., 13., 2., 9., 8., 1., 8., 9., 0., 5.,
          2., 4., 1. ]
      - [ 3., 25., 8., 0., 3., 1., 4., 6., 6., 1., 0., 2., 2., 1., 7.,
          1., 2., 0., 4., 0., 0., 1., 5., 1., 5., 5., 1., 5., 2., 0., 1.,
          13., 14., 4., 5., 5., 2., 4., 2., 3., 3., 2., 10., 4., 4., 2.,
          0., 5., 16., 1. ]
      - [ 2., 0., 0., 10., 4., 3., 5., 4., 1., 2., 7., 2., 3., 19., 3.,
          6., 3., 1., 1., 4., 1., 6., 1., 2., 2., 0., 4., 2., 9., 2., 2.,
          1., 1., 4., 4., 4., 9., 0., 12., 2., 4., 7., 1., 19., 7., 2.,
          4., 0., 5., 3. ]
      - [ 3., 3., 1., 4., 1., 6., 8., 4., 5., 3., 3., 3., 3., 9., 10.,
          2., 4., 1., 3., 3., 2., 3., 1., 5., 0., 4., 5., 3., 4., 9., 4.,
          5., 2., 1., 1., 4., 4., 1., 6., 11., 4., 0., 8., 15., 3., 0.,
          1., 1., 6., 8. ]
      - [ 3., 0., 7., 3., 3., 1., 4., 3., 1., 4., 2., 3., 8., 1., 3., 4.,
          5., 2., 2., 0., 0., 1., 3., 2., 9., 6., 5., 11., 3., 1., 0.,
          8., 10., 5., 1., 1., 11., 3., 7., 0., 0., 4., 10., 10., 9., 1.,
          1., 5., 2., 12. ]
      - [ 3., 13., 3., 0., 3., 5., 7., 3., 5., 0., 0., 1., 1., 0., 32.,
          4., 5., 4., 4., 1., 1., 1., 0., 0., 8., 8., 0., 7., 4., 5., 2.,
          7., 6., 2., 1., 7., 1., 2., 2., 7., 5., 0., 9., 3., 0., 1., 1.,
          7., 5., 4. ]
      - [ 0., 6., 5., 9., 6., 7., 1., 5., 2., 1., 3., 5., 6., 5., 1., 8.,
          1., 2., 2., 2., 2., 3., 0., 1., 0., 4., 2., 7., 5., 4., 4., 1.,
          1., 11., 1., 1., 8., 1., 5., 4., 6., 3., 1., 7., 5., 2., 4.,
          7., 2., 4. ]
      - [ 3., 8., 3., 2., 5., 0., 3., 1., 3., 0., 5., 0., 1., 3., 5., 5.,
          2., 0., 1., 0., 1., 0., 0., 1., 4., 0., 1., 0., 2., 1., 3., 9.,
          1., 2., 2., 0., 2., 1., 2., 1., 5., 0., 0., 1., 3., 1., 0., 4.,
          8., 6. ]
      - [ 2., 5., 2., 2., 8., 2., 0., 3., 1., 0., 5., 2., 0., 5., 25.,
          5., 2., 3., 3., 0., 1., 1., 4., 2., 1., 1., 1., 2., 9., 0., 8.,
          0., 5., 3., 2., 5., 13., 0., 5., 7., 3., 5., 3., 4., 8., 3.,
          1., 0., 28., 0. ]
      - [ 3., 5., 10., 1., 6., 2., 6., 6., 4., 7., 2., 5., 3., 1., 1.,
          5., 1., 5., 1., 2., 4., 0., 5., 0., 1., 7., 2., 8., 3., 1., 5.,
          7., 2., 9., 6., 2., 0., 0., 7., 7., 7., 2., 4., 4., 4., 0., 3.,
          13., 5., 6. ]
      - [ 3., 0., 2., 2., 5., 4., 5., 3., 3., 4., 1., 2., 9., 20., 2.,
          2., 4., 2., 1., 4., 4., 3., 1., 0., 5., 1., 2., 1., 6., 3., 2.,
          0., 0., 3., 0., 3., 10., 0., 9., 1., 20., 0., 0., 28., 3., 2.,
          0., 1., 9., 5. ]
      - [ 2., 1., 2., 3., 8., 1., 6., 5., 6., 3., 2., 2., 3., 20., 5.,
          3., 2., 3., 9., 1., 4., 2., 7., 3., 1., 1., 0., 2., 4., 2., 5.,
          0., 2., 3., 3., 3., 5., 1., 7., 3., 2., 5., 2., 18., 3., 5.,
          4., 1., 9., 6. ]
      - [ 10., 6., 2., 5., 2., 1., 5., 9., 7., 2., 2., 1., 3., 5., 0.,
          7., 3., 1., 0., 5., 4., 9., 0., 3., 10., 3., 7., 8., 1., 1.,
          1., 1., 2., 6., 4., 1., 8., 0., 7., 2., 5., 9., 5., 3., 4., 3.,
          6., 3., 2., 6. ]
      - [ 2., 7., 0., 3., 1., 0., 4., 4., 2., 0., 4., 1., 2., 12., 5.,
          1., 2., 0., 1., 2., 4., 2., 1., 2., 2., 0., 4., 2., 1., 2., 0.,
          2., 0., 3., 1., 2., 4., 2., 4., 2., 5., 3., 4., 9., 4., 2., 1.,
          3., 7., 8. ]
      - [ 0., 13., 10., 2., 11., 2., 2., 2., 6., 3., 6., 4., 3., 0., 2.,
          7., 3., 5., 3., 1., 0., 0., 4., 0., 3., 7., 2., 15., 2., 1.,
          1., 4., 7., 2., 3., 1., 2., 4., 3., 5., 7., 0., 13., 1., 1.,
          1., 2., 14., 7., 3. ]
      - [ 1., 2., 3., 7., 2., 5., 22., 3., 6., 4., 0., 3., 1., 18., 4.,
          1., 2., 2., 0., 1., 0., 0., 0., 7., 9., 1., 3., 2., 7., 0., 0.,
          5., 2., 2., 1., 1., 6., 1., 9., 3., 8., 3., 5., 11., 3., 4.,
          3., 0., 12., 5. ]
      - [ 5., 10., 9., 2., 7., 6., 4., 5., 3., 4., 6., 8., 8., 5., 6.,
          7., 1., 4., 1., 1., 0., 1., 2., 3., 4., 6., 1., 5., 3., 1., 0.,
          6., 2., 3., 3., 1., 7., 3., 3., 1., 5., 7., 6., 3., 6., 2., 2.,
          5., 0., 8. ]
      - [ 1., 14., 3., 1., 5., 2., 1., 3., 4., 0., 1., 3., 3., 4., 11.,
          1., 3., 1., 0., 1., 0., 3., 1., 0., 8., 1., 1., 4., 5., 2., 3.,
          11., 5., 2., 3., 1., 3., 1., 2., 5., 14., 0., 5., 1., 5., 0.,
          1., 4., 4., 4. ]
      - [ 0., 1., 1., 5., 9., 9., 3., 5., 1., 2., 5., 6., 4., 4., 9., 6.,
          2., 4., 1., 1., 3., 3., 3., 2., 4., 4., 4., 5., 5., 3., 1., 0.,
          4., 2., 4., 4., 9., 3., 6., 8., 3., 4., 2., 4., 3., 1., 9., 1.,
          11., 7. ]
      - [ 0., 5., 8., 1., 5., 0., 1., 3., 6., 2., 3., 3., 3., 1., 1., 6.,
          4., 3., 4., 0., 2., 0., 3., 1., 8., 5., 7., 4., 2., 2., 3., 9.,
          15., 8., 4., 1., 1., 8., 8., 0., 11., 2., 10., 0., 8., 0., 4.,
          8., 5., 3. ]
      - [ 0., 11., 2., 3., 3., 4., 5., 2., 13., 2., 2., 3., 0., 3., 0.,
          2., 4., 1., 0., 1., 2., 1., 0., 1., 16., 3., 10., 3., 3., 0.,
          0., 7., 5., 3., 2., 0., 9., 3., 12., 4., 11., 4., 4., 3., 5.,
          1., 6., 5., 0., 16. ]
      - [ 3., 0., 1., 5., 8., 2., 5., 1., 3., 6., 4., 5., 8., 2., 0., 5.,
          3., 1., 0., 2., 0., 2., 0., 3., 4., 2., 2., 3., 1., 1., 1., 3.,
          3., 5., 3., 0., 6., 0., 8., 1., 12., 6., 3., 26., 6., 3., 8.,
          8., 0., 16. ]
      - [ 4., 1., 0., 2., 4., 1., 6., 1., 2., 1., 3., 1., 3., 7., 32.,
          4., 0., 2., 1., 2., 0., 3., 1., 2., 6., 2., 1., 0., 6., 1., 3.,
          6., 2., 5., 1., 1., 3., 4., 9., 7., 18., 4., 1., 12., 2., 2.,
          3., 0., 18., 0. ]
      - [ 3., 4., 1., 3., 2., 4., 5., 5., 5., 0., 2., 1., 0., 25., 1.,
          2., 2., 0., 2., 1., 3., 3., 1., 4., 3., 1., 2., 3., 5., 4., 4.,
          3., 0., 3., 1., 5., 7., 2., 5., 11., 11., 3., 0., 13., 7., 4.,
          6., 3., 9., 6. ]
      - [ 4., 0., 5., 0., 0., 5., 16., 12., 11., 2., 0., 1., 4., 17., 8.,
          2., 0., 1., 2., 0., 1., 1., 0., 4., 7., 0., 8., 2., 5., 4., 3.,
          10., 0., 3., 0., 2., 2., 0., 2., 5., 8., 2., 3., 13., 4., 4.,
          2., 2., 6., 7. ]
      - [ 3., 10., 5., 1., 6., 3., 1., 5., 6., 5., 3., 4., 1., 0., 6.,
          6., 0., 3., 4., 3., 1., 0., 3., 0., 6., 8., 1., 8., 0., 4., 3.,
          13., 9., 6., 7., 3., 5., 3., 3., 2., 4., 2., 15., 0., 3., 1.,
          1., 8., 2., 4. ]
      - [ 0., 7., 22., 0., 10., 3., 6., 0., 9., 4., 4., 4., 4., 0., 0.,
          5., 2., 5., 2., 1., 0., 0., 6., 0., 0., 12., 1., 9., 0., 8.,
          7., 6., 9., 2., 0., 4., 0., 6., 0., 3., 1., 0., 16., 0., 2.,
          0., 3., 15., 2., 1. ]
      - [ 2., 11., 17., 2., 6., 4., 2., 3., 2., 7., 5., 4., 5., 0., 3.,
          3., 4., 7., 1., 0., 0., 1., 5., 0., 2., 7., 7., 14., 1., 2.,
          2., 3., 10., 3., 3., 1., 2., 3., 0., 3., 1., 0., 9., 1., 3.,
          1., 3., 16., 8., 1. ]
      - [ 2., 1., 0., 2., 3., 3., 4., 6., 2., 4., 2., 3., 4., 7., 5.,
          11., 2., 2., 3., 1., 4., 5., 1., 1., 5., 6., 3., 6., 3., 6.,
          9., 5., 1., 5., 3., 3., 6., 0., 4., 4., 6., 3., 1., 5., 9., 4.,
          1., 2., 11., 11. ]
      - [ 1., 0., 0., 10., 0., 3., 3., 2., 1., 3., 5., 1., 0., 7., 1.,
          2., 2., 0., 4., 3., 6., 2., 5., 6., 2., 0., 1., 1., 7., 1., 4.,
          0., 0., 8., 1., 6., 19., 0., 17., 3., 6., 7., 0., 5., 6., 5.,
          10., 0., 2., 5. ]
      - [ 4., 4., 4., 1., 4., 3., 5., 5., 5., 2., 4., 0., 1., 11., 8.,
          3., 2., 1., 1., 3., 2., 1., 3., 0., 0., 0., 2., 2., 8., 2., 2.,
          6., 3., 3., 1., 3., 1., 0., 1., 2., 11., 1., 1., 4., 5., 3.,
          2., 5., 21., 2. ]
      - [ 1., 9., 0., 0., 2., 0., 3., 0., 7., 0., 3., 0., 0., 16., 42.,
          1., 0., 0., 0., 0., 3., 2., 5., 0., 0., 0., 1., 0., 4., 7., 2.,
          8., 1., 0., 0., 1., 0., 2., 0., 11., 7., 0., 1., 3., 2., 3.,
          1., 0., 32., 8. ]
      - [ 0., 13., 13., 3., 1., 1., 2., 6., 2., 5., 2., 6., 3., 1., 9.,
          3., 1., 1., 2., 2., 1., 1., 3., 0., 6., 4., 5., 10., 1., 7.,
          0., 7., 10., 2., 3., 0., 5., 2., 4., 1., 5., 3., 8., 0., 3.,
          0., 2., 11., 11., 9. ]
      - [ 0., 3., 8., 0., 10., 9., 6., 2., 3., 4., 11., 2., 1., 5., 5.,
          3., 7., 1., 0., 1., 1., 0., 3., 13., 7., 3., 3., 4., 0., 0.,
          0., 0., 2., 6., 5., 2., 5., 3., 3., 4., 4., 3., 0., 10., 7.,
          12., 12., 4., 0., 3. ]
      - [ 0., 5., 0., 2., 2., 0., 8., 2., 20., 0., 3., 1., 2., 20., 12.,
          2., 2., 2., 4., 0., 1., 1., 3., 0., 3., 1., 3., 3., 4., 15.,
          11., 0., 2., 3., 2., 1., 2., 6., 6., 1., 6., 8., 2., 15., 1.,
          4., 2., 1., 4., 2. ]
      - [ 6., 1., 6., 1., 2., 6., 8., 7., 5., 4., 2., 1., 4., 5., 6., 3.,
          4., 0., 0., 2., 1., 1., 0., 2., 7., 1., 6., 2., 1., 6., 1., 0.,
          0., 8., 2., 1., 8., 2., 8., 0., 14., 3., 0., 21., 8., 2., 2.,
          1., 4., 15. ]
      - [ 7., 7., 5., 3., 5., 5., 2., 12., 6., 3., 5., 1., 4., 3., 10.,
          3., 0., 0., 2., 3., 7., 1., 2., 8., 5., 4., 2., 1., 4., 5., 4.,
          1., 4., 3., 3., 3., 6., 3., 6., 2., 3., 0., 1., 10., 4., 9.,
          2., 2., 6., 3. ]
      - [ 1., 11., 0., 2., 3., 4., 9., 3., 3., 1., 0., 2., 2., 9., 5.,
          2., 2., 2., 1., 2., 3., 1., 2., 0., 4., 2., 1., 2., 5., 1., 2.,
          5., 2., 1., 1., 5., 1., 3., 3., 4., 6., 1., 4., 2., 3., 2., 1.,
          4., 6., 4. ]
      - [ 2., 13., 7., 1., 2., 3., 3., 5., 1., 3., 7., 2., 2., 5., 7.,
          2., 2., 1., 2., 3., 1., 0., 2., 3., 3., 4., 2., 5., 6., 4., 2.,
          7., 9., 3., 4., 6., 7., 2., 3., 9., 7., 0., 6., 2., 2., 2., 7.,
          3., 10., 6. ]
      - [ 2., 5., 0., 1., 3., 0., 8., 1., 8., 3., 1., 1., 5., 21., 16.,
          3., 1., 3., 4., 4., 1., 2., 3., 2., 1., 2., 5., 2., 4., 3., 4.,
          1., 3., 4., 0., 3., 3., 0., 5., 8., 9., 8., 0., 12., 2., 2.,
          0., 1., 14., 6. ]
      - [ 1., 1., 15., 5., 1., 4., 2., 0., 5., 1., 0., 3., 0., 7., 17.,
          3., 1., 3., 3., 0., 1., 1., 3., 1., 6., 4., 2., 5., 3., 12.,
          3., 8., 5., 3., 5., 0., 6., 5., 10., 4., 7., 3., 1., 7., 2.,
          0., 5., 5., 7., 4. ]
      - [ 2., 15., 2., 2., 5., 1., 6., 4., 3., 3., 0., 1., 2., 19., 17.,
          1., 4., 2., 2., 1., 3., 0., 4., 2., 10., 2., 5., 4., 6., 1.,
          2., 3., 2., 4., 4., 1., 2., 0., 1., 5., 11., 0., 5., 4., 2.,
          3., 2., 3., 14., 3. ]
      - [ 1., 11., 13., 0., 4., 0., 5., 3., 11., 6., 5., 13., 9., 1., 1.,
          2., 1., 4., 5., 0., 3., 1., 1., 1., 2., 4., 4., 5., 0., 5., 1.,
          21., 7., 5., 0., 1., 2., 3., 2., 5., 3., 0., 4., 3., 9., 1.,
          2., 5., 2., 3. ]
      - [ 1., 7., 11., 7., 1., 8., 12., 2., 6., 7., 1., 10., 5., 3., 1.,
          0., 5., 4., 2., 4., 2., 1., 3., 4., 6., 4., 2., 1., 11., 1.,
          4., 5., 1., 6., 2., 3., 3., 0., 4., 2., 6., 1., 1., 5., 3., 2.,
          2., 3., 1., 14. ]
      - [ 8., 0., 0., 3., 3., 1., 10., 8., 7., 0., 9., 1., 0., 13., 12.,
          1., 0., 0., 3., 0., 2., 2., 0., 2., 12., 0., 2., 1., 3., 3.,
          0., 0., 0., 4., 0., 3., 10., 0., 10., 3., 10., 3., 0., 25., 2.,
          3., 6., 0., 10., 5. ]
      - [ 4., 10., 1., 3., 7., 2., 4., 8., 8., 2., 2., 2., 6., 5., 19.,
          7., 3., 1., 6., 3., 4., 1., 4., 5., 2., 2., 6., 2., 6., 4., 3.,
          3., 5., 5., 5., 2., 1., 2., 2., 4., 2., 1., 6., 1., 4., 2., 3.,
          0., 8., 2. ]
      - [ 2., 3., 0., 1., 2., 0., 2., 6., 5., 0., 2., 1., 0., 8., 5., 3.,
          4., 0., 1., 1., 1., 1., 1., 2., 4., 0., 0., 1., 7., 12., 1.,
          1., 2., 4., 0., 3., 5., 0., 7., 6., 5., 2., 1., 13., 0., 0.,
          2., 0., 4., 0. ]
      - [ 5., 9., 13., 1., 6., 3., 4., 2., 2., 4., 2., 4., 4., 4., 3.,
          8., 2., 2., 3., 1., 0., 2., 3., 1., 2., 6., 3., 4., 2., 1., 3.,
          6., 3., 7., 1., 2., 8., 1., 10., 4., 6., 1., 9., 5., 8., 1.,
          0., 4., 5., 11. ]
      - [ 1., 0., 4., 15., 6., 6., 13., 4., 3., 6., 5., 3., 8., 1., 0.,
          2., 5., 0., 0., 1., 0., 0., 0., 1., 6., 9., 6., 5., 3., 0., 0.,
          2., 3., 6., 0., 0., 6., 0., 6., 1., 7., 11., 13., 7., 5., 0.,
          3., 11., 0., 6. ]
      - [ 6., 12., 13., 1., 10., 3., 6., 3., 5., 2., 1., 5., 6., 4., 20.,
          1., 6., 0., 1., 2., 1., 0., 3., 0., 9., 3., 2., 5., 2., 1., 2.,
          7., 3., 2., 3., 1., 1., 2., 2., 3., 5., 4., 3., 3., 3., 2., 3.,
          8., 6., 4. ]
      - [ 2., 7., 5., 0., 8., 2., 14., 1., 10., 3., 2., 5., 1., 5., 5.,
          4., 4., 4., 2., 2., 1., 0., 5., 2., 6., 2., 4., 2., 2., 5., 4.,
          7., 8., 3., 5., 2., 7., 1., 6., 6., 7., 2., 2., 1., 4., 3., 2.,
          6., 7., 2. ]
      - [ 3., 16., 0., 0., 1., 2., 2., 5., 10., 4., 0., 1., 4., 8., 27.,
          3., 1., 1., 1., 1., 3., 1., 0., 2., 3., 4., 2., 5., 1., 3., 3.,
          4., 6., 6., 2., 0., 4., 2., 4., 3., 6., 2., 4., 2., 7., 3., 1.,
          0., 5., 22. ]
      - [ 0., 5., 7., 1., 10., 2., 5., 4., 4., 6., 6., 6., 3., 4., 10.,
          1., 2., 4., 2., 0., 0., 0., 3., 3., 2., 6., 4., 6., 3., 6., 4.,
          6., 3., 8., 4., 4., 3., 2., 1., 4., 4., 2., 7., 1., 3., 1., 4.,
          5., 11., 8. ]
      - [ 0., 8., 5., 2., 5., 4., 7., 2., 2., 1., 0., 3., 2., 3., 1.,
          12., 1., 1., 3., 0., 1., 4., 0., 0., 7., 7., 8., 5., 6., 6.,
          3., 17., 4., 7., 1., 2., 3., 0., 7., 0., 10., 3., 10., 5., 5.,
          0., 5., 3., 5., 4. ]
      - [ 1., 1., 5., 5., 2., 6., 3., 2., 1., 3., 2., 0., 3., 24., 4.,
          2., 1., 1., 1., 1., 0., 2., 2., 1., 2., 0., 0., 1., 19., 0.,
          5., 1., 2., 4., 3., 0., 9., 2., 10., 3., 3., 7., 2., 31., 5.,
          3., 2., 3., 5., 5. ]
      - [ 0., 0., 0., 1., 0., 0., 1., 0., 0., 0., 0., 0., 0., 29., 1.,
          0., 0., 0., 0., 0., 2., 3., 0., 1., 1., 0., 1., 0., 9., 0., 0.,
          0., 0., 0., 0., 0., 2., 0., 9., 2., 2., 2., 0., 19., 1., 1.,
          3., 0., 3., 0. ]
      - [ 1., 3., 0., 1., 8., 5., 1., 1., 1., 4., 5., 0., 2., 3., 4., 5.,
          2., 5., 2., 4., 2., 1., 3., 0., 3., 1., 4., 4., 8., 0., 5., 2.,
          4., 10., 3., 1., 9., 4., 14., 2., 3., 2., 6., 32., 6., 2., 5.,
          2., 0., 5. ]
      - [ 2., 6., 0., 2., 0., 2., 7., 2., 1., 2., 0., 1., 3., 5., 6., 7.,
          1., 1., 3., 1., 5., 1., 2., 1., 3., 2., 2., 4., 4., 5., 1.,
          13., 4., 6., 2., 1., 2., 1., 4., 3., 2., 3., 2., 0., 2., 4.,
          4., 5., 6., 3. ]
      - [ 4., 18., 9., 1., 12., 5., 3., 3., 4., 5., 3., 1., 5., 2., 5.,
          10., 5., 7., 3., 0., 1., 2., 7., 0., 4., 4., 1., 7., 3., 5.,
          9., 2., 0., 2., 2., 3., 3., 1., 0., 7., 7., 4., 3., 1., 6., 2.,
          0., 8., 1., 0. ]
      - [ 0., 1., 12., 1., 1., 2., 8., 1., 3., 6., 0., 3., 4., 5., 18.,
          0., 3., 3., 0., 0., 1., 1., 1., 2., 2., 5., 2., 6., 2., 0., 0.,
          3., 2., 3., 4., 0., 5., 3., 6., 7., 4., 3., 4., 21., 2., 2.,
          14., 5., 10., 10. ]
      - [ 2., 10., 15., 1., 6., 2., 1., 2., 0., 6., 1., 6., 3., 0., 1.,
          8., 0., 7., 1., 0., 0., 1., 7., 1., 2., 8., 2., 17., 0., 2.,
          2., 3., 6., 2., 6., 1., 0., 5., 1., 3., 1., 0., 9., 0., 5., 0.,
          1., 6., 0., 0. ]
      - [ 4., 12., 3., 3., 7., 1., 2., 2., 8., 3., 8., 2., 1., 6., 6.,
          7., 0., 3., 10., 3., 1., 1., 1., 2., 1., 6., 0., 4., 3., 6.,
          11., 4., 5., 5., 3., 2., 1., 3., 1., 3., 8., 2., 8., 4., 5.,
          1., 4., 2., 9., 3. ]
      - [ 2., 5., 1., 2., 5., 6., 7., 8., 6., 1., 4., 0., 3., 3., 7., 5.,
          3., 2., 0., 2., 4., 1., 4., 3., 9., 6., 1., 5., 4., 1., 2., 6.,
          5., 7., 8., 1., 7., 6., 2., 0., 11., 5., 3., 7., 10., 5., 1.,
          2., 2., 0. ]
      - [ 0., 18., 4., 0., 2., 1., 5., 3., 4., 4., 2., 0., 2., 3., 13.,
          2., 1., 4., 3., 0., 4., 1., 2., 3., 3., 4., 0., 5., 3., 4., 1.,
          8., 3., 6., 2., 4., 3., 0., 1., 2., 6., 0., 4., 0., 1., 1., 0.,
          4., 8., 6. ]
      - [ 3., 6., 1., 2., 6., 2., 9., 1., 3., 4., 3., 1., 2., 3., 4., 7.,
          9., 2., 1., 2., 0., 0., 6., 1., 8., 5., 2., 2., 8., 1., 4., 4.,
          2., 10., 5., 7., 5., 3., 8., 4., 6., 8., 3., 3., 5., 5., 6.,
          4., 2., 2. ]
      - [ 1., 6., 1., 6., 2., 1., 5., 2., 18., 1., 2., 0., 3., 5., 20.,
          6., 4., 2., 3., 1., 3., 2., 1., 0., 3., 1., 2., 3., 4., 6., 2.,
          9., 3., 4., 2., 6., 5., 1., 0., 11., 13., 2., 3., 8., 5., 0.,
          2., 0., 9., 1. ]
      - [ 2., 12., 0., 0., 3., 1., 0., 4., 0., 1., 1., 0., 0., 0., 35.,
          3., 1., 1., 0., 0., 0., 1., 3., 0., 3., 1., 1., 3., 2., 0., 2.,
          0., 5., 3., 5., 0., 0., 6., 0., 5., 8., 0., 4., 2., 1., 3., 2.,
          0., 14., 2. ]
      - [ 2., 10., 1., 3., 0., 5., 8., 7., 6., 2., 2., 2., 4., 4., 11.,
          3., 4., 0., 0., 2., 5., 0., 0., 1., 8., 1., 4., 4., 5., 4., 1.,
          2., 2., 5., 2., 3., 8., 4., 6., 9., 9., 4., 4., 4., 4., 1., 3.,
          2., 12., 7. ]
      - [ 1., 6., 2., 0., 3., 2., 4., 2., 1., 0., 0., 1., 1., 7., 15.,
          2., 0., 0., 0., 2., 0., 0., 1., 1., 6., 0., 1., 1., 4., 6., 2.,
          1., 5., 3., 2., 3., 4., 4., 4., 0., 3., 2., 5., 0., 2., 0., 2.,
          2., 15., 0. ]
      - [ 0., 0., 0., 15., 0., 11., 27., 1., 12., 1., 1., 3., 0., 12.,
          1., 1., 5., 0., 4., 0., 0., 0., 2., 2., 4., 1., 2., 0., 6., 0.,
          2., 0., 0., 1., 1., 0., 4., 2., 12., 0., 9., 11., 1., 35., 3.,
          1., 2., 0., 2., 3. ]
      - [ 1., 1., 0., 3., 1., 6., 6., 4., 1., 4., 2., 2., 0., 11., 3.,
          2., 3., 4., 1., 0., 0., 0., 1., 1., 9., 7., 13., 4., 0., 1.,
          1., 0., 4., 4., 1., 1., 9., 2., 4., 0., 14., 5., 1., 36., 7.,
          1., 2., 6., 2., 9. ]
      - [ 1., 5., 2., 9., 4., 1., 3., 1., 2., 1., 3., 0., 2., 11., 25.,
          3., 0., 1., 0., 0., 2., 3., 2., 5., 2., 1., 1., 0., 13., 2.,
          1., 0., 0., 4., 5., 5., 6., 4., 9., 7., 2., 4., 1., 12., 4.,
          5., 4., 1., 19., 0. ]
      - [ 2., 18., 1., 2., 1., 1., 7., 2., 8., 4., 2., 0., 3., 12., 13.,
          3., 5., 0., 0., 1., 2., 2., 0., 0., 10., 2., 1., 0., 4., 3.,
          2., 6., 2., 2., 4., 2., 0., 2., 7., 5., 6., 0., 1., 8., 3., 1.,
          4., 3., 16., 4. ]
      - [ 6., 2., 2., 6., 4., 4., 5., 5., 5., 2., 4., 1., 6., 6., 6., 8.,
          5., 2., 1., 2., 2., 3., 4., 4., 2., 3., 1., 2., 3., 1., 1., 2.,
          0., 8., 3., 1., 5., 1., 14., 4., 7., 2., 0., 14., 7., 1., 6.,
          5., 6., 6. ]
      - [ 2., 6., 1., 2., 2., 1., 4., 3., 4., 1., 2., 0., 1., 4., 36.,
          0., 1., 1., 0., 2., 2., 1., 0., 3., 3., 1., 1., 2., 3., 6., 0.,
          9., 0., 1., 1., 4., 8., 4., 13., 9., 4., 1., 3., 17., 5., 1.,
          3., 0., 18., 4. ]
      - [ 2., 1., 6., 1., 7., 0., 1., 8., 3., 3., 1., 2., 0., 2., 13.,
          11., 3., 5., 5., 4., 6., 3., 2., 0., 4., 0., 3., 1., 4., 7.,
          5., 5., 2., 10., 10., 6., 3., 5., 4., 7., 2., 1., 3., 3., 10.,
          1., 0., 3., 10., 3. ]
      - [ 0., 0., 0., 5., 1., 1., 1., 4., 4., 0., 2., 1., 1., 15., 4.,
          0., 1., 0., 0., 0., 7., 4., 1., 2., 1., 2., 2., 0., 11., 1.,
          0., 0., 0., 2., 1., 2., 13., 0., 8., 2., 3., 7., 0., 10., 9.,
          2., 4., 0., 5., 4. ]
      - [ 1., 21., 10., 0., 6., 1., 4., 5., 8., 4., 3., 3., 2., 1., 2.,
          3., 2., 3., 0., 0., 0., 3., 1., 0., 3., 4., 1., 4., 5., 4., 0.,
          3., 6., 5., 6., 0., 2., 2., 0., 10., 13., 3., 6., 8., 8., 3.,
          0., 7., 5., 9. ]
      - [ 2., 5., 4., 0., 4., 1., 0., 2., 2., 2., 1., 2., 1., 16., 7.,
          6., 1., 1., 1., 1., 0., 4., 0., 3., 3., 2., 1., 5., 3., 3., 5.,
          5., 4., 7., 2., 4., 7., 1., 9., 3., 7., 1., 7., 28., 5., 5.,
          2., 4., 6., 6. ]
      - [ 0., 0., 0., 1., 1., 0., 4., 6., 6., 0., 1., 0., 0., 22., 2.,
          3., 0., 0., 3., 0., 2., 2., 0., 3., 6., 1., 4., 0., 2., 25.,
          1., 0., 0., 1., 0., 1., 10., 0., 6., 0., 24., 2., 1., 32., 10.,
          0., 1., 1., 14., 2. ]
      - [ 1., 7., 2., 4., 6., 3., 3., 1., 6., 3., 4., 1., 2., 6., 15.,
          4., 2., 2., 5., 0., 0., 1., 5., 7., 2., 0., 1., 3., 1., 2., 7.,
          7., 1., 4., 9., 4., 2., 4., 7., 10., 4., 1., 4., 12., 1., 6.,
          5., 2., 11., 1. ]
      - [ 2., 8., 6., 0., 2., 4., 7., 1., 7., 1., 2., 3., 1., 4., 16.,
          3., 0., 0., 1., 0., 5., 2., 1., 1., 6., 2., 3., 3., 2., 4., 3.,
          4., 1., 4., 2., 2., 6., 5., 9., 8., 13., 4., 3., 8., 2., 0.,
          3., 9., 17., 0. ]
      - [ 0., 1., 3., 7., 2., 6., 12., 2., 4., 3., 2., 6., 3., 3., 2.,
          2., 3., 1., 0., 1., 1., 1., 1., 2., 9., 7., 5., 2., 1., 1., 0.,
          1., 2., 4., 4., 1., 11., 0., 14., 2., 6., 14., 1., 20., 5., 1.,
          6., 1., 1., 13. ]
      - [ 3., 10., 1., 4., 6., 1., 4., 10., 10., 2., 8., 2., 2., 0., 8.,
          5., 2., 4., 7., 2., 2., 3., 1., 8., 5., 2., 5., 0., 2., 3., 2.,
          0., 2., 0., 4., 2., 4., 8., 5., 2., 9., 2., 1., 0., 9., 7., 4.,
          3., 11., 3. ]
      - [ 7., 8., 2., 1., 3., 1., 3., 3., 8., 5., 5., 1., 5., 13., 9.,
          0., 1., 2., 0., 2., 1., 7., 2., 3., 1., 4., 1., 2., 1., 8., 3.,
          10., 3., 2., 1., 1., 10., 2., 5., 7., 1., 3., 2., 15., 7., 4.,
          0., 5., 7., 3. ]
      - [ 3., 1., 1., 2., 2., 11., 10., 3., 4., 3., 5., 0., 6., 1., 9.,
          5., 5., 1., 1., 2., 1., 1., 0., 1., 5., 2., 7., 3., 1., 0., 5.,
          1., 1., 9., 2., 3., 7., 4., 9., 5., 9., 5., 3., 4., 12., 3.,
          2., 0., 4., 16. ]
      - [ 1., 2., 3., 3., 2., 5., 9., 1., 7., 7., 2., 9., 11., 5., 1.,
          4., 7., 4., 3., 2., 2., 1., 0., 0., 5., 4., 6., 6., 4., 4., 2.,
          7., 1., 2., 0., 3., 3., 1., 6., 3., 3., 12., 4., 0., 5., 0.,
          3., 3., 1., 21. ]
      - [ 1., 16., 13., 2., 5., 2., 3., 2., 5., 7., 3., 4., 7., 0., 5.,
          4., 3., 2., 2., 3., 2., 2., 3., 0., 4., 6., 3., 8., 1., 2., 6.,
          8., 14., 3., 4., 3., 0., 3., 1., 2., 2., 2., 10., 0., 4., 2.,
          2., 7., 5., 2. ]
      - [ 0., 1., 2., 6., 4., 0., 13., 1., 7., 3., 2., 2., 1., 18., 9.,
          3., 6., 2., 3., 0., 1., 1., 4., 1., 7., 0., 2., 2., 9., 5., 4.,
          0., 1., 3., 2., 3., 10., 2., 6., 0., 14., 4., 1., 21., 2., 2.,
          4., 4., 1., 1. ]
      - [ 3., 2., 4., 3., 6., 5., 2., 2., 5., 3., 5., 2., 1., 0., 5., 5.,
          3., 2., 2., 1., 3., 1., 0., 3., 3., 3., 4., 5., 2., 3., 3.,
          11., 3., 1., 0., 2., 15., 3., 11., 4., 8., 2., 6., 10., 7., 3.,
          5., 5., 8., 5. ]
      - [ 2., 12., 6., 1., 6., 3., 5., 5., 2., 0., 1., 1., 1., 10., 12.,
          5., 1., 3., 4., 2., 4., 1., 2., 1., 2., 0., 3., 1., 2., 4., 6.,
          3., 5., 8., 1., 4., 4., 4., 4., 13., 5., 3., 3., 13., 2., 1.,
          1., 2., 13., 3. ]
      - [ 0., 0., 2., 1., 5., 1., 2., 1., 2., 0., 5., 2., 2., 3., 3., 7.,
          1., 1., 3., 1., 4., 3., 1., 3., 4., 1., 2., 0., 0., 9., 5., 0.,
          1., 3., 4., 4., 5., 5., 7., 0., 3., 1., 0., 11., 3., 0., 2.,
          0., 6., 2. ]
      - [ 2., 10., 6., 4., 5., 3., 6., 1., 7., 2., 5., 1., 2., 1., 26.,
          1., 2., 1., 1., 1., 0., 0., 6., 0., 3., 1., 2., 5., 5., 2., 1.,
          5., 4., 3., 3., 2., 4., 3., 2., 2., 8., 4., 9., 3., 5., 3., 4.,
          7., 11., 6. ]
      - [ 2., 16., 1., 1., 7., 3., 3., 4., 4., 0., 8., 2., 3., 4., 11.,
          2., 1., 1., 2., 1., 1., 0., 3., 3., 10., 0., 1., 3., 3., 5.,
          3., 11., 7., 2., 0., 1., 0., 1., 3., 4., 23., 2., 6., 7., 2.,
          4., 6., 5., 6., 2. ]
      - [ 4., 7., 1., 1., 4., 2., 4., 6., 5., 2., 1., 0., 3., 3., 6., 3.,
          2., 0., 1., 1., 4., 2., 1., 0., 6., 4., 1., 7., 3., 4., 2., 6.,
          4., 2., 1., 2., 4., 2., 1., 3., 4., 0., 6., 1., 8., 0., 1., 2.,
          8., 2. ]
      - [ 5., 9., 12., 0., 5., 2., 3., 6., 3., 6., 4., 3., 1., 1., 1.,
          5., 3., 5., 3., 5., 0., 0., 1., 4., 3., 2., 4., 10., 0., 1.,
          5., 8., 6., 3., 5., 2., 3., 6., 2., 3., 3., 3., 4., 5., 8., 5.,
          4., 14., 3., 1. ]
      - [ 1., 3., 0., 4., 5., 3., 2., 1., 3., 2., 12., 2., 1., 24., 6.,
          3., 2., 5., 4., 1., 3., 1., 4., 4., 9., 1., 1., 2., 3., 1., 0.,
          0., 2., 2., 1., 1., 5., 0., 5., 0., 8., 5., 0., 29., 2., 9.,
          15., 0., 2., 0. ]
      - [ 3., 1., 1., 2., 1., 1., 0., 2., 2., 1., 2., 0., 2., 31., 7.,
          1., 2., 2., 0., 2., 0., 2., 2., 1., 0., 1., 1., 6., 12., 0.,
          3., 0., 0., 0., 0., 5., 2., 0., 4., 10., 1., 3., 0., 21., 2.,
          5., 2., 6., 9., 5. ]
      - [ 0., 7., 8., 4., 5., 0., 9., 2., 1., 1., 5., 6., 1., 5., 1., 1.,
          1., 3., 5., 0., 0., 0., 3., 1., 5., 6., 3., 6., 2., 2., 6.,
          15., 4., 4., 2., 5., 4., 4., 2., 3., 10., 2., 12., 6., 4., 5.,
          7., 3., 6., 3. ]
      - [ 8., 6., 0., 2., 2., 2., 8., 5., 12., 4., 1., 0., 3., 17., 20.,
          1., 1., 0., 2., 2., 6., 3., 1., 2., 3., 5., 2., 1., 4., 5., 1.,
          2., 1., 6., 3., 0., 4., 1., 4., 5., 9., 6., 1., 6., 10., 2.,
          1., 0., 5., 5. ]
      - [ 2., 11., 2., 0., 1., 0., 0., 2., 1., 1., 0., 1., 0., 2., 4.,
          3., 1., 0., 3., 0., 0., 0., 0., 0., 1., 1., 3., 2., 0., 2., 4.,
          18., 9., 3., 1., 4., 1., 1., 1., 3., 3., 2., 3., 0., 2., 1.,
          0., 3., 3., 0. ]
      - [ 0., 14., 14., 1., 11., 1., 6., 0., 6., 1., 2., 7., 2., 3., 1.,
          4., 1., 1., 0., 1., 0., 0., 1., 10., 15., 1., 8., 12., 0., 0.,
          0., 17., 4., 1., 3., 0., 0., 1., 0., 0., 10., 1., 3., 0., 2.,
          9., 0., 10., 12., 4. ]
      - [ 6., 7., 1., 4., 4., 4., 3., 10., 3., 1., 5., 2., 4., 6., 0.,
          8., 1., 2., 4., 0., 5., 7., 1., 5., 4., 3., 2., 0., 10., 1.,
          5., 14., 1., 5., 0., 6., 2., 0., 5., 3., 12., 3., 1., 16., 2.,
          1., 2., 2., 3., 4. ]
      - [ 6., 18., 5., 0., 3., 3., 9., 5., 9., 4., 1., 1., 4., 11., 14.,
          2., 0., 3., 1., 1., 0., 1., 2., 2., 7., 2., 2., 3., 9., 6., 4.,
          2., 3., 3., 1., 4., 5., 1., 0., 4., 11., 0., 2., 3., 3., 3.,
          3., 4., 10., 0. ]
      - [ 1., 0., 2., 6., 1., 1., 0., 1., 5., 5., 2., 2., 3., 14., 25.,
          2., 0., 2., 0., 1., 1., 0., 0., 3., 1., 1., 3., 1., 15., 1.,
          1., 1., 2., 7., 1., 0., 7., 1., 4., 3., 17., 2., 2., 6., 6.,
          4., 3., 2., 32., 1. ]
      - [ 1., 8., 5., 2., 1., 4., 3., 2., 1., 1., 3., 1., 0., 0., 27.,
          1., 3., 8., 0., 0., 0., 0., 2., 1., 4., 5., 4., 2., 11., 3.,
          3., 7., 7., 1., 1., 2., 1., 1., 4., 4., 6., 4., 6., 0., 6., 1.,
          3., 5., 31., 4. ]
      - [ 0., 4., 1., 1., 0., 3., 1., 2., 1., 0., 1., 0., 2., 3., 6., 0.,
          3., 0., 0., 1., 2., 3., 0., 1., 5., 3., 1., 2., 5., 8., 1., 7.,
          4., 1., 4., 1., 5., 3., 3., 4., 3., 0., 5., 0., 3., 1., 1., 0.,
          3., 2. ]
      - [ 1., 13., 0., 4., 3., 3., 8., 2., 5., 1., 1., 2., 1., 2., 6.,
          1., 5., 1., 1., 2., 1., 1., 2., 3., 2., 8., 4., 3., 5., 3., 2.,
          2., 6., 4., 6., 4., 6., 6., 4., 8., 7., 3., 10., 18., 2., 3.,
          5., 3., 4., 3. ]
      - [ 1., 10., 2., 1., 3., 3., 8., 1., 5., 0., 4., 4., 0., 7., 22.,
          2., 2., 3., 5., 1., 1., 0., 3., 0., 8., 3., 4., 8., 0., 0., 4.,
          6., 3., 1., 7., 1., 1., 4., 2., 9., 10., 1., 9., 1., 3., 1.,
          0., 8., 17., 1. ]
      - [ 3., 10., 5., 8., 4., 4., 1., 2., 2., 7., 4., 2., 3., 4., 5.,
          7., 2., 4., 5., 0., 0., 0., 6., 2., 3., 2., 2., 3., 0., 3., 2.,
          3., 6., 7., 0., 5., 3., 0., 6., 0., 5., 5., 1., 16., 6., 0.,
          8., 6., 8., 10. ]
      - [ 2., 5., 0., 2., 4., 2., 5., 4., 3., 4., 6., 1., 1., 16., 5.,
          3., 2., 3., 2., 4., 1., 2., 1., 7., 3., 5., 5., 1., 3., 5., 1.,
          0., 5., 2., 3., 6., 2., 1., 8., 5., 6., 4., 6., 10., 9., 5.,
          5., 3., 7., 5. ]
      - [ 3., 4., 2., 2., 6., 1., 6., 2., 3., 1., 8., 0., 1., 3., 2., 4.,
          1., 1., 1., 2., 1., 1., 1., 2., 7., 1., 2., 5., 3., 0., 0., 2.,
          8., 1., 2., 3., 17., 4., 15., 6., 9., 3., 7., 19., 8., 3., 8.,
          3., 4., 2. ]
      - [ 3., 6., 3., 2., 6., 3., 2., 10., 2., 3., 5., 1., 3., 3., 14.,
          7., 1., 1., 1., 0., 1., 4., 1., 4., 8., 0., 4., 4., 1., 1., 4.,
          3., 1., 1., 2., 4., 12., 3., 3., 3., 15., 0., 1., 19., 8., 1.,
          6., 1., 1., 8. ]
      - [ 3., 8., 0., 4., 6., 6., 1., 1., 1., 0., 0., 1., 1., 8., 16.,
          4., 5., 0., 0., 2., 0., 1., 0., 0., 3., 4., 6., 3., 5., 5., 6.,
          1., 3., 7., 1., 3., 5., 6., 7., 13., 1., 2., 7., 7., 4., 2.,
          0., 4., 20., 3. ]
      - [ 3., 7., 4., 0., 4., 3., 7., 7., 5., 3., 7., 6., 4., 5., 5., 2.,
          1., 4., 4., 2., 2., 1., 3., 1., 4., 3., 3., 1., 7., 2., 4., 4.,
          5., 6., 3., 1., 7., 4., 5., 3., 6., 1., 7., 3., 7., 2., 3., 6.,
          5., 8. ]
      - [ 1., 7., 5., 2., 2., 3., 7., 3., 6., 6., 3., 4., 5., 0., 11.,
          7., 3., 8., 2., 0., 1., 1., 4., 4., 2., 5., 1., 5., 4., 9., 2.,
          12., 6., 6., 2., 2., 1., 1., 8., 1., 2., 1., 11., 7., 0., 3.,
          2., 6., 4., 2. ]
      - [ 1., 3., 0., 7., 2., 4., 2., 3., 3., 3., 3., 0., 9., 10., 3.,
          6., 4., 0., 2., 6., 8., 4., 0., 3., 6., 4., 3., 0., 3., 3., 6.,
          1., 1., 5., 0., 4., 7., 1., 9., 0., 6., 7., 2., 10., 6., 3.,
          4., 3., 8., 12. ]
      - [ 2., 1., 9., 6., 5., 4., 5., 2., 5., 3., 6., 1., 6., 8., 7., 1.,
          2., 0., 1., 1., 5., 0., 1., 3., 3., 2., 0., 5., 12., 2., 3.,
          3., 3., 6., 1., 2., 4., 0., 9., 2., 5., 4., 7., 19., 3., 1.,
          8., 7., 2., 3. ]
      - [ 0., 8., 3., 2., 3., 1., 10., 1., 3., 2., 1., 1., 4., 27., 20.,
          0., 0., 2., 1., 1., 3., 1., 1., 0., 5., 3., 0., 1., 14., 2.,
          2., 10., 4., 4., 4., 0., 3., 0., 0., 2., 6., 3., 2., 12., 1.,
          1., 2., 0., 21., 3. ]
      - [ 1., 7., 24., 2., 4., 3., 7., 5., 3., 8., 0., 14., 9., 0., 1.,
          4., 0., 7., 0., 1., 0., 0., 4., 1., 7., 5., 6., 5., 2., 1., 4.,
          4., 10., 7., 1., 1., 2., 1., 2., 2., 1., 0., 14., 0., 6., 2.,
          2., 8., 0., 2. ]
      - [ 3., 20., 2., 2., 2., 0., 7., 3., 7., 1., 3., 3., 1., 9., 10.,
          5., 3., 4., 3., 2., 2., 0., 3., 1., 5., 6., 5., 4., 2., 1., 2.,
          6., 6., 5., 3., 5., 3., 7., 2., 4., 13., 3., 5., 0., 3., 0.,
          0., 3., 11., 0. ]
      - [ 7., 7., 1., 1., 4., 0., 9., 5., 6., 0., 1., 0., 1., 4., 9., 1.,
          2., 0., 3., 0., 2., 0., 1., 3., 9., 1., 2., 1., 3., 4., 0., 2.,
          2., 0., 0., 1., 0., 1., 0., 3., 17., 0., 3., 0., 2., 0., 0.,
          2., 19., 0. ]
      - [ 3., 4., 0., 4., 2., 4., 1., 2., 4., 1., 2., 1., 5., 9., 28.,
          2., 2., 3., 3., 0., 0., 1., 5., 1., 8., 2., 5., 3., 2., 13.,
          6., 7., 3., 3., 4., 2., 1., 2., 4., 7., 4., 5., 0., 13., 3.,
          3., 3., 1., 9., 1. ]
      - [ 4., 4., 6., 5., 6., 2., 6., 4., 5., 3., 3., 5., 3., 1., 3., 0.,
          7., 0., 5., 1., 0., 0., 2., 0., 4., 2., 8., 5., 1., 9., 2., 4.,
          9., 2., 4., 3., 6., 2., 5., 0., 6., 4., 9., 8., 3., 0., 2., 2.,
          15., 12. ]
      - [ 2., 5., 1., 1., 2., 3., 6., 3., 6., 3., 0., 2., 3., 10., 6.,
          0., 1., 0., 4., 2., 4., 1., 0., 1., 10., 2., 6., 1., 4., 1.,
          1., 0., 1., 1., 2., 0., 11., 2., 12., 7., 13., 2., 1., 12.,
          11., 3., 3., 5., 9., 14. ]
      - [ 2., 8., 6., 3., 1., 2., 10., 2., 14., 3., 1., 0., 4., 4., 8.,
          1., 1., 0., 1., 1., 1., 0., 6., 2., 9., 4., 5., 3., 5., 3., 2.,
          6., 4., 4., 3., 2., 1., 2., 4., 4., 9., 4., 5., 14., 5., 4.,
          2., 4., 8., 3. ]
      - [ 0., 0., 0., 2., 2., 4., 3., 1., 2., 3., 1., 1., 3., 11., 0.,
          2., 2., 0., 1., 2., 2., 0., 0., 0., 0., 0., 4., 1., 3., 0., 1.,
          0., 0., 1., 0., 3., 6., 0., 5., 0., 6., 5., 1., 20., 3., 0.,
          3., 1., 0., 3. ]
      - [ 2., 8., 3., 1., 0., 0., 8., 2., 3., 0., 0., 1., 0., 2., 23.,
          2., 0., 2., 2., 1., 0., 2., 3., 1., 15., 5., 2., 1., 1., 8.,
          6., 12., 2., 3., 0., 5., 3., 2., 4., 6., 7., 0., 4., 13., 1.,
          1., 3., 0., 28., 2. ]
      - [ 1., 2., 3., 5., 6., 2., 12., 0., 11., 2., 8., 0., 2., 7., 2.,
          5., 3., 1., 2., 0., 2., 4., 1., 4., 3., 2., 0., 4., 2., 1., 7.,
          0., 1., 9., 1., 7., 6., 1., 8., 3., 8., 2., 1., 27., 4., 3.,
          4., 6., 2., 3. ]
      - [ 0., 16., 19., 3., 2., 5., 6., 2., 5., 5., 7., 4., 2., 3., 11.,
          3., 2., 1., 5., 0., 1., 0., 4., 0., 5., 2., 3., 8., 1., 0., 1.,
          10., 5., 6., 2., 2., 1., 1., 1., 4., 7., 3., 9., 2., 1., 1.,
          0., 8., 8., 3. ]
      - [ 1., 0., 1., 0., 2., 0., 12., 2., 2., 1., 0., 0., 3., 24., 8.,
          2., 0., 1., 0., 1., 1., 3., 0., 2., 2., 1., 3., 0., 9., 3., 1.,
          4., 3., 1., 0., 0., 6., 0., 2., 0., 5., 2., 2., 16., 3., 2.,
          1., 0., 1., 9. ]
      - [ 5., 10., 1., 3., 6., 3., 6., 7., 2., 1., 3., 0., 2., 7., 2.,
          1., 0., 1., 2., 2., 0., 3., 3., 3., 13., 7., 1., 0., 6., 7.,
          1., 24., 2., 7., 1., 4., 4., 2., 7., 1., 6., 4., 5., 6., 4.,
          3., 0., 2., 2., 8. ]
      - [ 3., 9., 7., 1., 6., 3., 10., 5., 5., 2., 1., 2., 0., 1., 9.,
          1., 3., 7., 3., 2., 1., 0., 2., 2., 8., 4., 0., 5., 3., 2., 5.,
          10., 3., 1., 7., 3., 6., 7., 4., 2., 5., 1., 9., 7., 2., 2.,
          4., 7., 8., 0. ]
      - [ 3., 2., 0., 3., 6., 3., 1., 7., 8., 2., 2., 2., 1., 1., 5., 6.,
          3., 2., 2., 2., 2., 2., 4., 4., 9., 0., 2., 1., 7., 7., 2., 8.,
          2., 4., 1., 3., 5., 0., 4., 6., 11., 4., 3., 13., 7., 4., 4.,
          2., 8., 10. ]
      - [ 1., 0., 3., 6., 1., 4., 15., 3., 13., 5., 2., 3., 1., 5., 1.,
          4., 7., 3., 4., 1., 2., 1., 0., 0., 9., 4., 3., 1., 5., 3., 4.,
          3., 3., 9., 0., 1., 7., 3., 10., 9., 4., 5., 1., 6., 12., 2.,
          2., 1., 1., 7. ]
      - [ 0., 5., 3., 2., 9., 5., 9., 1., 4., 3., 4., 3., 5., 1., 1., 3.,
          3., 0., 0., 1., 2., 0., 0., 1., 13., 3., 10., 7., 3., 1., 0.,
          2., 2., 6., 0., 2., 8., 1., 8., 0., 12., 3., 3., 27., 4., 2.,
          4., 8., 1., 5. ]
      - [ 2., 0., 2., 6., 4., 1., 1., 7., 3., 3., 4., 3., 5., 19., 8.,
          0., 1., 4., 4., 3., 5., 3., 1., 2., 3., 2., 3., 3., 2., 2., 2.,
          0., 0., 7., 1., 2., 13., 1., 8., 4., 6., 5., 1., 18., 4., 3.,
          3., 2., 7., 7. ]
      - [ 0., 0., 1., 10., 1., 4., 10., 3., 6., 5., 2., 2., 4., 7., 0.,
          0., 1., 0., 1., 1., 1., 5., 1., 6., 7., 4., 6., 5., 1., 1., 3.,
          0., 2., 1., 0., 0., 12., 1., 17., 0., 13., 8., 1., 17., 6., 2.,
          9., 3., 0., 10. ]
      - [ 3., 0., 2., 2., 3., 2., 6., 2., 5., 7., 1., 7., 9., 10., 11.,
          4., 2., 1., 1., 0., 2., 1., 0., 0., 2., 3., 2., 11., 1., 1.,
          1., 0., 1., 8., 1., 2., 7., 0., 8., 1., 4., 3., 4., 30., 4.,
          2., 2., 4., 8., 9. ]
      - [ 0., 0., 1., 2., 7., 3., 6., 3., 3., 3., 6., 0., 2., 9., 15.,
          3., 3., 3., 3., 2., 2., 0., 1., 4., 3., 2., 1., 1., 5., 3., 1.,
          0., 2., 5., 0., 3., 6., 1., 3., 7., 4., 1., 2., 35., 1., 10.,
          5., 1., 14., 3. ]
      - [ 3., 9., 0., 0., 3., 2., 4., 2., 2., 2., 1., 2., 2., 5., 11.,
          1., 1., 1., 2., 2., 1., 0., 0., 1., 5., 1., 0., 2., 1., 4., 3.,
          12., 4., 3., 3., 1., 1., 1., 1., 12., 5., 2., 3., 2., 3., 1.,
          1., 1., 3., 2. ]
      - [ 0., 10., 1., 4., 5., 2., 5., 2., 2., 1., 1., 2., 2., 15., 18.,
          8., 1., 0., 0., 2., 7., 0., 0., 0., 4., 2., 0., 4., 1., 7., 6.,
          5., 0., 1., 1., 3., 5., 2., 5., 8., 4., 8., 3., 10., 3., 2.,
          1., 3., 13., 3. ]
      - [ 4., 4., 9., 2., 6., 2., 3., 7., 3., 4., 4., 4., 2., 7., 9., 6.,
          2., 2., 3., 0., 3., 3., 5., 1., 2., 1., 0., 0., 2., 2., 2., 1.,
          6., 9., 11., 4., 7., 2., 4., 13., 2., 2., 9., 3., 3., 3., 2.,
          3., 2., 10. ]
      - [ 2., 3., 6., 1., 2., 0., 1., 2., 0., 4., 9., 11., 2., 1., 1.,
          5., 0., 8., 3., 1., 0., 0., 5., 3., 3., 6., 2., 9., 3., 4., 3.,
          8., 4., 4., 0., 4., 10., 3., 6., 1., 5., 1., 9., 9., 4., 2.,
          7., 11., 8., 4. ]
      - [ 4., 1., 0., 8., 2., 5., 5., 3., 5., 0., 4., 2., 0., 14., 2.,
          3., 5., 0., 0., 1., 1., 1., 0., 3., 7., 0., 6., 0., 12., 2.,
          0., 0., 0., 1., 2., 3., 11., 0., 16., 0., 9., 7., 0., 26., 1.,
          8., 10., 1., 4., 5. ]
      - [ 1., 15., 3., 3., 2., 2., 13., 1., 9., 1., 2., 1., 1., 2., 9.,
          2., 0., 1., 4., 0., 1., 1., 1., 1., 11., 2., 2., 3., 7., 2.,
          1., 10., 1., 2., 1., 1., 7., 0., 8., 7., 13., 6., 2., 16., 2.,
          2., 3., 3., 10., 3. ]
      - [ 3., 6., 1., 2., 1., 1., 11., 6., 7., 0., 0., 2., 3., 7., 15.,
          2., 3., 1., 2., 0., 1., 1., 0., 1., 3., 2., 5., 2., 13., 1.,
          1., 2., 4., 4., 3., 2., 9., 0., 12., 4., 9., 5., 4., 9., 6.,
          1., 4., 3., 11., 5. ]
      - [ 0., 0., 0., 4., 10., 4., 4., 10., 8., 2., 0., 0., 3., 4., 14.,
          7., 2., 4., 0., 5., 2., 2., 7., 5., 5., 0., 2., 0., 1., 0., 2.,
          2., 3., 5., 2., 5., 9., 4., 1., 11., 6., 6., 1., 6., 9., 8.,
          5., 0., 9., 1. ]
      - [ 1., 3., 3., 2., 4., 3., 10., 3., 8., 4., 9., 3., 1., 1., 1.,
          3., 1., 2., 1., 1., 0., 0., 0., 2., 19., 2., 5., 4., 9., 0.,
          0., 8., 7., 6., 2., 0., 7., 3., 2., 1., 18., 3., 9., 11., 3.,
          2., 5., 3., 2., 3. ]
      - [ 3., 9., 6., 0., 5., 2., 4., 2., 2., 1., 3., 1., 1., 5., 5., 4.,
          2., 2., 1., 1., 1., 0., 2., 2., 4., 1., 5., 9., 11., 1., 6.,
          7., 2., 3., 3., 2., 5., 1., 8., 3., 7., 2., 4., 2., 0., 0., 2.,
          5., 11., 0. ]
      - [ 1., 3., 0., 4., 0., 0., 3., 3., 5., 2., 2., 0., 3., 15., 9.,
          4., 1., 0., 1., 1., 3., 5., 2., 3., 5., 0., 1., 0., 5., 4., 4.,
          4., 3., 8., 3., 5., 12., 1., 15., 4., 7., 1., 3., 24., 1., 1.,
          7., 1., 9., 2. ]
      - [ 1., 13., 5., 1., 2., 0., 6., 2., 10., 5., 4., 4., 4., 7., 21.,
          4., 2., 2., 0., 1., 0., 1., 2., 0., 3., 0., 1., 2., 10., 4.,
          3., 19., 1., 5., 2., 2., 2., 3., 4., 6., 10., 1., 3., 9., 2.,
          0., 1., 7., 2., 1. ]
      - [ 2., 17., 22., 1., 3., 6., 2., 2., 0., 7., 3., 5., 3., 2., 2.,
          1., 5., 6., 4., 3., 1., 0., 5., 0., 3., 5., 1., 7., 2., 2., 4.,
          5., 11., 5., 4., 2., 0., 5., 1., 2., 2., 2., 16., 1., 2., 2.,
          2., 7., 3., 2. ]
      - [ 0., 6., 4., 1., 3., 5., 1., 0., 1., 4., 1., 5., 5., 10., 13.,
          3., 4., 4., 4., 1., 1., 2., 1., 0., 4., 2., 5., 3., 1., 4., 4.,
          2., 0., 6., 1., 6., 13., 1., 12., 0., 2., 4., 1., 13., 2., 1.,
          2., 10., 10., 3. ]
      - [ 0., 0., 0., 2., 0., 0., 3., 0., 0., 0., 1., 0., 0., 6., 0., 0.,
          1., 0., 1., 2., 0., 1., 1., 2., 0., 0., 0., 0., 11., 0., 2.,
          0., 0., 0., 0., 0., 5., 0., 5., 4., 2., 3., 0., 9., 0., 1., 4.,
          0., 12., 1. ]
      - [ 0., 4., 1., 3., 2., 2., 5., 1., 1., 1., 2., 0., 2., 13., 3.,
          1., 4., 3., 0., 2., 2., 0., 1., 3., 6., 1., 0., 1., 14., 8.,
          1., 1., 0., 3., 0., 0., 5., 2., 10., 1., 2., 1., 0., 10., 1.,
          0., 4., 1., 6., 3. ]
      - [ 2., 3., 2., 4., 4., 3., 2., 4., 2., 5., 3., 3., 8., 13., 8.,
          6., 1., 3., 1., 4., 2., 2., 2., 4., 0., 2., 6., 1., 2., 2., 1.,
          4., 1., 4., 1., 0., 7., 2., 14., 2., 4., 6., 4., 11., 3., 1.,
          8., 5., 4., 14. ]
      - [ 0., 7., 10., 4., 2., 3., 2., 2., 3., 3., 6., 2., 2., 2., 3.,
          4., 2., 4., 3., 7., 3., 2., 1., 3., 1., 2., 3., 5., 2., 1., 0.,
          1., 6., 2., 9., 2., 9., 7., 16., 3., 2., 8., 2., 6., 7., 4.,
          5., 5., 1., 11. ]
      - [ 2., 15., 4., 1., 4., 1., 1., 2., 17., 3., 3., 4., 4., 0., 5.,
          8., 5., 4., 1., 3., 0., 4., 2., 0., 2., 4., 2., 13., 0., 7.,
          7., 9., 8., 3., 4., 5., 1., 9., 0., 2., 2., 0., 12., 0., 2.,
          0., 1., 10., 4., 0. ]
      - [ 0., 11., 4., 2., 3., 1., 5., 1., 8., 1., 1., 3., 2., 6., 31.,
          2., 0., 0., 1., 0., 0., 1., 5., 0., 3., 2., 1., 4., 8., 4., 2.,
          3., 3., 1., 1., 4., 1., 0., 2., 12., 7., 1., 1., 3., 1., 3.,
          0., 4., 31., 6. ]
      - [ 0., 9., 11., 3., 9., 1., 4., 1., 6., 1., 7., 8., 2., 0., 1.,
          3., 6., 3., 0., 1., 0., 1., 0., 1., 8., 9., 4., 8., 2., 1., 5.,
          23., 10., 3., 6., 0., 0., 3., 0., 0., 5., 2., 9., 0., 3., 0.,
          2., 17., 0., 2. ]
      - [ 2., 11., 5., 4., 2., 8., 6., 3., 8., 9., 3., 4., 11., 3., 2.,
          2., 6., 4., 5., 1., 0., 0., 3., 2., 1., 5., 2., 9., 2., 3., 0.,
          6., 7., 4., 7., 0., 2., 1., 2., 1., 6., 4., 9., 2., 3., 2., 4.,
          7., 0., 7. ]
      - [ 3., 6., 0., 0., 9., 1., 8., 1., 3., 5., 6., 1., 2., 10., 1.,
          5., 2., 3., 1., 1., 0., 3., 1., 1., 5., 2., 3., 4., 2., 3., 3.,
          4., 4., 7., 5., 2., 9., 2., 6., 7., 6., 2., 8., 22., 3., 1.,
          6., 2., 1., 8. ]
      - [ 2., 9., 3., 2., 12., 3., 12., 3., 9., 3., 8., 3., 6., 3., 17.,
          5., 1., 1., 4., 2., 2., 1., 1., 3., 3., 0., 1., 2., 2., 5., 2.,
          2., 1., 6., 0., 3., 3., 1., 6., 8., 8., 4., 0., 3., 0., 1., 2.,
          5., 13., 4. ]
      - [ 7., 3., 0., 5., 5., 0., 2., 4., 3., 3., 1., 1., 0., 1., 14.,
          5., 3., 1., 3., 1., 6., 3., 1., 1., 4., 3., 0., 1., 1., 9., 3.,
          0., 1., 8., 1., 6., 5., 0., 7., 11., 3., 2., 3., 5., 5., 2.,
          5., 5., 5., 8. ]
      - [ 0., 7., 1., 3., 2., 2., 9., 4., 3., 3., 2., 3., 4., 13., 14.,
          5., 1., 1., 3., 2., 1., 0., 1., 0., 1., 7., 1., 4., 2., 12.,
          1., 4., 5., 5., 3., 0., 3., 4., 5., 10., 10., 4., 6., 6., 2.,
          2., 5., 0., 13., 1. ]
      - [ 0., 4., 0., 3., 1., 1., 3., 1., 3., 3., 2., 1., 6., 10., 14.,
          5., 3., 0., 1., 1., 4., 1., 1., 0., 2., 2., 0., 3., 6., 3., 1.,
          0., 1., 3., 3., 2., 9., 4., 14., 8., 7., 4., 0., 21., 3., 4.,
          2., 0., 13., 4. ]
      - [ 1., 6., 27., 5., 5., 0., 3., 3., 5., 4., 2., 8., 2., 3., 2.,
          3., 2., 6., 1., 2., 0., 1., 1., 2., 4., 1., 3., 8., 0., 2., 4.,
          8., 6., 5., 1., 0., 3., 2., 4., 1., 6., 7., 6., 5., 1., 1., 1.,
          13., 5., 9. ]
      - [ 0., 6., 1., 0., 2., 2., 2., 1., 9., 0., 2., 1., 0., 3., 23.,
          4., 1., 0., 0., 2., 1., 1., 3., 0., 5., 1., 3., 1., 0., 18.,
          5., 0., 2., 1., 1., 0., 0., 0., 0., 9., 16., 0., 1., 0., 1.,
          1., 1., 4., 15., 0. ]
      - [ 1., 18., 25., 0., 6., 1., 2., 3., 7., 7., 0., 1., 3., 0., 1.,
          4., 0., 4., 0., 0., 1., 0., 3., 1., 9., 3., 7., 15., 0., 0.,
          2., 12., 9., 4., 3., 1., 2., 1., 0., 0., 8., 1., 14., 0., 1.,
          0., 2., 15., 0., 3. ]
      - [ 1., 11., 8., 0., 6., 0., 5., 2., 7., 2., 3., 1., 8., 1., 8.,
          2., 0., 0., 3., 1., 2., 2., 1., 4., 5., 6., 2., 3., 1., 0., 1.,
          4., 11., 2., 2., 6., 8., 1., 10., 13., 4., 2., 16., 0., 1., 2.,
          2., 1., 17., 3. ]
      - [ 3., 5., 6., 2., 8., 1., 2., 3., 12., 4., 3., 3., 2., 9., 15.,
          1., 2., 0., 4., 1., 0., 1., 8., 3., 6., 5., 0., 3., 0., 6., 1.,
          4., 5., 7., 6., 0., 5., 0., 2., 2., 10., 1., 5., 1., 6., 4.,
          3., 3., 16., 1. ]
      - [ 2., 12., 3., 1., 4., 2., 2., 1., 3., 4., 5., 1., 2., 5., 25.,
          4., 2., 1., 2., 3., 0., 4., 1., 3., 1., 4., 2., 6., 4., 5., 1.,
          7., 7., 2., 3., 4., 3., 4., 2., 9., 6., 0., 11., 2., 3., 2.,
          2., 8., 7., 3. ]
      - [ 1., 9., 4., 4., 3., 1., 3., 3., 5., 2., 1., 1., 4., 4., 7., 4.,
          2., 1., 1., 1., 1., 0., 2., 0., 3., 0., 4., 6., 3., 6., 1., 4.,
          2., 1., 0., 1., 2., 2., 2., 3., 6., 2., 5., 0., 2., 0., 0., 8.,
          6., 2. ]
      - [ 4., 14., 4., 1., 5., 6., 4., 1., 5., 4., 4., 4., 2., 2., 9.,
          1., 4., 4., 2., 0., 0., 1., 2., 3., 2., 5., 3., 10., 0., 1.,
          2., 5., 7., 2., 3., 3., 5., 3., 4., 2., 11., 2., 6., 5., 4.,
          6., 6., 7., 4., 6. ]
      - [ 8., 0., 1., 6., 3., 3., 4., 7., 1., 9., 3., 0., 6., 16., 0.,
          3., 5., 1., 0., 1., 1., 0., 0., 2., 4., 2., 3., 5., 1., 0., 1.,
          0., 0., 8., 0., 0., 8., 0., 7., 2., 7., 3., 0., 36., 7., 1.,
          6., 2., 1., 16. ]
      - [ 2., 8., 3., 1., 4., 7., 4., 3., 5., 4., 2., 5., 4., 8., 21.,
          5., 2., 2., 2., 1., 1., 2., 1., 2., 1., 1., 2., 0., 1., 7., 0.,
          3., 5., 11., 1., 3., 2., 2., 0., 7., 9., 7., 5., 2., 5., 0.,
          1., 2., 12., 12. ]
      - [ 0., 4., 10., 4., 4., 0., 9., 0., 2., 9., 2., 11., 13., 7., 0.,
          2., 3., 3., 0., 0., 0., 1., 0., 1., 4., 10., 8., 7., 1., 3.,
          1., 1., 2., 2., 2., 1., 6., 1., 6., 2., 8., 4., 7., 13., 4.,
          0., 3., 5., 2., 12. ]
      - [ 1., 1., 0., 4., 0., 3., 6., 2., 1., 0., 5., 0., 1., 31., 19.,
          1., 1., 0., 0., 1., 3., 2., 2., 5., 10., 0., 0., 1., 8., 0.,
          0., 0., 1., 3., 1., 0., 2., 0., 4., 1., 13., 3., 0., 29., 4.,
          5., 2., 1., 22., 1. ]
      - [ 6., 21., 0., 1., 5., 3., 2., 8., 6., 0., 5., 0., 2., 4., 15.,
          3., 4., 0., 5., 1., 4., 0., 1., 4., 0., 1., 0., 1., 3., 5., 1.,
          23., 2., 5., 4., 6., 8., 1., 3., 0., 0., 1., 1., 11., 9., 2.,
          3., 0., 10., 0. ]
      - [ 0., 14., 9., 0., 1., 0., 0., 1., 0., 3., 1., 2., 2., 0., 12.,
          3., 0., 4., 1., 0., 0., 0., 3., 0., 0., 6., 0., 6., 0., 3., 1.,
          15., 2., 2., 3., 0., 0., 3., 0., 2., 1., 0., 4., 0., 0., 0.,
          0., 5., 3., 0. ]
      - [ 3., 1., 2., 2., 4., 3., 9., 8., 8., 2., 5., 0., 5., 3., 9., 5.,
          2., 1., 4., 2., 2., 3., 2., 2., 5., 5., 6., 2., 0., 1., 2., 9.,
          2., 7., 4., 2., 6., 1., 8., 1., 16., 2., 7., 8., 8., 0., 3.,
          2., 4., 2. ]
      - [ 0., 7., 2., 4., 4., 3., 16., 3., 10., 1., 6., 1., 0., 4., 3.,
          2., 4., 0., 2., 3., 0., 0., 0., 3., 10., 2., 2., 3., 13., 0.,
          5., 6., 2., 4., 4., 2., 11., 3., 7., 0., 5., 1., 3., 16., 5.,
          2., 9., 3., 2., 2. ]
      - [ 9., 13., 2., 1., 5., 2., 5., 7., 4., 6., 3., 1., 7., 13., 10.,
          1., 1., 1., 1., 1., 0., 4., 2., 0., 4., 1., 3., 1., 3., 0., 3.,
          8., 2., 1., 3., 4., 3., 4., 6., 2., 4., 2., 2., 13., 7., 4.,
          3., 4., 8., 6. ]
      - [ 0., 7., 0., 0., 1., 0., 5., 1., 8., 1., 1., 1., 0., 0., 16.,
          1., 0., 3., 1., 0., 0., 0., 4., 0., 4., 1., 1., 2., 1., 10.,
          1., 3., 4., 1., 4., 1., 0., 1., 1., 4., 12., 0., 3., 2., 1.,
          1., 0., 5., 15., 2. ]
      - [ 0., 11., 1., 1., 5., 1., 3., 2., 11., 1., 4., 2., 0., 12., 5.,
          5., 1., 3., 2., 3., 0., 0., 2., 2., 15., 2., 4., 3., 3., 2.,
          5., 4., 9., 1., 2., 4., 3., 1., 1., 9., 11., 2., 11., 11., 4.,
          4., 3., 4., 1., 4. ]
      - [ 4., 4., 1., 2., 0., 2., 3., 2., 7., 0., 5., 1., 3., 7., 10.,
          3., 2., 3., 2., 0., 4., 3., 5., 2., 1., 3., 2., 4., 9., 10.,
          2., 5., 3., 3., 2., 3., 5., 1., 6., 6., 10., 3., 3., 9., 2.,
          4., 2., 5., 11., 11. ]
      - [ 4., 4., 0., 1., 6., 3., 11., 3., 3., 1., 8., 5., 2., 11., 5.,
          3., 2., 1., 0., 3., 2., 0., 3., 16., 10., 0., 2., 2., 2., 1.,
          2., 1., 4., 0., 2., 2., 7., 3., 6., 3., 9., 2., 2., 10., 2.,
          12., 6., 6., 6., 1. ]
      - [ 2., 6., 5., 1., 2., 2., 2., 3., 3., 1., 0., 1., 3., 24., 14.,
          3., 2., 1., 1., 3., 1., 3., 5., 6., 0., 0., 2., 0., 2., 1., 1.,
          12., 2., 6., 1., 3., 9., 1., 3., 2., 3., 2., 3., 15., 1., 8.,
          1., 0., 13., 15. ]
      - [ 2., 12., 3., 1., 3., 0., 3., 3., 8., 1., 0., 1., 0., 2., 5.,
          2., 0., 0., 1., 1., 0., 0., 1., 0., 6., 0., 1., 2., 0., 1., 1.,
          9., 9., 3., 0., 1., 2., 1., 1., 2., 12., 1., 2., 0., 0., 1.,
          2., 2., 5., 5. ]
      - [ 3., 7., 4., 2., 5., 1., 3., 4., 1., 3., 8., 2., 2., 5., 3., 1.,
          3., 3., 2., 2., 0., 1., 3., 4., 5., 3., 3., 7., 1., 0., 2., 9.,
          4., 2., 5., 0., 10., 1., 7., 5., 3., 4., 7., 12., 6., 7., 8.,
          5., 2., 10. ]
      - [ 0., 4., 1., 0., 3., 0., 6., 1., 3., 2., 1., 0., 1., 1., 9., 0.,
          1., 2., 0., 3., 2., 0., 0., 0., 1., 0., 1., 0., 4., 1., 0., 5.,
          0., 0., 0., 0., 0., 0., 2., 1., 6., 0., 0., 7., 2., 0., 2., 2.,
          0., 6. ]
      - [ 2., 8., 9., 3., 3., 0., 8., 4., 6., 4., 4., 4., 0., 5., 13.,
          3., 2., 2., 0., 1., 0., 3., 4., 0., 5., 5., 4., 3., 2., 1., 2.,
          3., 4., 2., 6., 2., 3., 5., 3., 3., 4., 1., 6., 18., 3., 3.,
          3., 12., 4., 5. ]
      - [ 1., 0., 1., 7., 0., 2., 17., 3., 9., 2., 0., 1., 1., 1., 4.,
          8., 2., 3., 0., 7., 0., 1., 0., 0., 4., 8., 5., 5., 7., 1., 3.,
          6., 16., 10., 2., 2., 2., 0., 9., 1., 9., 3., 9., 10., 5., 0.,
          4., 2., 7., 0. ]
      - [ 3., 0., 0., 4., 0., 2., 9., 3., 2., 1., 1., 0., 1., 11., 0.,
          0., 0., 0., 0., 0., 3., 1., 0., 1., 5., 0., 2., 1., 3., 2., 2.,
          0., 0., 0., 0., 1., 12., 0., 9., 2., 6., 5., 0., 15., 4., 0.,
          1., 0., 0., 8. ]
      - [ 1., 18., 8., 4., 6., 2., 2., 3., 2., 8., 6., 0., 5., 1., 11.,
          4., 4., 3., 3., 2., 0., 2., 1., 2., 4., 0., 0., 7., 1., 0., 6.,
          11., 4., 2., 4., 0., 6., 9., 1., 0., 4., 4., 7., 4., 5., 0.,
          6., 7., 9., 1. ]
      - [ 1., 10., 0., 1., 2., 1., 5., 8., 6., 3., 3., 3., 5., 5., 16.,
          6., 6., 4., 7., 1., 1., 1., 2., 5., 2., 5., 2., 3., 3., 3., 4.,
          3., 1., 4., 6., 3., 2., 1., 3., 6., 5., 2., 5., 10., 3., 1.,
          1., 1., 19., 0. ]
      - [ 1., 6., 8., 1., 4., 7., 4., 4., 3., 6., 0., 1., 1., 2., 3., 3.,
          2., 5., 1., 3., 0., 1., 1., 1., 2., 4., 9., 3., 2., 2., 6., 7.,
          7., 3., 4., 0., 8., 2., 3., 7., 6., 4., 8., 3., 11., 2., 3.,
          10., 7., 9. ]
      - [ 1., 12., 47., 0., 4., 2., 3., 0., 3., 8., 3., 5., 1., 0., 1.,
          5., 2., 7., 0., 0., 0., 1., 2., 0., 2., 7., 1., 13., 2., 2.,
          0., 12., 14., 2., 4., 0., 0., 6., 0., 0., 2., 1., 10., 0., 0.,
          1., 1., 13., 0., 1. ]
      - [ 0., 3., 7., 0., 3., 1., 6., 1., 13., 6., 3., 5., 1., 1., 11.,
          3., 3., 3., 1., 0., 2., 0., 0., 0., 9., 4., 5., 3., 2., 11.,
          0., 14., 4., 1., 2., 1., 1., 3., 0., 0., 9., 2., 9., 0., 3.,
          0., 2., 8., 33., 2. ]
      - [ 6., 0., 0., 6., 6., 6., 13., 3., 8., 6., 2., 1., 8., 8., 0.,
          3., 3., 0., 0., 3., 0., 0., 0., 7., 1., 2., 1., 0., 1., 0., 1.,
          0., 0., 6., 0., 1., 6., 1., 10., 1., 4., 10., 1., 27., 3., 10.,
          4., 2., 0., 20. ]
      - [ 2., 2., 12., 5., 1., 3., 10., 5., 9., 6., 4., 3., 0., 3., 2.,
          3., 0., 6., 9., 1., 2., 1., 7., 1., 2., 4., 2., 3., 2., 5., 9.,
          3., 9., 3., 2., 8., 3., 3., 0., 1., 9., 3., 7., 0., 8., 1., 2.,
          4., 7., 3. ]
      - [ 8., 9., 1., 0., 2., 2., 11., 7., 7., 0., 4., 1., 1., 19., 6.,
          1., 3., 1., 3., 1., 1., 3., 0., 2., 3., 1., 2., 3., 3., 2., 7.,
          4., 0., 7., 0., 3., 7., 0., 4., 4., 6., 4., 2., 20., 4., 2.,
          2., 2., 9., 6. ]
      - [ 2., 1., 2., 8., 2., 6., 10., 1., 1., 3., 2., 1., 6., 16., 12.,
          2., 3., 1., 0., 2., 2., 2., 1., 2., 1., 4., 1., 5., 7., 1., 2.,
          0., 1., 4., 2., 2., 4., 0., 4., 9., 4., 6., 1., 16., 3., 0.,
          4., 5., 6., 4. ]
      - [ 0., 2., 6., 5., 3., 6., 9., 6., 4., 4., 0., 1., 4., 1., 5., 4.,
          3., 0., 1., 1., 0., 0., 1., 1., 7., 5., 2., 5., 4., 2., 2., 0.,
          8., 6., 6., 1., 9., 5., 4., 4., 11., 6., 11., 4., 7., 0., 3.,
          10., 0., 11. ]
      - [ 5., 8., 0., 0., 1., 0., 3., 5., 4., 0., 1., 2., 4., 13., 41.,
          1., 1., 0., 1., 4., 0., 0., 3., 3., 5., 1., 0., 3., 2., 4., 2.,
          1., 2., 0., 5., 6., 3., 4., 2., 1., 10., 3., 0., 2., 4., 5.,
          2., 3., 28., 2. ]
      - [ 3., 3., 2., 3., 1., 3., 5., 4., 1., 1., 3., 3., 2., 19., 0.,
          3., 5., 1., 2., 1., 1., 0., 1., 4., 4., 2., 2., 0., 7., 2., 5.,
          3., 5., 3., 8., 5., 9., 5., 12., 0., 6., 1., 2., 13., 8., 4.,
          6., 2., 5., 10. ]
      - [ 2., 17., 17., 0., 4., 3., 4., 4., 2., 3., 5., 2., 4., 0., 6.,
          0., 1., 2., 0., 2., 0., 0., 0., 0., 4., 9., 5., 11., 0., 3.,
          1., 18., 12., 2., 3., 0., 4., 3., 0., 5., 3., 5., 17., 0., 6.,
          0., 2., 5., 2., 3. ]
      - [ 0., 11., 4., 1., 0., 6., 5., 0., 11., 0., 1., 1., 0., 2., 13.,
          2., 6., 2., 7., 1., 0., 0., 4., 1., 6., 9., 8., 2., 0., 10.,
          13., 2., 0., 1., 1., 8., 2., 1., 3., 1., 14., 7., 5., 3., 0.,
          0., 2., 5., 15., 5. ]
      - [ 0., 13., 10., 0., 2., 2., 4., 1., 4., 4., 1., 2., 6., 6., 7.,
          3., 1., 4., 0., 0., 0., 1., 1., 3., 2., 2., 3., 3., 0., 4., 4.,
          15., 8., 4., 5., 3., 8., 6., 11., 0., 1., 1., 9., 10., 3., 9.,
          1., 6., 2., 5. ]
      - [ 0., 0., 0., 7., 2., 6., 25., 1., 8., 1., 2., 1., 3., 9., 18.,
          3., 7., 1., 2., 0., 0., 0., 1., 2., 2., 4., 3., 1., 3., 3., 2.,
          3., 3., 1., 4., 1., 3., 2., 8., 0., 3., 5., 0., 16., 0., 1.,
          6., 1., 22., 4. ]
      - [ 5., 26., 4., 4., 1., 2., 4., 14., 3., 1., 0., 3., 1., 1., 11.,
          4., 2., 3., 0., 0., 0., 0., 5., 0., 2., 1., 1., 5., 0., 2., 1.,
          19., 3., 3., 1., 0., 8., 1., 4., 0., 1., 4., 5., 6., 13., 4.,
          2., 0., 20., 0. ]
      - [ 2., 2., 1., 1., 5., 1., 6., 5., 7., 2., 4., 5., 2., 5., 16.,
          2., 1., 3., 1., 3., 1., 0., 7., 2., 2., 1., 3., 0., 1., 6., 3.,
          2., 2., 2., 6., 2., 3., 0., 1., 8., 7., 4., 3., 18., 3., 4.,
          3., 3., 19., 10. ]
      - [ 0., 14., 9., 5., 0., 2., 3., 0., 7., 1., 2., 1., 2., 21., 8.,
          0., 2., 1., 1., 1., 1., 4., 0., 4., 2., 3., 5., 1., 1., 3., 1.,
          4., 7., 2., 3., 1., 5., 2., 10., 5., 1., 2., 3., 21., 2., 0.,
          2., 0., 23., 2. ]
      - [ 2., 12., 3., 0., 0., 3., 12., 7., 4., 4., 4., 0., 0., 3., 6.,
          1., 1., 3., 3., 2., 0., 3., 4., 0., 12., 2., 2., 8., 0., 3.,
          4., 12., 3., 5., 7., 3., 7., 4., 7., 6., 7., 1., 3., 2., 8.,
          4., 3., 6., 1., 3. ]
      - [ 3., 7., 11., 1., 8., 6., 3., 2., 5., 5., 8., 12., 3., 0., 3.,
          2., 3., 7., 0., 0., 0., 1., 0., 2., 8., 6., 4., 6., 1., 2., 0.,
          9., 3., 6., 1., 2., 3., 1., 3., 2., 2., 1., 9., 18., 5., 2.,
          2., 4., 1., 7. ]
      - [ 0., 11., 7., 2., 4., 0., 3., 1., 3., 4., 1., 5., 4., 2., 11.,
          1., 1., 4., 0., 0., 2., 3., 0., 0., 5., 3., 2., 13., 1., 7.,
          4., 4., 4., 4., 2., 3., 5., 3., 3., 3., 4., 4., 8., 0., 5., 3.,
          5., 6., 18., 12. ]
      - [ 4., 17., 10., 2., 8., 8., 1., 7., 5., 4., 2., 3., 5., 2., 16.,
          3., 2., 5., 3., 3., 2., 1., 3., 0., 1., 8., 1., 6., 3., 3., 2.,
          9., 5., 1., 1., 2., 0., 0., 0., 5., 3., 3., 12., 0., 1., 1.,
          3., 7., 7., 0. ]
      - [ 0., 18., 5., 3., 4., 0., 2., 1., 2., 2., 5., 0., 1., 6., 4.,
          8., 1., 2., 3., 0., 1., 1., 3., 3., 8., 2., 4., 2., 2., 4., 2.,
          5., 4., 3., 5., 2., 1., 3., 6., 6., 11., 2., 5., 8., 3., 2.,
          4., 3., 4., 4. ]
      - [ 4., 2., 1., 3., 0., 1., 2., 3., 1., 2., 8., 3., 1., 3., 3., 2.,
          2., 0., 4., 0., 0., 1., 1., 4., 3., 2., 3., 4., 2., 1., 4.,
          26., 5., 5., 8., 4., 9., 5., 11., 1., 2., 2., 6., 12., 6., 3.,
          6., 4., 7., 8. ]
      - [ 0., 21., 4., 0., 1., 2., 15., 1., 13., 4., 0., 1., 2., 3., 29.,
          3., 3., 0., 1., 0., 2., 0., 1., 1., 6., 1., 1., 2., 6., 1., 1.,
          16., 4., 1., 3., 2., 0., 2., 1., 6., 6., 1., 4., 0., 0., 1.,
          0., 5., 21., 2. ]
      - [ 2., 0., 1., 5., 5., 2., 7., 7., 7., 2., 3., 3., 0., 11., 11.,
          4., 1., 0., 2., 1., 2., 3., 1., 0., 9., 4., 4., 1., 5., 3., 3.,
          2., 2., 5., 1., 0., 14., 0., 16., 4., 5., 2., 1., 8., 3., 2.,
          8., 2., 11., 5. ]
      - [ 2., 6., 5., 2., 3., 4., 2., 1., 6., 2., 2., 2., 1., 1., 15.,
          2., 3., 2., 6., 3., 1., 0., 1., 0., 3., 10., 3., 8., 2., 4.,
          7., 7., 7., 8., 5., 5., 2., 3., 1., 1., 14., 0., 10., 0., 4.,
          0., 0., 10., 7., 7. ]
      - [ 4., 0., 2., 4., 2., 2., 6., 1., 5., 5., 4., 2., 3., 19., 2.,
          3., 1., 0., 0., 0., 4., 0., 1., 4., 4., 3., 4., 2., 7., 1., 1.,
          0., 1., 8., 1., 0., 8., 2., 9., 3., 5., 7., 0., 32., 5., 4.,
          7., 4., 3., 4. ]
      - [ 1., 7., 3., 2., 0., 5., 8., 2., 6., 6., 1., 3., 4., 11., 15.,
          6., 2., 1., 0., 0., 1., 2., 2., 3., 4., 1., 1., 0., 0., 6., 2.,
          15., 3., 4., 0., 1., 4., 2., 5., 4., 1., 3., 5., 12., 5., 2.,
          2., 5., 22., 0. ]
      - [ 1., 6., 6., 2., 4., 4., 4., 13., 2., 7., 2., 2., 4., 1., 13.,
          5., 4., 1., 1., 1., 1., 1., 7., 0., 4., 2., 3., 1., 4., 1., 1.,
          2., 4., 2., 13., 0., 11., 10., 2., 5., 5., 2., 4., 6., 9., 4.,
          3., 3., 4., 3. ]
      - [ 1., 4., 3., 3., 0., 2., 0., 4., 1., 3., 5., 1., 3., 11., 9.,
          1., 2., 1., 2., 5., 5., 5., 1., 4., 2., 3., 1., 2., 5., 11.,
          3., 0., 2., 2., 2., 3., 6., 4., 6., 9., 7., 5., 4., 12., 6.,
          3., 4., 0., 11., 4. ]
      - [ 2., 6., 1., 2., 2., 2., 3., 4., 8., 1., 2., 0., 0., 20., 16.,
          5., 5., 0., 1., 0., 1., 2., 3., 1., 4., 3., 2., 4., 5., 4., 3.,
          1., 2., 5., 7., 7., 1., 2., 2., 1., 12., 3., 4., 9., 2., 1.,
          4., 9., 14., 2. ]
      - [ 2., 13., 3., 0., 3., 3., 3., 3., 3., 4., 3., 3., 1., 1., 24.,
          4., 1., 0., 0., 1., 1., 1., 3., 0., 9., 3., 5., 3., 2., 3., 3.,
          3., 4., 8., 4., 1., 6., 2., 4., 6., 11., 0., 4., 0., 4., 3.,
          0., 4., 27., 1. ]
      - [ 0., 12., 5., 0., 5., 0., 4., 2., 6., 6., 4., 2., 8., 8., 9.,
          8., 1., 5., 3., 0., 0., 1., 3., 2., 5., 2., 0., 5., 9., 0., 7.,
          2., 5., 5., 2., 2., 0., 2., 0., 10., 4., 0., 3., 1., 3., 3.,
          4., 7., 19., 6. ]
      - [ 4., 6., 1., 4., 5., 4., 1., 4., 3., 3., 3., 3., 5., 10., 18.,
          0., 2., 1., 1., 2., 0., 3., 1., 0., 0., 1., 1., 2., 0., 11.,
          2., 5., 1., 4., 2., 1., 0., 0., 3., 5., 4., 4., 2., 6., 5., 2.,
          0., 6., 18., 1. ]
      - [ 0., 1., 12., 3., 1., 4., 4., 2., 11., 6., 6., 3., 4., 6., 14.,
          5., 2., 1., 3., 0., 0., 1., 0., 0., 1., 6., 3., 2., 4., 5., 3.,
          2., 1., 7., 2., 2., 4., 0., 1., 9., 11., 2., 1., 18., 7., 0.,
          4., 2., 5., 9. ]
      - [ 0., 0., 0., 3., 2., 5., 14., 3., 4., 1., 4., 0., 4., 20., 12.,
          3., 2., 4., 1., 1., 4., 6., 3., 4., 4., 4., 1., 3., 2., 10.,
          2., 2., 1., 0., 2., 4., 8., 1., 4., 5., 6., 1., 4., 11., 1.,
          4., 2., 6., 7., 5. ]
      - [ 4., 3., 2., 2., 1., 1., 5., 3., 2., 1., 2., 2., 1., 15., 13.,
          5., 0., 0., 0., 1., 3., 1., 1., 7., 1., 3., 2., 3., 2., 0., 0.,
          0., 0., 1., 2., 0., 6., 1., 7., 9., 0., 1., 1., 22., 1., 6.,
          2., 2., 13., 0. ]
      - [ 3., 14., 8., 1., 9., 0., 7., 1., 5., 3., 6., 1., 5., 7., 15.,
          3., 2., 0., 0., 1., 1., 0., 9., 1., 2., 1., 2., 3., 3., 0., 3.,
          1., 4., 1., 2., 2., 6., 7., 3., 3., 3., 3., 1., 11., 2., 11.,
          6., 6., 4., 8. ]
      - [ 6., 1., 3., 4., 0., 4., 8., 3., 2., 1., 2., 0., 3., 8., 18.,
          4., 0., 2., 3., 1., 3., 3., 4., 3., 4., 2., 1., 5., 4., 3., 4.,
          0., 0., 6., 0., 3., 8., 0., 8., 0., 4., 9., 0., 22., 4., 7.,
          3., 4., 7., 6. ]
      - [ 2., 3., 1., 0., 2., 0., 19., 3., 12., 1., 3., 1., 0., 5., 7.,
          2., 0., 3., 4., 1., 1., 1., 5., 6., 0., 1., 0., 4., 0., 1., 3.,
          17., 3., 5., 0., 2., 6., 1., 14., 0., 2., 0., 4., 27., 5., 8.,
          4., 0., 9., 2. ]
      - [ 0., 1., 5., 10., 2., 3., 4., 1., 4., 3., 3., 2., 1., 15., 2.,
          1., 4., 3., 3., 0., 0., 0., 2., 5., 3., 8., 0., 4., 3., 0., 6.,
          1., 2., 3., 2., 3., 7., 5., 15., 8., 4., 4., 5., 11., 4., 3.,
          11., 6., 2., 6. ]
      - [ 1., 2., 10., 3., 6., 2., 2., 0., 4., 3., 12., 10., 4., 2., 6.,
          7., 3., 1., 1., 4., 2., 4., 5., 4., 0., 3., 1., 1., 1., 6., 4.,
          1., 2., 8., 6., 1., 10., 1., 7., 1., 3., 4., 5., 2., 2., 11.,
          6., 3., 6., 7. ]
      - [ 3., 12., 2., 1., 3., 4., 5., 4., 6., 1., 3., 0., 1., 0., 2.,
          5., 0., 0., 0., 0., 1., 0., 1., 1., 7., 0., 3., 2., 4., 3., 1.,
          13., 1., 6., 1., 2., 2., 0., 0., 0., 8., 1., 3., 0., 1., 1.,
          2., 2., 4., 0. ]
      - [ 1., 7., 1., 2., 2., 0., 15., 1., 8., 0., 0., 3., 0., 0., 9.,
          1., 4., 1., 2., 0., 4., 3., 1., 2., 14., 4., 3., 0., 0., 2.,
          1., 14., 4., 1., 6., 4., 3., 5., 0., 0., 6., 0., 6., 0., 4.,
          0., 2., 3., 19., 0. ]
      - [ 0., 14., 3., 3., 5., 4., 10., 1., 6., 1., 1., 2., 1., 2., 3.,
          5., 3., 1., 2., 3., 2., 4., 0., 0., 10., 3., 7., 0., 4., 1.,
          3., 12., 3., 6., 1., 2., 5., 1., 2., 4., 14., 2., 7., 7., 5.,
          1., 5., 4., 7., 8. ]
      - [ 4., 8., 5., 0., 0., 5., 7., 1., 2., 5., 4., 2., 6., 9., 9., 4.,
          3., 0., 2., 1., 2., 1., 1., 0., 2., 0., 0., 0., 6., 3., 7., 0.,
          2., 1., 3., 4., 10., 2., 18., 1., 1., 2., 2., 28., 1., 0., 8.,
          4., 12., 2. ]
      - [ 4., 4., 1., 4., 5., 2., 5., 5., 6., 3., 2., 1., 2., 10., 12.,
          2., 0., 1., 0., 1., 1., 2., 0., 2., 8., 1., 2., 1., 11., 2.,
          3., 4., 0., 5., 3., 4., 6., 4., 6., 11., 10., 2., 2., 17., 4.,
          3., 0., 1., 6., 9. ]
      - [ 1., 3., 2., 3., 4., 2., 9., 0., 5., 1., 3., 3., 2., 6., 6., 2.,
          1., 4., 1., 0., 0., 0., 5., 2., 1., 8., 3., 7., 5., 5., 7., 8.,
          5., 1., 0., 4., 1., 1., 5., 9., 7., 4., 3., 13., 0., 4., 4.,
          5., 16., 9. ]
      - [ 5., 9., 15., 1., 5., 9., 7., 3., 5., 5., 5., 2., 4., 1., 6.,
          8., 2., 2., 2., 0., 1., 1., 1., 2., 7., 3., 9., 10., 2., 1.,
          4., 1., 6., 5., 0., 0., 3., 4., 2., 3., 1., 3., 12., 2., 4.,
          4., 2., 6., 1., 4. ]
      - [ 2., 5., 1., 5., 3., 3., 1., 2., 3., 0., 1., 0., 0., 22., 9.,
          3., 2., 0., 1., 0., 4., 0., 2., 6., 0., 1., 1., 0., 1., 1., 1.,
          0., 2., 3., 4., 3., 4., 5., 11., 2., 2., 6., 3., 19., 3., 6.,
          2., 1., 7., 1. ]
      - [ 7., 0., 9., 0., 2., 4., 2., 3., 2., 4., 1., 3., 2., 0., 6., 4.,
          0., 4., 8., 4., 0., 1., 3., 1., 3., 8., 1., 5., 1., 9., 9., 5.,
          5., 3., 7., 10., 5., 2., 5., 1., 6., 0., 9., 7., 4., 0., 5.,
          8., 6., 6. ]
      - [ 2., 20., 7., 0., 1., 4., 13., 2., 13., 3., 1., 4., 2., 2., 18.,
          1., 2., 1., 1., 0., 1., 1., 4., 2., 5., 4., 4., 1., 3., 5., 0.,
          9., 6., 3., 3., 1., 2., 1., 4., 4., 11., 1., 3., 3., 3., 1.,
          2., 5., 10., 1. ]
      - [ 3., 13., 12., 3., 2., 2., 3., 6., 5., 5., 2., 2., 6., 0., 5.,
          4., 1., 2., 4., 2., 2., 2., 2., 0., 2., 5., 4., 8., 5., 5., 4.,
          8., 4., 8., 1., 1., 5., 1., 2., 2., 6., 1., 10., 0., 7., 0.,
          4., 5., 1., 14. ]
      - [ 0., 15., 5., 1., 6., 2., 6., 1., 6., 0., 3., 2., 2., 1., 13.,
          5., 1., 4., 2., 1., 0., 2., 1., 1., 7., 2., 3., 5., 8., 3., 3.,
          6., 11., 5., 4., 0., 2., 4., 2., 1., 16., 2., 8., 8., 7., 0.,
          4., 1., 5., 3. ]
      - [ 0., 8., 16., 1., 4., 2., 4., 0., 6., 6., 3., 6., 7., 1., 9.,
          5., 6., 3., 3., 0., 0., 0., 1., 1., 5., 8., 3., 10., 2., 2.,
          5., 1., 5., 4., 4., 5., 2., 2., 1., 3., 1., 2., 10., 0., 1.,
          4., 4., 11., 12., 2. ]
      - [ 0., 15., 11., 1., 9., 6., 8., 0., 6., 5., 3., 6., 7., 2., 1.,
          3., 7., 9., 4., 2., 3., 2., 3., 0., 5., 8., 3., 7., 1., 1., 4.,
          5., 5., 1., 0., 5., 4., 1., 0., 0., 6., 2., 7., 0., 2., 1., 3.,
          11., 2., 3. ]
      - [ 3., 18., 12., 1., 1., 1., 6., 7., 6., 4., 4., 4., 4., 8., 16.,
          1., 1., 1., 2., 0., 0., 4., 4., 4., 9., 2., 2., 5., 2., 0., 5.,
          1., 5., 0., 1., 0., 1., 1., 1., 3., 11., 0., 3., 5., 2., 3.,
          2., 8., 6., 10. ]
      - [ 1., 15., 3., 0., 1., 2., 6., 3., 1., 4., 0., 0., 6., 12., 9.,
          7., 0., 3., 8., 1., 0., 2., 0., 0., 2., 8., 4., 10., 2., 9.,
          6., 14., 4., 1., 0., 4., 3., 0., 1., 6., 4., 0., 7., 1., 2.,
          0., 0., 6., 21., 1. ]
      - [ 1., 9., 0., 1., 1., 1., 4., 3., 3., 1., 2., 0., 2., 1., 12.,
          1., 1., 1., 3., 0., 1., 0., 0., 0., 2., 0., 1., 1., 6., 3., 4.,
          7., 1., 4., 4., 1., 3., 2., 4., 3., 2., 1., 5., 2., 1., 1., 4.,
          2., 7., 6. ]
      - [ 0., 2., 1., 4., 2., 2., 3., 0., 4., 1., 6., 1., 3., 22., 12.,
          7., 6., 2., 1., 0., 0., 0., 0., 5., 3., 3., 1., 2., 9., 2., 2.,
          1., 2., 2., 10., 2., 6., 7., 7., 3., 9., 1., 2., 15., 3., 4.,
          2., 1., 17., 0. ]
      - [ 1., 6., 13., 4., 4., 6., 3., 2., 0., 3., 4., 9., 0., 0., 1.,
          2., 2., 7., 5., 0., 0., 1., 1., 1., 6., 14., 7., 10., 3., 5.,
          4., 7., 1., 6., 1., 2., 3., 4., 6., 1., 5., 3., 6., 2., 3., 0.,
          6., 10., 7., 3. ]
      - [ 8., 1., 0., 6., 2., 0., 8., 7., 12., 3., 3., 0., 4., 8., 7.,
          1., 0., 0., 3., 3., 6., 2., 0., 3., 1., 0., 2., 1., 7., 1., 3.,
          0., 1., 4., 0., 3., 9., 0., 10., 7., 6., 5., 0., 21., 2., 3.,
          6., 5., 7., 5. ]
      - [ 5., 0., 0., 1., 6., 2., 3., 3., 6., 2., 5., 0., 2., 20., 6.,
          2., 3., 2., 2., 3., 4., 1., 2., 5., 2., 1., 2., 1., 7., 1., 5.,
          2., 1., 9., 0., 1., 6., 0., 9., 4., 5., 7., 1., 27., 4., 8.,
          2., 1., 4., 6. ]
      - [ 1., 13., 3., 1., 6., 0., 6., 0., 10., 1., 3., 2., 1., 5., 19.,
          3., 4., 3., 3., 0., 0., 0., 3., 4., 10., 1., 1., 2., 4., 1.,
          1., 12., 7., 2., 1., 0., 4., 1., 2., 1., 10., 1., 6., 9., 3.,
          4., 5., 7., 7., 7. ]
      - [ 2., 0., 5., 7., 4., 1., 3., 2., 1., 7., 2., 4., 1., 10., 3.,
          4., 6., 4., 1., 2., 3., 0., 1., 4., 4., 1., 2., 2., 6., 2., 2.,
          10., 3., 4., 3., 2., 8., 1., 13., 4., 3., 8., 5., 12., 4., 2.,
          7., 4., 5., 6. ]
      - [ 0., 8., 14., 0., 1., 7., 4., 3., 6., 3., 6., 5., 1., 0., 2.,
          1., 1., 3., 0., 0., 2., 0., 3., 2., 7., 6., 4., 2., 1., 5., 1.,
          29., 13., 1., 4., 2., 2., 4., 2., 1., 4., 0., 13., 0., 3., 1.,
          5., 8., 9., 1. ]
      - [ 5., 9., 1., 0., 4., 3., 4., 5., 6., 5., 3., 3., 7., 0., 20.,
          4., 3., 2., 0., 2., 1., 2., 2., 1., 3., 3., 3., 2., 5., 2., 1.,
          3., 4., 6., 4., 3., 5., 5., 2., 7., 5., 2., 5., 2., 2., 4., 1.,
          5., 17., 7. ]
      - [ 4., 0., 0., 6., 3., 2., 7., 5., 1., 0., 5., 0., 3., 18., 4.,
          4., 3., 0., 1., 3., 3., 2., 0., 1., 4., 0., 0., 0., 11., 6.,
          1., 1., 1., 8., 1., 2., 2., 0., 8., 5., 6., 3., 0., 45., 2.,
          1., 4., 1., 2., 11. ]
      - [ 1., 19., 18., 2., 2., 2., 4., 2., 6., 2., 4., 2., 5., 2., 3.,
          1., 2., 4., 6., 0., 1., 0., 0., 1., 6., 4., 3., 6., 0., 3., 3.,
          12., 11., 1., 8., 3., 1., 4., 2., 5., 7., 2., 10., 2., 3., 1.,
          1., 7., 3., 3. ]
      - [ 3., 11., 4., 4., 3., 3., 4., 2., 2., 1., 2., 1., 2., 0., 5.,
          3., 1., 2., 4., 0., 2., 1., 3., 0., 1., 0., 2., 7., 0., 1., 3.,
          3., 4., 8., 1., 2., 5., 6., 9., 7., 4., 4., 1., 5., 5., 1., 3.,
          10., 7., 10. ]
      - [ 3., 15., 10., 1., 5., 4., 3., 2., 1., 2., 3., 2., 1., 5., 20.,
          3., 2., 2., 1., 2., 0., 3., 2., 5., 3., 0., 3., 2., 3., 7., 2.,
          5., 5., 3., 4., 0., 6., 3., 6., 6., 4., 2., 1., 1., 3., 0., 2.,
          2., 28., 2. ]
      - [ 2., 2., 3., 4., 9., 5., 12., 4., 10., 2., 6., 1., 0., 4., 5.,
          6., 2., 2., 0., 1., 1., 1., 2., 8., 6., 0., 0., 1., 8., 0., 1.,
          0., 3., 4., 1., 3., 4., 2., 10., 4., 12., 4., 1., 16., 3., 3.,
          11., 2., 1., 8. ]
      - [ 0., 5., 4., 1., 9., 2., 5., 4., 5., 6., 4., 7., 6., 1., 1., 1.,
          3., 6., 2., 0., 0., 0., 0., 1., 8., 2., 4., 3., 1., 2., 4.,
          18., 9., 6., 1., 6., 3., 0., 1., 5., 12., 0., 10., 6., 7., 1.,
          3., 7., 2., 6. ]
      - [ 0., 1., 2., 4., 2., 1., 16., 0., 4., 2., 0., 0., 0., 6., 10.,
          4., 1., 4., 1., 1., 1., 1., 0., 0., 9., 8., 6., 1., 0., 1., 4.,
          1., 3., 4., 4., 3., 5., 2., 16., 4., 10., 2., 1., 15., 1., 2.,
          10., 3., 24., 2. ]
      - [ 2., 5., 2., 4., 7., 1., 5., 5., 4., 2., 3., 4., 1., 6., 2., 7.,
          0., 5., 2., 0., 3., 6., 2., 0., 5., 4., 3., 4., 9., 3., 7., 0.,
          5., 5., 3., 6., 6., 2., 12., 12., 11., 3., 4., 3., 2., 4., 2.,
          1., 4., 2. ]
      - [ 3., 14., 12., 2., 5., 3., 4., 2., 2., 12., 1., 6., 4., 1., 8.,
          5., 0., 2., 3., 0., 3., 4., 1., 2., 3., 4., 1., 2., 0., 0., 3.,
          11., 7., 7., 6., 2., 4., 6., 0., 4., 4., 0., 9., 2., 4., 0.,
          3., 7., 9., 3. ]
      - [ 2., 3., 1., 6., 3., 1., 10., 2., 7., 2., 6., 2., 6., 13., 6.,
          5., 0., 2., 1., 5., 0., 4., 0., 5., 7., 3., 4., 3., 5., 5., 0.,
          1., 3., 4., 3., 7., 7., 3., 5., 2., 5., 7., 1., 10., 5., 3.,
          3., 2., 4., 6. ]
      - [ 2., 8., 10., 4., 4., 4., 1., 1., 3., 12., 3., 7., 6., 9., 2.,
          4., 14., 1., 2., 1., 2., 1., 1., 0., 6., 1., 2., 2., 0., 1.,
          3., 9., 2., 4., 2., 0., 3., 4., 0., 0., 8., 0., 2., 29., 1.,
          0., 1., 5., 12., 1. ]
      - [ 1., 5., 1., 4., 2., 0., 10., 1., 3., 1., 2., 2., 2., 5., 2.,
          4., 1., 3., 2., 2., 0., 0., 1., 1., 6., 2., 2., 5., 5., 1., 1.,
          0., 2., 2., 2., 3., 3., 1., 9., 5., 8., 6., 6., 5., 4., 1., 2.,
          4., 7., 2. ]
      - [ 2., 2., 0., 4., 4., 4., 5., 2., 9., 1., 3., 2., 3., 9., 8., 3.,
          3., 2., 5., 3., 5., 1., 2., 4., 9., 7., 5., 2., 2., 10., 6.,
          3., 2., 3., 5., 4., 5., 0., 6., 1., 9., 5., 4., 6., 1., 1., 1.,
          1., 8., 8. ]
      - [ 1., 6., 6., 1., 7., 3., 2., 3., 4., 1., 4., 4., 3., 7., 7., 2.,
          3., 3., 1., 2., 3., 3., 2., 1., 8., 2., 3., 2., 2., 4., 4., 9.,
          5., 3., 2., 6., 8., 4., 5., 2., 13., 3., 4., 7., 6., 4., 2.,
          1., 6., 6. ]
      - [ 3., 1., 1., 4., 7., 2., 0., 4., 8., 4., 2., 3., 3., 9., 4., 3.,
          5., 1., 2., 1., 6., 8., 0., 2., 3., 2., 5., 1., 5., 4., 5., 0.,
          2., 4., 0., 4., 13., 0., 7., 11., 13., 3., 1., 9., 3., 2., 1.,
          2., 7., 8. ]
      - [ 0., 3., 1., 5., 7., 4., 17., 1., 8., 6., 3., 5., 1., 1., 3.,
          1., 12., 3., 1., 4., 0., 1., 1., 1., 4., 5., 2., 2., 10., 0.,
          0., 3., 8., 8., 2., 2., 5., 2., 4., 3., 9., 5., 5., 6., 2., 1.,
          10., 2., 3., 8. ]
      - [ 3., 9., 3., 1., 4., 3., 3., 1., 2., 1., 1., 1., 5., 0., 25.,
          6., 1., 3., 1., 0., 0., 0., 3., 2., 2., 5., 5., 5., 5., 5., 4.,
          2., 9., 5., 6., 4., 2., 6., 3., 12., 3., 1., 6., 2., 1., 5.,
          6., 1., 12., 5. ]
      - [ 1., 11., 4., 1., 0., 4., 4., 4., 12., 1., 1., 1., 6., 6., 13.,
          1., 1., 2., 1., 0., 1., 0., 3., 1., 1., 3., 5., 2., 13., 6.,
          6., 2., 2., 5., 4., 2., 0., 1., 0., 11., 13., 1., 4., 10., 6.,
          2., 4., 3., 8., 7. ]
      - [ 2., 6., 1., 5., 5., 2., 7., 9., 6., 0., 4., 2., 3., 10., 6.,
          6., 4., 1., 4., 2., 4., 3., 3., 1., 3., 5., 4., 1., 3., 5., 6.,
          5., 2., 8., 2., 6., 6., 2., 5., 1., 5., 1., 2., 5., 7., 4., 4.,
          1., 6., 5. ]
      - [ 2., 7., 7., 3., 6., 3., 4., 4., 1., 0., 1., 5., 1., 8., 6., 6.,
          1., 1., 2., 2., 3., 0., 3., 1., 5., 6., 4., 5., 4., 3., 3., 8.,
          8., 5., 1., 1., 12., 0., 7., 4., 2., 4., 6., 9., 4., 3., 4.,
          3., 7., 5. ]
      - [ 6., 19., 2., 2., 4., 0., 8., 8., 7., 3., 2., 3., 2., 2., 7.,
          5., 3., 2., 0., 1., 1., 5., 1., 1., 15., 4., 2., 0., 3., 2.,
          4., 19., 6., 2., 0., 1., 3., 0., 2., 2., 9., 1., 8., 2., 8.,
          0., 3., 2., 4., 4. ]
      - [ 10., 2., 4., 0., 2., 0., 5., 7., 8., 1., 5., 1., 0., 8., 15.,
          3., 1., 3., 0., 1., 2., 3., 2., 3., 9., 4., 1., 4., 3., 4., 5.,
          1., 3., 5., 3., 3., 3., 4., 6., 15., 7., 3., 4., 8., 3., 1.,
          4., 4., 4., 3. ]
      - [ 5., 15., 1., 5., 3., 2., 4., 4., 3., 1., 3., 3., 1., 11., 5.,
          4., 7., 0., 4., 2., 4., 1., 1., 1., 11., 1., 6., 2., 6., 0.,
          3., 12., 2., 6., 1., 0., 2., 0., 14., 3., 4., 2., 2., 8., 4.,
          2., 2., 3., 9., 5. ]
      - [ 4., 4., 0., 1., 7., 2., 3., 4., 2., 2., 4., 1., 5., 5., 12.,
          6., 2., 1., 1., 2., 0., 1., 1., 1., 11., 1., 7., 5., 11., 3.,
          1., 0., 6., 5., 0., 1., 5., 2., 3., 12., 10., 3., 6., 6., 8.,
          2., 4., 5., 7., 5. ]
      - [ 1., 12., 2., 2., 1., 1., 4., 1., 5., 0., 4., 0., 2., 1., 9.,
          2., 5., 0., 1., 0., 0., 1., 4., 0., 6., 2., 2., 2., 1., 0., 2.,
          2., 4., 1., 0., 1., 5., 1., 3., 7., 3., 4., 3., 6., 3., 2., 1.,
          0., 25., 2. ]
      - [ 2., 20., 7., 3., 2., 3., 5., 6., 5., 3., 1., 2., 0., 3., 2.,
          7., 3., 1., 2., 1., 2., 3., 2., 2., 1., 1., 2., 4., 9., 0., 3.,
          3., 5., 8., 4., 1., 12., 2., 7., 3., 6., 2., 4., 4., 8., 1.,
          1., 6., 5., 11. ]
      - [ 0., 1., 5., 4., 3., 3., 11., 1., 3., 1., 3., 4., 3., 18., 11.,
          3., 0., 4., 2., 1., 0., 0., 1., 2., 10., 11., 3., 1., 4., 1.,
          2., 4., 3., 5., 1., 2., 11., 0., 8., 3., 7., 0., 3., 8., 1.,
          4., 1., 3., 15., 5. ]
      - [ 4., 13., 3., 2., 0., 1., 4., 8., 3., 1., 3., 2., 1., 11., 30.,
          2., 0., 0., 1., 1., 1., 4., 1., 5., 0., 0., 6., 0., 3., 1., 3.,
          6., 1., 3., 1., 2., 4., 2., 1., 14., 5., 5., 1., 11., 2., 3.,
          2., 1., 16., 6. ]
      - [ 2., 5., 2., 0., 3., 5., 4., 3., 12., 4., 4., 1., 4., 4., 2.,
          6., 3., 1., 2., 0., 0., 2., 1., 0., 1., 0., 6., 7., 1., 7., 4.,
          1., 2., 4., 4., 1., 10., 1., 14., 0., 12., 2., 1., 25., 6., 1.,
          3., 3., 7., 7. ]
      - [ 2., 8., 5., 1., 5., 2., 6., 3., 6., 2., 4., 3., 3., 3., 15.,
          1., 1., 0., 1., 0., 0., 0., 2., 2., 2., 4., 2., 13., 1., 0.,
          3., 6., 6., 4., 7., 3., 1., 5., 3., 5., 6., 0., 2., 0., 3., 4.,
          7., 12., 22., 4. ]
      - [ 2., 5., 1., 4., 2., 3., 8., 0., 2., 2., 8., 3., 3., 2., 7., 3.,
          2., 2., 2., 0., 2., 1., 2., 0., 1., 3., 6., 3., 2., 2., 0., 0.,
          2., 5., 1., 5., 3., 5., 2., 7., 3., 5., 4., 2., 3., 0., 3., 1.,
          2., 0. ]
      - [ 2., 7., 8., 3., 3., 4., 6., 5., 8., 3., 3., 1., 2., 3., 4., 6.,
          3., 1., 7., 3., 2., 3., 2., 2., 4., 4., 7., 4., 1., 2., 9., 2.,
          3., 6., 3., 3., 8., 1., 10., 7., 10., 4., 3., 2., 1., 1., 1.,
          4., 5., 4. ]
      - [ 0., 4., 6., 5., 7., 1., 7., 2., 2., 2., 5., 3., 5., 1., 2., 6.,
          1., 3., 1., 2., 0., 0., 2., 3., 5., 2., 3., 6., 4., 3., 1., 2.,
          4., 2., 6., 3., 5., 4., 7., 2., 5., 3., 11., 19., 7., 2., 10.,
          7., 1., 6. ]
      - [ 0., 14., 14., 1., 11., 1., 3., 2., 3., 7., 2., 5., 0., 1., 0.,
          4., 1., 2., 1., 1., 1., 0., 3., 1., 6., 1., 3., 10., 1., 2.,
          3., 14., 8., 3., 6., 0., 5., 3., 7., 0., 3., 2., 10., 6., 6.,
          1., 1., 14., 3., 4. ]
      - [ 1., 0., 1., 8., 3., 3., 4., 5., 5., 2., 3., 3., 1., 33., 6.,
          1., 1., 2., 1., 3., 1., 3., 1., 8., 0., 3., 0., 0., 5., 3., 3.,
          0., 0., 1., 0., 4., 5., 0., 8., 9., 1., 8., 0., 28., 2., 4.,
          3., 2., 9., 3. ]
      - [ 1., 7., 4., 3., 10., 0., 7., 2., 7., 4., 4., 2., 5., 5., 2.,
          4., 3., 2., 1., 2., 2., 2., 3., 1., 3., 4., 2., 3., 2., 4., 3.,
          9., 6., 7., 3., 2., 8., 3., 7., 3., 6., 3., 6., 10., 4., 2.,
          8., 3., 0., 6. ]
      - [ 3., 2., 0., 6., 1., 6., 6., 2., 3., 3., 5., 0., 1., 13., 7.,
          4., 1., 0., 4., 2., 2., 0., 1., 1., 5., 0., 3., 1., 5., 2., 4.,
          0., 2., 6., 1., 6., 13., 1., 12., 4., 2., 7., 1., 16., 8., 4.,
          6., 1., 7., 10. ]
      - [ 0., 1., 0., 7., 1., 3., 8., 1., 8., 3., 0., 0., 1., 22., 6.,
          1., 2., 0., 0., 0., 1., 1., 0., 4., 10., 2., 3., 3., 7., 1.,
          2., 0., 2., 2., 2., 0., 7., 0., 6., 3., 11., 3., 4., 46., 4.,
          2., 4., 1., 0., 6. ]
      - [ 5., 4., 1., 3., 4., 1., 10., 3., 2., 7., 3., 2., 6., 4., 18.,
          6., 1., 2., 1., 4., 1., 2., 2., 2., 5., 3., 4., 4., 4., 0., 5.,
          2., 2., 5., 2., 3., 3., 2., 7., 1., 6., 2., 2., 18., 1., 2.,
          5., 4., 11., 3. ]
      - [ 0., 6., 0., 1., 2., 2., 4., 2., 1., 0., 1., 2., 2., 10., 3.,
          2., 2., 1., 0., 2., 0., 2., 1., 1., 8., 3., 1., 1., 3., 4., 3.,
          9., 4., 3., 1., 3., 4., 0., 7., 6., 4., 5., 10., 19., 3., 0.,
          5., 1., 5., 4. ]
      - [ 2., 0., 2., 9., 4., 5., 5., 2., 5., 5., 5., 6., 3., 3., 3., 5.,
          4., 7., 4., 5., 0., 2., 0., 8., 3., 5., 0., 1., 2., 1., 5., 0.,
          0., 1., 1., 3., 8., 0., 14., 2., 4., 10., 3., 18., 3., 4., 4.,
          3., 4., 7. ]
      - [ 2., 1., 1., 3., 0., 0., 5., 4., 4., 3., 0., 0., 1., 17., 8.,
          3., 3., 1., 1., 1., 4., 3., 0., 8., 5., 1., 2., 1., 16., 3.,
          3., 4., 0., 6., 1., 6., 12., 2., 7., 4., 7., 4., 1., 10., 7.,
          5., 1., 4., 13., 2. ]
      - [ 1., 14., 1., 1., 2., 3., 4., 2., 9., 1., 3., 0., 0., 5., 14.,
          3., 0., 0., 0., 1., 1., 4., 2., 0., 11., 0., 5., 3., 5., 5.,
          0., 16., 1., 2., 4., 3., 1., 1., 2., 4., 8., 1., 4., 1., 1.,
          0., 4., 1., 9., 0. ]
      - [ 3., 8., 0., 3., 3., 7., 5., 5., 6., 2., 7., 1., 6., 6., 7., 5.,
          2., 2., 5., 6., 1., 0., 2., 4., 5., 2., 5., 2., 6., 2., 2., 1.,
          3., 6., 3., 1., 9., 4., 5., 2., 4., 4., 1., 13., 6., 2., 4.,
          2., 2., 8. ]
      - [ 3., 4., 0., 0., 3., 2., 2., 1., 2., 1., 1., 1., 3., 6., 21.,
          4., 4., 1., 1., 2., 3., 1., 1., 1., 3., 1., 1., 3., 5., 3., 0.,
          2., 2., 5., 10., 1., 4., 5., 2., 1., 5., 5., 4., 3., 2., 1.,
          4., 5., 15., 7. ]
      - [ 3., 1., 3., 7., 4., 1., 5., 3., 3., 2., 5., 1., 2., 32., 4.,
          2., 0., 0., 1., 5., 8., 1., 0., 7., 4., 2., 0., 0., 4., 0., 5.,
          0., 0., 3., 2., 2., 8., 1., 10., 2., 4., 6., 0., 21., 4., 5.,
          10., 0., 3., 4. ]
      - [ 2., 10., 30., 0., 6., 7., 2., 3., 2., 11., 3., 7., 7., 1., 1.,
          4., 2., 8., 2., 1., 2., 2., 0., 1., 2., 6., 1., 7., 0., 2., 3.,
          6., 8., 3., 1., 2., 1., 5., 3., 0., 0., 0., 10., 3., 4., 0.,
          1., 13., 2., 3. ]
      - [ 0., 6., 0., 4., 3., 1., 5., 0., 6., 0., 4., 2., 1., 18., 13.,
          2., 1., 1., 3., 0., 1., 1., 2., 2., 1., 6., 3., 0., 3., 13.,
          1., 2., 6., 0., 1., 3., 4., 0., 7., 7., 8., 1., 6., 25., 0.,
          0., 7., 0., 17., 3. ]
      - [ 2., 12., 1., 0., 5., 2., 14., 3., 13., 0., 2., 2., 1., 13.,
          13., 3., 2., 0., 1., 0., 3., 0., 4., 1., 3., 0., 3., 2., 3.,
          3., 3., 5., 7., 2., 5., 0., 8., 5., 3., 5., 4., 4., 7., 10.,
          4., 0., 1., 3., 12., 1. ]
      - [ 1., 13., 0., 1., 0., 2., 5., 1., 12., 3., 2., 2., 2., 8., 34.,
          0., 1., 2., 1., 0., 0., 0., 5., 2., 6., 0., 1., 0., 2., 6., 1.,
          3., 7., 0., 1., 2., 0., 2., 0., 5., 10., 3., 6., 1., 0., 5.,
          1., 3., 38., 0. ]
      - [ 0., 6., 3., 3., 3., 1., 9., 1., 12., 1., 5., 2., 2., 2., 9.,
          2., 1., 4., 2., 0., 0., 2., 5., 5., 16., 5., 5., 0., 5., 6.,
          2., 12., 7., 1., 5., 1., 1., 5., 1., 7., 9., 1., 11., 0., 2.,
          8., 3., 2., 5., 0. ]
      - [ 2., 1., 3., 7., 5., 2., 6., 3., 4., 2., 5., 2., 2., 12., 1.,
          5., 3., 3., 3., 2., 3., 0., 0., 7., 6., 2., 2., 2., 8., 1., 4.,
          0., 0., 4., 2., 4., 9., 0., 13., 3., 9., 1., 0., 21., 11., 8.,
          2., 2., 1., 2. ]
      - [ 7., 4., 1., 2., 3., 0., 5., 5., 2., 0., 6., 1., 1., 19., 25.,
          5., 2., 3., 2., 1., 3., 2., 2., 1., 1., 3., 2., 3., 3., 11.,
          1., 1., 2., 1., 0., 1., 6., 0., 11., 1., 13., 6., 2., 19., 0.,
          3., 4., 1., 3., 0. ]
      - [ 0., 2., 1., 1., 1., 2., 7., 0., 3., 1., 2., 0., 1., 5., 23.,
          1., 2., 1., 0., 1., 0., 1., 5., 2., 5., 3., 3., 3., 6., 1., 0.,
          10., 3., 2., 9., 3., 2., 8., 11., 3., 6., 3., 1., 22., 0., 4.,
          3., 1., 23., 3. ]
      - [ 2., 17., 15., 3., 5., 4., 2., 1., 2., 2., 2., 5., 1., 0., 4.,
          4., 0., 4., 3., 1., 0., 0., 6., 1., 4., 5., 5., 12., 1., 1.,
          5., 8., 10., 3., 5., 1., 3., 5., 1., 4., 7., 2., 10., 3., 4.,
          0., 2., 12., 3., 0. ]
      - [ 0., 20., 1., 2., 3., 5., 5., 9., 8., 1., 2., 2., 1., 1., 17.,
          5., 4., 2., 2., 1., 6., 3., 2., 1., 3., 0., 1., 3., 0., 0., 0.,
          4., 7., 3., 6., 3., 3., 3., 6., 3., 13., 3., 6., 4., 8., 1.,
          1., 7., 9., 0. ]
      - [ 6., 6., 1., 1., 4., 1., 0., 6., 1., 4., 3., 3., 3., 10., 7.,
          11., 5., 1., 0., 1., 4., 1., 2., 2., 3., 6., 0., 2., 5., 8.,
          3., 6., 3., 7., 3., 2., 5., 4., 6., 5., 4., 5., 7., 6., 6., 2.,
          5., 0., 11., 4. ]
      - [ 1., 5., 0., 6., 5., 2., 7., 4., 4., 2., 2., 1., 2., 25., 11.,
          1., 0., 0., 0., 0., 0., 2., 1., 1., 6., 1., 2., 1., 6., 7., 3.,
          2., 1., 1., 3., 4., 7., 1., 5., 5., 1., 7., 0., 22., 5., 2.,
          4., 2., 19., 1. ]
      - [ 1., 8., 1., 1., 3., 4., 8., 1., 10., 1., 1., 1., 1., 6., 7.,
          4., 2., 1., 3., 1., 1., 2., 0., 6., 8., 5., 4., 2., 7., 3., 4.,
          4., 2., 4., 4., 2., 7., 4., 11., 2., 10., 5., 3., 17., 6., 2.,
          1., 2., 1., 6. ]
      - [ 0., 10., 8., 1., 7., 1., 4., 2., 8., 1., 3., 4., 2., 12., 14.,
          5., 2., 2., 2., 1., 1., 1., 6., 5., 7., 0., 0., 4., 7., 2., 1.,
          6., 1., 3., 5., 2., 3., 6., 4., 6., 8., 0., 4., 8., 2., 4., 1.,
          3., 10., 1. ]
      - [ 0., 1., 1., 3., 1., 3., 11., 3., 13., 1., 4., 0., 0., 12., 5.,
          3., 4., 0., 1., 1., 4., 1., 0., 1., 6., 1., 5., 2., 1., 6., 2.,
          0., 0., 2., 2., 0., 3., 1., 3., 1., 9., 2., 3., 6., 5., 3., 1.,
          2., 6., 5. ]
      - [ 5., 7., 3., 2., 9., 0., 1., 5., 3., 3., 4., 1., 7., 6., 17.,
          5., 2., 3., 3., 2., 1., 3., 7., 2., 2., 0., 3., 2., 2., 5., 4.,
          0., 1., 4., 1., 5., 2., 4., 5., 7., 1., 2., 0., 9., 2., 13.,
          2., 3., 10., 10. ]
      - [ 0., 4., 0., 5., 7., 8., 30., 0., 10., 3., 2., 1., 7., 2., 0.,
          0., 10., 1., 0., 1., 3., 3., 0., 2., 6., 4., 3., 0., 5., 0.,
          1., 0., 6., 0., 4., 0., 5., 2., 7., 3., 7., 10., 6., 15., 4.,
          3., 2., 4., 0., 4. ]
      - [ 0., 7., 2., 0., 1., 2., 3., 1., 2., 1., 0., 0., 1., 0., 7., 5.,
          0., 3., 0., 0., 2., 1., 0., 0., 2., 0., 2., 1., 1., 0., 0.,
          15., 3., 4., 0., 0., 3., 1., 5., 3., 3., 1., 4., 0., 1., 0.,
          2., 3., 7., 6. ]
      - [ 2., 6., 4., 4., 12., 5., 6., 3., 9., 4., 1., 0., 3., 1., 10.,
          8., 0., 4., 2., 3., 0., 3., 4., 2., 7., 3., 5., 3., 4., 3., 5.,
          2., 2., 8., 6., 2., 3., 3., 1., 4., 3., 1., 6., 1., 9., 2., 1.,
          1., 10., 9. ]
      - [ 4., 2., 1., 2., 1., 1., 7., 4., 4., 1., 2., 0., 2., 20., 34.,
          3., 2., 2., 0., 1., 3., 1., 1., 2., 2., 1., 1., 0., 13., 12.,
          2., 3., 1., 2., 1., 0., 5., 0., 6., 4., 12., 4., 0., 7., 1.,
          3., 3., 1., 14., 2. ]
      - [ 0., 0., 0., 0., 1., 2., 0., 0., 1., 0., 0., 1., 1., 4., 1., 0.,
          1., 0., 0., 0., 0., 0., 1., 0., 2., 2., 1., 1., 1., 3., 0., 0.,
          2., 0., 2., 0., 3., 4., 4., 0., 2., 1., 1., 4., 0., 4., 2., 0.,
          2., 0. ]
      - [ 1., 5., 1., 1., 5., 2., 4., 2., 8., 0., 3., 1., 3., 4., 29.,
          6., 2., 0., 4., 1., 0., 0., 5., 0., 1., 0., 1., 4., 10., 6.,
          1., 3., 0., 4., 9., 3., 3., 11., 1., 8., 14., 3., 1., 0., 7.,
          6., 5., 2., 9., 1. ]
      - [ 4., 4., 1., 2., 3., 4., 6., 10., 3., 3., 0., 2., 3., 9., 5.,
          3., 3., 3., 2., 2., 2., 1., 1., 1., 5., 2., 2., 2., 3., 2., 5.,
          9., 3., 6., 2., 5., 7., 1., 12., 4., 6., 4., 3., 19., 9., 1.,
          5., 1., 3., 2. ]
      - [ 1., 3., 2., 3., 4., 1., 1., 6., 8., 6., 6., 4., 5., 5., 7., 4.,
          3., 9., 3., 0., 2., 2., 1., 1., 2., 3., 7., 3., 5., 5., 1., 7.,
          2., 9., 1., 4., 10., 1., 3., 3., 4., 4., 3., 2., 8., 3., 4.,
          8., 4., 7. ]
      - [ 0., 1., 0., 3., 1., 3., 7., 1., 6., 0., 2., 0., 1., 17., 13.,
          4., 2., 2., 3., 0., 1., 0., 0., 0., 4., 2., 4., 3., 4., 3., 1.,
          1., 2., 3., 1., 4., 4., 0., 5., 5., 8., 4., 2., 13., 4., 3.,
          5., 2., 2., 4. ]
      - [ 2., 5., 2., 5., 3., 0., 2., 5., 1., 1., 3., 3., 0., 4., 5., 5.,
          3., 4., 4., 1., 2., 3., 0., 1., 4., 5., 2., 2., 3., 4., 5., 1.,
          4., 7., 4., 1., 1., 1., 2., 7., 4., 1., 7., 0., 2., 1., 4., 1.,
          6., 3. ]
      - [ 2., 13., 4., 5., 2., 4., 7., 3., 6., 4., 4., 2., 2., 9., 12.,
          1., 3., 2., 2., 0., 0., 0., 1., 2., 10., 0., 1., 4., 3., 3.,
          1., 3., 7., 5., 5., 0., 5., 2., 3., 6., 7., 4., 7., 8., 2., 1.,
          2., 7., 9., 5. ]
      - [ 3., 4., 0., 7., 4., 2., 4., 3., 5., 5., 2., 2., 5., 6., 5., 4.,
          4., 1., 2., 4., 5., 5., 2., 5., 3., 3., 6., 2., 4., 6., 2., 1.,
          1., 4., 4., 3., 7., 0., 6., 4., 8., 5., 2., 12., 5., 5., 3.,
          0., 1., 14. ]
   decision_functions:
      -
         sv_count: 358
         rho: -1.0023715971534515e+000
         alpha: [ 5.9708691094963282e-002, 1.9455554925859746e-002,
             1.0000000000000001e-001, 1.4609607717608551e-002,
             7.0354574629570253e-003, 2.2058804184918175e-003,
             2.0193200421971401e-003, 1.5029462392705006e-002,
             2.4122108567367854e-003, 2.6332090386412262e-002,
             7.0102007857275779e-003, 4.5052911434385534e-003,
             7.5979835197897611e-002, 5.8993145868353894e-003,
             1.4197234103939570e-002, 8.9269726692685444e-002,
             1.7186638447782020e-002, 9.5750979011357644e-003,
             1.9159455387761235e-002, 1.4773547810821108e-003,
             5.7556715998399914e-003, 1.8658738581772234e-003,
             4.4236917273862402e-003, 4.8539572742615868e-002,
             1.4310519349606893e-002, 2.3487939393808895e-002,
             2.2728930708523871e-003, 2.6388065260800333e-003,
             1.2816392698350278e-003, 1.3141825244181906e-003,
             5.4350949646581595e-003, 8.6794395408070334e-003,
             2.5174165067447286e-002, 2.4652337486648014e-003,
             1.5690761170886129e-003, 4.6947077204741235e-002,
             1.0000000000000001e-001, 3.6141728420062941e-002,
             1.0000000000000001e-001, 3.7425545085627340e-003,
             9.5199879355394187e-002, 7.9551624835396371e-003,
             1.2839064480297530e-002, 1.4531523008258272e-002,
             1.9043139319886750e-002, 1.1259853794930764e-003,
             6.8519480229201611e-004, 2.2257753596049020e-003,
             1.4321165465616698e-003, 1.2971652172790806e-002,
             5.7238310650607107e-003, 1.0332187435766760e-003,
             3.5036776022273071e-002, 4.4248216284050138e-002,
             1.0000000000000001e-001, 7.4437736794118955e-003,
             1.0167553240347148e-002, 5.0393751507016096e-003,
             5.9462661958198425e-003, 1.1395391795312706e-002,
             4.2569129486178031e-003, 1.0000000000000001e-001,
             2.5234686679324126e-003, 4.2815300170412109e-003,
             1.0429303550891710e-002, 1.0000000000000001e-001,
             4.5037842119813043e-003, 1.9130458463147183e-002,
             7.6574408119242113e-002, 1.6835086393634908e-002,
             1.0133477307677722e-003, 3.7296465256209922e-002,
             9.7243257612804411e-004, 1.2273571924411622e-002,
             3.4194659354048272e-002, 1.2601874819482710e-002,
             9.3855087589580249e-002, 2.4151530883635957e-003,
             8.3708996065555413e-003, 1.3537507616578308e-002,
             1.7549661063562733e-003, 6.2741237608685534e-003,
             1.1608294235750076e-002, 7.6846073250184700e-003,
             1.0000000000000001e-001, 1.0000000000000001e-001,
             7.6323838801150461e-004, 1.2292688740843482e-003,
             1.5815236477166638e-003, 7.6009122540931506e-003,
             2.1180654355038804e-002, 1.0000000000000001e-001,
             3.4727825155477640e-003, 7.4667513187225368e-003,
             4.8675028958803023e-003, 5.6613128141989010e-002,
             1.0000000000000001e-001, 1.2643470777657893e-003,
             5.0895643924485791e-002, 2.5939795544465218e-002,
             1.8853616783202465e-002, 3.7846545291431284e-002,
             4.1361584999546298e-003, 9.6958447934912331e-002,
             2.5832210039088976e-003, 5.7237213992255235e-003,
             4.2366830430919322e-002, 1.0122889211934779e-003,
             3.5326495000890815e-002, 1.9723305406564536e-002,
             7.6640450223837784e-003, 4.1988644815089807e-002,
             4.5032442471947785e-003, 2.3158849216378372e-002,
             1.1638947243443035e-003, 4.1981637242865313e-003,
             1.8362927667979942e-003, 3.1306510189491557e-002,
             8.3728276914065442e-003, 1.0000000000000001e-001,
             2.4530185318613314e-003, 7.2497853987693144e-003,
             3.4911253838410387e-003, 1.4342014985843610e-003,
             2.0505372498059162e-003, 1.6617978072048317e-002,
             3.5250950891403672e-003, 5.5932688119582116e-002,
             1.1351310689683916e-002, 6.1386918323173608e-003,
             2.9639359085090685e-002, 2.9969989689269831e-002,
             1.7223482135451447e-002, 1.0000000000000001e-001,
             1.3784204222555855e-003, 3.2429886665998713e-003,
             3.8177880157094905e-003, 8.7755903203494239e-003,
             2.5686190270434815e-002, 5.4476277084837916e-003,
             3.3296789493801812e-003, 3.4406311435244714e-003,
             1.0000000000000001e-001, 7.7979864529144193e-003,
             3.4026061871214744e-003, 3.4529584609342338e-003,
             2.0861430651308546e-002, 4.3442915633586647e-002,
             4.6230110426990047e-003, 3.9815855349898382e-003,
             1.0000000000000001e-001, 1.8076095260588882e-003,
             6.6545872018097139e-003, 1.2003218528156970e-003,
             3.5338917838911555e-003, 1.4147382158092246e-002,
             1.7493510780795338e-002, 9.6974960928411444e-003,
             1.7299487538163096e-002, 1.9082597728057912e-002,
             2.1413076326503326e-003, 1.4382825258472280e-002,
             8.4906741974454150e-002, 3.1565274402520012e-003,
             3.9779142768123811e-003, 3.8560777214730370e-002,
             3.9811643657426454e-002, 9.3731843335238499e-002,
             7.5767626517684997e-002, 1.3149231950022672e-002,
             1.6692112826450042e-002, 6.6004411510216573e-003,
             4.8638620537211976e-004, 4.9362918541589621e-003,
             1.0000000000000001e-001, 1.1600835916751365e-003,
             8.1563496759920768e-003, 9.9232301792181732e-002,
             2.0357531651164384e-002, 1.0520486303028240e-002,
             6.5739104553471372e-002, 8.4248758960274396e-004,
             7.4323679175157514e-003, 7.3947313233544924e-003,
             7.7382753125246201e-002, 6.1810124014090181e-002,
             1.1552328604340779e-002, 2.2652140156583260e-003,
             7.7890297703886127e-002, 6.4398747772192685e-004,
             6.3318691830597891e-003, 3.5142664394092354e-003,
             1.9372593871943692e-003, 1.5872557615820831e-003,
             5.1238947681091843e-003, 2.1659882072140577e-003,
             5.2160006568122280e-003, 1.4247635689509735e-003,
             5.4674106407399956e-003, 1.2795954790776788e-002,
             2.7464154897437875e-003, 1.9927211065866597e-002,
             8.6029761989150043e-003, 1.0793282287648660e-002,
             5.5800037114064572e-003, 1.0000000000000001e-001,
             8.9272441078105409e-003, 2.7426104370341198e-002,
             1.5337181947427862e-002, 1.9637029260193496e-003,
             6.3477309947244133e-003, 2.3848269965732064e-003,
             1.4024644267502776e-002, 8.3610461268522882e-002,
             8.9867661729620633e-003, 1.2388360934126822e-002,
             5.1859277662084459e-002, 8.3878413794645380e-003,
             5.2336750943844548e-004, 3.0888549211396628e-004,
             5.6933946851203511e-003, 1.4500656766502690e-003,
             1.0000000000000001e-001, 9.2901827115409018e-003,
             8.2877968257849197e-004, 2.5549671295032373e-002,
             1.6200044976309516e-002, 1.0246079565369434e-002,
             7.2784630678121420e-003, 2.1962076454173952e-002,
             4.6520415472851184e-002, 1.3376633185945060e-002,
             5.7117327902736510e-003, 7.0389876429287707e-002,
             1.0803247429268510e-003, 1.5574035015620592e-003,
             8.1412741223808600e-004, 8.6026813249711880e-003,
             1.0000000000000001e-001, 7.0177640121075503e-003,
             2.3061328807501329e-002, 1.0273182452001002e-003,
             1.9888408184745702e-003, 1.2531279125210177e-002,
             3.4556485560593528e-002, 8.5507566541122397e-003,
             4.7943731994680976e-003, 1.7293172226978126e-003,
             1.1443812175719848e-002, 4.2121977566485034e-003,
             4.2122398853693651e-003, 1.6213801036306598e-003,
             2.7298433771598897e-003, 1.7468141312156661e-002,
             7.9886526812924137e-003, 1.6859806153879650e-002,
             1.3172472557193549e-002, 9.9096423261468814e-004,
             6.9654078875946879e-002, 2.2335823462373301e-003,
             5.5857524939437672e-002, 3.5137486043487782e-003,
             4.4316395371878432e-002, 4.7542045872683179e-003,
             1.4146031833745486e-003, 3.5613075054542645e-003,
             6.2315642749592795e-002, 2.5869314280766902e-003,
             2.0086280493788978e-003, 8.3208333434027200e-004,
             7.5296366207578611e-003, 2.6139668150554152e-003,
             1.0193403063861602e-003, 4.0713401917680976e-003,
             8.1670057769789080e-003, 8.8075292839514263e-003,
             4.7480481489931746e-002, 1.3842435457269689e-003,
             2.9445209924533686e-003, 5.9674244707976680e-003,
             4.3657224045721359e-002, 1.5427808077210002e-002,
             1.2323768799314949e-003, 9.5528689054589426e-004,
             3.0043192535986825e-003, 1.5509986393426819e-003,
             4.9353207895672215e-003, 3.6752665643950055e-003,
             7.2983240686948494e-003, 3.4902592710206685e-003,
             5.5161207199765812e-002, 1.0000000000000001e-001,
             3.1163992258057627e-003, 4.2509730409969202e-003,
             2.5086885945774075e-003, -1.0000000000000001e-001,
             -1.0000000000000001e-001, -1.0000000000000001e-001,
             -1.0000000000000001e-001, -1.0000000000000001e-001,
             -1.0000000000000001e-001, -1.0000000000000001e-001,
             -1.0000000000000001e-001, -1.0000000000000001e-001,
             -1.0000000000000001e-001, -1.0000000000000001e-001,
             -1.0000000000000001e-001, -1.0000000000000001e-001,
             -1.0000000000000001e-001, -1.0000000000000001e-001,
             -1.0000000000000001e-001, -1.0000000000000001e-001,
             -1.0000000000000001e-001, -1.0000000000000001e-001,
             -1.0000000000000001e-001, -1.0000000000000001e-001,
             -1.0000000000000001e-001, -1.0000000000000001e-001,
             -1.0000000000000001e-001, -1.0000000000000001e-001,
             -1.0000000000000001e-001, -1.0000000000000001e-001,
             -1.0000000000000001e-001, -1.0000000000000001e-001,
             -1.0000000000000001e-001, -1.0000000000000001e-001,
             -1.0000000000000001e-001, -1.0000000000000001e-001,
             -1.0000000000000001e-001, -1.0000000000000001e-001,
             -1.0000000000000001e-001, -1.0000000000000001e-001,
             -1.0000000000000001e-001, -1.0000000000000001e-001,
             -1.0000000000000001e-001, -1.0000000000000001e-001,
             -1.0000000000000001e-001, -1.0000000000000001e-001,
             -1.0000000000000001e-001, -1.0000000000000001e-001,
             -1.0000000000000001e-001, -1.0000000000000001e-001,
             -1.0000000000000001e-001, -1.0000000000000001e-001,
             -1.0000000000000001e-001, -1.0000000000000001e-001,
             -1.0000000000000001e-001, -1.0000000000000001e-001,
             -1.0000000000000001e-001, -1.0000000000000001e-001,
             -1.0000000000000001e-001, -1.0000000000000001e-001,
             -1.0000000000000001e-001, -1.0000000000000001e-001,
             -1.0000000000000001e-001, -1.0000000000000001e-001,
             -1.0000000000000001e-001, -1.0000000000000001e-001 ]
         index: [ 0, 1, 2, 3, 4, 5, 6, 7, 8, 9, 10, 11, 12, 13, 14, 15,
             16, 17, 18, 19, 20, 21, 22, 23, 24, 25, 26, 27, 28, 29, 30,
             31, 32, 33, 34, 35, 36, 37, 38, 39, 40, 41, 42, 43, 44, 45,
             46, 47, 48, 49, 50, 51, 52, 53, 54, 55, 56, 57, 58, 59, 60,
             61, 62, 63, 64, 65, 66, 67, 68, 69, 70, 71, 72, 73, 74, 75,
             76, 77, 78, 79, 80, 81, 82, 83, 84, 85, 86, 87, 88, 89, 90,
             91, 92, 93, 94, 95, 96, 97, 98, 99, 100, 101, 102, 103, 104,
