%YAML:1.0
my_svm: !!opencv-ml-svm
   svm_type: C_SVC
   kernel: { type:RBF, gamma:2.2500000000000003e-003 }
   C: 1.2500000000000000e+001
   term_criteria: { epsilon:1.1920928955078125e-007, iterations:1000 }
   var_all: 50
   var_count: 50
   class_count: 2
   class_labels: !!opencv-matrix
      rows: 1
      cols: 2
      dt: i
      data: [ -1, 1 ]
   sv_total: 747
   support_vectors:
      - [ 4., 6., 3., 9., 1., 3., 2., 0., 18., 5., 6., 1., 6., 6., 6.,
          5., 2., 2., 4., 1., 0., 0., 1., 0., 7., 0., 6., 0., 3., 3., 2.,
          1., 3., 0., 5., 3., 8., 2., 5., 2., 17., 0., 0., 17., 2., 5.,
          6., 3., 0., 9. ]
      - [ 2., 1., 0., 6., 5., 12., 2., 1., 4., 5., 1., 5., 8., 1., 2.,
          4., 9., 11., 7., 2., 11., 0., 3., 1., 8., 0., 3., 14., 0., 2.,
          6., 3., 3., 0., 6., 2., 1., 1., 4., 10., 2., 11., 7., 3., 4.,
          3., 0., 3., 2., 1. ]
      - [ 5., 3., 15., 0., 2., 1., 2., 8., 1., 5., 0., 0., 0., 11., 1.,
          3., 1., 3., 1., 4., 11., 9., 1., 3., 0., 15., 0., 5., 3., 6.,
          0., 7., 6., 0., 7., 1., 19., 1., 2., 0., 1., 0., 2., 7., 0.,
          5., 11., 2., 0., 7. ]
      - [ 3., 1., 10., 11., 0., 4., 0., 0., 15., 3., 6., 0., 11., 3., 2.,
          5., 0., 0., 3., 2., 1., 2., 3., 0., 6., 2., 1., 0., 1., 1., 2.,
          2., 3., 0., 2., 5., 7., 0., 1., 2., 13., 1., 1., 36., 2., 3.,
          5., 1., 0., 18. ]
      - [ 1., 3., 3., 11., 5., 6., 3., 4., 2., 5., 5., 1., 3., 3., 7.,
          5., 5., 14., 1., 6., 6., 5., 4., 2., 8., 2., 1., 6., 4., 2.,
          4., 1., 6., 1., 3., 7., 6., 1., 0., 3., 4., 3., 6., 2., 6., 0.,
          2., 6., 3., 3. ]
      - [ 2., 4., 0., 5., 1., 3., 5., 2., 2., 6., 3., 4., 3., 2., 4., 2.,
          10., 21., 3., 6., 1., 1., 3., 2., 8., 0., 5., 10., 4., 3., 3.,
          5., 6., 2., 5., 6., 0., 0., 4., 5., 0., 4., 2., 3., 16., 0.,
          3., 10., 1., 1. ]
      - [ 3., 6., 23., 2., 3., 2., 1., 9., 6., 1., 1., 4., 1., 5., 3.,
          5., 1., 1., 1., 1., 0., 8., 5., 1., 3., 1., 3., 1., 2., 8., 1.,
          3., 1., 0., 2., 2., 36., 11., 1., 0., 6., 3., 0., 2., 7., 0.,
          10., 2., 2., 0. ]
      - [ 6., 1., 0., 7., 4., 9., 1., 3., 4., 3., 36., 5., 2., 0., 4.,
          4., 0., 0., 6., 0., 4., 1., 2., 2., 4., 0., 5., 3., 4., 5., 7.,
          3., 2., 3., 2., 19., 0., 2., 9., 5., 5., 3., 2., 2., 4., 0.,
          2., 2., 3., 0. ]
      - [ 1., 6., 25., 0., 4., 1., 0., 0., 1., 0., 0., 1., 0., 8., 7.,
          2., 1., 2., 1., 5., 0., 4., 2., 1., 0., 4., 1., 1., 3., 4., 0.,
          0., 5., 2., 2., 0., 51., 6., 1., 1., 6., 0., 2., 4., 2., 3.,
          16., 9., 1., 4. ]
      - [ 2., 9., 7., 1., 7., 2., 0., 5., 5., 3., 0., 5., 3., 7., 7., 4.,
          9., 7., 2., 3., 9., 1., 3., 1., 3., 1., 1., 6., 4., 8., 3., 2.,
          0., 0., 5., 1., 11., 1., 1., 5., 8., 2., 10., 10., 1., 5., 3.,
          3., 0., 4. ]
      - [ 5., 6., 17., 0., 5., 1., 6., 3., 2., 2., 0., 4., 1., 13., 3.,
          4., 3., 3., 6., 9., 5., 5., 2., 5., 1., 2., 3., 0., 5., 5., 2.,
          1., 4., 5., 4., 3., 9., 1., 6., 3., 2., 1., 4., 2., 1., 3.,
          10., 5., 4., 4. ]
      - [ 1., 4., 3., 2., 3., 1., 5., 3., 2., 3., 0., 6., 2., 7., 2., 6.,
          11., 10., 5., 1., 8., 7., 7., 6., 3., 10., 3., 5., 4., 1., 3.,
          7., 0., 6., 6., 4., 3., 2., 8., 3., 5., 1., 5., 0., 0., 8., 1.,
          4., 3., 0. ]
      - [ 3., 6., 1., 1., 8., 6., 1., 6., 2., 7., 1., 6., 11., 3., 8.,
          7., 7., 4., 3., 1., 4., 2., 6., 3., 3., 2., 7., 4., 5., 6., 4.,
          4., 1., 1., 5., 3., 5., 5., 4., 3., 8., 9., 4., 3., 4., 0., 1.,
          2., 0., 0. ]
      - [ 1., 0., 0., 11., 0., 11., 2., 1., 7., 8., 2., 1., 10., 1., 5.,
          3., 7., 11., 0., 1., 11., 0., 4., 1., 8., 0., 9., 6., 2., 5.,
          3., 7., 3., 4., 3., 5., 0., 1., 10., 3., 5., 7., 2., 11., 3.,
          1., 0., 2., 0., 2. ]
      - [ 1., 10., 26., 2., 1., 0., 1., 0., 6., 0., 1., 2., 1., 6., 3.,
          0., 2., 1., 0., 4., 0., 7., 3., 0., 1., 0., 0., 0., 5., 4., 0.,
          1., 1., 1., 2., 0., 33., 3., 1., 2., 7., 0., 1., 3., 1., 0.,
          12., 2., 2., 18. ]
      - [ 1., 4., 24., 0., 0., 5., 1., 9., 15., 4., 5., 0., 0., 6., 3.,
          3., 0., 0., 2., 1., 0., 0., 7., 4., 1., 0., 2., 0., 4., 4., 9.,
          6., 7., 7., 7., 2., 6., 2., 2., 5., 11., 2., 0., 0., 1., 9.,
          4., 6., 2., 7. ]
      - [ 8., 3., 3., 9., 2., 17., 0., 1., 0., 0., 8., 2., 2., 8., 1.,
          1., 1., 8., 5., 3., 0., 0., 3., 1., 6., 0., 1., 0., 4., 2., 3.,
          3., 2., 0., 5., 28., 0., 0., 9., 28., 1., 6., 4., 0., 8., 0.,
          4., 1., 0., 0. ]
      - [ 2., 3., 0., 7., 1., 3., 0., 1., 9., 1., 4., 1., 11., 0., 2.,
          6., 3., 2., 4., 0., 3., 1., 5., 2., 14., 2., 10., 2., 5., 2.,
          4., 2., 0., 4., 4., 5., 0., 4., 1., 1., 10., 9., 2., 22., 3.,
          3., 2., 3., 0., 15. ]
      - [ 4., 7., 7., 5., 1., 7., 2., 1., 3., 0., 4., 2., 7., 4., 8., 1.,
          0., 2., 2., 3., 4., 3., 6., 4., 3., 0., 5., 1., 6., 4., 3., 1.,
          11., 1., 3., 6., 3., 3., 3., 3., 5., 1., 2., 13., 3., 1., 6.,
          2., 1., 23. ]
      - [ 0., 7., 12., 1., 3., 4., 5., 1., 4., 8., 0., 0., 2., 3., 8.,
          0., 1., 0., 2., 1., 4., 1., 3., 6., 3., 8., 1., 2., 14., 6.,
          4., 10., 6., 1., 13., 3., 11., 9., 3., 1., 6., 1., 3., 1., 1.,
          1., 5., 3., 4., 4. ]
      - [ 3., 3., 9., 6., 4., 4., 2., 2., 1., 5., 1., 2., 7., 4., 7., 2.,
          1., 2., 1., 9., 4., 4., 4., 9., 3., 3., 3., 3., 7., 4., 3., 1.,
          7., 2., 7., 5., 5., 2., 1., 2., 2., 2., 6., 18., 1., 3., 6.,
          5., 3., 0. ]
      - [ 3., 0., 0., 18., 0., 5., 2., 1., 8., 1., 33., 1., 9., 0., 3.,
          3., 3., 8., 9., 1., 0., 1., 3., 0., 9., 0., 3., 5., 0., 0., 2.,
          1., 0., 0., 2., 25., 0., 0., 7., 7., 6., 6., 0., 4., 2., 4.,
          0., 3., 0., 2. ]
      - [ 1., 0., 0., 0., 15., 4., 8., 1., 0., 6., 0., 10., 4., 0., 1.,
          3., 14., 31., 5., 9., 11., 3., 0., 8., 2., 4., 0., 16., 1., 0.,
          6., 2., 1., 0., 3., 1., 0., 2., 1., 2., 0., 0., 8., 0., 5., 1.,
          0., 5., 6., 0. ]
      - [ 7., 1., 1., 2., 2., 4., 5., 3., 2., 2., 0., 3., 1., 2., 3.,
          15., 14., 10., 2., 3., 27., 2., 2., 5., 3., 3., 2., 6., 2., 0.,
          7., 0., 0., 9., 1., 1., 0., 3., 9., 8., 4., 2., 8., 0., 2., 6.,
          0., 1., 4., 1. ]
      - [ 0., 2., 13., 9., 2., 3., 3., 4., 1., 3., 2., 4., 5., 5., 5.,
          5., 1., 2., 0., 1., 13., 5., 4., 0., 1., 17., 1., 0., 9., 3.,
          7., 2., 1., 6., 0., 3., 3., 10., 3., 1., 3., 6., 9., 0., 1.,
          13., 6., 0., 3., 0. ]
      - [ 0., 12., 7., 4., 1., 3., 1., 1., 12., 2., 3., 3., 3., 7., 7.,
          4., 1., 2., 0., 2., 1., 4., 4., 5., 2., 6., 3., 0., 9., 5., 4.,
          5., 8., 2., 4., 8., 9., 6., 2., 1., 5., 0., 0., 8., 2., 5.,
          13., 2., 1., 1. ]
      - [ 0., 5., 11., 1., 3., 0., 2., 3., 0., 1., 1., 4., 1., 4., 4.,
          2., 1., 1., 0., 2., 3., 4., 2., 0., 1., 12., 1., 3., 5., 3.,
          1., 1., 4., 1., 1., 1., 18., 4., 0., 1., 4., 0., 1., 3., 0.,
          4., 6., 1., 4., 4. ]
      - [ 10., 7., 0., 8., 0., 3., 1., 4., 10., 1., 1., 1., 8., 0., 9.,
          7., 1., 1., 10., 1., 4., 2., 2., 2., 2., 0., 21., 2., 0., 3.,
          4., 10., 0., 2., 0., 15., 3., 5., 1., 4., 5., 13., 1., 9., 2.,
          1., 0., 2., 2., 0. ]
      - [ 2., 1., 13., 0., 4., 3., 4., 2., 8., 4., 0., 7., 4., 4., 3.,
          1., 3., 4., 4., 5., 7., 2., 3., 4., 4., 5., 1., 1., 8., 7., 4.,
          3., 3., 4., 6., 2., 6., 7., 8., 0., 9., 3., 4., 3., 4., 3., 1.,
          6., 2., 4. ]
      - [ 1., 3., 19., 2., 6., 1., 5., 2., 1., 2., 0., 6., 2., 11., 1.,
          3., 6., 2., 3., 4., 8., 3., 0., 2., 1., 14., 0., 4., 3., 1.,
          3., 2., 6., 1., 8., 1., 19., 4., 2., 0., 1., 2., 7., 0., 2.,
          8., 3., 4., 0., 1. ]
      - [ 4., 9., 3., 0., 5., 1., 9., 4., 0., 3., 0., 3., 1., 3., 6., 1.,
          3., 10., 2., 1., 7., 10., 1., 5., 1., 3., 0., 9., 4., 2., 0.,
          0., 0., 1., 5., 0., 6., 1., 7., 3., 3., 1., 4., 0., 0., 2., 4.,
          6., 7., 0. ]
      - [ 5., 16., 3., 3., 0., 2., 2., 3., 1., 4., 2., 1., 1., 4., 6.,
          11., 0., 2., 2., 0., 18., 3., 1., 2., 3., 14., 2., 1., 1., 5.,
          2., 6., 11., 0., 1., 2., 17., 1., 2., 2., 6., 2., 2., 1., 1.,
          2., 11., 1., 7., 6. ]
      - [ 7., 1., 1., 4., 6., 5., 1., 3., 2., 4., 6., 3., 0., 5., 6., 3.,
          7., 20., 3., 3., 0., 1., 8., 4., 3., 1., 11., 9., 4., 4., 3.,
          3., 5., 0., 7., 4., 4., 3., 6., 2., 3., 9., 4., 0., 5., 0., 3.,
          4., 0., 0. ]
      - [ 3., 1., 0., 17., 1., 2., 0., 4., 6., 2., 15., 0., 4., 0., 3.,
          6., 0., 1., 13., 1., 0., 0., 4., 5., 5., 0., 3., 0., 1., 2.,
          13., 0., 0., 7., 0., 22., 1., 3., 7., 19., 8., 11., 0., 6., 3.,
          0., 0., 1., 1., 0. ]
      - [ 1., 1., 9., 5., 0., 0., 0., 1., 12., 0., 1., 0., 15., 3., 6.,
          3., 0., 0., 3., 0., 0., 0., 1., 0., 12., 0., 5., 0., 0., 4.,
          0., 1., 1., 1., 0., 1., 12., 1., 0., 1., 8., 3., 0., 48., 1.,
          1., 3., 3., 0., 33. ]
      - [ 1., 0., 4., 14., 1., 5., 0., 2., 7., 3., 13., 0., 4., 3., 1.,
          13., 2., 8., 10., 3., 0., 2., 2., 1., 15., 0., 3., 0., 1., 2.,
          4., 2., 5., 0., 3., 13., 1., 2., 2., 9., 8., 6., 1., 8., 5.,
          2., 1., 4., 0., 5. ]
      - [ 2., 3., 32., 0., 3., 1., 3., 2., 1., 4., 0., 5., 0., 13., 1.,
          2., 3., 0., 4., 3., 9., 1., 4., 4., 1., 7., 0., 0., 6., 7., 4.,
          5., 11., 2., 12., 0., 16., 5., 2., 0., 1., 1., 6., 1., 1., 3.,
          4., 1., 2., 2. ]
      - [ 5., 0., 0., 14., 1., 4., 0., 1., 10., 3., 36., 0., 5., 0., 2.,
          4., 0., 1., 6., 0., 0., 0., 5., 4., 1., 0., 12., 3., 0., 1.,
          6., 0., 3., 1., 0., 32., 0., 1., 3., 7., 11., 1., 2., 9., 1.,
          0., 0., 0., 1., 4. ]
      - [ 1., 4., 13., 0., 2., 1., 3., 1., 2., 5., 1., 2., 2., 6., 3.,
          3., 2., 3., 1., 3., 12., 5., 6., 0., 2., 10., 0., 1., 8., 2.,
          3., 4., 3., 3., 6., 1., 11., 2., 4., 0., 2., 3., 2., 2., 1.,
          6., 6., 0., 0., 2. ]
      - [ 0., 1., 12., 2., 4., 1., 3., 1., 1., 0., 1., 3., 4., 9., 0.,
          2., 0., 0., 0., 3., 27., 0., 1., 0., 2., 19., 2., 0., 2., 4.,
          3., 7., 6., 4., 3., 2., 10., 1., 0., 3., 3., 1., 3., 0., 0.,
          1., 3., 2., 2., 2. ]
      - [ 2., 1., 2., 5., 3., 4., 2., 3., 3., 3., 7., 4., 4., 0., 1., 2.,
          6., 28., 7., 2., 7., 2., 4., 0., 3., 7., 5., 9., 2., 2., 7.,
          1., 0., 0., 2., 8., 15., 0., 3., 5., 9., 3., 5., 1., 4., 0.,
          0., 5., 2., 0. ]
      - [ 3., 1., 8., 6., 2., 3., 3., 4., 7., 2., 0., 3., 5., 2., 0., 7.,
          3., 4., 8., 2., 4., 1., 3., 0., 1., 0., 0., 4., 7., 5., 4., 1.,
          3., 30., 2., 3., 0., 7., 5., 15., 6., 1., 3., 2., 6., 9., 2.,
          3., 0., 0. ]
      - [ 4., 1., 0., 0., 8., 4., 5., 4., 0., 7., 0., 4., 0., 6., 1., 7.,
          4., 3., 3., 2., 37., 2., 4., 2., 0., 11., 0., 2., 0., 0., 3.,
          2., 5., 10., 3., 0., 1., 1., 11., 6., 0., 1., 6., 0., 5., 4.,
          2., 11., 9., 0. ]
      - [ 6., 4., 2., 6., 5., 12., 1., 2., 1., 6., 2., 8., 2., 1., 1.,
          6., 17., 46., 2., 3., 0., 0., 3., 1., 1., 0., 1., 10., 3., 0.,
          6., 0., 0., 1., 8., 1., 0., 0., 6., 2., 1., 12., 4., 0., 1.,
          3., 0., 3., 0., 0. ]
      - [ 8., 0., 0., 15., 0., 1., 0., 3., 0., 1., 35., 0., 2., 0., 0.,
          12., 0., 2., 13., 0., 5., 0., 6., 0., 5., 0., 5., 0., 0., 0.,
          5., 0., 0., 1., 2., 27., 0., 3., 3., 18., 5., 0., 0., 4., 1.,
          12., 0., 0., 1., 6. ]
      - [ 1., 1., 0., 2., 4., 6., 2., 1., 5., 2., 3., 12., 3., 1., 0.,
          2., 20., 42., 2., 5., 4., 3., 2., 2., 7., 0., 1., 5., 5., 1.,
          2., 1., 0., 0., 12., 7., 2., 1., 1., 3., 0., 8., 7., 2., 1.,
          1., 3., 4., 1., 0. ]
      - [ 2., 7., 33., 1., 4., 0., 1., 0., 1., 4., 1., 6., 2., 5., 5.,
          12., 13., 11., 2., 4., 5., 0., 8., 3., 5., 0., 0., 7., 4., 2.,
          7., 0., 1., 2., 2., 2., 11., 1., 5., 2., 3., 0., 6., 0., 1.,
          3., 5., 0., 2., 0. ]
      - [ 4., 1., 0., 8., 3., 9., 1., 2., 6., 4., 2., 8., 2., 3., 3.,
          11., 8., 2., 2., 0., 20., 1., 8., 1., 5., 1., 6., 1., 1., 4.,
          6., 2., 4., 6., 3., 3., 2., 2., 3., 4., 5., 6., 4., 7., 5., 4.,
          1., 3., 0., 3. ]
      - [ 4., 1., 0., 6., 9., 8., 1., 2., 5., 4., 5., 5., 4., 0., 1., 8.,
          6., 24., 4., 6., 2., 3., 2., 6., 6., 0., 3., 17., 2., 2., 4.,
          2., 0., 4., 2., 5., 0., 3., 8., 3., 2., 6., 4., 0., 5., 3., 0.,
          3., 0., 0. ]
      - [ 3., 7., 0., 6., 1., 5., 0., 3., 7., 3., 8., 1., 11., 2., 7.,
          2., 1., 0., 2., 2., 2., 1., 3., 2., 6., 1., 3., 1., 5., 4., 2.,
          5., 1., 0., 7., 5., 6., 5., 1., 1., 8., 5., 0., 20., 5., 3.,
          6., 7., 0., 14. ]
      - [ 0., 0., 1., 0., 2., 1., 3., 1., 0., 1., 0., 1., 3., 1., 0., 3.,
          0., 0., 1., 2., 17., 1., 3., 5., 2., 10., 4., 0., 5., 2., 1.,
          3., 0., 0., 2., 0., 0., 0., 0., 0., 0., 3., 7., 0., 1., 16.,
          0., 3., 0., 0. ]
      - [ 8., 5., 4., 1., 11., 7., 9., 3., 0., 1., 1., 9., 0., 2., 1.,
          1., 4., 12., 4., 5., 8., 3., 2., 2., 1., 4., 0., 13., 5., 2.,
          1., 5., 0., 0., 0., 2., 14., 7., 4., 7., 2., 2., 6., 0., 8.,
          0., 0., 13., 1., 0. ]
      - [ 1., 1., 1., 8., 4., 4., 1., 2., 9., 0., 10., 2., 8., 3., 4.,
          4., 2., 6., 6., 2., 3., 5., 2., 1., 8., 0., 7., 2., 4., 6., 0.,
          1., 5., 0., 8., 2., 4., 0., 4., 4., 6., 4., 3., 12., 12., 3.,
          0., 7., 0., 10. ]
      - [ 2., 5., 0., 9., 3., 5., 0., 8., 1., 8., 9., 3., 3., 1., 5., 2.,
          4., 5., 10., 4., 0., 3., 4., 2., 9., 0., 5., 2., 3., 3., 2.,
          3., 1., 1., 3., 13., 2., 7., 7., 8., 5., 3., 7., 0., 10., 5.,
          0., 4., 1., 0. ]
      - [ 4., 0., 0., 1., 5., 10., 3., 5., 3., 10., 3., 4., 1., 4., 2.,
          3., 3., 3., 3., 4., 4., 1., 12., 4., 3., 0., 1., 4., 3., 7.,
          14., 8., 4., 3., 3., 2., 0., 10., 8., 10., 3., 3., 4., 1., 7.,
          2., 0., 6., 2., 0. ]
      - [ 3., 4., 6., 1., 3., 5., 1., 2., 2., 2., 0., 5., 2., 7., 3.,
          12., 4., 0., 4., 4., 17., 3., 8., 3., 3., 11., 0., 2., 3., 0.,
          8., 0., 3., 9., 4., 0., 0., 1., 11., 6., 0., 2., 14., 2., 1.,
          13., 3., 1., 2., 0. ]
      - [ 1., 9., 8., 2., 1., 2., 0., 0., 2., 2., 1., 1., 1., 3., 7., 1.,
          5., 4., 1., 4., 27., 5., 4., 7., 1., 27., 5., 3., 4., 4., 6.,
          2., 3., 4., 4., 0., 8., 5., 1., 1., 3., 2., 1., 0., 3., 3., 5.,
          2., 3., 2. ]
      - [ 1., 4., 6., 2., 12., 1., 4., 2., 1., 2., 2., 6., 1., 6., 6.,
          1., 4., 4., 2., 4., 5., 8., 5., 4., 1., 13., 1., 8., 5., 2.,
          2., 2., 4., 7., 4., 1., 20., 2., 6., 0., 3., 0., 7., 1., 0.,
          7., 4., 4., 2., 2. ]
      - [ 0., 8., 19., 0., 1., 1., 8., 3., 0., 2., 0., 3., 0., 3., 8.,
          0., 1., 0., 0., 0., 8., 7., 6., 3., 1., 8., 1., 0., 4., 3., 0.,
          2., 2., 0., 8., 0., 15., 4., 0., 1., 0., 0., 2., 0., 2., 2.,
          4., 3., 5., 0. ]
      - [ 1., 6., 12., 2., 0., 3., 4., 2., 7., 4., 10., 1., 2., 8., 9.,
          0., 0., 0., 4., 2., 0., 5., 5., 3., 1., 4., 3., 0., 3., 10.,
          0., 5., 9., 0., 4., 1., 23., 4., 4., 2., 6., 0., 0., 1., 3.,
          0., 19., 2., 4., 2. ]
      - [ 2., 3., 6., 1., 3., 4., 1., 0., 5., 2., 8., 4., 2., 3., 5., 1.,
          0., 1., 2., 7., 11., 3., 7., 1., 3., 8., 4., 2., 5., 4., 4.,
          8., 6., 2., 9., 5., 10., 6., 3., 3., 4., 3., 4., 4., 2., 2.,
          7., 2., 2., 6. ]
      - [ 1., 3., 23., 2., 1., 0., 2., 5., 1., 1., 0., 2., 0., 8., 5.,
          3., 0., 1., 2., 4., 9., 2., 1., 1., 3., 14., 3., 1., 6., 3.,
          3., 4., 2., 2., 9., 1., 39., 5., 0., 1., 3., 0., 2., 7., 0.,
          7., 3., 0., 2., 3. ]
      - [ 2., 4., 0., 5., 7., 3., 2., 2., 2., 1., 2., 7., 5., 3., 3., 6.,
          0., 1., 4., 5., 8., 5., 5., 4., 6., 3., 3., 2., 9., 6., 4., 0.,
          6., 6., 4., 4., 6., 1., 3., 2., 5., 6., 6., 8., 5., 8., 3., 2.,
          3., 3. ]
      - [ 2., 2., 0., 3., 6., 6., 0., 3., 16., 3., 4., 2., 2., 0., 4.,
          23., 0., 1., 1., 0., 0., 0., 2., 1., 1., 3., 1., 0., 0., 6.,
          3., 4., 1., 35., 1., 3., 6., 6., 3., 0., 12., 3., 0., 18., 0.,
          8., 0., 3., 0., 2. ]
      - [ 2., 0., 0., 5., 2., 2., 0., 0., 14., 1., 3., 1., 3., 0., 0.,
          5., 1., 2., 4., 1., 3., 0., 6., 0., 4., 0., 3., 3., 1., 7.,
          11., 12., 2., 30., 3., 2., 0., 4., 4., 3., 18., 1., 4., 20.,
          1., 12., 0., 0., 0., 0. ]
      - [ 7., 0., 0., 1., 8., 2., 3., 0., 0., 2., 1., 10., 4., 0., 0.,
          6., 15., 31., 4., 6., 2., 0., 1., 2., 19., 0., 0., 14., 1., 0.,
          4., 0., 0., 1., 3., 2., 0., 0., 4., 7., 0., 4., 14., 0., 9.,
          3., 0., 9., 1., 0. ]
      - [ 2., 10., 31., 1., 2., 2., 2., 0., 1., 2., 1., 3., 0., 8., 1.,
          4., 4., 1., 0., 0., 4., 4., 2., 1., 0., 16., 0., 2., 5., 1.,
          1., 0., 1., 5., 2., 3., 39., 2., 2., 3., 0., 7., 1., 1., 0.,
          3., 9., 1., 3., 1. ]
      - [ 1., 14., 4., 0., 3., 8., 3., 3., 5., 3., 0., 0., 3., 2., 2.,
          4., 4., 3., 2., 2., 7., 7., 3., 6., 6., 10., 0., 2., 10., 6.,
          3., 1., 5., 3., 8., 3., 7., 1., 7., 1., 3., 4., 5., 1., 5., 4.,
          8., 4., 3., 1. ]
      - [ 1., 2., 6., 1., 2., 2., 0., 2., 5., 3., 2., 2., 1., 4., 1., 4.,
          1., 0., 1., 4., 1., 4., 6., 4., 0., 11., 1., 2., 8., 5., 4.,
          5., 7., 4., 7., 1., 7., 3., 3., 2., 3., 2., 2., 3., 3., 10.,
          2., 1., 3., 3. ]
      - [ 5., 5., 5., 4., 2., 9., 0., 3., 8., 2., 2., 2., 5., 4., 4., 8.,
          0., 4., 4., 1., 6., 1., 11., 1., 2., 9., 3., 1., 11., 5., 1.,
          4., 8., 1., 13., 1., 6., 2., 3., 0., 4., 5., 2., 4., 3., 3.,
          4., 2., 2., 5. ]
      - [ 2., 3., 8., 4., 5., 4., 2., 0., 4., 1., 0., 4., 8., 3., 4., 8.,
          0., 0., 2., 1., 11., 7., 2., 2., 7., 9., 1., 1., 7., 2., 6.,
          0., 3., 6., 3., 1., 6., 2., 2., 3., 3., 5., 4., 3., 8., 7., 0.,
          1., 2., 7. ]
      - [ 4., 2., 1., 12., 1., 6., 0., 2., 9., 3., 5., 0., 9., 0., 1.,
          8., 1., 1., 5., 1., 3., 5., 4., 7., 7., 3., 7., 4., 3., 1., 8.,
          5., 1., 0., 5., 9., 6., 0., 4., 1., 6., 13., 2., 7., 6., 0.,
          1., 4., 3., 4. ]
      - [ 2., 0., 0., 11., 3., 5., 0., 5., 9., 7., 10., 3., 4., 0., 1.,
          4., 3., 6., 6., 3., 3., 2., 5., 3., 7., 1., 5., 6., 4., 5., 6.,
          5., 4., 1., 4., 8., 0., 5., 7., 6., 8., 4., 5., 0., 6., 1., 0.,
          6., 1., 0. ]
      - [ 3., 8., 8., 1., 4., 3., 2., 4., 1., 4., 0., 2., 1., 1., 5., 2.,
          0., 3., 2., 2., 1., 6., 4., 2., 6., 4., 2., 3., 8., 7., 4., 5.,
          5., 7., 8., 2., 18., 4., 0., 2., 3., 4., 2., 6., 2., 8., 4.,
          3., 3., 11. ]
      - [ 1., 11., 4., 2., 2., 2., 5., 5., 3., 2., 0., 7., 1., 7., 6.,
          1., 3., 1., 0., 3., 13., 5., 0., 4., 0., 2., 1., 2., 6., 8.,
          2., 5., 9., 3., 4., 1., 12., 1., 6., 6., 3., 3., 2., 0., 4.,
          3., 8., 8., 2., 0. ]
      - [ 4., 0., 3., 9., 1., 11., 0., 3., 10., 2., 6., 3., 12., 2., 4.,
          0., 2., 0., 11., 3., 0., 2., 8., 2., 11., 0., 3., 3., 2., 5.,
          2., 3., 1., 1., 3., 11., 1., 3., 4., 7., 8., 11., 0., 5., 10.,
          2., 1., 4., 0., 1. ]
      - [ 3., 1., 25., 0., 3., 9., 2., 2., 2., 6., 2., 7., 2., 2., 3.,
          6., 3., 13., 3., 5., 1., 3., 7., 2., 0., 0., 3., 3., 4., 8.,
          5., 3., 2., 3., 7., 2., 2., 4., 4., 6., 6., 5., 6., 1., 1., 5.,
          1., 3., 2., 2. ]
      - [ 1., 7., 21., 1., 2., 0., 1., 1., 1., 2., 1., 3., 2., 13., 5.,
          3., 0., 0., 1., 4., 11., 2., 2., 2., 2., 14., 1., 0., 11., 7.,
          3., 2., 1., 10., 8., 1., 18., 4., 2., 0., 0., 0., 4., 0., 2.,
          5., 6., 4., 7., 2. ]
      - [ 0., 6., 3., 6., 4., 3., 4., 3., 1., 2., 2., 6., 0., 9., 2., 4.,
          5., 14., 5., 9., 4., 11., 2., 3., 0., 5., 1., 5., 5., 2., 0.,
          1., 4., 0., 7., 2., 9., 4., 3., 4., 6., 5., 9., 1., 3., 0., 5.,
          6., 3., 2. ]
      - [ 1., 8., 13., 1., 0., 1., 0., 1., 0., 1., 3., 0., 6., 4., 4.,
          5., 1., 1., 0., 1., 7., 3., 4., 1., 8., 5., 11., 1., 2., 3.,
          6., 1., 7., 2., 3., 1., 19., 2., 2., 0., 2., 3., 0., 23., 3.,
          3., 4., 0., 0., 23. ]
      - [ 3., 7., 11., 3., 0., 3., 0., 3., 3., 4., 12., 4., 4., 7., 2.,
          4., 1., 2., 2., 2., 7., 5., 7., 1., 2., 6., 1., 0., 9., 1., 3.,
          1., 3., 2., 6., 6., 23., 4., 0., 4., 2., 1., 0., 3., 0., 12.,
          8., 4., 1., 1. ]
      - [ 5., 1., 7., 4., 1., 9., 2., 3., 8., 5., 2., 1., 4., 5., 4., 4.,
          1., 2., 2., 0., 5., 7., 8., 2., 9., 3., 5., 0., 7., 2., 7., 4.,
          0., 8., 6., 3., 7., 4., 1., 1., 10., 3., 2., 6., 1., 6., 3.,
          3., 3., 4. ]
      - [ 5., 2., 13., 2., 6., 3., 1., 2., 4., 0., 2., 9., 0., 3., 2.,
          12., 3., 5., 4., 5., 4., 5., 3., 0., 3., 1., 1., 2., 7., 5.,
          3., 5., 3., 13., 6., 2., 8., 3., 4., 1., 5., 4., 3., 4., 1.,
          10., 5., 5., 1., 0. ]
      - [ 2., 1., 0., 5., 7., 5., 4., 0., 3., 6., 2., 12., 5., 4., 3.,
          4., 9., 22., 7., 3., 5., 5., 2., 8., 3., 2., 1., 6., 3., 2.,
          4., 1., 2., 1., 4., 6., 1., 3., 5., 1., 3., 5., 3., 5., 4., 2.,
          3., 1., 5., 0. ]
      - [ 0., 3., 3., 8., 7., 5., 0., 3., 2., 0., 2., 8., 5., 3., 0., 5.,
          7., 26., 10., 7., 2., 0., 3., 1., 8., 1., 4., 7., 5., 1., 1.,
          1., 1., 0., 8., 5., 5., 3., 2., 5., 2., 3., 6., 3., 6., 2., 1.,
          6., 2., 2. ]
      - [ 2., 4., 0., 1., 6., 7., 5., 1., 4., 7., 1., 9., 5., 0., 3.,
          16., 10., 8., 2., 0., 16., 0., 4., 3., 3., 3., 1., 8., 2., 1.,
          5., 1., 0., 4., 2., 1., 5., 3., 4., 4., 0., 8., 11., 1., 1.,
          11., 0., 4., 2., 1. ]
      - [ 2., 2., 1., 0., 3., 0., 6., 11., 0., 2., 0., 6., 2., 1., 0.,
          4., 1., 6., 1., 6., 32., 3., 2., 0., 6., 31., 0., 2., 5., 0.,
          12., 5., 0., 1., 4., 0., 14., 7., 2., 5., 0., 1., 4., 0., 2.,
          1., 2., 2., 4., 0. ]
      - [ 1., 3., 38., 1., 1., 2., 3., 6., 2., 8., 0., 4., 0., 8., 3.,
          1., 4., 3., 1., 3., 14., 3., 1., 3., 0., 5., 4., 7., 6., 8.,
          1., 5., 3., 0., 4., 0., 2., 7., 4., 2., 1., 0., 2., 0., 3., 6.,
          8., 4., 4., 1. ]
      - [ 3., 7., 4., 8., 0., 10., 0., 4., 18., 1., 3., 0., 7., 1., 5.,
          6., 1., 5., 5., 0., 0., 2., 7., 1., 7., 0., 8., 3., 3., 2., 2.,
          0., 0., 1., 0., 5., 2., 1., 1., 2., 9., 6., 4., 10., 3., 3.,
          2., 6., 0., 23. ]
      - [ 0., 2., 29., 0., 3., 2., 1., 5., 3., 4., 0., 3., 3., 8., 2.,
          3., 1., 0., 0., 2., 3., 0., 10., 4., 4., 10., 2., 2., 5., 11.,
          4., 3., 2., 2., 2., 1., 10., 10., 1., 0., 2., 0., 4., 3., 3.,
          17., 6., 2., 0., 6. ]
      - [ 2., 2., 13., 2., 7., 0., 2., 4., 2., 1., 1., 8., 2., 9., 1.,
          3., 9., 5., 8., 2., 3., 9., 2., 1., 3., 2., 1., 6., 9., 3., 3.,
          1., 6., 0., 4., 0., 6., 2., 3., 0., 1., 3., 12., 4., 3., 4.,
          9., 3., 1., 13. ]
      - [ 3., 0., 2., 1., 7., 5., 2., 0., 0., 2., 2., 9., 0., 1., 0.,
          12., 2., 1., 2., 0., 32., 3., 5., 7., 3., 23., 0., 2., 6., 4.,
          9., 3., 3., 5., 6., 0., 2., 3., 2., 3., 2., 3., 9., 0., 3., 6.,
          0., 2., 2., 0. ]
      - [ 1., 4., 1., 3., 3., 4., 3., 3., 6., 2., 5., 2., 3., 2., 9., 3.,
          2., 9., 11., 2., 3., 9., 3., 6., 5., 7., 5., 5., 5., 5., 6.,
          2., 5., 0., 3., 11., 7., 4., 3., 3., 3., 1., 4., 2., 3., 1.,
          2., 4., 5., 0. ]
      - [ 0., 4., 33., 0., 0., 0., 0., 0., 0., 0., 5., 0., 0., 2., 0.,
          0., 0., 0., 0., 0., 2., 1., 0., 0., 0., 17., 0., 0., 2., 0.,
          0., 0., 0., 0., 0., 0., 39., 1., 0., 0., 0., 4., 0., 0., 0.,
          0., 6., 1., 0., 0. ]
      - [ 4., 0., 1., 5., 7., 5., 1., 3., 6., 2., 6., 5., 1., 5., 1., 7.,
          1., 1., 4., 3., 7., 1., 12., 4., 6., 2., 5., 0., 2., 3., 7.,
          1., 1., 13., 3., 6., 0., 3., 6., 5., 5., 3., 7., 1., 5., 17.,
          0., 2., 3., 2. ]
      - [ 0., 5., 4., 0., 5., 0., 0., 1., 0., 2., 0., 8., 0., 3., 1., 0.,
          12., 7., 1., 1., 17., 6., 1., 0., 0., 15., 0., 5., 3., 1., 0.,
          0., 0., 1., 3., 0., 7., 0., 0., 0., 0., 1., 4., 0., 1., 0., 4.,
          2., 1., 0. ]
      - [ 5., 3., 2., 9., 2., 11., 1., 3., 10., 5., 1., 5., 6., 2., 2.,
          6., 3., 4., 4., 6., 0., 4., 3., 6., 9., 1., 2., 5., 1., 3., 2.,
          0., 1., 0., 8., 6., 4., 2., 12., 3., 6., 4., 1., 8., 9., 1.,
          2., 6., 0., 1. ]
      - [ 2., 9., 6., 3., 5., 2., 5., 3., 5., 0., 7., 0., 3., 5., 8., 2.,
          2., 11., 1., 4., 0., 6., 3., 1., 1., 6., 1., 8., 4., 4., 2.,
          2., 1., 0., 8., 1., 17., 3., 2., 2., 6., 2., 6., 3., 1., 2.,
          6., 9., 3., 7. ]
      - [ 1., 2., 17., 3., 6., 0., 2., 2., 2., 2., 1., 10., 1., 7., 3.,
          8., 4., 4., 2., 1., 4., 4., 7., 1., 2., 6., 1., 1., 3., 2., 2.,
          0., 3., 1., 7., 2., 40., 1., 4., 2., 1., 3., 0., 2., 0., 11.,
          10., 1., 1., 0. ]
      - [ 6., 1., 0., 3., 7., 5., 2., 3., 4., 7., 7., 7., 4., 4., 3., 4.,
          7., 5., 3., 0., 8., 1., 4., 4., 6., 0., 4., 6., 4., 2., 6., 1.,
          5., 2., 3., 6., 1., 5., 7., 10., 8., 3., 6., 2., 7., 1., 1.,
          3., 1., 1. ]
      - [ 7., 1., 7., 1., 5., 4., 6., 5., 3., 7., 1., 5., 3., 3., 3., 2.,
          5., 1., 6., 2., 2., 7., 4., 2., 6., 11., 5., 3., 4., 9., 5.,
          3., 6., 3., 6., 1., 12., 4., 2., 2., 2., 1., 5., 2., 0., 2.,
          1., 2., 9., 2. ]
      - [ 4., 1., 0., 7., 3., 4., 3., 2., 5., 1., 3., 8., 4., 3., 3., 4.,
          9., 25., 11., 4., 4., 1., 3., 3., 4., 3., 5., 11., 2., 2., 5.,
          0., 0., 5., 1., 3., 0., 3., 4., 6., 2., 10., 7., 2., 2., 3.,
          0., 2., 3., 0. ]
      - [ 7., 2., 1., 7., 0., 5., 0., 7., 6., 6., 5., 0., 4., 0., 7., 2.,
          0., 6., 7., 0., 3., 0., 2., 5., 3., 1., 13., 7., 1., 6., 10.,
          7., 0., 0., 1., 8., 0., 12., 7., 12., 6., 7., 3., 1., 9., 0.,
          0., 3., 2., 0. ]
      - [ 2., 2., 6., 6., 6., 3., 2., 4., 7., 1., 5., 12., 1., 2., 3.,
          2., 10., 10., 3., 3., 5., 4., 2., 2., 3., 3., 3., 6., 4., 2.,
          6., 2., 3., 2., 5., 2., 7., 4., 6., 4., 7., 2., 8., 1., 4., 2.,
          1., 6., 4., 0. ]
      - [ 0., 0., 0., 11., 0., 12., 0., 0., 18., 2., 3., 0., 36., 0., 2.,
          1., 0., 0., 0., 0., 0., 1., 0., 0., 13., 0., 3., 0., 1., 1.,
          2., 0., 2., 2., 0., 11., 0., 6., 0., 0., 13., 7., 0., 19., 1.,
          1., 6., 0., 0., 26. ]
      - [ 4., 6., 17., 4., 7., 0., 1., 5., 3., 2., 1., 5., 1., 11., 2.,
          2., 2., 1., 1., 2., 14., 10., 4., 3., 1., 11., 2., 0., 6., 2.,
          3., 1., 1., 3., 4., 1., 22., 3., 2., 3., 2., 1., 5., 1., 2.,
          7., 2., 4., 1., 2. ]
      - [ 2., 8., 6., 1., 5., 1., 1., 0., 2., 5., 3., 4., 2., 8., 5., 7.,
          3., 4., 1., 7., 14., 4., 4., 3., 0., 10., 0., 2., 5., 5., 3.,
          2., 1., 3., 8., 2., 12., 4., 1., 1., 4., 1., 5., 2., 2., 9.,
          5., 1., 0., 12. ]
      - [ 3., 6., 8., 4., 2., 2., 4., 0., 3., 6., 0., 4., 1., 10., 5.,
          0., 7., 0., 4., 0., 7., 2., 12., 3., 1., 6., 1., 4., 4., 2.,
          8., 3., 3., 5., 4., 2., 17., 1., 3., 5., 4., 1., 6., 2., 6.,
          4., 8., 5., 1., 1. ]
      - [ 6., 3., 0., 3., 2., 8., 0., 5., 4., 3., 1., 4., 4., 2., 4., 7.,
          12., 9., 7., 8., 4., 3., 2., 5., 5., 1., 5., 5., 7., 3., 4.,
          1., 1., 1., 5., 3., 0., 1., 6., 6., 3., 10., 6., 1., 11., 3.,
          1., 3., 3., 0. ]
      - [ 9., 0., 2., 1., 13., 4., 6., 3., 3., 4., 1., 2., 0., 0., 2.,
          12., 2., 1., 0., 1., 7., 1., 5., 3., 3., 6., 1., 3., 0., 2.,
          8., 2., 0., 15., 0., 0., 10., 0., 3., 3., 4., 7., 20., 0., 5.,
          9., 1., 6., 8., 2. ]
      - [ 3., 0., 0., 5., 5., 9., 1., 5., 6., 10., 6., 4., 3., 0., 1.,
          7., 9., 19., 8., 3., 0., 1., 9., 2., 5., 0., 2., 12., 2., 0.,
          5., 1., 1., 1., 4., 3., 0., 4., 2., 11., 7., 10., 2., 1., 5.,
          2., 0., 4., 0., 0. ]
      - [ 1., 6., 4., 15., 0., 9., 0., 1., 12., 3., 4., 1., 17., 4., 1.,
          12., 6., 6., 5., 3., 2., 1., 7., 0., 8., 0., 3., 4., 2., 1.,
          4., 0., 5., 0., 4., 7., 2., 0., 3., 0., 5., 6., 3., 6., 5., 2.,
          1., 5., 0., 4. ]
      - [ 3., 4., 4., 3., 4., 1., 4., 1., 6., 3., 3., 2., 2., 6., 2., 6.,
          4., 2., 2., 7., 9., 2., 7., 4., 3., 3., 3., 1., 5., 7., 5., 8.,
          2., 3., 3., 6., 6., 2., 4., 3., 7., 2., 8., 5., 0., 7., 7., 2.,
          1., 6. ]
      - [ 8., 0., 0., 1., 0., 13., 5., 3., 1., 9., 0., 3., 1., 0., 1.,
          2., 12., 30., 5., 8., 3., 0., 5., 2., 4., 1., 0., 14., 2., 1.,
          10., 1., 2., 0., 3., 1., 0., 0., 7., 9., 1., 4., 13., 0., 9.,
          2., 0., 3., 1., 0. ]
      - [ 1., 3., 12., 5., 2., 4., 0., 1., 4., 2., 3., 2., 8., 1., 1.,
          2., 1., 15., 5., 2., 0., 7., 2., 0., 5., 1., 2., 1., 3., 8.,
          3., 2., 2., 0., 1., 2., 47., 5., 1., 1., 6., 1., 2., 1., 4.,
          3., 5., 5., 0., 6. ]
      - [ 4., 2., 2., 8., 1., 1., 2., 2., 6., 4., 1., 4., 8., 6., 1., 5.,
          7., 16., 6., 4., 7., 3., 1., 4., 10., 2., 4., 3., 0., 0., 8.,
          1., 4., 6., 2., 3., 0., 0., 5., 4., 4., 1., 5., 8., 9., 2., 2.,
          5., 2., 5. ]
      - [ 3., 0., 0., 5., 5., 7., 5., 5., 4., 4., 2., 3., 3., 1., 2.,
          11., 11., 10., 0., 4., 1., 2., 7., 4., 4., 0., 4., 8., 2., 2.,
          12., 1., 2., 5., 2., 1., 2., 6., 7., 8., 0., 3., 10., 1., 1.,
          7., 0., 5., 8., 0. ]
      - [ 2., 4., 6., 0., 5., 3., 0., 2., 1., 0., 0., 11., 2., 5., 2.,
          5., 3., 1., 1., 2., 8., 12., 1., 8., 2., 19., 1., 1., 4., 1.,
          5., 0., 2., 5., 2., 1., 9., 4., 2., 0., 5., 1., 0., 2., 2., 9.,
          3., 3., 2., 6. ]
      - [ 1., 7., 4., 7., 0., 6., 1., 2., 10., 1., 3., 0., 5., 3., 8.,
          5., 0., 0., 4., 5., 2., 5., 1., 1., 2., 1., 6., 1., 5., 11.,
          1., 6., 1., 1., 1., 6., 8., 4., 4., 1., 6., 7., 0., 19., 10.,
          1., 1., 9., 1., 7. ]
      - [ 2., 1., 6., 1., 2., 1., 4., 0., 0., 0., 0., 0., 0., 1., 6., 3.,
          0., 1., 0., 0., 11., 2., 7., 0., 0., 12., 3., 0., 2., 3., 5.,
          0., 3., 2., 2., 0., 0., 1., 2., 0., 0., 0., 8., 1., 2., 1., 1.,
          0., 0., 1. ]
      - [ 4., 1., 2., 0., 2., 14., 2., 3., 1., 6., 3., 7., 1., 0., 2.,
          1., 8., 23., 6., 4., 2., 7., 7., 4., 7., 0., 3., 13., 1., 2.,
          5., 0., 1., 0., 2., 3., 3., 3., 6., 2., 1., 11., 7., 0., 8.,
          2., 0., 8., 2., 0. ]
      - [ 3., 1., 9., 2., 7., 2., 2., 1., 4., 5., 1., 7., 2., 2., 2., 2.,
          8., 5., 3., 4., 16., 2., 0., 3., 2., 17., 3., 5., 4., 1., 3.,
          1., 2., 1., 3., 7., 6., 2., 5., 5., 4., 6., 8., 4., 5., 2., 0.,
          3., 6., 2. ]
      - [ 3., 5., 3., 1., 8., 6., 0., 2., 2., 3., 3., 9., 2., 6., 5., 3.,
          3., 2., 2., 9., 13., 2., 3., 1., 1., 3., 4., 9., 1., 3., 4.,
          2., 5., 1., 3., 4., 13., 1., 3., 4., 2., 2., 5., 4., 4., 6.,
          9., 5., 4., 2. ]
      - [ 4., 0., 11., 0., 1., 2., 0., 2., 0., 0., 2., 2., 3., 14., 5.,
          0., 2., 1., 3., 1., 0., 2., 7., 1., 0., 6., 1., 0., 9., 2., 0.,
          0., 3., 1., 9., 1., 15., 2., 0., 2., 0., 1., 0., 2., 1., 2.,
          7., 2., 2., 0. ]
      - [ 5., 0., 6., 1., 4., 3., 8., 1., 2., 3., 0., 7., 3., 2., 6., 1.,
          14., 13., 5., 5., 4., 8., 4., 1., 3., 2., 2., 9., 6., 12., 1.,
          9., 0., 1., 6., 0., 7., 0., 2., 6., 3., 0., 4., 1., 1., 9., 3.,
          6., 2., 0. ]
      - [ 3., 4., 35., 0., 6., 0., 6., 5., 1., 2., 0., 2., 0., 12., 3.,
          3., 1., 1., 0., 5., 4., 1., 3., 4., 0., 4., 1., 2., 8., 7., 1.,
          3., 4., 0., 5., 0., 15., 6., 2., 2., 1., 2., 6., 7., 5., 1.,
          10., 4., 3., 0. ]
      - [ 4., 4., 2., 3., 1., 5., 0., 3., 2., 8., 0., 5., 2., 3., 7., 1.,
          7., 11., 7., 8., 0., 6., 9., 3., 6., 0., 3., 8., 4., 8., 5.,
          1., 2., 1., 5., 5., 1., 4., 2., 5., 5., 5., 5., 0., 7., 2., 2.,
          10., 3., 1. ]
      - [ 1., 7., 17., 2., 6., 2., 1., 2., 2., 0., 3., 7., 1., 7., 7.,
          5., 4., 4., 4., 3., 3., 4., 4., 0., 0., 7., 1., 1., 3., 5., 4.,
          0., 3., 11., 2., 1., 13., 2., 2., 3., 4., 3., 3., 1., 4., 13.,
          7., 4., 2., 5. ]
      - [ 0., 4., 27., 0., 5., 0., 6., 4., 0., 2., 0., 8., 1., 4., 0.,
          1., 4., 1., 2., 3., 10., 3., 1., 1., 1., 6., 1., 0., 3., 3.,
          2., 3., 1., 3., 4., 0., 17., 1., 1., 0., 0., 1., 4., 0., 1.,
          1., 7., 7., 5., 0. ]
      - [ 2., 0., 1., 1., 3., 1., 1., 0., 3., 0., 0., 9., 0., 0., 0.,
          13., 4., 10., 4., 2., 7., 4., 12., 4., 2., 0., 0., 0., 2., 0.,
          13., 0., 1., 55., 8., 0., 0., 0., 5., 3., 2., 4., 0., 5., 5.,
          9., 0., 4., 1., 0. ]
      - [ 7., 3., 5., 5., 2., 5., 2., 1., 7., 4., 1., 2., 12., 2., 4.,
          2., 0., 6., 5., 4., 2., 7., 3., 0., 19., 3., 2., 0., 6., 1.,
          3., 1., 2., 2., 3., 0., 5., 1., 2., 3., 9., 5., 3., 5., 10.,
          5., 4., 3., 1., 11. ]
      - [ 0., 8., 8., 5., 1., 2., 2., 2., 5., 1., 3., 1., 1., 3., 5., 9.,
          0., 5., 3., 3., 4., 1., 10., 2., 2., 1., 2., 1., 9., 7., 9.,
          1., 4., 6., 10., 1., 0., 1., 2., 1., 4., 4., 3., 9., 7., 12.,
          2., 9., 0., 9. ]
      - [ 1., 5., 10., 1., 7., 8., 4., 1., 2., 6., 3., 4., 3., 7., 4.,
          2., 2., 5., 3., 4., 5., 0., 5., 5., 3., 5., 5., 4., 2., 9., 5.,
          4., 4., 8., 2., 2., 7., 3., 6., 4., 3., 2., 6., 0., 3., 5., 5.,
          3., 3., 0. ]
      - [ 2., 1., 19., 2., 2., 3., 2., 2., 9., 2., 0., 3., 9., 7., 2.,
          6., 2., 5., 1., 1., 3., 2., 7., 2., 9., 4., 4., 4., 1., 3., 7.,
          2., 1., 8., 1., 3., 1., 5., 3., 0., 8., 1., 1., 4., 5., 13.,
          2., 8., 2., 6. ]
      - [ 1., 1., 3., 15., 4., 8., 0., 1., 10., 2., 8., 5., 9., 0., 1.,
          13., 1., 0., 6., 2., 2., 1., 5., 0., 7., 0., 6., 4., 2., 2.,
          13., 0., 3., 4., 0., 7., 1., 2., 4., 5., 4., 5., 2., 6., 6.,
          6., 0., 4., 2., 7. ]
      - [ 0., 4., 0., 5., 2., 5., 3., 2., 4., 3., 14., 2., 4., 4., 4.,
          9., 1., 9., 8., 4., 9., 4., 5., 1., 6., 2., 5., 4., 2., 1., 3.,
          2., 8., 1., 0., 22., 6., 1., 4., 6., 4., 3., 4., 0., 2., 3.,
          1., 2., 2., 0. ]
      - [ 3., 1., 1., 9., 2., 11., 1., 1., 5., 9., 6., 1., 8., 1., 2.,
          5., 4., 5., 13., 1., 0., 1., 3., 1., 5., 1., 8., 4., 6., 4.,
          7., 0., 4., 1., 3., 11., 0., 5., 7., 12., 5., 7., 2., 1., 8.,
          1., 0., 4., 0., 0. ]
      - [ 4., 4., 14., 2., 3., 1., 3., 2., 5., 0., 1., 4., 1., 2., 1.,
          15., 6., 9., 2., 3., 6., 1., 1., 0., 3., 28., 0., 1., 0., 8.,
          1., 7., 0., 1., 0., 0., 8., 0., 0., 0., 2., 2., 1., 1., 0.,
          22., 2., 1., 1., 21. ]
      - [ 4., 4., 3., 2., 6., 2., 5., 1., 2., 5., 2., 5., 2., 3., 5., 1.,
          12., 9., 7., 3., 4., 14., 1., 3., 2., 7., 2., 9., 7., 4., 3.,
          3., 4., 0., 5., 3., 6., 1., 5., 3., 6., 1., 8., 2., 1., 0., 0.,
          8., 5., 0. ]
      - [ 2., 3., 2., 10., 3., 7., 2., 0., 14., 2., 3., 0., 6., 6., 2.,
          5., 3., 4., 2., 4., 1., 4., 3., 1., 10., 0., 5., 4., 4., 1.,
          3., 1., 6., 1., 5., 4., 3., 2., 1., 1., 9., 4., 4., 20., 7.,
          2., 1., 4., 2., 7. ]
      - [ 2., 2., 0., 16., 1., 8., 0., 2., 17., 1., 23., 0., 8., 1., 1.,
          4., 0., 8., 5., 2., 0., 0., 6., 2., 6., 0., 6., 3., 1., 0., 6.,
          3., 1., 1., 2., 11., 0., 4., 5., 10., 15., 5., 2., 2., 3., 1.,
          0., 1., 1., 2. ]
      - [ 4., 5., 11., 2., 6., 2., 1., 5., 0., 2., 1., 7., 2., 11., 4.,
          10., 4., 0., 2., 3., 3., 3., 11., 3., 3., 7., 0., 1., 4., 3.,
          2., 1., 4., 6., 3., 2., 18., 2., 3., 2., 5., 4., 7., 1., 2.,
          5., 4., 2., 0., 7. ]
      - [ 0., 5., 25., 1., 2., 1., 0., 1., 1., 1., 3., 3., 3., 6., 5.,
          0., 1., 1., 0., 3., 0., 1., 0., 2., 0., 3., 3., 1., 12., 7.,
          1., 2., 2., 0., 6., 2., 36., 4., 0., 1., 2., 2., 0., 3., 3.,
          3., 5., 7., 0., 4. ]
      - [ 0., 0., 0., 16., 1., 9., 0., 1., 12., 0., 20., 1., 13., 2., 1.,
          11., 0., 10., 2., 3., 0., 0., 2., 0., 14., 0., 4., 2., 1., 0.,
          1., 0., 3., 1., 3., 9., 0., 1., 3., 5., 7., 11., 0., 12., 7.,
          1., 0., 5., 0., 6. ]
      - [ 2., 6., 1., 4., 2., 3., 5., 8., 0., 10., 11., 1., 2., 3., 6.,
          5., 2., 9., 6., 0., 5., 2., 5., 3., 2., 2., 6., 2., 1., 7., 7.,
          5., 6., 0., 4., 6., 3., 6., 2., 5., 7., 3., 6., 0., 3., 3., 3.,
          4., 4., 2. ]
      - [ 3., 3., 1., 8., 2., 10., 0., 3., 5., 4., 14., 1., 5., 0., 6.,
          2., 4., 6., 7., 2., 0., 4., 3., 1., 5., 0., 7., 11., 3., 5.,
          1., 2., 1., 1., 4., 21., 1., 6., 3., 7., 9., 2., 1., 2., 8.,
          1., 2., 2., 0., 1. ]
      - [ 8., 6., 0., 8., 3., 3., 1., 1., 1., 0., 34., 2., 0., 0., 7.,
          7., 0., 6., 2., 3., 2., 0., 8., 4., 2., 0., 6., 2., 1., 0., 2.,
          0., 0., 1., 1., 27., 1., 1., 6., 20., 6., 6., 3., 0., 0., 3.,
          1., 3., 1., 1. ]
      - [ 5., 15., 14., 3., 0., 3., 3., 6., 0., 5., 5., 3., 2., 9., 8.,
          0., 3., 0., 4., 2., 2., 4., 5., 0., 3., 1., 3., 3., 6., 4., 3.,
          2., 5., 0., 9., 3., 13., 7., 4., 4., 0., 2., 5., 1., 1., 1.,
          11., 5., 3., 0. ]
      - [ 4., 0., 0., 3., 5., 7., 0., 3., 9., 0., 4., 6., 9., 0., 0., 9.,
          2., 0., 2., 5., 0., 0., 5., 4., 16., 0., 2., 2., 2., 5., 6.,
          4., 2., 14., 4., 4., 0., 2., 8., 2., 14., 15., 0., 12., 4., 3.,
          0., 1., 1., 0. ]
      - [ 2., 2., 13., 4., 3., 4., 2., 1., 9., 1., 1., 1., 8., 8., 1.,
          13., 1., 1., 3., 3., 0., 1., 10., 2., 8., 0., 2., 1., 9., 5.,
          5., 3., 5., 3., 7., 2., 7., 4., 5., 1., 4., 5., 3., 4., 2., 2.,
          8., 4., 1., 6. ]
      - [ 4., 4., 1., 16., 2., 3., 1., 2., 4., 2., 8., 5., 14., 3., 5.,
          6., 2., 3., 8., 8., 0., 3., 2., 7., 9., 0., 5., 4., 6., 2., 2.,
          1., 2., 0., 5., 1., 4., 1., 1., 0., 4., 9., 1., 9., 5., 2., 3.,
          4., 1., 7. ]
      - [ 4., 0., 18., 4., 3., 6., 3., 3., 5., 3., 3., 3., 5., 2., 1.,
          15., 2., 0., 3., 6., 5., 1., 3., 2., 9., 1., 3., 1., 3., 3.,
          4., 0., 3., 4., 6., 1., 2., 3., 3., 1., 4., 4., 7., 11., 6.,
          7., 2., 8., 1., 3. ]
      - [ 0., 1., 2., 0., 3., 0., 1., 0., 4., 0., 6., 5., 0., 0., 1., 0.,
          1., 13., 2., 2., 0., 6., 7., 2., 2., 4., 0., 2., 1., 1., 2.,
          0., 0., 0., 2., 0., 4., 0., 1., 1., 2., 0., 2., 14., 1., 1.,
          3., 1., 1., 0. ]
      - [ 2., 0., 1., 7., 8., 2., 1., 0., 13., 1., 1., 11., 12., 0., 0.,
          14., 10., 4., 3., 12., 3., 1., 1., 2., 7., 3., 3., 2., 1., 1.,
          3., 1., 0., 0., 5., 1., 0., 0., 5., 8., 10., 12., 1., 11., 5.,
          2., 0., 7., 0., 3. ]
      - [ 2., 0., 11., 5., 1., 10., 1., 3., 9., 6., 16., 4., 5., 4., 2.,
          10., 2., 9., 5., 4., 4., 0., 5., 3., 7., 0., 1., 4., 2., 1.,
          2., 1., 2., 0., 4., 16., 3., 3., 3., 3., 8., 3., 1., 2., 8.,
          0., 1., 2., 1., 1. ]
      - [ 1., 3., 6., 0., 4., 1., 1., 2., 3., 1., 2., 5., 1., 0., 0., 5.,
          0., 1., 0., 1., 21., 3., 2., 0., 0., 20., 1., 4., 3., 0., 6.,
          3., 2., 2., 4., 1., 6., 0., 2., 1., 1., 0., 5., 2., 1., 2., 1.,
          1., 1., 5. ]
      - [ 2., 2., 9., 1., 2., 0., 6., 3., 2., 1., 0., 2., 2., 6., 4., 2.,
          1., 2., 1., 1., 4., 8., 0., 3., 1., 27., 0., 1., 2., 4., 4.,
          1., 3., 3., 3., 1., 6., 1., 1., 0., 1., 1., 3., 2., 2., 1., 2.,
          3., 3., 5. ]
      - [ 3., 7., 0., 5., 7., 5., 1., 3., 2., 1., 10., 6., 8., 1., 5.,
          3., 13., 12., 6., 1., 8., 2., 2., 1., 7., 7., 4., 5., 1., 2.,
          6., 0., 3., 6., 6., 9., 3., 1., 2., 5., 4., 7., 1., 0., 3., 3.,
          1., 0., 2., 0. ]
      - [ 3., 1., 1., 2., 8., 1., 5., 3., 2., 2., 2., 9., 3., 4., 2., 4.,
          7., 7., 3., 4., 26., 0., 5., 4., 4., 4., 3., 5., 1., 1., 10.,
          1., 4., 2., 5., 2., 4., 3., 2., 1., 1., 8., 8., 5., 4., 8., 0.,
          2., 3., 1. ]
      - [ 2., 9., 7., 2., 0., 5., 4., 2., 6., 5., 2., 0., 2., 7., 11.,
          3., 0., 4., 4., 2., 0., 2., 9., 1., 4., 2., 9., 2., 6., 8., 4.,
          1., 7., 0., 4., 5., 3., 2., 1., 2., 3., 7., 2., 6., 4., 4., 2.,
          4., 4., 15. ]
      - [ 3., 0., 5., 6., 0., 2., 1., 2., 10., 3., 7., 6., 7., 3., 0.,
          8., 10., 7., 6., 2., 9., 3., 3., 0., 7., 0., 5., 2., 3., 1.,
          6., 3., 2., 8., 4., 13., 1., 4., 3., 3., 5., 4., 2., 4., 4.,
          3., 1., 5., 0., 5. ]
      - [ 3., 3., 8., 2., 3., 7., 1., 6., 7., 4., 3., 0., 4., 5., 7., 4.,
          1., 2., 2., 2., 21., 4., 7., 2., 6., 9., 2., 3., 5., 0., 6.,
          0., 1., 1., 8., 1., 2., 2., 5., 3., 4., 11., 4., 3., 4., 2.,
          3., 5., 2., 1. ]
      - [ 2., 3., 0., 6., 5., 6., 0., 6., 10., 6., 6., 7., 0., 3., 4.,
          3., 13., 17., 3., 4., 9., 0., 6., 3., 3., 3., 0., 10., 2., 2.,
          8., 2., 2., 0., 4., 8., 1., 1., 3., 2., 6., 3., 1., 8., 3., 0.,
          0., 3., 1., 2. ]
      - [ 7., 1., 1., 10., 0., 2., 0., 4., 6., 0., 45., 0., 1., 1., 9.,
          1., 2., 0., 5., 1., 0., 0., 5., 2., 0., 0., 10., 0., 5., 6.,
          0., 3., 0., 0., 2., 24., 0., 10., 4., 13., 13., 0., 0., 0., 2.,
          3., 1., 2., 0., 0. ]
      - [ 3., 2., 34., 1., 4., 0., 3., 3., 4., 7., 3., 6., 1., 15., 2.,
          3., 3., 0., 3., 4., 5., 0., 5., 4., 2., 6., 2., 1., 6., 3., 1.,
          4., 1., 1., 4., 0., 5., 7., 3., 2., 5., 1., 6., 0., 2., 8., 5.,
          5., 3., 2. ]
      - [ 0., 2., 1., 6., 0., 11., 0., 0., 14., 2., 9., 1., 16., 0., 5.,
          6., 0., 1., 0., 0., 0., 0., 3., 0., 7., 0., 4., 2., 3., 4., 3.,
          0., 6., 0., 1., 4., 0., 4., 2., 4., 15., 5., 0., 32., 3., 3.,
          5., 1., 0., 15. ]
      - [ 2., 0., 1., 0., 1., 0., 0., 0., 0., 1., 0., 2., 0., 0., 0., 0.,
          0., 6., 0., 1., 0., 4., 0., 2., 1., 0., 0., 3., 5., 0., 0., 0.,
          0., 4., 5., 0., 0., 0., 0., 1., 0., 0., 1., 0., 0., 1., 0., 1.,
          0., 0. ]
      - [ 4., 2., 4., 4., 3., 3., 1., 3., 3., 3., 0., 6., 3., 8., 3., 4.,
          10., 7., 3., 4., 14., 8., 7., 0., 3., 6., 1., 9., 5., 3., 3.,
          2., 5., 6., 2., 0., 9., 4., 1., 1., 7., 0., 5., 4., 1., 5., 6.,
          1., 0., 4. ]
      - [ 0., 1., 6., 2., 1., 1., 2., 2., 5., 5., 0., 4., 0., 2., 1., 2.,
          1., 0., 1., 1., 18., 1., 3., 3., 2., 18., 1., 0., 2., 4., 1.,
          4., 0., 2., 3., 1., 4., 2., 2., 1., 2., 2., 2., 2., 1., 4., 2.,
          3., 4., 2. ]
      - [ 1., 0., 1., 0., 4., 3., 0., 0., 1., 0., 0., 0., 1., 2., 4., 1.,
          1., 16., 5., 3., 0., 1., 0., 2., 0., 0., 0., 1., 0., 0., 1.,
          0., 0., 0., 1., 1., 8., 0., 1., 0., 1., 2., 1., 1., 1., 0., 3.,
          2., 0., 0. ]
      - [ 2., 6., 7., 2., 7., 0., 3., 2., 1., 0., 1., 11., 3., 2., 3.,
          4., 16., 20., 1., 3., 7., 5., 6., 1., 0., 3., 0., 6., 5., 3.,
          6., 5., 0., 1., 4., 1., 8., 2., 1., 7., 3., 3., 8., 1., 2., 6.,
          1., 6., 1., 4. ]
      - [ 2., 6., 5., 2., 5., 1., 1., 6., 2., 2., 5., 8., 0., 9., 7., 3.,
          3., 0., 1., 2., 4., 5., 5., 6., 1., 8., 2., 0., 7., 6., 3., 5.,
          10., 6., 7., 3., 3., 4., 3., 2., 4., 2., 4., 7., 2., 3., 8.,
          7., 0., 3. ]
      - [ 1., 8., 26., 2., 5., 1., 4., 0., 3., 1., 3., 3., 2., 6., 5.,
          0., 2., 1., 2., 6., 5., 8., 0., 0., 1., 2., 3., 2., 6., 2., 1.,
          2., 3., 1., 3., 5., 35., 1., 0., 0., 4., 1., 4., 4., 4., 4.,
          12., 4., 1., 1. ]
      - [ 0., 4., 12., 7., 3., 3., 0., 3., 11., 4., 2., 2., 11., 8., 6.,
          2., 1., 4., 3., 0., 1., 0., 3., 0., 10., 0., 6., 5., 5., 5.,
          0., 2., 2., 0., 4., 8., 9., 4., 1., 3., 6., 5., 3., 4., 3., 1.,
          5., 3., 0., 16. ]
      - [ 1., 7., 8., 9., 1., 2., 0., 6., 14., 3., 4., 1., 7., 0., 3.,
          6., 0., 0., 1., 2., 1., 1., 4., 0., 5., 1., 3., 0., 1., 6., 6.,
          4., 2., 2., 2., 3., 10., 5., 0., 3., 19., 5., 0., 17., 2., 7.,
          5., 1., 0., 10. ]
      - [ 0., 1., 0., 14., 8., 4., 0., 2., 12., 4., 6., 5., 11., 3., 3.,
          6., 6., 13., 4., 7., 10., 1., 3., 2., 7., 0., 2., 4., 1., 1.,
          2., 0., 2., 1., 3., 8., 0., 0., 5., 1., 3., 11., 7., 7., 2.,
          0., 2., 2., 2., 3. ]
      - [ 4., 2., 4., 4., 6., 3., 3., 2., 5., 4., 3., 4., 6., 6., 1., 8.,
          8., 5., 4., 3., 6., 5., 6., 4., 4., 3., 3., 8., 4., 2., 3., 0.,
          2., 2., 2., 4., 6., 2., 4., 1., 5., 4., 9., 4., 3., 6., 1., 6.,
          3., 3. ]
      - [ 4., 0., 1., 2., 6., 3., 1., 0., 2., 0., 2., 4., 4., 2., 0.,
          16., 5., 3., 2., 5., 7., 9., 2., 0., 8., 15., 0., 2., 2., 2.,
          6., 2., 2., 11., 2., 1., 6., 1., 2., 0., 8., 0., 9., 11., 4.,
          11., 4., 5., 3., 3. ]
      - [ 3., 6., 3., 6., 5., 4., 1., 2., 3., 9., 4., 2., 7., 5., 1., 0.,
          3., 3., 6., 5., 3., 2., 2., 0., 4., 0., 4., 8., 6., 7., 5., 5.,
          2., 0., 4., 11., 2., 3., 4., 0., 4., 8., 2., 6., 7., 3., 1.,
          12., 1., 6. ]
      - [ 0., 7., 11., 4., 7., 1., 5., 2., 2., 2., 9., 6., 1., 2., 2.,
          4., 6., 5., 6., 5., 14., 5., 1., 4., 1., 15., 1., 1., 4., 4.,
          1., 0., 1., 0., 4., 2., 9., 2., 3., 1., 5., 3., 5., 5., 5., 1.,
          5., 5., 4., 2. ]
      - [ 0., 7., 20., 0., 3., 2., 7., 4., 1., 1., 13., 2., 0., 8., 3.,
          6., 4., 2., 1., 3., 13., 1., 1., 2., 2., 7., 3., 1., 0., 11.,
          3., 14., 2., 4., 2., 0., 15., 3., 1., 1., 1., 0., 5., 3., 0.,
          1., 8., 1., 5., 3. ]
      - [ 0., 5., 0., 11., 0., 1., 0., 0., 11., 1., 6., 1., 8., 0., 5.,
          2., 1., 1., 0., 1., 0., 3., 0., 0., 8., 0., 8., 1., 8., 4., 4.,
          0., 1., 6., 3., 2., 0., 5., 1., 0., 16., 4., 0., 42., 3., 1.,
          0., 1., 0., 26. ]
      - [ 3., 4., 20., 4., 5., 1., 7., 0., 0., 4., 1., 5., 1., 8., 6.,
          1., 2., 4., 2., 4., 10., 3., 2., 3., 1., 15., 2., 4., 6., 12.,
          2., 7., 6., 0., 1., 0., 11., 3., 1., 3., 1., 2., 5., 1., 2.,
          1., 3., 3., 7., 1. ]
      - [ 1., 4., 9., 1., 3., 1., 1., 0., 1., 1., 6., 3., 6., 6., 2., 5.,
          1., 2., 2., 0., 19., 2., 1., 1., 3., 7., 1., 1., 6., 0., 2.,
          0., 0., 1., 5., 1., 5., 0., 1., 2., 1., 2., 1., 0., 2., 1., 4.,
          1., 0., 0. ]
      - [ 1., 1., 0., 3., 4., 3., 0., 1., 6., 2., 9., 0., 0., 0., 2.,
          28., 1., 1., 1., 0., 1., 0., 5., 2., 2., 0., 4., 2., 0., 2.,
          10., 0., 0., 35., 0., 8., 0., 4., 4., 5., 7., 6., 2., 19., 4.,
          14., 0., 0., 1., 0. ]
      - [ 0., 4., 30., 0., 7., 0., 4., 3., 2., 3., 3., 0., 0., 5., 2.,
          9., 3., 0., 0., 4., 4., 0., 10., 2., 1., 2., 5., 0., 12., 5.,
          2., 3., 2., 1., 5., 5., 6., 6., 3., 11., 2., 2., 10., 3., 3.,
          6., 5., 0., 3., 2. ]
      - [ 2., 1., 0., 8., 1., 10., 0., 0., 7., 5., 12., 3., 9., 2., 1.,
          8., 5., 13., 4., 3., 0., 3., 2., 1., 5., 0., 9., 3., 2., 4.,
          6., 3., 5., 0., 4., 12., 0., 1., 7., 7., 8., 6., 5., 0., 6.,
          2., 1., 4., 0., 0. ]
      - [ 1., 4., 3., 5., 5., 8., 1., 0., 8., 6., 0., 3., 1., 1., 3., 8.,
          5., 4., 5., 5., 6., 3., 8., 1., 3., 7., 8., 3., 3., 5., 4., 3.,
          7., 1., 2., 2., 8., 3., 6., 1., 11., 3., 3., 5., 5., 1., 2.,
          6., 1., 3. ]
      - [ 3., 8., 8., 1., 8., 2., 1., 3., 6., 3., 1., 5., 3., 5., 2., 7.,
          2., 3., 1., 5., 8., 3., 4., 4., 2., 1., 4., 5., 6., 1., 7., 2.,
          7., 1., 1., 2., 6., 4., 4., 1., 3., 4., 10., 14., 2., 6., 4.,
          4., 0., 3. ]
      - [ 1., 5., 7., 9., 2., 3., 2., 3., 8., 3., 13., 1., 1., 6., 4.,
          7., 0., 0., 1., 3., 13., 0., 5., 2., 4., 3., 2., 1., 11., 2.,
          7., 2., 3., 2., 10., 4., 1., 5., 0., 3., 7., 3., 6., 3., 2.,
          12., 3., 1., 2., 2. ]
      - [ 2., 4., 12., 2., 4., 1., 0., 2., 2., 3., 0., 10., 2., 3., 3.,
          1., 12., 4., 3., 5., 12., 6., 3., 3., 3., 5., 0., 5., 11., 4.,
          1., 0., 2., 3., 7., 1., 8., 0., 4., 0., 1., 2., 10., 6., 4.,
          7., 3., 5., 6., 3. ]
      - [ 5., 5., 4., 8., 4., 2., 1., 2., 13., 4., 3., 0., 2., 6., 4.,
          12., 2., 2., 3., 4., 5., 6., 5., 1., 4., 1., 3., 0., 7., 3.,
          6., 5., 3., 4., 4., 2., 8., 4., 4., 2., 4., 2., 3., 4., 3., 7.,
          3., 4., 0., 7. ]
      - [ 2., 4., 5., 1., 8., 3., 0., 1., 1., 4., 3., 15., 0., 4., 8.,
          4., 16., 3., 2., 1., 4., 2., 3., 3., 1., 3., 5., 7., 4., 9.,
          1., 6., 7., 1., 6., 3., 1., 0., 8., 11., 5., 2., 10., 3., 5.,
          1., 2., 2., 0., 0. ]
      - [ 2., 1., 0., 10., 1., 11., 0., 4., 15., 3., 23., 1., 3., 0., 4.,
          0., 0., 5., 4., 0., 0., 1., 4., 2., 8., 0., 9., 2., 3., 3., 2.,
          3., 4., 0., 4., 22., 3., 2., 2., 11., 12., 3., 0., 5., 5., 0.,
          1., 2., 0., 0. ]
      - [ 1., 2., 7., 0., 5., 2., 4., 8., 3., 4., 0., 5., 0., 9., 4., 4.,
          7., 4., 2., 4., 12., 3., 5., 6., 2., 3., 2., 6., 6., 9., 2.,
          4., 11., 3., 3., 0., 2., 3., 0., 7., 5., 1., 10., 1., 5., 4.,
          1., 4., 4., 1. ]
      - [ 3., 7., 1., 1., 4., 1., 4., 3., 0., 2., 0., 6., 0., 13., 2.,
          4., 5., 2., 1., 4., 20., 2., 5., 1., 3., 30., 1., 3., 2., 1.,
          2., 2., 3., 10., 3., 0., 7., 2., 2., 0., 1., 0., 3., 3., 2.,
          14., 6., 4., 1., 4. ]
      - [ 3., 9., 1., 4., 1., 8., 1., 2., 6., 2., 4., 3., 6., 2., 7., 3.,
          7., 8., 1., 4., 9., 7., 2., 3., 9., 1., 4., 2., 6., 8., 4., 1.,
          2., 0., 6., 6., 4., 3., 3., 3., 7., 2., 0., 7., 5., 1., 3., 4.,
          3., 3. ]
      - [ 3., 6., 3., 6., 2., 2., 2., 0., 3., 3., 0., 5., 3., 8., 4.,
          18., 4., 5., 3., 4., 3., 7., 4., 1., 8., 0., 4., 4., 6., 0.,
          4., 1., 6., 2., 4., 3., 3., 5., 6., 0., 3., 1., 8., 8., 6., 5.,
          3., 6., 0., 5. ]
      - [ 1., 4., 7., 4., 6., 3., 2., 3., 0., 5., 3., 7., 3., 8., 6., 6.,
          2., 3., 0., 1., 5., 3., 8., 5., 2., 11., 1., 2., 5., 1., 5.,
          3., 4., 6., 6., 3., 9., 6., 4., 1., 2., 2., 3., 2., 2., 12.,
          5., 2., 4., 2. ]
      - [ 2., 0., 0., 6., 0., 11., 0., 4., 1., 3., 0., 8., 3., 0., 0.,
          13., 14., 29., 5., 1., 1., 1., 3., 8., 5., 0., 5., 11., 0., 0.,
          8., 0., 1., 7., 3., 0., 0., 3., 7., 9., 1., 12., 4., 2., 2.,
          5., 0., 2., 0., 0. ]
      - [ 5., 6., 11., 3., 4., 0., 3., 2., 8., 0., 0., 3., 3., 6., 1.,
          3., 3., 1., 3., 0., 5., 2., 4., 2., 6., 5., 3., 3., 11., 3.,
          3., 4., 0., 4., 14., 0., 5., 6., 2., 0., 8., 2., 7., 13., 5.,
          6., 3., 3., 6., 1. ]
      - [ 9., 1., 0., 7., 0., 16., 0., 4., 8., 5., 1., 1., 13., 0., 1.,
          0., 2., 10., 10., 1., 0., 0., 1., 4., 9., 0., 15., 3., 0., 1.,
          2., 2., 1., 1., 0., 12., 0., 3., 14., 8., 6., 12., 4., 1., 9.,
          1., 0., 0., 2., 0. ]
      - [ 3., 4., 17., 1., 1., 1., 0., 4., 1., 1., 4., 0., 4., 10., 6.,
          2., 1., 4., 1., 1., 3., 2., 4., 2., 4., 6., 0., 1., 8., 5., 1.,
          4., 11., 2., 10., 1., 6., 1., 2., 2., 1., 1., 1., 0., 1., 0.,
          9., 7., 2., 1. ]
      - [ 1., 0., 0., 22., 4., 6., 0., 3., 17., 9., 18., 1., 6., 0., 1.,
          4., 2., 1., 4., 1., 3., 0., 3., 1., 2., 0., 4., 4., 2., 7., 8.,
          4., 1., 2., 1., 15., 0., 0., 4., 2., 7., 5., 6., 7., 4., 2.,
          0., 4., 1., 1. ]
      - [ 2., 0., 1., 3., 0., 4., 0., 1., 18., 0., 1., 0., 6., 2., 0.,
          5., 0., 0., 1., 0., 0., 1., 2., 0., 6., 1., 0., 0., 0., 1., 1.,
          3., 3., 4., 2., 1., 0., 1., 1., 1., 12., 0., 0., 33., 2., 5.,
          6., 0., 0., 32. ]
      - [ 6., 1., 0., 4., 2., 9., 1., 6., 1., 3., 3., 4., 4., 1., 2., 2.,
          10., 10., 12., 3., 0., 0., 5., 1., 11., 0., 2., 7., 5., 1.,
          10., 2., 1., 0., 13., 7., 0., 3., 6., 13., 2., 6., 3., 0., 9.,
          2., 1., 5., 1., 0. ]
      - [ 3., 6., 34., 0., 2., 3., 2., 6., 4., 1., 0., 3., 2., 6., 3.,
          4., 2., 1., 1., 1., 1., 9., 0., 4., 2., 10., 0., 1., 8., 3.,
          0., 3., 8., 0., 5., 0., 25., 3., 2., 2., 5., 0., 2., 2., 0.,
          4., 8., 0., 5., 4. ]
      - [ 0., 4., 3., 10., 3., 4., 2., 2., 11., 4., 8., 3., 4., 1., 7.,
          5., 5., 5., 5., 1., 3., 3., 4., 3., 5., 0., 8., 2., 1., 8., 3.,
          0., 2., 3., 2., 2., 4., 7., 4., 3., 11., 8., 3., 7., 6., 2.,
          0., 5., 3., 1. ]
      - [ 2., 5., 18., 3., 2., 0., 1., 6., 8., 0., 7., 2., 1., 6., 7.,
          1., 1., 1., 0., 1., 0., 9., 3., 1., 1., 8., 1., 1., 1., 8., 6.,
          1., 1., 1., 2., 2., 40., 5., 2., 0., 7., 0., 0., 10., 1., 1.,
          8., 1., 1., 6. ]
      - [ 2., 0., 0., 8., 1., 11., 1., 4., 4., 11., 18., 1., 6., 0., 1.,
          2., 2., 11., 4., 1., 2., 1., 1., 2., 6., 2., 8., 2., 1., 1.,
          8., 3., 1., 0., 2., 17., 1., 6., 4., 9., 10., 8., 2., 1., 7.,
          3., 1., 2., 2., 0. ]
      - [ 1., 3., 8., 0., 8., 3., 4., 2., 3., 2., 0., 2., 3., 3., 3.,
          19., 5., 2., 5., 3., 18., 2., 7., 1., 3., 16., 1., 2., 4., 2.,
          7., 0., 3., 6., 3., 2., 6., 0., 5., 2., 1., 0., 6., 1., 5., 9.,
          0., 5., 2., 2. ]
      - [ 4., 4., 6., 4., 5., 2., 8., 3., 0., 4., 2., 2., 0., 10., 3.,
          5., 7., 1., 5., 1., 5., 3., 9., 5., 0., 10., 2., 2., 6., 2.,
          6., 2., 5., 2., 4., 1., 10., 2., 3., 2., 0., 4., 5., 2., 5.,
          7., 7., 7., 4., 3. ]
      - [ 5., 8., 2., 5., 4., 3., 2., 1., 4., 2., 2., 4., 1., 5., 8., 2.,
          2., 5., 3., 5., 7., 13., 5., 3., 2., 12., 8., 4., 9., 3., 2.,
          2., 3., 0., 9., 4., 10., 2., 3., 2., 2., 2., 4., 1., 2., 2.,
          5., 5., 3., 0. ]
      - [ 1., 6., 24., 1., 5., 0., 7., 2., 2., 1., 0., 2., 0., 8., 2.,
          2., 4., 3., 1., 1., 12., 1., 3., 2., 2., 16., 4., 0., 5., 5.,
          5., 4., 3., 3., 1., 1., 18., 4., 4., 3., 1., 0., 8., 1., 1.,
          5., 4., 1., 7., 4. ]
      - [ 1., 1., 1., 3., 6., 1., 8., 2., 3., 5., 0., 3., 2., 1., 2., 2.,
          3., 0., 3., 3., 22., 5., 2., 6., 1., 13., 2., 1., 9., 3., 4.,
          3., 3., 4., 3., 0., 2., 0., 4., 1., 2., 0., 7., 1., 2., 3., 2.,
          6., 1., 0. ]
      - [ 0., 9., 21., 3., 1., 0., 2., 4., 1., 2., 0., 2., 2., 13., 6.,
          6., 3., 0., 0., 5., 5., 13., 2., 2., 2., 9., 1., 1., 6., 8.,
          0., 0., 3., 3., 6., 1., 23., 1., 2., 1., 3., 0., 5., 4., 1.,
          5., 5., 5., 3., 0. ]
      - [ 3., 8., 13., 1., 4., 1., 5., 4., 1., 4., 2., 3., 1., 10., 1.,
          4., 10., 7., 3., 2., 22., 2., 4., 2., 0., 10., 0., 5., 5., 1.,
          4., 1., 1., 3., 0., 0., 9., 2., 0., 1., 2., 3., 13., 3., 2.,
          8., 5., 0., 3., 2. ]
      - [ 1., 9., 7., 2., 0., 4., 2., 4., 11., 3., 2., 2., 3., 4., 6.,
          1., 0., 0., 4., 1., 9., 3., 4., 2., 3., 8., 6., 3., 3., 6., 3.,
          1., 5., 5., 7., 2., 12., 3., 0., 0., 5., 5., 2., 7., 1., 7.,
          2., 6., 2., 12. ]
      - [ 4., 4., 6., 5., 6., 2., 8., 2., 3., 1., 0., 6., 3., 6., 0., 1.,
          2., 0., 2., 5., 3., 3., 4., 0., 0., 5., 3., 0., 2., 2., 4., 3.,
          2., 0., 3., 0., 11., 5., 4., 3., 9., 2., 6., 4., 6., 5., 5.,
          8., 5., 4. ]
      - [ 4., 1., 4., 8., 3., 5., 3., 4., 4., 3., 2., 3., 6., 0., 3., 6.,
          6., 17., 11., 7., 2., 1., 2., 3., 6., 2., 1., 6., 2., 3., 2.,
          6., 0., 1., 4., 8., 6., 1., 4., 5., 4., 8., 5., 0., 4., 1., 0.,
          10., 1., 2. ]
      - [ 1., 6., 6., 0., 3., 3., 2., 2., 4., 4., 6., 0., 2., 8., 8., 1.,
          2., 4., 6., 0., 4., 3., 5., 3., 7., 6., 2., 1., 9., 9., 7., 3.,
          6., 1., 7., 3., 5., 5., 3., 3., 3., 10., 1., 0., 4., 4., 8.,
          3., 6., 1. ]
      - [ 6., 4., 8., 2., 2., 5., 3., 2., 7., 4., 1., 0., 1., 8., 5., 1.,
          1., 0., 2., 6., 6., 8., 13., 3., 2., 1., 2., 2., 5., 1., 4.,
          1., 5., 6., 6., 0., 2., 4., 7., 3., 11., 6., 4., 6., 3., 6.,
          4., 3., 1., 6. ]
      - [ 2., 0., 0., 6., 3., 2., 3., 4., 5., 9., 7., 3., 3., 2., 1., 8.,
          5., 4., 1., 0., 20., 3., 3., 6., 2., 9., 6., 3., 1., 1., 11.,
          1., 0., 3., 3., 4., 1., 6., 0., 4., 12., 6., 5., 2., 3., 6.,
          2., 3., 2., 4. ]
      - [ 3., 3., 14., 0., 10., 1., 3., 2., 3., 3., 0., 4., 0., 2., 2.,
          8., 6., 1., 2., 4., 6., 0., 11., 4., 0., 6., 2., 4., 4., 2.,
          6., 5., 2., 5., 5., 0., 1., 4., 3., 4., 2., 4., 9., 9., 1.,
          10., 3., 3., 8., 6. ]
      - [ 4., 7., 1., 9., 0., 6., 0., 6., 5., 10., 7., 0., 6., 0., 8.,
          0., 1., 3., 7., 1., 2., 2., 15., 6., 5., 0., 11., 1., 3., 3.,
          3., 2., 0., 2., 2., 10., 2., 6., 9., 6., 3., 9., 2., 1., 4.,
          3., 2., 5., 0., 0. ]
      - [ 2., 5., 5., 0., 6., 0., 1., 2., 12., 2., 0., 4., 0., 1., 0.,
          10., 2., 2., 2., 1., 0., 1., 5., 2., 5., 5., 3., 1., 9., 3.,
          6., 4., 1., 35., 4., 1., 12., 5., 1., 2., 8., 5., 0., 7., 6.,
          9., 1., 2., 0., 0. ]
      - [ 4., 6., 0., 7., 5., 10., 0., 6., 5., 10., 4., 5., 3., 1., 3.,
          2., 6., 8., 3., 7., 4., 0., 2., 8., 7., 1., 3., 5., 4., 4., 6.,
          1., 1., 0., 6., 7., 0., 7., 2., 8., 4., 4., 5., 1., 4., 2., 1.,
          5., 4., 0. ]
      - [ 4., 7., 6., 2., 1., 6., 2., 1., 0., 5., 1., 6., 4., 3., 4., 3.,
          10., 16., 2., 2., 2., 3., 4., 2., 4., 6., 2., 10., 3., 1., 3.,
          1., 1., 3., 2., 0., 13., 3., 5., 2., 1., 10., 5., 8., 4., 3.,
          5., 4., 4., 1. ]
      - [ 5., 2., 0., 1., 5., 5., 3., 3., 3., 5., 1., 6., 1., 1., 4., 9.,
          1., 4., 2., 2., 29., 1., 2., 2., 2., 34., 2., 2., 0., 2., 4.,
          1., 4., 15., 2., 1., 0., 3., 4., 1., 1., 5., 5., 1., 1., 5.,
          0., 1., 7., 0. ]
      - [ 2., 3., 17., 4., 6., 0., 1., 2., 2., 1., 4., 6., 2., 7., 2.,
          2., 4., 1., 2., 2., 10., 9., 9., 3., 3., 4., 3., 1., 9., 4.,
          5., 2., 4., 3., 5., 6., 17., 4., 1., 1., 4., 0., 2., 1., 0.,
          6., 6., 3., 4., 1. ]
      - [ 0., 6., 8., 0., 3., 0., 1., 3., 0., 5., 0., 4., 2., 14., 6.,
          2., 2., 0., 1., 3., 4., 13., 5., 4., 0., 3., 0., 2., 9., 2.,
          3., 3., 12., 1., 11., 2., 16., 0., 5., 2., 1., 0., 4., 0., 1.,
          1., 11., 6., 4., 2. ]
      - [ 4., 6., 0., 2., 4., 4., 2., 5., 2., 5., 2., 7., 2., 1., 2., 6.,
          4., 5., 2., 3., 15., 3., 6., 4., 1., 7., 1., 5., 5., 1., 6.,
          1., 2., 3., 9., 4., 2., 3., 7., 5., 3., 4., 13., 0., 1., 7.,
          4., 5., 3., 2. ]
      - [ 0., 8., 10., 4., 4., 1., 3., 4., 3., 4., 4., 8., 1., 10., 2.,
          3., 0., 0., 1., 0., 20., 2., 2., 5., 0., 10., 3., 2., 8., 5.,
          3., 2., 3., 4., 7., 5., 12., 4., 5., 3., 4., 1., 2., 1., 2.,
          6., 2., 3., 4., 0. ]
      - [ 2., 4., 1., 11., 1., 5., 1., 5., 10., 3., 15., 0., 4., 2., 2.,
          1., 4., 2., 8., 4., 2., 2., 2., 3., 6., 0., 10., 4., 1., 3.,
          4., 1., 2., 0., 5., 14., 0., 4., 3., 12., 9., 7., 3., 6., 7.,
          0., 1., 3., 0., 1. ]
      - [ 6., 0., 3., 4., 4., 9., 1., 1., 5., 4., 4., 4., 3., 7., 2., 2.,
          7., 2., 6., 2., 3., 1., 5., 3., 13., 1., 2., 4., 6., 3., 0.,
          1., 2., 1., 9., 8., 0., 2., 4., 6., 4., 1., 10., 8., 11., 3.,
          1., 8., 0., 4. ]
      - [ 2., 0., 30., 0., 4., 0., 1., 3., 0., 2., 0., 4., 1., 5., 0.,
          2., 1., 2., 0., 4., 5., 6., 1., 0., 0., 15., 0., 0., 0., 1.,
          0., 0., 0., 2., 1., 0., 38., 0., 0., 0., 1., 0., 1., 1., 0.,
          4., 2., 5., 2., 0. ]
      - [ 1., 6., 0., 8., 3., 5., 0., 0., 8., 4., 5., 3., 4., 2., 2., 2.,
          11., 16., 5., 2., 0., 5., 4., 3., 3., 1., 1., 8., 3., 3., 6.,
          1., 1., 3., 5., 11., 4., 5., 4., 7., 7., 3., 6., 3., 5., 1.,
          3., 5., 1., 1. ]
      - [ 0., 4., 5., 1., 4., 1., 2., 1., 2., 6., 2., 1., 1., 2., 5., 8.,
          2., 0., 0., 4., 8., 7., 7., 1., 5., 2., 12., 3., 12., 8., 4.,
          5., 5., 1., 9., 2., 4., 4., 2., 1., 5., 0., 3., 12., 4., 10.,
          4., 3., 3., 3. ]
      - [ 3., 2., 1., 0., 16., 2., 8., 6., 0., 6., 0., 11., 1., 1., 5.,
          1., 8., 2., 1., 6., 16., 7., 2., 1., 0., 17., 2., 3., 3., 5.,
          2., 6., 4., 5., 3., 0., 3., 1., 1., 0., 0., 0., 6., 0., 0., 6.,
          4., 1., 5., 0. ]
      - [ 3., 17., 15., 6., 1., 1., 0., 1., 7., 0., 1., 2., 5., 5., 6.,
          2., 1., 6., 1., 0., 0., 0., 2., 0., 1., 4., 3., 1., 2., 0., 2.,
          0., 1., 0., 4., 3., 38., 5., 2., 2., 9., 5., 0., 9., 4., 2.,
          9., 4., 0., 8. ]
      - [ 5., 0., 0., 2., 4., 19., 3., 3., 3., 0., 0., 14., 4., 0., 1.,
          8., 8., 40., 4., 6., 4., 1., 2., 0., 2., 0., 0., 9., 0., 1.,
          3., 1., 0., 0., 4., 0., 0., 2., 1., 6., 2., 8., 4., 0., 14.,
          9., 0., 3., 0., 0. ]
      - [ 1., 0., 0., 2., 1., 7., 0., 1., 5., 1., 0., 3., 2., 0., 0.,
          31., 1., 0., 0., 0., 9., 0., 3., 3., 2., 0., 2., 0., 0., 0.,
          9., 0., 0., 55., 0., 1., 5., 1., 6., 0., 5., 6., 2., 13., 1.,
          20., 0., 1., 0., 1. ]
      - [ 1., 2., 11., 5., 1., 6., 1., 2., 6., 7., 2., 0., 5., 3., 3.,
          9., 4., 0., 8., 4., 9., 1., 4., 5., 12., 3., 7., 1., 4., 4.,
          4., 3., 3., 1., 3., 3., 2., 5., 7., 3., 4., 7., 5., 1., 6., 2.,
          0., 8., 1., 3. ]
      - [ 4., 4., 3., 6., 3., 3., 2., 2., 3., 9., 3., 3., 2., 2., 5., 4.,
          6., 10., 6., 1., 4., 1., 5., 1., 3., 4., 3., 4., 6., 2., 3.,
          2., 1., 1., 4., 10., 6., 1., 4., 3., 5., 7., 9., 8., 6., 3.,
          2., 3., 3., 5. ]
      - [ 3., 2., 27., 0., 2., 0., 1., 2., 0., 4., 1., 0., 0., 9., 4.,
          1., 1., 1., 4., 2., 5., 7., 6., 2., 0., 16., 0., 0., 3., 5.,
          1., 3., 7., 9., 2., 0., 38., 1., 1., 4., 3., 1., 3., 0., 1.,
          7., 7., 2., 1., 1. ]
      - [ 5., 12., 8., 1., 4., 0., 1., 4., 2., 5., 1., 7., 1., 5., 2.,
          5., 3., 0., 2., 5., 4., 4., 8., 4., 1., 8., 2., 4., 8., 4., 3.,
          3., 1., 2., 3., 2., 9., 6., 3., 4., 4., 3., 6., 3., 1., 5., 5.,
          5., 7., 5. ]
      - [ 1., 5., 26., 3., 2., 0., 1., 2., 0., 1., 4., 1., 1., 9., 6.,
          0., 1., 1., 0., 2., 0., 17., 2., 3., 1., 1., 2., 1., 7., 2.,
          0., 5., 5., 1., 6., 2., 45., 1., 3., 6., 1., 0., 2., 0., 0.,
          3., 11., 6., 0., 1. ]
      - [ 3., 2., 8., 5., 1., 1., 2., 3., 8., 4., 3., 1., 2., 10., 1.,
          6., 8., 2., 5., 4., 6., 5., 5., 4., 4., 6., 3., 3., 6., 5., 5.,
          0., 4., 7., 7., 2., 3., 2., 6., 4., 7., 1., 7., 2., 0., 8., 5.,
          3., 1., 0. ]
      - [ 1., 9., 4., 9., 0., 7., 1., 2., 7., 0., 4., 0., 8., 3., 2., 2.,
          2., 3., 1., 1., 0., 2., 4., 1., 6., 1., 5., 2., 0., 8., 6., 1.,
          3., 4., 0., 8., 6., 3., 5., 2., 6., 9., 1., 19., 0., 8., 3.,
          2., 1., 18. ]
      - [ 3., 4., 4., 2., 7., 2., 0., 2., 2., 0., 0., 3., 2., 4., 7., 5.,
          3., 2., 3., 0., 17., 9., 4., 2., 0., 14., 2., 0., 6., 11., 5.,
          7., 3., 2., 9., 0., 22., 3., 2., 0., 3., 2., 3., 3., 1., 5.,
          7., 0., 2., 1. ]
      - [ 5., 3., 3., 9., 0., 6., 2., 3., 3., 6., 6., 2., 5., 3., 6., 5.,
          3., 4., 9., 2., 0., 4., 2., 2., 6., 0., 6., 5., 5., 4., 2., 0.,
          5., 0., 4., 13., 2., 3., 7., 5., 5., 12., 3., 1., 8., 0., 2.,
          5., 2., 2. ]
      - [ 8., 5., 7., 1., 1., 5., 1., 4., 8., 4., 0., 1., 1., 4., 10.,
          8., 2., 1., 1., 3., 2., 12., 8., 2., 1., 2., 2., 1., 10., 1.,
          7., 1., 7., 8., 3., 2., 2., 4., 4., 4., 6., 7., 5., 6., 3., 5.,
          3., 2., 1., 4. ]
      - [ 0., 8., 29., 1., 1., 1., 1., 3., 0., 1., 4., 3., 0., 4., 3.,
          3., 4., 1., 1., 4., 7., 2., 3., 1., 0., 8., 5., 0., 6., 3., 2.,
          1., 3., 1., 5., 2., 40., 3., 1., 1., 5., 2., 5., 3., 1., 4.,
          2., 2., 2., 8. ]
      - [ 1., 12., 12., 1., 3., 1., 3., 4., 6., 3., 0., 2., 2., 9., 4.,
          4., 1., 0., 2., 1., 15., 1., 6., 0., 3., 8., 1., 2., 1., 6.,
          4., 3., 6., 6., 3., 2., 7., 5., 2., 1., 4., 2., 2., 8., 0., 4.,
          13., 1., 6., 8. ]
      - [ 4., 5., 0., 14., 0., 3., 0., 5., 9., 2., 32., 0., 4., 3., 6.,
          0., 0., 0., 4., 1., 0., 0., 6., 0., 1., 0., 12., 1., 4., 10.,
          4., 2., 4., 0., 4., 21., 1., 5., 7., 9., 9., 1., 0., 2., 2.,
          0., 3., 1., 0., 0. ]
      - [ 4., 2., 21., 5., 2., 6., 1., 1., 8., 2., 2., 0., 13., 3., 2.,
          15., 1., 3., 0., 3., 1., 1., 4., 1., 9., 0., 3., 1., 6., 1.,
          3., 0., 10., 1., 6., 7., 0., 2., 8., 2., 5., 6., 2., 6., 7.,
          0., 2., 6., 0., 6. ]
      - [ 2., 3., 13., 1., 2., 2., 6., 6., 4., 4., 7., 1., 1., 10., 3.,
          3., 1., 1., 3., 2., 6., 4., 3., 3., 4., 12., 2., 3., 7., 2.,
          10., 4., 3., 1., 5., 2., 14., 1., 3., 0., 6., 3., 5., 3., 2.,
          4., 5., 2., 2., 4. ]
      - [ 3., 6., 32., 2., 4., 1., 1., 1., 0., 3., 0., 5., 0., 9., 6.,
          3., 5., 2., 2., 0., 3., 7., 7., 1., 0., 2., 2., 1., 6., 3., 1.,
          1., 4., 5., 5., 1., 28., 0., 1., 3., 0., 0., 6., 0., 1., 6.,
          12., 3., 3., 4. ]
      - [ 0., 6., 15., 1., 5., 3., 2., 2., 4., 1., 2., 4., 3., 10., 4.,
          9., 1., 1., 0., 2., 12., 3., 2., 1., 0., 9., 1., 2., 6., 1.,
          4., 0., 3., 4., 6., 2., 6., 1., 2., 0., 1., 0., 5., 2., 0.,
          13., 7., 3., 2., 2. ]
      - [ 3., 2., 4., 1., 6., 4., 3., 0., 4., 6., 1., 8., 6., 5., 0., 2.,
          7., 4., 15., 10., 10., 2., 5., 2., 9., 5., 2., 3., 2., 2., 5.,
          2., 0., 2., 8., 3., 0., 0., 4., 8., 6., 1., 4., 2., 3., 1., 0.,
          11., 4., 3. ]
      - [ 4., 0., 3., 3., 4., 8., 2., 3., 5., 4., 2., 4., 0., 2., 6., 1.,
          6., 14., 7., 4., 0., 9., 4., 5., 5., 2., 4., 2., 4., 7., 3.,
          6., 3., 1., 2., 2., 3., 5., 3., 2., 7., 9., 2., 9., 5., 0., 5.,
          6., 2., 1. ]
      - [ 0., 2., 15., 0., 2., 0., 4., 1., 0., 0., 1., 3., 0., 6., 2.,
          1., 1., 7., 0., 1., 7., 4., 4., 2., 0., 20., 0., 0., 2., 2.,
          0., 1., 1., 0., 4., 0., 26., 2., 2., 1., 1., 0., 1., 4., 1.,
          2., 6., 1., 3., 1. ]
      - [ 3., 6., 23., 2., 6., 0., 3., 0., 2., 1., 5., 7., 2., 9., 1.,
          3., 4., 4., 3., 6., 8., 5., 4., 3., 4., 2., 2., 4., 2., 4., 1.,
          2., 3., 1., 3., 4., 10., 4., 4., 4., 1., 1., 4., 0., 2., 3.,
          15., 4., 5., 1. ]
      - [ 2., 2., 0., 1., 4., 8., 3., 1., 3., 4., 2., 2., 7., 1., 1., 0.,
          9., 24., 6., 4., 3., 1., 2., 4., 10., 0., 6., 12., 1., 2., 6.,
          3., 1., 0., 6., 6., 2., 1., 5., 7., 3., 4., 5., 0., 14., 1.,
          1., 6., 5., 0. ]
      - [ 1., 5., 16., 3., 2., 3., 1., 4., 6., 6., 4., 3., 3., 9., 5.,
          4., 4., 2., 1., 5., 10., 10., 4., 0., 2., 3., 2., 0., 6., 3.,
          2., 1., 8., 4., 3., 2., 2., 6., 2., 0., 6., 4., 4., 4., 2., 3.,
          9., 4., 3., 4. ]
      - [ 2., 4., 1., 8., 1., 4., 1., 2., 7., 2., 2., 1., 7., 3., 3.,
          12., 2., 2., 2., 3., 6., 2., 6., 1., 12., 1., 7., 4., 2., 3.,
          3., 0., 5., 3., 2., 1., 4., 6., 5., 4., 7., 10., 0., 11., 6.,
          7., 3., 4., 0., 6. ]
      - [ 4., 3., 9., 2., 5., 4., 5., 4., 5., 7., 1., 7., 0., 7., 2.,
          10., 2., 2., 1., 4., 5., 5., 3., 5., 1., 11., 1., 1., 3., 3.,
          4., 1., 0., 7., 5., 3., 5., 4., 5., 3., 4., 1., 9., 5., 3., 9.,
          5., 0., 2., 3. ]
      - [ 4., 0., 0., 1., 4., 3., 1., 2., 1., 2., 0., 9., 4., 0., 2.,
          10., 6., 30., 8., 8., 3., 3., 4., 5., 12., 0., 3., 11., 5., 2.,
          3., 1., 2., 0., 4., 2., 0., 2., 4., 9., 2., 10., 4., 0., 5.,
          3., 1., 4., 0., 1. ]
      - [ 4., 3., 9., 0., 1., 2., 9., 3., 3., 7., 0., 2., 0., 1., 0., 1.,
          3., 3., 0., 2., 25., 0., 2., 3., 0., 24., 1., 4., 3., 14., 3.,
          15., 2., 6., 2., 0., 11., 3., 1., 1., 2., 0., 3., 0., 1., 1.,
          3., 3., 11., 3. ]
      - [ 3., 3., 3., 4., 3., 6., 2., 2., 2., 3., 9., 4., 1., 4., 16.,
          0., 3., 8., 7., 8., 2., 2., 2., 6., 4., 0., 10., 4., 5., 8.,
          2., 6., 6., 0., 7., 8., 0., 3., 2., 3., 1., 2., 3., 0., 7., 0.,
          1., 13., 2., 0. ]
      - [ 1., 4., 3., 6., 10., 0., 3., 3., 3., 4., 0., 11., 2., 1., 9.,
          8., 9., 5., 2., 5., 18., 3., 1., 4., 3., 5., 1., 4., 6., 3.,
          6., 2., 0., 5., 1., 2., 7., 3., 2., 1., 1., 2., 7., 1., 1., 6.,
          3., 7., 4., 2. ]
      - [ 9., 2., 4., 0., 4., 0., 6., 1., 2., 7., 1., 9., 0., 2., 0., 2.,
          9., 4., 5., 6., 18., 5., 0., 6., 0., 5., 0., 3., 5., 1., 7.,
          3., 2., 3., 6., 1., 4., 3., 4., 3., 3., 0., 16., 4., 4., 10.,
          0., 2., 5., 4. ]
      - [ 1., 13., 6., 2., 3., 3., 0., 2., 7., 6., 4., 1., 4., 6., 6.,
          4., 1., 1., 2., 0., 1., 4., 7., 2., 3., 3., 4., 1., 4., 6., 8.,
          1., 5., 4., 2., 1., 13., 4., 4., 1., 3., 4., 4., 11., 4., 5.,
          11., 5., 1., 2. ]
      - [ 1., 4., 5., 1., 9., 2., 1., 5., 0., 5., 0., 9., 0., 2., 3., 7.,
          6., 5., 0., 1., 23., 5., 2., 6., 3., 14., 0., 5., 4., 4., 4.,
          1., 1., 7., 4., 0., 9., 1., 4., 2., 2., 1., 11., 2., 1., 2.,
          4., 5., 5., 2. ]
      - [ 5., 7., 15., 2., 3., 2., 2., 7., 0., 1., 5., 1., 1., 10., 4.,
          2., 1., 0., 2., 5., 1., 4., 5., 1., 0., 2., 2., 1., 15., 4.,
          1., 3., 5., 0., 8., 3., 24., 1., 5., 3., 3., 2., 4., 4., 3.,
          7., 4., 3., 3., 4. ]
      - [ 5., 1., 3., 1., 7., 1., 2., 2., 6., 2., 0., 3., 4., 5., 5.,
          10., 2., 6., 1., 4., 31., 1., 6., 2., 2., 1., 2., 6., 9., 1.,
          4., 2., 0., 1., 8., 1., 3., 4., 3., 1., 4., 2., 10., 4., 5.,
          11., 1., 3., 1., 1. ]
      - [ 0., 4., 28., 6., 7., 1., 1., 2., 5., 4., 6., 7., 3., 2., 5.,
          6., 2., 2., 1., 2., 2., 4., 2., 2., 0., 6., 2., 2., 9., 9., 0.,
          8., 4., 4., 9., 1., 3., 5., 2., 2., 3., 1., 0., 0., 2., 1.,
          10., 3., 1., 9. ]
      - [ 3., 4., 2., 10., 0., 9., 1., 1., 11., 6., 9., 1., 6., 2., 7.,
          5., 3., 1., 5., 0., 0., 1., 6., 3., 8., 0., 17., 3., 3., 2.,
          3., 1., 5., 0., 3., 17., 3., 5., 6., 7., 5., 7., 0., 2., 4.,
          0., 0., 1., 0., 2. ]
      - [ 5., 1., 0., 10., 1., 11., 0., 3., 10., 1., 14., 0., 4., 0., 9.,
          5., 2., 16., 9., 3., 0., 1., 2., 5., 7., 0., 6., 10., 3., 1.,
          4., 0., 0., 0., 2., 13., 0., 2., 6., 7., 3., 4., 2., 3., 8.,
          1., 0., 5., 1., 0. ]
      - [ 4., 2., 12., 0., 7., 2., 9., 1., 1., 2., 1., 4., 0., 4., 1.,
          1., 2., 6., 2., 4., 1., 17., 2., 5., 4., 8., 0., 1., 9., 6.,
          3., 4., 2., 2., 7., 2., 11., 0., 3., 3., 1., 1., 8., 2., 5.,
          2., 8., 10., 1., 3. ]
      - [ 5., 2., 0., 4., 5., 11., 0., 2., 1., 11., 6., 7., 4., 1., 2.,
          3., 8., 7., 6., 7., 2., 2., 4., 2., 5., 0., 5., 11., 2., 4.,
          5., 1., 4., 0., 7., 8., 1., 2., 7., 9., 1., 7., 1., 0., 7., 1.,
          1., 8., 1., 0. ]
      - [ 0., 4., 0., 10., 0., 6., 0., 3., 5., 3., 22., 1., 7., 3., 5.,
          5., 0., 2., 3., 6., 1., 0., 2., 0., 7., 0., 15., 1., 3., 4.,
          4., 0., 13., 1., 2., 16., 2., 3., 5., 3., 10., 1., 1., 5., 6.,
          1., 2., 4., 0., 3. ]
      - [ 2., 2., 18., 6., 0., 0., 0., 0., 12., 0., 8., 1., 4., 4., 0.,
          13., 0., 3., 3., 1., 0., 0., 10., 1., 4., 1., 0., 0., 3., 2.,
          14., 2., 0., 28., 1., 7., 2., 1., 1., 4., 11., 2., 0., 3., 0.,
          9., 2., 3., 0., 12. ]
      - [ 4., 3., 0., 4., 4., 8., 5., 4., 1., 5., 4., 4., 3., 0., 1., 3.,
          2., 8., 7., 6., 0., 2., 5., 5., 1., 0., 8., 13., 4., 6., 6.,
          9., 2., 1., 3., 4., 3., 4., 2., 5., 6., 14., 5., 0., 5., 2.,
          0., 6., 3., 0. ]
      - [ 5., 1., 3., 10., 4., 7., 0., 3., 7., 1., 6., 2., 6., 4., 5.,
          1., 2., 6., 14., 5., 2., 1., 1., 3., 10., 0., 4., 4., 4., 4.,
          4., 2., 4., 0., 5., 7., 0., 1., 4., 13., 7., 6., 5., 7., 4.,
          0., 1., 3., 1., 1. ]
      - [ 3., 8., 2., 3., 3., 2., 2., 3., 6., 1., 2., 1., 1., 12., 2.,
          4., 2., 2., 4., 6., 8., 8., 8., 2., 2., 5., 6., 0., 6., 4., 8.,
          2., 3., 2., 8., 3., 7., 3., 0., 2., 5., 2., 9., 7., 2., 3., 4.,
          4., 3., 5. ]
      - [ 4., 7., 3., 6., 4., 5., 3., 4., 5., 4., 1., 3., 7., 0., 6., 4.,
          7., 23., 6., 2., 2., 4., 6., 3., 4., 0., 1., 8., 7., 3., 0.,
          1., 3., 0., 7., 2., 1., 1., 4., 1., 8., 6., 4., 4., 5., 0., 2.,
          5., 3., 1. ]
      - [ 2., 4., 7., 4., 2., 6., 2., 2., 5., 8., 2., 1., 3., 9., 4., 3.,
          2., 0., 2., 2., 0., 3., 4., 3., 4., 4., 7., 1., 5., 8., 2., 3.,
          8., 0., 4., 3., 17., 4., 0., 1., 5., 6., 4., 10., 0., 2., 8.,
          5., 3., 6. ]
      - [ 0., 4., 9., 3., 1., 0., 6., 3., 3., 1., 0., 2., 1., 4., 3., 5.,
          2., 3., 0., 4., 21., 6., 6., 4., 0., 23., 6., 2., 3., 4., 2.,
          2., 7., 3., 5., 1., 9., 6., 2., 0., 4., 1., 4., 2., 1., 8., 7.,
          2., 1., 1. ]
      - [ 1., 4., 0., 2., 7., 10., 4., 2., 3., 8., 3., 10., 3., 2., 4.,
          9., 11., 9., 3., 6., 8., 0., 2., 3., 4., 4., 6., 9., 1., 1.,
          7., 1., 0., 1., 2., 0., 5., 0., 1., 2., 4., 9., 7., 3., 6., 2.,
          0., 6., 4., 2. ]
      - [ 1., 8., 19., 1., 2., 6., 2., 3., 3., 4., 1., 1., 2., 11., 11.,
          5., 0., 1., 1., 1., 0., 4., 2., 1., 6., 1., 0., 0., 5., 17.,
          2., 3., 5., 1., 2., 1., 27., 3., 1., 0., 2., 5., 4., 3., 1.,
          4., 8., 4., 3., 2. ]
      - [ 3., 6., 4., 6., 3., 8., 0., 3., 10., 5., 3., 1., 6., 2., 4.,
          1., 0., 0., 3., 0., 1., 3., 2., 3., 8., 2., 5., 1., 0., 4., 3.,
          1., 3., 2., 3., 4., 22., 4., 3., 3., 14., 3., 1., 16., 3., 3.,
          1., 2., 1., 12. ]
      - [ 1., 2., 0., 13., 1., 6., 0., 5., 10., 4., 24., 1., 6., 1., 6.,
          0., 0., 1., 7., 2., 0., 1., 6., 0., 4., 1., 11., 2., 2., 3.,
          4., 4., 1., 0., 3., 23., 1., 6., 8., 6., 16., 1., 0., 2., 1.,
          0., 2., 1., 1., 0. ]
      - [ 0., 10., 2., 0., 4., 0., 9., 0., 0., 1., 0., 2., 0., 2., 1.,
          2., 1., 1., 0., 3., 38., 8., 3., 0., 0., 24., 0., 0., 2., 1.,
          2., 5., 0., 3., 5., 1., 11., 1., 0., 0., 0., 0., 4., 1., 0.,
          3., 8., 3., 19., 0. ]
      - [ 0., 1., 0., 7., 5., 6., 0., 3., 8., 4., 6., 6., 4., 0., 1., 7.,
          0., 1., 3., 1., 8., 0., 3., 5., 10., 2., 7., 2., 2., 2., 2.,
          1., 3., 4., 3., 5., 3., 5., 1., 2., 2., 9., 1., 21., 10., 4.,
          4., 3., 0., 13. ]
      - [ 4., 3., 1., 16., 0., 7., 0., 1., 13., 5., 12., 0., 12., 2., 4.,
          0., 0., 0., 6., 1., 0., 0., 5., 2., 10., 0., 8., 1., 0., 5.,
          4., 1., 2., 0., 4., 22., 1., 4., 2., 8., 9., 4., 1., 2., 10.,
          0., 2., 4., 0., 2. ]
      - [ 4., 4., 8., 0., 4., 3., 2., 4., 0., 4., 0., 10., 2., 3., 2.,
          3., 9., 5., 0., 3., 19., 3., 0., 3., 4., 10., 3., 4., 9., 4.,
          3., 4., 2., 2., 4., 0., 11., 6., 2., 2., 3., 1., 11., 1., 4.,
          5., 0., 5., 1., 4. ]
      - [ 2., 2., 3., 6., 0., 2., 0., 0., 12., 1., 1., 0., 8., 4., 3.,
          1., 0., 0., 2., 0., 0., 9., 2., 0., 4., 0., 3., 0., 5., 3., 1.,
          1., 6., 0., 5., 0., 6., 2., 0., 0., 11., 5., 0., 11., 1., 2.,
          6., 1., 1., 26. ]
      - [ 2., 4., 12., 0., 5., 0., 4., 1., 0., 2., 2., 2., 1., 7., 2.,
          5., 2., 2., 1., 6., 9., 3., 7., 7., 2., 18., 2., 1., 5., 3.,
          6., 1., 6., 2., 4., 1., 11., 1., 8., 5., 0., 1., 4., 2., 5.,
          13., 4., 5., 3., 2. ]
      - [ 1., 2., 0., 7., 0., 10., 2., 4., 15., 4., 11., 0., 1., 4., 3.,
          7., 1., 2., 2., 0., 8., 2., 13., 0., 3., 0., 11., 0., 0., 3.,
          7., 2., 11., 2., 1., 15., 2., 8., 3., 1., 14., 2., 2., 4., 2.,
          1., 3., 1., 0., 3. ]
      - [ 0., 5., 2., 9., 6., 12., 1., 1., 1., 3., 6., 5., 7., 1., 1.,
          7., 11., 18., 3., 3., 8., 1., 5., 3., 7., 5., 3., 8., 0., 2.,
          4., 1., 2., 0., 1., 5., 3., 0., 6., 6., 4., 6., 3., 1., 5., 1.,
          4., 1., 2., 1. ]
      - [ 2., 3., 0., 13., 1., 5., 1., 2., 19., 5., 9., 2., 15., 0., 3.,
          5., 0., 0., 2., 0., 0., 0., 1., 0., 11., 0., 9., 0., 1., 4.,
          1., 2., 8., 0., 0., 3., 0., 4., 0., 0., 12., 3., 0., 13., 4.,
          1., 3., 0., 1., 33. ]
      - [ 3., 9., 19., 0., 8., 0., 5., 0., 2., 1., 0., 7., 0., 11., 4.,
          1., 1., 3., 1., 3., 1., 7., 4., 1., 1., 9., 3., 1., 5., 6., 1.,
          8., 2., 0., 9., 1., 20., 4., 5., 4., 0., 3., 2., 1., 1., 1.,
          9., 6., 4., 3. ]
      - [ 2., 0., 1., 5., 3., 6., 2., 5., 2., 4., 1., 5., 3., 6., 0., 1.,
          5., 13., 11., 4., 15., 1., 2., 0., 7., 0., 3., 9., 2., 4., 6.,
          2., 6., 0., 4., 8., 0., 2., 6., 10., 0., 6., 7., 0., 7., 3.,
          1., 10., 0., 0. ]
      - [ 0., 5., 9., 0., 0., 3., 0., 2., 7., 0., 5., 0., 1., 6., 3., 1.,
          0., 35., 2., 2., 0., 3., 2., 0., 1., 0., 1., 0., 2., 1., 1.,
          4., 4., 1., 1., 0., 14., 5., 1., 0., 8., 3., 0., 6., 0., 2.,
          7., 3., 0., 2. ]
      - [ 1., 5., 6., 1., 3., 1., 7., 5., 4., 1., 1., 7., 0., 7., 1., 4.,
          3., 3., 1., 3., 24., 1., 4., 4., 2., 8., 3., 1., 6., 8., 7.,
          11., 7., 5., 1., 0., 0., 4., 2., 2., 4., 0., 4., 1., 4., 5.,
          6., 3., 5., 4. ]
      - [ 2., 7., 8., 1., 10., 1., 1., 5., 4., 2., 1., 11., 1., 9., 7.,
          0., 1., 0., 3., 4., 3., 2., 4., 3., 4., 5., 1., 1., 11., 12.,
          4., 10., 2., 3., 11., 0., 4., 4., 1., 0., 5., 0., 3., 11., 3.,
          5., 5., 2., 2., 1. ]
      - [ 2., 6., 1., 6., 4., 7., 1., 4., 3., 7., 5., 2., 5., 2., 3., 5.,
          8., 18., 4., 2., 13., 4., 4., 6., 6., 3., 3., 6., 2., 2., 1.,
          1., 2., 0., 1., 2., 8., 2., 2., 4., 6., 4., 8., 1., 4., 1., 1.,
          6., 1., 1. ]
      - [ 3., 10., 2., 4., 5., 6., 1., 2., 5., 9., 0., 3., 9., 1., 7.,
          2., 4., 10., 4., 6., 0., 2., 3., 2., 3., 1., 8., 11., 3., 7.,
          2., 0., 1., 0., 2., 0., 14., 5., 3., 1., 8., 18., 2., 2., 0.,
          1., 4., 1., 1., 2. ]
      - [ 2., 6., 13., 5., 4., 2., 0., 1., 2., 0., 6., 8., 3., 4., 5.,
          3., 3., 4., 3., 3., 2., 5., 5., 6., 3., 7., 1., 0., 2., 4., 0.,
          1., 1., 1., 2., 4., 37., 2., 2., 1., 7., 3., 3., 1., 3., 7.,
          6., 4., 2., 1. ]
      - [ 0., 2., 18., 1., 2., 7., 1., 8., 2., 10., 0., 3., 7., 7., 1.,
          2., 0., 5., 4., 8., 0., 1., 1., 2., 6., 1., 1., 7., 6., 8., 4.,
          7., 2., 0., 12., 3., 2., 7., 5., 4., 2., 6., 2., 0., 8., 1.,
          4., 8., 1., 1. ]
      - [ 4., 1., 0., 15., 1., 6., 0., 4., 11., 2., 31., 0., 5., 0., 4.,
          3., 0., 5., 6., 1., 2., 0., 6., 0., 4., 0., 8., 1., 2., 1., 4.,
          1., 1., 0., 1., 22., 1., 8., 1., 3., 13., 2., 1., 8., 7., 1.,
          0., 2., 1., 0. ]
      - [ 2., 2., 8., 2., 6., 2., 2., 1., 4., 4., 1., 4., 6., 4., 6., 5.,
          6., 3., 3., 6., 3., 2., 6., 0., 6., 2., 2., 2., 2., 13., 6.,
          12., 3., 10., 6., 1., 1., 5., 6., 1., 8., 6., 6., 1., 1., 1.,
          1., 6., 3., 1. ]
      - [ 1., 8., 19., 1., 0., 2., 2., 2., 2., 2., 3., 1., 3., 11., 6.,
          1., 1., 3., 0., 0., 5., 3., 3., 2., 7., 9., 3., 1., 3., 4., 6.,
          0., 7., 3., 7., 2., 15., 3., 4., 4., 0., 6., 3., 2., 4., 10.,
          7., 2., 4., 3. ]
      - [ 3., 3., 1., 1., 9., 3., 2., 1., 2., 2., 5., 8., 1., 1., 2., 6.,
          10., 33., 10., 1., 9., 7., 0., 4., 2., 8., 2., 11., 0., 1.,
          10., 0., 0., 1., 0., 5., 0., 1., 11., 6., 3., 7., 3., 0., 1.,
          1., 0., 1., 2., 0. ]
      - [ 2., 6., 2., 2., 5., 10., 3., 8., 7., 7., 2., 4., 5., 6., 5.,
          3., 3., 5., 5., 2., 10., 4., 3., 3., 3., 2., 8., 4., 2., 3.,
          3., 2., 5., 0., 2., 6., 9., 6., 2., 5., 3., 1., 5., 2., 3., 2.,
          2., 4., 1., 3. ]
      - [ 3., 4., 3., 1., 5., 6., 6., 5., 2., 4., 2., 4., 2., 6., 3., 5.,
          4., 1., 3., 1., 7., 3., 13., 1., 3., 2., 4., 6., 2., 1., 5.,
          3., 3., 1., 8., 5., 4., 0., 5., 3., 3., 6., 3., 5., 5., 9., 6.,
          6., 6., 2. ]
      - [ 3., 0., 0., 2., 1., 5., 1., 3., 2., 2., 3., 4., 3., 0., 2., 4.,
          12., 41., 7., 0., 0., 0., 6., 3., 4., 0., 3., 11., 0., 1., 6.,
          1., 0., 1., 1., 10., 0., 1., 6., 15., 1., 19., 1., 3., 8., 2.,
          0., 2., 0., 0. ]
      - [ 2., 7., 2., 2., 9., 2., 3., 0., 5., 9., 3., 5., 1., 1., 3., 6.,
          8., 10., 3., 2., 2., 5., 3., 1., 4., 3., 3., 8., 4., 2., 8.,
          2., 2., 1., 5., 3., 11., 1., 3., 2., 2., 6., 14., 4., 6., 2.,
          1., 5., 2., 2. ]
      - [ 0., 7., 8., 3., 8., 2., 3., 3., 1., 1., 1., 4., 1., 4., 2., 7.,
          8., 2., 3., 3., 7., 2., 3., 0., 6., 2., 0., 4., 3., 4., 5., 0.,
          1., 2., 7., 2., 16., 3., 2., 3., 5., 5., 7., 3., 7., 10., 9.,
          3., 4., 4. ]
      - [ 4., 1., 7., 10., 2., 5., 0., 2., 7., 4., 10., 1., 13., 0., 1.,
          3., 5., 6., 8., 3., 3., 3., 1., 2., 4., 1., 5., 3., 3., 3., 4.,
          3., 1., 0., 1., 15., 0., 4., 3., 9., 12., 8., 3., 3., 5., 2.,
          0., 4., 0., 3. ]
      - [ 5., 0., 0., 0., 8., 7., 4., 5., 6., 3., 0., 7., 8., 2., 1., 7.,
          18., 11., 4., 4., 5., 0., 1., 5., 13., 0., 0., 10., 2., 2., 1.,
          3., 6., 8., 3., 0., 0., 4., 8., 6., 6., 2., 3., 10., 0., 1.,
          0., 0., 1., 0. ]
      - [ 5., 7., 17., 8., 1., 2., 2., 2., 5., 2., 3., 0., 1., 5., 6.,
          2., 1., 1., 1., 3., 5., 1., 9., 2., 2., 3., 1., 1., 10., 12.,
          9., 4., 5., 3., 7., 2., 4., 7., 3., 4., 3., 2., 3., 1., 1., 4.,
          11., 2., 2., 3. ]
      - [ 0., 8., 4., 1., 5., 1., 3., 0., 6., 5., 1., 3., 3., 6., 3., 7.,
          5., 2., 1., 4., 12., 5., 5., 3., 0., 9., 2., 3., 6., 3., 7.,
          1., 6., 5., 4., 5., 5., 1., 5., 3., 3., 6., 7., 4., 1., 8., 5.,
          1., 1., 6. ]
      - [ 2., 2., 1., 7., 2., 7., 0., 1., 9., 4., 6., 0., 9., 1., 2., 4.,
          0., 5., 2., 2., 2., 3., 2., 0., 11., 1., 10., 2., 2., 6., 6.,
          1., 3., 2., 5., 15., 0., 4., 3., 1., 11., 4., 4., 7., 8., 1.,
          3., 6., 2., 9. ]
      - [ 3., 6., 6., 7., 2., 3., 0., 4., 6., 2., 10., 2., 0., 4., 8.,
          1., 5., 7., 12., 3., 1., 2., 1., 1., 5., 3., 4., 5., 5., 6.,
          1., 1., 4., 0., 7., 16., 2., 7., 5., 4., 11., 4., 3., 3., 3.,
          0., 1., 3., 3., 1. ]
      - [ 3., 1., 0., 8., 7., 14., 3., 2., 1., 2., 14., 3., 3., 3., 0.,
          0., 4., 37., 5., 3., 3., 2., 0., 0., 6., 0., 5., 9., 1., 0.,
          2., 0., 1., 1., 2., 21., 1., 1., 4., 9., 3., 7., 4., 0., 4.,
          1., 0., 1., 0., 0. ]
      - [ 2., 2., 2., 3., 3., 5., 1., 9., 5., 5., 1., 4., 4., 2., 3., 5.,
          6., 4., 2., 2., 2., 1., 1., 1., 7., 4., 6., 1., 3., 8., 6., 3.,
          8., 11., 3., 5., 0., 3., 9., 3., 2., 3., 6., 8., 8., 2., 1.,
          8., 6., 1. ]
      - [ 2., 1., 10., 0., 4., 1., 4., 1., 1., 0., 0., 5., 1., 3., 3.,
          3., 3., 5., 3., 5., 20., 7., 1., 2., 5., 25., 0., 1., 3., 0.,
          2., 1., 0., 1., 3., 1., 9., 0., 1., 0., 1., 1., 5., 0., 0., 3.,
          3., 0., 3., 0. ]
      - [ 0., 4., 0., 8., 0., 2., 0., 4., 10., 1., 9., 0., 9., 2., 2.,
          1., 0., 0., 4., 1., 0., 0., 1., 1., 10., 0., 7., 1., 3., 2.,
          2., 0., 5., 0., 4., 9., 2., 6., 2., 0., 12., 4., 0., 26., 3.,
          1., 3., 4., 0., 35. ]
      - [ 2., 1., 1., 7., 4., 8., 3., 2., 2., 3., 3., 10., 6., 0., 1.,
          7., 11., 14., 7., 4., 20., 3., 0., 2., 8., 1., 3., 12., 3., 0.,
          4., 2., 1., 2., 2., 2., 0., 3., 3., 5., 4., 3., 7., 1., 4., 5.,
          0., 3., 2., 0. ]
      - [ 1., 3., 1., 3., 5., 2., 2., 4., 1., 6., 2., 11., 6., 1., 1.,
          6., 8., 9., 6., 6., 24., 5., 3., 3., 4., 7., 3., 11., 4., 6.,
          4., 2., 0., 1., 4., 0., 3., 2., 2., 0., 2., 2., 3., 2., 6., 2.,
          2., 4., 3., 2. ]
      - [ 1., 4., 2., 11., 2., 10., 2., 2., 8., 4., 8., 1., 7., 3., 10.,
          1., 0., 5., 5., 4., 1., 2., 8., 3., 7., 0., 12., 3., 2., 7.,
          2., 0., 8., 0., 6., 7., 2., 7., 4., 2., 6., 5., 3., 5., 6., 0.,
          0., 1., 1., 1. ]
      - [ 0., 18., 22., 0., 4., 2., 4., 3., 1., 7., 4., 3., 2., 4., 0.,
          2., 6., 4., 0., 1., 6., 3., 0., 0., 2., 1., 1., 5., 5., 0., 3.,
          2., 0., 0., 4., 3., 40., 0., 1., 1., 0., 6., 3., 0., 1., 5.,
          16., 3., 2., 0. ]
      - [ 0., 4., 9., 4., 0., 5., 0., 0., 6., 2., 6., 0., 8., 2., 7., 4.,
          0., 0., 3., 3., 0., 4., 1., 1., 11., 1., 7., 0., 3., 2., 0.,
          0., 8., 4., 3., 3., 7., 2., 3., 0., 11., 8., 2., 15., 5., 2.,
          9., 0., 2., 23. ]
      - [ 2., 4., 11., 0., 10., 2., 1., 2., 4., 4., 0., 7., 1., 2., 0.,
          1., 1., 3., 2., 2., 0., 3., 5., 4., 1., 15., 1., 1., 4., 7.,
          2., 6., 7., 1., 3., 0., 3., 6., 1., 0., 7., 0., 3., 0., 0., 3.,
          5., 3., 4., 0. ]
      - [ 2., 6., 24., 2., 4., 2., 4., 5., 0., 0., 0., 3., 1., 8., 1.,
          3., 1., 3., 4., 1., 4., 3., 6., 6., 0., 5., 3., 1., 3., 4., 6.,
          2., 2., 3., 7., 1., 41., 1., 1., 2., 1., 2., 3., 0., 1., 2.,
          8., 5., 1., 2. ]
      - [ 1., 4., 9., 2., 6., 0., 1., 0., 6., 3., 3., 8., 1., 1., 1., 9.,
          2., 1., 0., 1., 12., 7., 6., 7., 4., 5., 2., 4., 10., 2., 4.,
          2., 4., 3., 10., 1., 10., 3., 2., 1., 5., 2., 4., 10., 0., 7.,
          6., 2., 1., 5. ]
      - [ 3., 0., 0., 0., 13., 5., 2., 5., 0., 6., 0., 17., 5., 0., 0.,
          12., 19., 26., 1., 8., 15., 0., 2., 1., 5., 0., 0., 4., 0., 0.,
          6., 0., 3., 5., 1., 0., 0., 1., 1., 4., 0., 9., 10., 0., 4.,
          2., 0., 5., 1., 0. ]
      - [ 3., 8., 3., 2., 5., 2., 3., 2., 3., 3., 2., 5., 1., 7., 4., 2.,
          2., 5., 1., 8., 11., 8., 6., 7., 1., 2., 0., 0., 5., 7., 4.,
          7., 5., 1., 9., 3., 5., 5., 2., 3., 8., 1., 3., 0., 2., 4., 7.,
          4., 9., 0. ]
      - [ 0., 5., 18., 1., 6., 1., 1., 3., 1., 5., 0., 4., 0., 11., 4.,
          5., 2., 0., 2., 1., 20., 2., 6., 3., 0., 12., 0., 2., 8., 8.,
          0., 4., 2., 5., 3., 1., 8., 8., 2., 1., 1., 1., 6., 0., 2., 6.,
          8., 3., 6., 2. ]
      - [ 5., 2., 0., 8., 1., 2., 0., 2., 6., 0., 50., 1., 6., 0., 0.,
          1., 0., 5., 3., 5., 0., 1., 5., 1., 5., 0., 4., 2., 1., 4., 3.,
          2., 0., 0., 0., 22., 0., 8., 7., 16., 5., 2., 0., 6., 2., 0.,
          1., 2., 0., 4. ]
      - [ 5., 1., 4., 1., 4., 3., 1., 3., 5., 3., 3., 6., 3., 3., 2., 5.,
          4., 2., 4., 3., 12., 7., 12., 3., 6., 7., 3., 3., 5., 9., 4.,
          3., 2., 5., 4., 3., 6., 5., 3., 2., 2., 2., 4., 0., 4., 8., 2.,
          3., 1., 5. ]
      - [ 6., 0., 6., 3., 3., 1., 3., 2., 0., 2., 0., 5., 6., 3., 3., 8.,
          5., 11., 8., 2., 2., 1., 7., 1., 8., 1., 3., 4., 11., 3., 8.,
          1., 3., 2., 5., 2., 1., 7., 5., 5., 1., 6., 9., 4., 5., 4., 1.,
          6., 5., 3. ]
      - [ 2., 4., 17., 3., 4., 2., 3., 6., 0., 5., 7., 6., 1., 16., 2.,
          5., 5., 1., 2., 3., 10., 0., 2., 2., 3., 9., 0., 3., 4., 2.,
          3., 1., 6., 4., 3., 6., 4., 6., 5., 3., 2., 2., 10., 1., 0.,
          4., 3., 4., 3., 1. ]
      - [ 9., 5., 6., 1., 0., 3., 2., 1., 3., 4., 4., 1., 1., 2., 6., 7.,
          4., 3., 3., 3., 4., 5., 7., 2., 0., 4., 5., 2., 11., 2., 4.,
          5., 7., 6., 8., 0., 7., 4., 7., 3., 2., 6., 5., 10., 0., 8.,
          3., 1., 2., 3. ]
      - [ 1., 4., 13., 0., 4., 1., 6., 8., 0., 3., 0., 4., 0., 8., 2.,
          1., 2., 2., 1., 7., 3., 6., 0., 6., 0., 25., 1., 3., 7., 8.,
          1., 8., 3., 2., 4., 0., 16., 6., 2., 0., 0., 2., 3., 0., 4.,
          2., 4., 5., 12., 0. ]
      - [ 1., 2., 16., 0., 6., 1., 3., 4., 3., 3., 2., 3., 5., 7., 2.,
          5., 3., 4., 2., 3., 5., 5., 0., 5., 2., 9., 1., 0., 3., 4., 3.,
          3., 5., 2., 6., 1., 22., 0., 1., 1., 4., 4., 6., 3., 2., 5.,
          7., 2., 5., 9. ]
      - [ 3., 9., 20., 1., 3., 2., 3., 1., 2., 5., 1., 4., 4., 7., 5.,
          0., 1., 0., 1., 5., 2., 6., 2., 1., 1., 10., 1., 0., 4., 9.,
          4., 5., 8., 4., 4., 0., 15., 4., 4., 3., 2., 2., 1., 0., 2.,
          3., 9., 8., 5., 4. ]
      - [ 1., 1., 6., 8., 1., 1., 3., 3., 18., 0., 5., 3., 5., 0., 4.,
          3., 1., 0., 0., 0., 1., 4., 2., 0., 9., 0., 4., 2., 8., 0., 2.,
          0., 6., 1., 8., 0., 6., 4., 1., 1., 11., 5., 4., 22., 2., 4.,
          8., 0., 2., 20. ]
      - [ 4., 1., 4., 7., 4., 10., 2., 2., 5., 4., 29., 4., 5., 1., 2.,
          2., 1., 5., 5., 1., 2., 5., 2., 1., 8., 1., 1., 1., 2., 0., 3.,
          1., 5., 1., 1., 26., 4., 2., 4., 8., 4., 5., 3., 2., 5., 0.,
          1., 1., 0., 4. ]
      - [ 5., 4., 4., 2., 2., 5., 1., 3., 4., 6., 5., 6., 3., 3., 8., 3.,
          7., 9., 3., 2., 5., 7., 2., 5., 7., 3., 10., 5., 4., 2., 6.,
          1., 2., 2., 3., 3., 3., 3., 8., 1., 5., 5., 4., 0., 8., 2., 3.,
          3., 3., 0. ]
      - [ 6., 4., 4., 1., 6., 2., 4., 5., 2., 2., 0., 7., 0., 5., 2., 7.,
          10., 7., 9., 5., 10., 2., 4., 3., 1., 3., 6., 7., 6., 0., 4.,
          0., 7., 7., 2., 3., 2., 1., 4., 2., 3., 4., 9., 1., 2., 8., 1.,
          5., 5., 0. ]
      - [ 2., 6., 8., 3., 8., 7., 2., 4., 1., 0., 1., 6., 3., 9., 3., 4.,
          5., 5., 2., 3., 5., 2., 1., 3., 5., 7., 4., 5., 6., 2., 0., 1.,
          7., 4., 5., 4., 3., 1., 8., 4., 5., 2., 13., 0., 5., 3., 3.,
          6., 3., 1. ]
      - [ 4., 1., 13., 1., 2., 4., 2., 2., 1., 3., 5., 0., 3., 4., 3.,
          1., 0., 36., 3., 5., 2., 8., 1., 0., 4., 3., 1., 4., 6., 4.,
          2., 4., 2., 2., 13., 2., 14., 3., 4., 1., 4., 3., 4., 0., 2.,
          6., 3., 4., 0., 1. ]
      - [ 1., 9., 23., 0., 4., 5., 0., 4., 1., 3., 0., 14., 4., 6., 0.,
          3., 2., 0., 0., 6., 6., 3., 3., 1., 0., 6., 0., 3., 3., 4., 2.,
          2., 2., 5., 0., 1., 32., 3., 2., 0., 3., 2., 0., 1., 7., 4.,
          12., 2., 1., 5. ]
      - [ 5., 0., 4., 1., 0., 4., 0., 0., 9., 2., 3., 0., 16., 6., 0.,
          6., 1., 3., 4., 3., 0., 0., 5., 0., 12., 0., 5., 0., 9., 2.,
          9., 6., 3., 6., 7., 0., 1., 3., 3., 0., 8., 7., 2., 10., 7.,
          3., 2., 6., 2., 15. ]
      - [ 4., 0., 36., 3., 5., 1., 4., 2., 2., 4., 3., 4., 5., 3., 3.,
          3., 0., 2., 0., 2., 10., 0., 6., 4., 2., 2., 0., 2., 6., 5.,
          3., 1., 1., 0., 6., 8., 0., 6., 8., 9., 4., 0., 8., 0., 2.,
          10., 4., 2., 5., 0. ]
      - [ 2., 2., 1., 11., 0., 4., 2., 2., 9., 6., 26., 0., 5., 1., 1.,
          0., 0., 1., 7., 4., 0., 0., 4., 0., 10., 0., 8., 2., 3., 3.,
          7., 1., 5., 1., 1., 18., 0., 7., 8., 3., 13., 6., 2., 2., 5.,
          0., 2., 2., 1., 2. ]
      - [ 3., 9., 9., 4., 5., 1., 3., 0., 4., 2., 1., 2., 4., 12., 5.,
          1., 2., 1., 2., 5., 13., 3., 4., 1., 4., 10., 1., 3., 6., 4.,
          2., 2., 9., 3., 10., 1., 7., 1., 0., 5., 3., 0., 7., 3., 3.,
          2., 4., 8., 2., 4. ]
      - [ 2., 8., 5., 3., 4., 5., 3., 2., 3., 3., 6., 2., 3., 1., 11.,
          2., 4., 19., 3., 1., 1., 10., 2., 3., 4., 1., 2., 6., 4., 5.,
          0., 0., 0., 0., 11., 7., 8., 2., 7., 4., 4., 6., 1., 1., 7.,
          3., 4., 7., 0., 0. ]
      - [ 3., 0., 8., 6., 7., 4., 3., 3., 12., 0., 3., 6., 4., 4., 2.,
          11., 4., 2., 2., 6., 4., 0., 5., 5., 7., 1., 1., 6., 4., 1.,
          6., 2., 2., 6., 3., 1., 1., 3., 7., 2., 12., 5., 4., 2., 1.,
          12., 0., 3., 2., 2. ]
      - [ 2., 9., 11., 0., 5., 0., 2., 1., 0., 0., 4., 5., 0., 7., 8.,
          0., 0., 0., 0., 1., 2., 1., 4., 0., 1., 6., 1., 0., 5., 2., 0.,
          2., 5., 1., 6., 0., 19., 1., 2., 0., 0., 0., 2., 1., 0., 1.,
          6., 3., 1., 0. ]
      - [ 1., 2., 7., 2., 1., 1., 0., 1., 4., 1., 1., 1., 2., 10., 2.,
          8., 2., 1., 4., 0., 1., 1., 4., 0., 4., 4., 2., 0., 2., 3., 3.,
          1., 1., 4., 5., 3., 11., 2., 0., 2., 6., 2., 3., 38., 5., 8.,
          5., 1., 0., 28. ]
      - [ 2., 2., 7., 12., 1., 4., 0., 1., 25., 1., 2., 1., 9., 1., 3.,
          7., 1., 4., 3., 3., 3., 4., 7., 0., 3., 0., 7., 0., 7., 2., 3.,
          0., 0., 0., 3., 4., 1., 2., 3., 3., 20., 7., 1., 15., 2., 1.,
          1., 1., 0., 12. ]
      - [ 3., 5., 7., 4., 1., 7., 2., 1., 4., 3., 1., 3., 6., 0., 1., 7.,
          4., 3., 3., 6., 2., 2., 8., 3., 12., 6., 4., 5., 10., 4., 3.,
          4., 3., 3., 6., 3., 3., 2., 2., 2., 7., 2., 4., 3., 8., 1., 0.,
          7., 8., 2. ]
      - [ 2., 2., 18., 2., 4., 1., 0., 3., 4., 3., 1., 3., 4., 0., 3.,
          11., 0., 0., 1., 2., 5., 2., 4., 0., 2., 18., 1., 0., 3., 4.,
          3., 1., 1., 13., 6., 4., 7., 2., 1., 2., 5., 5., 1., 4., 4.,
          12., 4., 3., 0., 19. ]
      - [ 2., 4., 16., 0., 2., 2., 7., 2., 1., 6., 0., 2., 1., 6., 4.,
          4., 3., 0., 2., 3., 1., 1., 1., 0., 1., 15., 2., 3., 2., 17.,
          6., 11., 8., 1., 2., 1., 21., 4., 0., 1., 0., 2., 3., 1., 0.,
          7., 7., 4., 10., 1. ]
      - [ 3., 4., 0., 2., 9., 6., 3., 4., 1., 2., 2., 2., 2., 3., 3., 8.,
          2., 4., 2., 1., 21., 2., 10., 6., 2., 9., 2., 4., 3., 1., 15.,
          3., 0., 7., 1., 0., 5., 1., 7., 2., 4., 7., 6., 4., 4., 4., 0.,
          2., 3., 2. ]
      - [ 1., 0., 0., 9., 2., 2., 0., 7., 4., 3., 0., 5., 4., 2., 3., 5.,
          7., 5., 14., 3., 7., 2., 5., 5., 6., 1., 3., 13., 7., 3., 10.,
          0., 2., 1., 3., 3., 0., 5., 7., 4., 4., 10., 3., 0., 8., 5.,
          1., 6., 1., 0. ]
      - [ 6., 10., 2., 6., 3., 5., 4., 4., 5., 5., 3., 3., 5., 3., 7.,
          7., 3., 5., 3., 0., 4., 8., 7., 3., 1., 0., 4., 2., 6., 1., 5.,
          1., 0., 1., 4., 3., 5., 2., 3., 4., 5., 1., 2., 6., 4., 8., 5.,
          4., 0., 12. ]
      - [ 3., 5., 8., 4., 1., 11., 1., 4., 4., 5., 4., 3., 6., 4., 12.,
          2., 3., 1., 7., 0., 5., 2., 6., 0., 3., 3., 4., 3., 4., 8., 3.,
          0., 2., 0., 5., 7., 3., 4., 7., 14., 1., 7., 7., 0., 4., 1.,
          3., 3., 4., 0. ]
      - [ 1., 3., 28., 0., 7., 3., 0., 3., 3., 3., 8., 3., 1., 6., 3.,
          2., 0., 3., 0., 4., 5., 3., 2., 2., 2., 16., 2., 0., 5., 10.,
          1., 4., 6., 0., 3., 0., 23., 4., 1., 1., 1., 1., 3., 2., 2.,
          3., 10., 2., 3., 2. ]
      - [ 4., 7., 11., 2., 1., 1., 0., 3., 5., 4., 8., 6., 5., 10., 4.,
          2., 1., 1., 1., 0., 2., 7., 6., 2., 6., 1., 5., 2., 8., 6., 0.,
          4., 9., 0., 11., 7., 6., 4., 1., 2., 3., 3., 5., 1., 4., 2.,
          8., 4., 0., 5. ]
      - [ 3., 4., 5., 0., 3., 1., 0., 3., 8., 1., 4., 0., 0., 7., 6., 5.,
          1., 0., 3., 1., 12., 5., 7., 0., 2., 3., 2., 2., 8., 4., 6.,
          1., 7., 10., 2., 1., 14., 3., 3., 0., 12., 1., 4., 14., 1.,
          11., 5., 3., 0., 3. ]
      - [ 1., 6., 21., 4., 4., 1., 0., 2., 3., 5., 3., 3., 2., 12., 4.,
          3., 3., 0., 0., 3., 2., 2., 4., 1., 0., 7., 2., 0., 3., 7., 2.,
          6., 7., 0., 2., 4., 23., 4., 2., 2., 5., 3., 1., 7., 2., 0.,
          12., 3., 1., 6. ]
      - [ 3., 8., 12., 2., 6., 2., 3., 0., 0., 3., 0., 2., 0., 8., 1.,
          1., 2., 1., 4., 6., 22., 6., 2., 6., 1., 19., 0., 1., 5., 4.,
          2., 1., 3., 2., 7., 0., 16., 3., 0., 2., 1., 2., 4., 1., 2.,
          8., 5., 3., 6., 2. ]
      - [ 3., 7., 12., 3., 5., 2., 1., 3., 6., 3., 3., 1., 2., 6., 8.,
          0., 1., 2., 1., 2., 9., 8., 5., 4., 1., 10., 5., 4., 2., 6.,
          4., 3., 6., 0., 2., 2., 22., 3., 5., 2., 2., 2., 3., 0., 2.,
          0., 9., 1., 6., 1. ]
      - [ 2., 0., 0., 8., 4., 16., 0., 1., 0., 6., 7., 7., 4., 0., 1.,
          5., 5., 34., 1., 2., 2., 0., 0., 3., 4., 0., 6., 12., 1., 0.,
          5., 0., 0., 0., 2., 13., 0., 1., 8., 9., 1., 12., 4., 0., 9.,
          1., 0., 3., 0., 1. ]
      - [ 0., 2., 2., 1., 1., 1., 3., 2., 6., 3., 2., 5., 2., 1., 2., 6.,
          7., 6., 2., 4., 17., 1., 3., 1., 1., 21., 3., 0., 3., 7., 7.,
          5., 5., 12., 2., 0., 8., 3., 2., 3., 9., 2., 6., 5., 0., 6.,
          4., 1., 2., 3. ]
      - [ 6., 0., 0., 11., 1., 7., 2., 6., 11., 3., 4., 1., 6., 0., 3.,
          4., 3., 6., 12., 2., 1., 3., 5., 1., 10., 1., 6., 1., 0., 6.,
          5., 6., 1., 2., 2., 9., 0., 10., 5., 4., 11., 4., 4., 5., 6.,
          0., 0., 2., 2., 0. ]
      - [ 2., 1., 1., 23., 4., 5., 1., 0., 14., 2., 11., 1., 12., 1., 3.,
          7., 3., 2., 8., 3., 2., 2., 4., 0., 13., 0., 1., 1., 2., 3.,
          12., 1., 0., 4., 0., 8., 1., 3., 2., 2., 12., 10., 0., 6., 5.,
          1., 1., 1., 0., 0. ]
      - [ 2., 4., 2., 0., 5., 1., 8., 4., 0., 2., 0., 5., 0., 3., 2., 1.,
          4., 7., 1., 4., 14., 5., 4., 4., 1., 17., 0., 3., 3., 1., 1.,
          7., 0., 0., 3., 1., 9., 2., 2., 3., 0., 0., 6., 2., 1., 2., 3.,
          4., 4., 1. ]
      - [ 8., 0., 1., 3., 1., 13., 1., 2., 5., 4., 4., 12., 5., 0., 0.,
          2., 7., 14., 4., 15., 4., 0., 2., 6., 2., 1., 8., 5., 1., 2.,
          1., 3., 0., 0., 2., 9., 1., 3., 9., 1., 6., 6., 1., 3., 12.,
          0., 0., 12., 0., 0. ]
      - [ 3., 1., 1., 2., 3., 5., 2., 4., 7., 5., 4., 3., 8., 1., 1.,
          10., 2., 2., 13., 2., 1., 3., 2., 0., 11., 0., 10., 1., 3., 5.,
          8., 1., 3., 1., 2., 8., 1., 4., 9., 2., 10., 4., 4., 4., 10.,
          3., 0., 5., 3., 3. ]
      - [ 0., 7., 20., 1., 7., 4., 0., 1., 2., 1., 1., 5., 2., 3., 5.,
          6., 2., 2., 2., 3., 3., 4., 3., 4., 2., 8., 0., 5., 4., 9., 3.,
          4., 4., 2., 6., 4., 18., 1., 3., 1., 1., 2., 5., 0., 4., 3.,
          14., 6., 0., 3. ]
      - [ 2., 8., 3., 7., 4., 5., 0., 1., 5., 4., 1., 4., 9., 1., 2., 8.,
          10., 2., 5., 1., 18., 2., 1., 2., 5., 3., 5., 4., 4., 3., 4.,
          0., 0., 2., 7., 4., 2., 2., 3., 3., 1., 4., 6., 13., 6., 5.,
          4., 1., 0., 4. ]
      - [ 2., 1., 0., 7., 2., 9., 0., 4., 1., 4., 4., 4., 3., 0., 4., 1.,
          7., 26., 10., 4., 4., 2., 1., 1., 5., 3., 7., 13., 3., 2., 0.,
          0., 1., 0., 3., 9., 9., 0., 6., 7., 2., 4., 6., 0., 7., 1., 0.,
          10., 1., 0. ]
      - [ 4., 5., 1., 9., 1., 5., 0., 0., 15., 0., 3., 0., 18., 3., 10.,
          3., 0., 1., 7., 2., 0., 3., 1., 1., 12., 0., 3., 1., 4., 6.,
          1., 2., 1., 0., 6., 1., 2., 7., 3., 0., 14., 12., 0., 14., 8.,
          0., 3., 8., 0., 0. ]
      - [ 1., 6., 6., 0., 11., 2., 6., 7., 1., 4., 1., 8., 0., 6., 6.,
          5., 9., 1., 2., 3., 14., 2., 2., 2., 1., 9., 0., 6., 7., 6.,
          7., 2., 1., 2., 5., 2., 4., 6., 5., 2., 0., 6., 3., 1., 4., 4.,
          3., 6., 3., 0. ]
      - [ 3., 6., 0., 0., 6., 9., 2., 1., 4., 8., 0., 3., 3., 1., 3.,
          10., 4., 6., 5., 2., 5., 2., 8., 2., 7., 1., 5., 3., 2., 3.,
          4., 3., 2., 1., 3., 5., 1., 3., 11., 9., 3., 9., 5., 3., 7.,
          2., 1., 9., 5., 0. ]
      - [ 4., 0., 16., 0., 3., 3., 3., 3., 1., 4., 1., 4., 2., 6., 1.,
          1., 3., 2., 2., 0., 17., 4., 2., 5., 3., 19., 1., 4., 2., 1.,
          14., 2., 2., 5., 4., 1., 7., 1., 7., 1., 3., 2., 4., 0., 1.,
          3., 2., 1., 6., 1. ]
      - [ 0., 2., 6., 0., 3., 0., 2., 2., 2., 4., 0., 2., 1., 2., 1., 8.,
          8., 4., 0., 3., 14., 1., 3., 0., 0., 5., 2., 0., 4., 0., 3.,
          1., 4., 0., 5., 1., 4., 0., 0., 1., 2., 0., 11., 6., 0., 2.,
          0., 2., 2., 8. ]
      - [ 9., 2., 3., 5., 7., 3., 2., 5., 11., 6., 4., 3., 6., 2., 4.,
          1., 5., 6., 9., 4., 1., 1., 7., 3., 5., 0., 3., 7., 6., 1., 2.,
          1., 2., 0., 3., 7., 0., 4., 10., 3., 5., 4., 5., 3., 11., 0.,
          2., 6., 1., 0. ]
      - [ 2., 3., 13., 1., 6., 3., 8., 2., 3., 0., 1., 5., 2., 4., 6.,
          2., 3., 6., 1., 3., 13., 9., 2., 7., 1., 8., 3., 3., 4., 1.,
          3., 1., 0., 2., 10., 1., 14., 1., 5., 2., 4., 0., 6., 0., 5.,
          5., 4., 4., 7., 1. ]
      - [ 1., 4., 10., 2., 2., 0., 2., 0., 2., 5., 2., 5., 1., 5., 1.,
          0., 3., 5., 2., 4., 4., 4., 3., 3., 2., 12., 2., 0., 2., 7.,
          2., 6., 2., 0., 2., 0., 31., 2., 0., 4., 2., 1., 3., 5., 0.,
          2., 6., 4., 4., 0. ]
      - [ 2., 2., 0., 2., 4., 5., 5., 3., 1., 4., 4., 5., 0., 2., 12.,
          3., 6., 8., 3., 5., 5., 4., 6., 7., 1., 2., 6., 12., 2., 8.,
          8., 2., 2., 1., 3., 5., 0., 8., 5., 3., 3., 5., 6., 1., 6., 1.,
          2., 7., 3., 0. ]
      - [ 3., 1., 0., 12., 1., 5., 0., 2., 4., 2., 13., 3., 3., 0., 2.,
          4., 6., 15., 12., 0., 0., 1., 2., 1., 6., 0., 8., 8., 0., 0.,
          6., 1., 0., 1., 1., 21., 1., 0., 7., 20., 7., 7., 5., 1., 5.,
          0., 0., 2., 1., 0. ]
      - [ 2., 3., 2., 2., 2., 3., 6., 4., 6., 5., 1., 12., 3., 2., 5.,
          6., 12., 8., 3., 6., 2., 0., 3., 1., 0., 1., 2., 3., 8., 9.,
          7., 2., 0., 2., 8., 2., 3., 6., 2., 1., 3., 1., 12., 6., 5.,
          2., 1., 5., 10., 0. ]
      - [ 1., 3., 16., 5., 5., 1., 2., 2., 2., 2., 2., 7., 1., 7., 2.,
          4., 5., 1., 3., 2., 9., 10., 7., 2., 3., 7., 2., 2., 9., 3.,
          4., 2., 2., 5., 4., 4., 11., 2., 1., 2., 2., 0., 3., 7., 0.,
          13., 5., 3., 3., 1. ]
      - [ 1., 0., 2., 0., 11., 0., 3., 0., 0., 0., 0., 2., 0., 5., 0.,
          0., 3., 2., 1., 2., 20., 8., 0., 2., 0., 13., 0., 1., 0., 0.,
          1., 0., 1., 1., 2., 0., 10., 1., 1., 1., 0., 0., 3., 0., 0.,
          3., 0., 0., 3., 0. ]
      - [ 6., 2., 17., 0., 4., 1., 4., 5., 1., 3., 7., 3., 2., 0., 2.,
          4., 5., 0., 1., 2., 12., 6., 13., 5., 1., 7., 0., 5., 7., 3.,
          4., 3., 6., 6., 5., 2., 7., 2., 4., 3., 6., 5., 7., 1., 0., 5.,
          1., 2., 2., 1. ]
      - [ 5., 4., 0., 8., 5., 6., 3., 4., 4., 7., 7., 5., 1., 2., 6., 3.,
          7., 4., 4., 2., 4., 3., 1., 0., 4., 6., 5., 8., 3., 3., 7., 0.,
          1., 1., 3., 9., 4., 6., 7., 8., 3., 4., 9., 0., 3., 3., 0., 3.,
          5., 0. ]
      - [ 4., 3., 3., 0., 8., 6., 4., 3., 2., 5., 1., 9., 2., 1., 2., 2.,
          11., 20., 4., 6., 14., 0., 3., 2., 3., 2., 2., 9., 2., 3., 5.,
          2., 2., 3., 0., 1., 2., 5., 3., 4., 2., 6., 10., 3., 5., 3.,
          1., 5., 2., 0. ]
      - [ 0., 1., 12., 6., 1., 2., 0., 3., 12., 1., 3., 0., 11., 9., 4.,
          5., 0., 0., 2., 1., 3., 2., 0., 0., 5., 1., 6., 1., 2., 4., 0.,
          1., 6., 3., 5., 1., 14., 6., 3., 0., 8., 2., 0., 13., 2., 7.,
          6., 3., 0., 23. ]
      - [ 3., 15., 43., 0., 5., 0., 2., 2., 1., 3., 0., 2., 0., 5., 4.,
          2., 3., 1., 3., 2., 7., 6., 0., 1., 2., 5., 1., 0., 12., 8.,
          1., 5., 2., 1., 13., 1., 3., 6., 4., 1., 3., 1., 2., 0., 3.,
          4., 4., 4., 3., 1. ]
      - [ 0., 3., 28., 0., 13., 0., 3., 1., 0., 2., 0., 15., 0., 0., 2.,
          0., 3., 1., 0., 3., 5., 4., 1., 1., 0., 8., 0., 2., 2., 1., 1.,
          1., 1., 1., 2., 0., 31., 2., 0., 0., 1., 0., 0., 0., 1., 0.,
          2., 3., 1., 0. ]
