%YAML:1.0
my_svm: !!opencv-ml-svm
   svm_type: C_SVC
   kernel: { type:RBF, gamma:2.2500000000000003e-003 }
   C: 1.2500000000000000e+001
   term_criteria: { epsilon:1.1920928955078125e-007, iterations:1000 }
   var_all: 50
   var_count: 50
   class_count: 2
   class_labels: !!opencv-matrix
      rows: 1
      cols: 2
      dt: i
      data: [ -1, 1 ]
   sv_total: 606
   support_vectors:
      - [ 0., 0., 0., 0., 2., 2., 0., 1., 0., 159., 4., 0., 0., 1., 2.,
          0., 0., 2., 1., 0., 0., 0., 0., 0., 1., 0., 0., 0., 0., 0., 0.,
          0., 0., 0., 0., 3., 8., 0., 0., 0., 0., 0., 0., 0., 0., 3., 9.,
          0., 2., 0. ]
      - [ 3., 1., 2., 1., 10., 2., 1., 1., 3., 14., 6., 5., 2., 10., 1.,
          2., 1., 4., 14., 2., 7., 2., 0., 0., 1., 2., 1., 0., 0., 2.,
          6., 0., 4., 2., 2., 7., 6., 0., 5., 2., 5., 2., 1., 1., 5., 5.,
          26., 13., 7., 1. ]
      - [ 14., 4., 1., 6., 1., 0., 47., 2., 8., 1., 1., 1., 0., 0., 0.,
          1., 0., 18., 0., 5., 3., 2., 12., 1., 1., 3., 2., 0., 0., 15.,
          6., 0., 9., 1., 3., 0., 1., 1., 2., 0., 2., 8., 0., 0., 0., 1.,
          0., 2., 11., 4. ]
      - [ 6., 0., 3., 1., 10., 4., 5., 6., 6., 2., 10., 6., 1., 4., 1.,
          1., 3., 10., 0., 3., 5., 6., 15., 1., 1., 1., 0., 3., 0., 0.,
          3., 2., 10., 4., 1., 3., 5., 6., 5., 1., 5., 5., 1., 10., 8.,
          1., 1., 2., 5., 8. ]
      - [ 18., 0., 3., 3., 3., 2., 24., 1., 4., 4., 4., 3., 0., 9., 0.,
          2., 1., 5., 2., 0., 4., 2., 8., 2., 1., 3., 0., 2., 0., 3., 4.,
          0., 9., 10., 4., 6., 2., 8., 3., 0., 1., 12., 0., 2., 2., 2.,
          2., 2., 10., 8. ]
      - [ 0., 0., 4., 1., 1., 6., 2., 1., 4., 5., 4., 4., 2., 5., 16.,
          1., 1., 9., 1., 1., 2., 3., 4., 1., 7., 1., 1., 2., 0., 29.,
          3., 1., 4., 0., 1., 4., 2., 0., 4., 1., 1., 3., 1., 9., 11.,
          2., 5., 3., 25., 2. ]
      - [ 0., 1., 1., 18., 0., 1., 2., 0., 5., 2., 41., 5., 0., 26., 0.,
          0., 0., 4., 0., 2., 3., 3., 1., 0., 2., 0., 0., 1., 0., 0., 5.,
          0., 3., 9., 2., 6., 0., 7., 0., 0., 1., 4., 1., 1., 0., 0., 1.,
          3., 38., 1. ]
      - [ 0., 7., 3., 1., 1., 12., 4., 5., 2., 6., 2., 2., 3., 1., 4.,
          2., 2., 1., 2., 0., 0., 1., 0., 0., 1., 0., 1., 1., 0., 25.,
          1., 0., 1., 4., 0., 10., 6., 7., 1., 0., 2., 9., 2., 0., 1.,
          12., 18., 6., 31., 0. ]
      - [ 0., 3., 0., 7., 5., 5., 6., 6., 3., 25., 8., 1., 2., 14., 1.,
          4., 1., 0., 5., 0., 4., 0., 0., 3., 7., 2., 1., 2., 0., 1., 4.,
          1., 2., 3., 0., 12., 2., 2., 0., 8., 2., 0., 0., 0., 3., 10.,
          26., 7., 1., 1. ]
      - [ 0., 0., 1., 0., 0., 18., 0., 3., 0., 64., 1., 0., 6., 1., 11.,
          6., 1., 0., 2., 0., 2., 3., 2., 0., 0., 0., 0., 3., 0., 1., 1.,
          0., 0., 0., 3., 6., 11., 0., 1., 4., 3., 0., 0., 0., 2., 22.,
          19., 2., 0., 2. ]
      - [ 1., 11., 2., 7., 1., 1., 0., 1., 2., 17., 29., 5., 1., 14., 1.,
          2., 1., 12., 6., 2., 4., 5., 3., 0., 0., 1., 0., 0., 0., 2.,
          2., 1., 3., 4., 0., 0., 2., 2., 0., 1., 0., 2., 2., 6., 2., 3.,
          21., 10., 8., 0. ]
      - [ 8., 2., 0., 1., 1., 3., 26., 2., 2., 0., 3., 1., 0., 4., 0.,
          2., 4., 2., 1., 3., 9., 4., 15., 1., 0., 1., 7., 3., 0., 8.,
          0., 2., 14., 8., 2., 5., 0., 9., 2., 3., 4., 11., 2., 1., 5.,
          5., 0., 1., 13., 0. ]
      - [ 1., 1., 0., 5., 0., 1., 20., 0., 10., 0., 19., 4., 0., 47., 0.,
          1., 0., 0., 0., 2., 2., 3., 0., 0., 5., 0., 0., 1., 0., 10.,
          3., 1., 8., 5., 1., 13., 1., 1., 0., 0., 0., 26., 0., 0., 0.,
          0., 2., 5., 2., 0. ]
      - [ 0., 1., 0., 1., 0., 1., 61., 0., 14., 0., 6., 3., 0., 5., 0.,
          4., 0., 0., 0., 1., 3., 3., 0., 0., 0., 4., 0., 7., 0., 9., 3.,
          0., 12., 10., 0., 9., 0., 4., 0., 1., 0., 25., 2., 0., 0., 0.,
          0., 0., 10., 1. ]
      - [ 0., 0., 0., 0., 2., 2., 6., 3., 2., 11., 4., 2., 2., 9., 2.,
          1., 0., 67., 3., 0., 8., 8., 1., 0., 1., 1., 0., 2., 0., 0.,
          2., 0., 12., 0., 1., 2., 7., 1., 1., 0., 4., 1., 0., 2., 17.,
          3., 2., 0., 7., 1. ]
      - [ 0., 2., 3., 2., 1., 0., 63., 0., 16., 2., 4., 1., 1., 2., 0.,
          7., 1., 1., 0., 3., 0., 0., 0., 1., 1., 10., 0., 9., 0., 1.,
          1., 1., 25., 2., 7., 7., 0., 1., 0., 0., 0., 4., 9., 1., 0.,
          1., 0., 0., 3., 7. ]
      - [ 0., 0., 0., 4., 2., 1., 3., 0., 2., 26., 8., 7., 0., 41., 1.,
          0., 0., 0., 5., 0., 7., 5., 0., 0., 1., 1., 0., 0., 0., 4., 6.,
          1., 4., 4., 1., 10., 2., 4., 0., 1., 0., 2., 0., 0., 0., 1.,
          27., 13., 5., 1. ]
      - [ 3., 1., 0., 0., 1., 1., 13., 1., 1., 17., 17., 7., 1., 19., 0.,
          0., 1., 7., 5., 0., 2., 4., 0., 0., 2., 2., 0., 1., 0., 2., 8.,
          0., 4., 3., 4., 6., 6., 1., 5., 0., 0., 2., 1., 3., 2., 2.,
          30., 7., 4., 5. ]
      - [ 0., 3., 7., 0., 0., 9., 0., 0., 5., 68., 9., 1., 0., 10., 4.,
          0., 6., 0., 0., 1., 1., 1., 0., 0., 1., 0., 0., 0., 0., 16.,
          1., 0., 0., 7., 0., 9., 1., 7., 0., 0., 0., 3., 0., 0., 0.,
          10., 2., 2., 17., 0. ]
      - [ 0., 0., 0., 0., 0., 9., 0., 0., 0., 3., 0., 0., 0., 2., 0., 0.,
          2., 0., 1., 0., 3., 1., 0., 0., 0., 0., 0., 1., 0., 12., 0.,
          0., 0., 0., 1., 3., 3., 0., 0., 0., 1., 1., 0., 0., 1., 8., 7.,
          0., 141., 0. ]
      - [ 1., 1., 4., 11., 0., 0., 2., 0., 5., 0., 19., 5., 0., 3., 0.,
          3., 7., 4., 0., 6., 12., 6., 0., 1., 3., 2., 1., 3., 0., 0.,
          2., 7., 0., 12., 2., 0., 0., 9., 0., 5., 3., 0., 5., 44., 1.,
          0., 0., 1., 0., 3. ]
      - [ 5., 0., 1., 0., 3., 2., 4., 8., 0., 16., 0., 2., 4., 9., 1.,
          0., 1., 7., 10., 1., 0., 4., 8., 0., 3., 3., 1., 0., 0., 17.,
          3., 0., 2., 0., 4., 6., 7., 1., 11., 0., 2., 1., 2., 6., 10.,
          5., 16., 6., 4., 4. ]
      - [ 0., 0., 1., 0., 2., 0., 0., 14., 1., 5., 4., 7., 14., 3., 1.,
          2., 0., 28., 2., 2., 9., 5., 2., 1., 0., 2., 0., 3., 0., 1.,
          4., 0., 2., 0., 0., 4., 5., 0., 12., 1., 12., 5., 2., 5., 31.,
          0., 5., 2., 1., 0. ]
      - [ 4., 1., 0., 4., 0., 0., 47., 0., 6., 0., 9., 5., 0., 10., 0.,
          0., 1., 1., 1., 3., 0., 0., 3., 0., 0., 0., 0., 1., 0., 4., 6.,
          0., 8., 1., 5., 7., 0., 1., 0., 0., 0., 20., 0., 0., 1., 0.,
          0., 0., 30., 4. ]
      - [ 1., 0., 5., 0., 7., 4., 9., 12., 1., 21., 1., 2., 7., 2., 5.,
          5., 6., 1., 0., 0., 4., 5., 13., 3., 0., 4., 3., 7., 0., 3.,
          3., 0., 8., 0., 3., 2., 8., 0., 4., 1., 7., 7., 1., 1., 2., 6.,
          4., 0., 11., 1. ]
      - [ 0., 1., 1., 1., 4., 1., 8., 2., 5., 17., 6., 1., 0., 7., 0.,
          1., 2., 0., 4., 3., 1., 1., 14., 0., 0., 1., 2., 1., 0., 12.,
          5., 1., 6., 1., 8., 8., 4., 0., 1., 0., 1., 12., 2., 4., 6.,
          0., 12., 3., 19., 11. ]
      - [ 2., 4., 2., 17., 5., 1., 1., 1., 0., 11., 6., 0., 2., 25., 2.,
          0., 1., 2., 1., 2., 4., 4., 1., 1., 1., 1., 0., 2., 0., 5., 6.,
          0., 3., 0., 0., 13., 5., 2., 0., 1., 1., 5., 0., 2., 2., 1.,
          35., 6., 13., 1. ]
      - [ 21., 0., 0., 0., 1., 2., 0., 8., 0., 2., 1., 3., 2., 3., 2.,
          0., 0., 27., 32., 2., 17., 5., 6., 2., 1., 2., 1., 2., 0., 7.,
          2., 0., 0., 0., 1., 5., 0., 0., 1., 0., 10., 1., 0., 1., 9.,
          2., 0., 14., 0., 5. ]
      - [ 1., 0., 3., 0., 9., 1., 2., 3., 4., 8., 1., 1., 2., 1., 1., 4.,
          1., 8., 15., 6., 1., 3., 2., 4., 0., 2., 3., 9., 0., 22., 3.,
          0., 2., 0., 0., 2., 4., 0., 6., 0., 3., 7., 1., 1., 4., 2.,
          22., 1., 24., 1. ]
      - [ 1., 0., 4., 7., 6., 1., 16., 1., 20., 0., 5., 4., 1., 13., 0.,
          5., 3., 9., 0., 3., 5., 5., 0., 0., 5., 8., 1., 4., 0., 4.,
          14., 0., 11., 3., 2., 5., 4., 2., 1., 3., 0., 3., 4., 1., 0.,
          3., 1., 2., 7., 3. ]
      - [ 2., 2., 1., 3., 3., 10., 10., 2., 1., 7., 1., 3., 2., 7., 0.,
          6., 1., 3., 0., 0., 0., 3., 1., 3., 10., 5., 4., 7., 0., 6.,
          2., 0., 2., 3., 6., 15., 7., 3., 2., 2., 2., 11., 0., 1., 0.,
          9., 2., 1., 26., 4. ]
      - [ 1., 1., 1., 2., 4., 2., 0., 19., 2., 4., 6., 8., 11., 1., 0.,
          1., 0., 11., 3., 5., 2., 5., 4., 1., 0., 3., 2., 0., 0., 1.,
          10., 1., 1., 1., 8., 3., 7., 0., 5., 2., 11., 0., 0., 6., 24.,
          4., 6., 1., 1., 9. ]
      - [ 0., 10., 2., 1., 0., 0., 49., 0., 4., 21., 21., 6., 0., 45.,
          0., 0., 0., 0., 0., 2., 0., 1., 0., 0., 7., 1., 0., 1., 0., 0.,
          8., 0., 2., 5., 0., 5., 2., 0., 0., 2., 1., 2., 0., 0., 0., 0.,
          2., 1., 0., 0. ]
      - [ 9., 3., 2., 4., 4., 10., 2., 0., 2., 9., 9., 2., 0., 6., 1.,
          1., 0., 5., 3., 3., 5., 4., 7., 6., 5., 2., 4., 0., 0., 13.,
          3., 0., 0., 1., 4., 4., 2., 1., 0., 4., 3., 16., 0., 0., 0.,
          5., 4., 5., 21., 6. ]
      - [ 0., 3., 1., 6., 2., 0., 6., 0., 0., 0., 15., 16., 0., 50., 0.,
          0., 1., 1., 1., 1., 1., 4., 7., 0., 1., 1., 0., 1., 0., 1.,
          18., 0., 5., 7., 1., 10., 2., 14., 0., 1., 0., 2., 1., 0., 1.,
          1., 4., 10., 3., 2. ]
      - [ 7., 0., 0., 0., 0., 0., 0., 3., 0., 1., 10., 4., 2., 26., 0.,
          1., 0., 54., 2., 0., 1., 1., 4., 0., 0., 0., 0., 0., 0., 0.,
          0., 0., 1., 4., 0., 0., 2., 5., 3., 0., 2., 4., 0., 11., 47.,
          0., 1., 1., 0., 3. ]
      - [ 0., 0., 0., 0., 1., 9., 1., 0., 0., 13., 0., 2., 0., 1., 0.,
          1., 0., 1., 1., 0., 0., 0., 0., 0., 0., 2., 0., 0., 0., 78.,
          1., 0., 1., 0., 0., 1., 0., 0., 2., 0., 0., 4., 0., 0., 1.,
          10., 7., 4., 58., 1. ]
      - [ 0., 6., 1., 3., 3., 3., 47., 0., 2., 3., 0., 2., 1., 1., 0.,
          4., 0., 26., 2., 1., 5., 1., 0., 4., 0., 5., 2., 5., 0., 3.,
          1., 0., 3., 1., 2., 12., 1., 0., 1., 4., 0., 25., 0., 1., 0.,
          2., 1., 3., 8., 5. ]
      - [ 0., 3., 0., 1., 8., 1., 0., 1., 0., 29., 32., 4., 1., 55., 0.,
          0., 0., 1., 0., 2., 9., 4., 0., 0., 6., 0., 0., 0., 0., 0., 3.,
          0., 1., 2., 0., 6., 5., 0., 3., 0., 2., 0., 0., 5., 3., 0., 3.,
          11., 0., 0. ]
      - [ 0., 0., 0., 0., 1., 0., 0., 1., 0., 8., 1., 0., 0., 169., 2.,
          0., 0., 0., 0., 0., 1., 0., 0., 0., 4., 0., 0., 1., 0., 0., 2.,
          1., 0., 0., 0., 2., 1., 0., 0., 0., 1., 0., 0., 0., 0., 0., 1.,
          4., 0., 0. ]
      - [ 1., 4., 2., 0., 0., 16., 1., 2., 0., 18., 1., 2., 3., 6., 0.,
          2., 2., 1., 0., 1., 4., 1., 0., 0., 0., 2., 3., 1., 0., 58.,
          1., 0., 2., 3., 0., 5., 10., 2., 4., 1., 2., 4., 0., 1., 2.,
          6., 6., 0., 19., 1. ]
      - [ 0., 0., 0., 3., 0., 2., 2., 0., 2., 2., 1., 0., 0., 102., 0.,
          0., 0., 0., 1., 0., 0., 0., 0., 0., 9., 0., 0., 1., 0., 16.,
          1., 1., 2., 10., 1., 5., 1., 14., 0., 0., 0., 12., 0., 0., 0.,
          1., 1., 6., 5., 0. ]
      - [ 6., 0., 1., 9., 2., 6., 10., 2., 7., 0., 4., 5., 5., 6., 1.,
          0., 1., 0., 6., 4., 4., 3., 2., 2., 1., 2., 5., 2., 0., 5., 2.,
          1., 5., 3., 1., 8., 1., 3., 0., 5., 1., 11., 1., 4., 4., 8.,
          11., 5., 24., 1. ]
      - [ 0., 1., 0., 0., 4., 0., 0., 1., 1., 68., 4., 4., 2., 30., 3.,
          1., 0., 0., 5., 0., 3., 2., 0., 0., 2., 0., 0., 0., 0., 1., 5.,
          0., 1., 0., 1., 1., 2., 0., 1., 7., 0., 0., 0., 0., 6., 0.,
          32., 5., 5., 2. ]
      - [ 6., 3., 1., 2., 1., 1., 21., 2., 5., 3., 12., 3., 0., 10., 0.,
          1., 1., 0., 0., 3., 1., 2., 38., 1., 4., 3., 0., 0., 0., 5.,
          5., 0., 7., 4., 4., 5., 2., 5., 3., 1., 2., 4., 0., 2., 0., 0.,
          2., 1., 20., 4. ]
      - [ 1., 5., 2., 7., 3., 3., 2., 2., 10., 4., 8., 8., 2., 7., 1.,
          0., 4., 3., 4., 4., 1., 3., 9., 0., 0., 5., 0., 2., 0., 5.,
          11., 0., 9., 4., 4., 12., 1., 1., 0., 1., 2., 6., 0., 1., 10.,
          3., 1., 1., 23., 5. ]
      - [ 40., 0., 1., 0., 0., 0., 24., 0., 1., 8., 7., 0., 2., 6., 0.,
          5., 0., 6., 3., 2., 6., 2., 6., 2., 0., 5., 1., 4., 0., 1., 1.,
          0., 6., 1., 1., 9., 0., 2., 0., 1., 1., 11., 0., 9., 5., 0.,
          5., 3., 12., 1. ]
      - [ 0., 2., 0., 0., 1., 4., 0., 4., 0., 0., 0., 11., 6., 5., 0.,
          0., 0., 13., 4., 0., 25., 0., 0., 2., 1., 0., 1., 0., 0., 15.,
          4., 0., 0., 4., 2., 11., 3., 10., 0., 2., 2., 4., 0., 9., 1.,
          4., 0., 46., 3., 2. ]
      - [ 14., 0., 0., 1., 2., 1., 17., 2., 5., 1., 5., 1., 0., 4., 0.,
          0., 0., 6., 0., 2., 3., 3., 10., 1., 0., 5., 1., 0., 0., 3.,
          4., 0., 15., 6., 3., 1., 0., 5., 2., 0., 2., 7., 0., 1., 11.,
          1., 6., 2., 19., 2. ]
      - [ 0., 3., 3., 1., 1., 1., 0., 0., 0., 55., 21., 6., 1., 48., 0.,
          0., 2., 0., 0., 0., 11., 8., 0., 0., 2., 1., 0., 0., 0., 0.,
          7., 0., 1., 0., 0., 8., 1., 0., 1., 1., 0., 0., 1., 2., 0., 1.,
          3., 11., 1., 0. ]
      - [ 1., 0., 0., 2., 1., 0., 34., 1., 7., 12., 1., 2., 0., 5., 2.,
          5., 0., 5., 3., 1., 1., 1., 22., 4., 3., 1., 3., 4., 0., 2.,
          1., 0., 2., 1., 0., 8., 4., 1., 1., 0., 1., 3., 1., 3., 16.,
          2., 3., 0., 7., 2. ]
      - [ 0., 0., 0., 2., 3., 0., 3., 0., 1., 14., 8., 4., 0., 18., 1.,
          2., 0., 0., 4., 0., 2., 2., 1., 0., 6., 4., 0., 5., 0., 14.,
          4., 0., 7., 3., 1., 11., 2., 2., 0., 1., 0., 3., 3., 0., 0.,
          1., 17., 3., 3., 1. ]
      - [ 1., 1., 0., 1., 1., 2., 0., 1., 0., 37., 7., 1., 3., 11., 0.,
          0., 0., 47., 0., 0., 14., 11., 0., 0., 2., 0., 0., 0., 0., 0.,
          2., 0., 0., 1., 0., 2., 4., 0., 9., 0., 0., 0., 0., 5., 29.,
          0., 3., 4., 1., 0. ]
      - [ 3., 1., 0., 0., 1., 3., 13., 16., 6., 3., 3., 1., 8., 0., 1.,
          2., 0., 20., 3., 2., 3., 4., 13., 2., 0., 2., 1., 3., 0., 1.,
          2., 0., 5., 7., 0., 2., 7., 7., 9., 0., 8., 5., 0., 2., 13.,
          6., 5., 1., 5., 1. ]
      - [ 1., 3., 1., 5., 1., 1., 1., 1., 5., 12., 5., 3., 2., 6., 3.,
          0., 0., 8., 15., 5., 10., 4., 1., 3., 1., 0., 2., 2., 0., 5.,
          3., 0., 3., 2., 0., 8., 3., 2., 3., 1., 1., 4., 0., 4., 1., 4.,
          31., 7., 15., 2. ]
      - [ 0., 0., 0., 4., 1., 0., 37., 0., 19., 0., 1., 2., 0., 98., 0.,
          1., 0., 0., 0., 1., 1., 1., 0., 1., 0., 2., 1., 5., 0., 0., 1.,
          0., 16., 3., 0., 0., 0., 5., 0., 0., 0., 0., 0., 0., 0., 0.,
          0., 0., 0., 0. ]
      - [ 0., 0., 0., 4., 6., 1., 4., 0., 0., 5., 3., 1., 1., 5., 0., 2.,
          0., 10., 21., 0., 3., 0., 2., 0., 0., 1., 0., 2., 0., 0., 1.,
          0., 0., 1., 1., 1., 3., 2., 1., 0., 0., 0., 0., 5., 7., 1.,
          67., 5., 0., 1. ]
      - [ 3., 0., 0., 15., 0., 0., 9., 1., 1., 4., 64., 6., 2., 10., 0.,
          0., 0., 15., 4., 2., 4., 1., 4., 0., 0., 0., 0., 0., 0., 1.,
          4., 0., 3., 3., 0., 6., 0., 3., 1., 0., 1., 2., 0., 1., 10.,
          0., 7., 10., 1., 2. ]
      - [ 0., 0., 4., 7., 1., 0., 0., 0., 0., 22., 27., 4., 0., 76., 1.,
          0., 0., 0., 0., 2., 3., 3., 0., 0., 6., 1., 0., 1., 0., 0., 6.,
          2., 2., 0., 0., 6., 4., 0., 0., 1., 0., 0., 5., 2., 0., 0., 4.,
          10., 0., 1. ]
      - [ 11., 1., 2., 1., 2., 3., 19., 4., 15., 9., 3., 3., 2., 9., 0.,
          2., 2., 9., 1., 3., 2., 2., 3., 0., 0., 4., 3., 1., 0., 2., 6.,
          0., 8., 0., 5., 10., 3., 2., 1., 0., 3., 6., 1., 0., 3., 4.,
          9., 1., 11., 9. ]
      - [ 4., 0., 2., 1., 1., 1., 28., 0., 8., 3., 3., 1., 1., 2., 6.,
          1., 1., 2., 1., 0., 0., 1., 13., 1., 0., 2., 1., 0., 0., 4.,
          0., 0., 12., 0., 12., 6., 1., 2., 0., 0., 2., 10., 0., 2., 4.,
          2., 1., 0., 49., 9. ]
      - [ 11., 3., 1., 4., 1., 0., 17., 2., 5., 12., 1., 1., 0., 3., 0.,
          0., 1., 0., 3., 2., 3., 0., 5., 0., 4., 5., 1., 2., 0., 5., 5.,
          3., 10., 0., 2., 6., 3., 1., 0., 2., 1., 14., 1., 2., 3., 1.,
          15., 2., 34., 3. ]
      - [ 7., 0., 0., 0., 0., 3., 42., 1., 9., 1., 0., 5., 1., 0., 0.,
          2., 0., 7., 2., 3., 2., 4., 4., 1., 0., 4., 0., 0., 0., 18.,
          3., 0., 5., 3., 0., 2., 2., 1., 0., 0., 2., 26., 0., 0., 2.,
          3., 7., 2., 25., 1. ]
      - [ 9., 0., 0., 0., 2., 3., 0., 3., 0., 6., 0., 2., 2., 3., 1., 1.,
          0., 11., 50., 0., 6., 0., 15., 0., 0., 1., 0., 1., 0., 3., 3.,
          0., 0., 2., 2., 9., 1., 1., 2., 0., 2., 0., 0., 4., 36., 2.,
          5., 7., 0., 0. ]
      - [ 0., 2., 0., 1., 4., 0., 0., 4., 0., 17., 3., 13., 0., 6., 0.,
          0., 0., 20., 0., 1., 39., 38., 0., 0., 1., 0., 0., 0., 0., 0.,
          5., 0., 0., 6., 0., 1., 0., 0., 5., 0., 7., 0., 0., 7., 19.,
          0., 0., 1., 0., 0. ]
      - [ 2., 2., 1., 2., 2., 4., 48., 1., 2., 2., 1., 5., 0., 0., 0.,
          4., 0., 7., 1., 2., 3., 7., 9., 0., 2., 3., 3., 2., 0., 6., 3.,
          0., 2., 4., 4., 4., 2., 1., 2., 1., 2., 27., 1., 1., 0., 2.,
          5., 1., 15., 2. ]
      - [ 0., 3., 2., 9., 0., 0., 0., 1., 0., 3., 56., 8., 2., 65., 0.,
          0., 0., 2., 0., 5., 8., 4., 0., 0., 6., 0., 0., 0., 0., 0., 5.,
          0., 0., 1., 0., 0., 0., 2., 0., 0., 0., 0., 0., 13., 1., 0.,
          1., 4., 0., 0. ]
      - [ 3., 3., 1., 6., 3., 1., 55., 3., 12., 2., 3., 1., 2., 2., 0.,
          1., 2., 13., 0., 3., 1., 3., 16., 6., 2., 6., 2., 3., 0., 0.,
          1., 0., 3., 6., 0., 2., 1., 5., 1., 1., 1., 3., 1., 0., 14.,
          0., 0., 1., 1., 4. ]
      - [ 4., 1., 2., 10., 2., 1., 13., 4., 9., 11., 2., 2., 5., 9., 0.,
          5., 0., 8., 1., 1., 3., 3., 0., 5., 1., 4., 6., 6., 0., 0., 3.,
          1., 8., 18., 2., 1., 4., 15., 3., 6., 3., 1., 3., 0., 6., 0.,
          3., 2., 0., 3. ]
      - [ 1., 1., 3., 3., 1., 1., 65., 3., 14., 3., 11., 4., 4., 4., 0.,
          2., 0., 2., 0., 3., 4., 3., 1., 1., 1., 3., 1., 2., 0., 0., 6.,
          0., 6., 0., 1., 2., 3., 0., 3., 1., 3., 5., 0., 10., 1., 2.,
          5., 2., 5., 4. ]
      - [ 0., 1., 0., 13., 0., 1., 5., 0., 1., 13., 9., 2., 1., 7., 0.,
          0., 1., 2., 0., 1., 3., 0., 1., 0., 0., 0., 0., 0., 0., 9., 2.,
          0., 1., 9., 2., 4., 0., 9., 0., 0., 0., 7., 0., 3., 0., 1., 9.,
          10., 72., 1. ]
      - [ 1., 1., 2., 0., 0., 3., 9., 0., 0., 6., 4., 5., 0., 7., 0., 1.,
          2., 0., 2., 0., 1., 0., 0., 0., 0., 1., 0., 0., 0., 24., 2.,
          0., 3., 1., 0., 19., 2., 2., 1., 0., 0., 9., 0., 0., 4., 0.,
          23., 0., 62., 3. ]
      - [ 0., 3., 1., 3., 0., 2., 2., 0., 1., 11., 11., 6., 3., 13., 1.,
          2., 0., 0., 12., 2., 5., 5., 0., 0., 3., 1., 1., 1., 0., 11.,
          6., 0., 4., 1., 2., 6., 7., 4., 1., 0., 1., 1., 0., 2., 3., 3.,
          39., 7., 13., 1. ]
      - [ 0., 2., 1., 1., 2., 1., 0., 3., 0., 96., 9., 2., 2., 8., 1.,
          1., 0., 0., 2., 0., 0., 2., 1., 0., 0., 3., 0., 1., 0., 0., 0.,
          0., 2., 0., 2., 10., 20., 0., 1., 1., 0., 1., 0., 4., 0., 5.,
          6., 6., 1., 4. ]
      - [ 7., 3., 0., 0., 2., 4., 2., 12., 1., 0., 1., 3., 4., 1., 0.,
          0., 2., 8., 1., 0., 7., 3., 1., 2., 4., 0., 1., 1., 0., 35.,
          2., 0., 2., 12., 0., 3., 5., 10., 0., 6., 11., 6., 0., 1., 8.,
          3., 0., 1., 25., 0. ]
      - [ 3., 1., 1., 4., 0., 1., 15., 1., 2., 5., 5., 3., 4., 61., 0.,
          0., 0., 12., 0., 2., 9., 5., 5., 0., 6., 1., 2., 0., 0., 4.,
          4., 0., 4., 5., 0., 2., 1., 6., 0., 3., 2., 1., 1., 1., 4., 0.,
          4., 8., 2., 0. ]
      - [ 1., 2., 1., 4., 2., 2., 23., 5., 4., 8., 1., 1., 6., 6., 0.,
          4., 1., 0., 1., 2., 1., 3., 3., 1., 6., 6., 0., 13., 0., 4.,
          2., 2., 9., 2., 10., 8., 7., 1., 0., 0., 3., 13., 3., 1., 7.,
          2., 3., 0., 11., 5. ]
      - [ 0., 1., 2., 0., 3., 3., 4., 5., 7., 14., 6., 0., 6., 4., 1.,
          7., 1., 2., 1., 0., 3., 1., 17., 4., 0., 4., 3., 8., 0., 0.,
          3., 0., 5., 1., 16., 6., 10., 0., 0., 6., 3., 1., 2., 2., 8.,
          9., 1., 3., 2., 15. ]
      - [ 0., 2., 0., 4., 12., 13., 0., 2., 0., 23., 0., 0., 1., 8., 0.,
          1., 2., 1., 14., 0., 2., 3., 3., 4., 4., 2., 5., 0., 0., 9.,
          0., 0., 0., 5., 0., 8., 2., 7., 3., 1., 1., 5., 0., 0., 12.,
          8., 22., 3., 6., 2. ]
      - [ 3., 4., 1., 0., 0., 2., 3., 3., 0., 5., 9., 14., 0., 3., 1.,
          1., 0., 4., 1., 0., 7., 5., 28., 1., 0., 1., 0., 2., 0., 11.,
          4., 1., 0., 5., 1., 6., 3., 0., 5., 1., 1., 9., 0., 7., 11.,
          4., 3., 1., 26., 3. ]
      - [ 0., 2., 10., 1., 1., 7., 3., 2., 1., 13., 1., 0., 0., 10., 0.,
          3., 1., 2., 3., 2., 1., 0., 0., 0., 2., 5., 0., 2., 0., 14.,
          4., 0., 9., 0., 2., 25., 5., 0., 1., 1., 3., 10., 2., 0., 1.,
          10., 19., 1., 21., 1. ]
      - [ 13., 3., 0., 11., 0., 1., 18., 0., 2., 1., 7., 8., 0., 7., 0.,
          2., 0., 4., 1., 1., 5., 7., 3., 0., 5., 3., 0., 6., 0., 5.,
          12., 0., 12., 7., 0., 7., 0., 5., 1., 0., 1., 13., 1., 2., 4.,
          1., 2., 2., 14., 3. ]
      - [ 1., 1., 1., 2., 0., 1., 65., 1., 3., 0., 2., 1., 0., 0., 0.,
          0., 0., 0., 0., 0., 0., 0., 34., 2., 0., 1., 2., 1., 0., 0.,
          0., 0., 4., 9., 0., 0., 0., 7., 0., 0., 2., 0., 0., 1., 0., 0.,
          1., 0., 3., 1. ]
      - [ 2., 11., 2., 3., 5., 14., 0., 2., 1., 0., 1., 2., 0., 8., 1.,
          1., 1., 10., 0., 2., 14., 13., 2., 0., 2., 1., 0., 3., 0., 5.,
          2., 0., 3., 2., 1., 11., 3., 3., 5., 7., 6., 2., 2., 6., 15.,
          11., 2., 0., 7., 6. ]
      - [ 0., 0., 0., 4., 13., 0., 0., 2., 15., 12., 2., 1., 1., 8., 0.,
          6., 4., 1., 5., 3., 4., 5., 9., 1., 1., 11., 3., 9., 0., 0.,
          1., 1., 4., 4., 6., 1., 3., 2., 7., 5., 1., 1., 2., 1., 9., 0.,
          12., 2., 12., 6. ]
      - [ 11., 0., 2., 1., 1., 8., 11., 1., 6., 3., 3., 0., 1., 3., 0.,
          2., 3., 0., 0., 0., 3., 3., 0., 0., 0., 8., 1., 1., 0., 5., 2.,
          0., 21., 3., 9., 13., 2., 3., 0., 0., 0., 23., 0., 0., 0., 7.,
          0., 0., 36., 4. ]
      - [ 1., 4., 2., 2., 0., 2., 3., 1., 6., 4., 11., 5., 2., 3., 2.,
          0., 6., 10., 6., 3., 7., 2., 3., 0., 5., 2., 2., 2., 0., 14.,
          1., 4., 2., 5., 2., 4., 2., 2., 1., 1., 2., 5., 3., 6., 8., 0.,
          4., 5., 27., 7. ]
      - [ 0., 5., 3., 1., 0., 0., 7., 3., 2., 1., 84., 3., 2., 5., 0.,
          0., 0., 4., 0., 2., 2., 0., 5., 1., 0., 2., 1., 0., 0., 3., 1.,
          0., 2., 7., 2., 2., 2., 8., 0., 0., 1., 5., 0., 11., 7., 0.,
          3., 0., 11., 2. ]
      - [ 3., 0., 2., 0., 4., 1., 1., 7., 5., 3., 6., 2., 6., 1., 0., 0.,
          2., 10., 3., 4., 7., 4., 11., 4., 0., 1., 4., 0., 0., 3., 5.,
          1., 2., 3., 3., 1., 5., 2., 12., 2., 7., 6., 0., 10., 20., 2.,
          3., 1., 5., 5. ]
      - [ 0., 1., 2., 0., 4., 1., 0., 1., 0., 127., 4., 0., 0., 3., 0.,
          1., 1., 0., 5., 0., 0., 0., 1., 0., 1., 0., 0., 0., 0., 0., 1.,
          0., 3., 0., 1., 4., 7., 0., 3., 3., 1., 1., 0., 2., 1., 2.,
          12., 4., 1., 2. ]
      - [ 34., 0., 0., 2., 3., 0., 3., 1., 5., 7., 2., 1., 2., 4., 0.,
          1., 1., 6., 2., 0., 4., 6., 0., 2., 0., 10., 0., 0., 0., 4.,
          1., 0., 7., 5., 2., 3., 5., 8., 2., 1., 1., 40., 0., 0., 0.,
          1., 0., 1., 19., 5. ]
      - [ 1., 4., 4., 5., 5., 8., 0., 0., 1., 17., 2., 5., 0., 20., 1.,
          2., 0., 2., 17., 0., 2., 2., 0., 0., 4., 1., 0., 2., 0., 0.,
          2., 1., 6., 1., 1., 8., 0., 0., 8., 3., 2., 2., 1., 0., 5., 6.,
          40., 7., 0., 3. ]
      - [ 1., 2., 0., 1., 1., 10., 14., 2., 0., 5., 0., 5., 1., 3., 0.,
          1., 0., 10., 9., 0., 0., 0., 15., 0., 1., 0., 0., 0., 0., 13.,
          1., 0., 0., 0., 0., 2., 4., 1., 0., 0., 0., 9., 0., 0., 6.,
          13., 55., 9., 6., 0. ]
      - [ 3., 0., 0., 2., 0., 8., 3., 8., 1., 6., 2., 10., 10., 3., 3.,
          0., 0., 2., 6., 4., 7., 15., 4., 1., 0., 1., 1., 3., 0., 18.,
          6., 0., 2., 1., 0., 4., 6., 1., 1., 2., 1., 3., 0., 0., 3.,
          10., 9., 3., 26., 2. ]
      - [ 1., 4., 1., 2., 0., 4., 10., 0., 10., 2., 3., 8., 3., 4., 0.,
          4., 2., 1., 1., 0., 6., 4., 1., 2., 0., 6., 1., 2., 0., 5.,
          11., 0., 8., 2., 12., 11., 5., 4., 0., 2., 2., 16., 0., 2., 2.,
          8., 3., 6., 8., 11. ]
      - [ 1., 3., 2., 11., 1., 0., 1., 0., 4., 10., 29., 3., 0., 85., 0.,
          0., 1., 0., 0., 0., 1., 1., 0., 0., 11., 1., 0., 0., 0., 3.,
          6., 0., 6., 2., 0., 5., 0., 2., 0., 0., 0., 6., 0., 0., 0., 0.,
          0., 4., 0., 2. ]
      - [ 7., 0., 0., 2., 1., 4., 0., 4., 2., 6., 8., 6., 1., 15., 0.,
          0., 0., 4., 2., 3., 7., 10., 9., 0., 1., 2., 0., 0., 0., 8.,
          9., 0., 3., 3., 1., 4., 1., 2., 1., 1., 3., 15., 0., 7., 19.,
          1., 3., 2., 21., 2. ]
      - [ 0., 1., 0., 0., 1., 2., 0., 0., 0., 70., 3., 0., 1., 4., 0.,
          1., 0., 5., 9., 0., 9., 3., 1., 0., 0., 1., 0., 0., 0., 0., 0.,
          0., 0., 0., 0., 3., 8., 0., 1., 0., 0., 1., 0., 4., 25., 7.,
          30., 7., 0., 3. ]
      - [ 8., 4., 3., 3., 3., 1., 2., 8., 2., 4., 4., 4., 8., 7., 1., 3.,
          1., 18., 3., 1., 2., 2., 8., 5., 1., 1., 2., 3., 0., 2., 3.,
          0., 4., 2., 1., 6., 4., 3., 2., 2., 3., 11., 1., 3., 16., 1.,
          4., 4., 12., 4. ]
      - [ 2., 4., 0., 21., 6., 2., 12., 3., 9., 2., 2., 5., 1., 11., 0.,
          0., 2., 5., 2., 4., 5., 5., 2., 0., 5., 1., 0., 2., 0., 4., 8.,
          0., 14., 9., 6., 1., 4., 10., 0., 1., 2., 2., 1., 5., 0., 1.,
          4., 0., 6., 9. ]
      - [ 2., 0., 1., 0., 0., 0., 1., 1., 2., 0., 1., 3., 0., 0., 0., 0.,
          0., 2., 0., 1., 3., 3., 3., 6., 2., 0., 5., 2., 0., 0., 2., 0.,
          2., 4., 0., 0., 0., 2., 0., 0., 1., 0., 1., 5., 4., 0., 0., 2.,
          0., 0. ]
      - [ 27., 0., 1., 0., 0., 1., 34., 7., 4., 2., 0., 2., 1., 2., 1.,
          3., 2., 21., 0., 0., 2., 4., 18., 0., 0., 0., 0., 3., 0., 0.,
          2., 0., 4., 5., 2., 3., 4., 7., 2., 0., 8., 2., 0., 1., 17.,
          4., 2., 0., 0., 2. ]
      - [ 0., 9., 8., 4., 1., 2., 5., 0., 6., 4., 11., 1., 0., 5., 0.,
          0., 4., 0., 0., 1., 1., 0., 1., 0., 4., 0., 0., 0., 0., 0., 0.,
          1., 4., 3., 13., 1., 0., 4., 0., 0., 1., 8., 1., 0., 0., 3.,
          3., 0., 87., 5. ]
      - [ 0., 0., 4., 2., 3., 1., 8., 1., 5., 44., 6., 1., 1., 12., 2.,
          2., 2., 0., 5., 1., 0., 1., 8., 1., 5., 3., 2., 1., 0., 5., 3.,
          2., 5., 4., 1., 6., 5., 1., 0., 2., 2., 6., 2., 6., 6., 0., 8.,
          2., 8., 6. ]
      - [ 4., 1., 1., 3., 9., 2., 15., 1., 1., 3., 1., 3., 2., 2., 1.,
          5., 0., 5., 3., 3., 2., 1., 1., 1., 0., 3., 3., 5., 0., 8., 2.,
          1., 5., 15., 3., 8., 3., 16., 3., 2., 3., 10., 2., 1., 6., 4.,
          17., 1., 8., 1. ]
      - [ 6., 2., 3., 10., 0., 0., 3., 0., 1., 5., 53., 1., 0., 17., 0.,
          1., 0., 0., 0., 9., 2., 3., 9., 0., 3., 0., 2., 1., 0., 3., 3.,
          1., 2., 16., 4., 2., 0., 12., 0., 0., 2., 2., 0., 0., 0., 0.,
          1., 0., 19., 2. ]
      - [ 0., 1., 3., 0., 1., 1., 2., 1., 2., 124., 9., 0., 1., 9., 0.,
          0., 5., 0., 0., 1., 0., 0., 3., 0., 2., 2., 0., 0., 0., 1., 2.,
          1., 5., 0., 1., 2., 4., 1., 1., 1., 0., 1., 1., 2., 0., 0., 5.,
          0., 1., 4. ]
      - [ 0., 1., 3., 5., 2., 14., 0., 2., 0., 5., 3., 2., 0., 2., 23.,
          0., 4., 8., 0., 2., 3., 2., 0., 0., 1., 0., 0., 0., 0., 15.,
          1., 0., 1., 1., 1., 2., 3., 2., 4., 0., 3., 1., 0., 5., 15.,
          19., 5., 3., 37., 0. ]
      - [ 1., 1., 0., 1., 5., 3., 7., 2., 3., 9., 9., 4., 1., 14., 0.,
          0., 0., 6., 19., 0., 4., 4., 4., 0., 0., 1., 0., 0., 0., 13.,
          3., 0., 6., 2., 2., 5., 2., 1., 4., 0., 1., 8., 0., 4., 8., 2.,
          29., 3., 6., 3. ]
      - [ 3., 2., 1., 6., 0., 1., 38., 1., 10., 0., 3., 5., 0., 1., 0.,
          2., 1., 2., 2., 0., 2., 0., 38., 6., 1., 2., 3., 3., 0., 0.,
          2., 1., 10., 5., 3., 3., 0., 3., 1., 1., 1., 7., 0., 2., 4.,
          0., 1., 0., 6., 3. ]
      - [ 0., 1., 0., 0., 2., 3., 0., 2., 0., 21., 5., 1., 1., 5., 0.,
          0., 1., 2., 17., 0., 2., 2., 0., 0., 0., 0., 0., 0., 0., 5.,
          1., 0., 0., 1., 1., 8., 8., 1., 1., 0., 1., 6., 0., 0., 2., 4.,
          75., 8., 11., 2. ]
      - [ 2., 7., 0., 5., 0., 5., 9., 2., 2., 1., 19., 4., 0., 7., 0.,
          3., 0., 2., 0., 3., 5., 2., 6., 1., 0., 0., 2., 3., 0., 13.,
          1., 0., 0., 9., 0., 6., 0., 9., 0., 1., 2., 18., 2., 8., 17.,
          0., 2., 3., 16., 3. ]
      - [ 11., 7., 4., 5., 1., 8., 7., 5., 7., 1., 6., 2., 7., 2., 0.,
          3., 3., 8., 0., 3., 3., 4., 5., 7., 1., 3., 12., 3., 0., 1.,
          1., 1., 7., 8., 7., 4., 2., 2., 3., 5., 1., 0., 2., 1., 14.,
          0., 1., 0., 4., 8. ]
      - [ 0., 2., 2., 3., 2., 2., 87., 1., 2., 1., 2., 3., 2., 3., 0.,
          7., 0., 1., 0., 2., 5., 3., 0., 1., 6., 7., 3., 12., 0., 2.,
          1., 0., 2., 1., 8., 2., 1., 2., 0., 0., 1., 5., 0., 2., 1., 2.,
          0., 2., 6., 4. ]
      - [ 2., 0., 0., 0., 1., 1., 0., 2., 0., 4., 1., 4., 0., 4., 1., 0.,
          0., 26., 15., 1., 1., 2., 10., 0., 0., 0., 0., 0., 0., 0., 0.,
          0., 0., 1., 1., 1., 6., 0., 1., 0., 1., 0., 0., 1., 78., 2.,
          25., 7., 1., 0. ]
      - [ 3., 1., 0., 1., 0., 4., 1., 10., 2., 0., 6., 2., 4., 4., 0.,
          0., 0., 7., 0., 4., 14., 17., 9., 2., 2., 2., 1., 0., 0., 14.,
          2., 2., 9., 7., 0., 3., 1., 7., 0., 4., 9., 4., 3., 0., 7., 2.,
          0., 2., 21., 1. ]
      - [ 0., 1., 2., 0., 0., 10., 4., 1., 7., 56., 10., 1., 2., 6., 1.,
          0., 2., 0., 0., 1., 3., 4., 0., 0., 0., 2., 0., 0., 0., 0., 6.,
          2., 3., 0., 5., 0., 2., 0., 0., 0., 0., 0., 5., 0., 0., 8.,
          16., 0., 39., 1. ]
      - [ 14., 6., 6., 5., 2., 10., 5., 8., 3., 4., 6., 1., 2., 5., 0.,
          4., 1., 8., 4., 1., 1., 2., 3., 7., 0., 4., 11., 7., 0., 1.,
          0., 2., 2., 3., 4., 5., 2., 3., 1., 2., 5., 3., 4., 1., 8., 9.,
          0., 2., 11., 2. ]
      - [ 0., 0., 2., 4., 4., 5., 0., 5., 0., 15., 14., 6., 0., 13., 1.,
          1., 1., 1., 14., 0., 1., 5., 0., 0., 3., 1., 0., 1., 0., 5.,
          6., 0., 3., 2., 4., 8., 6., 0., 1., 0., 3., 2., 0., 5., 0., 5.,
          32., 12., 7., 2. ]
      - [ 2., 0., 1., 6., 6., 1., 3., 10., 0., 3., 10., 5., 19., 5., 10.,
          3., 0., 9., 5., 8., 5., 8., 1., 7., 0., 2., 6., 3., 0., 1., 6.,
          0., 0., 2., 1., 7., 5., 4., 3., 0., 3., 2., 0., 2., 6., 5., 6.,
          5., 4., 0. ]
      - [ 1., 0., 0., 3., 0., 0., 4., 0., 0., 0., 11., 0., 1., 6., 0.,
          0., 0., 49., 7., 0., 8., 0., 2., 1., 1., 1., 0., 1., 0., 0.,
          0., 0., 1., 0., 0., 0., 0., 0., 1., 0., 0., 7., 0., 13., 63.,
          0., 6., 7., 6., 0. ]
      - [ 1., 0., 2., 0., 0., 9., 1., 0., 1., 43., 2., 0., 0., 1., 0.,
          0., 0., 45., 3., 0., 5., 1., 0., 0., 0., 2., 0., 0., 0., 0.,
          1., 0., 5., 1., 0., 1., 5., 2., 2., 0., 1., 3., 0., 5., 30.,
          8., 4., 1., 10., 5. ]
      - [ 5., 2., 1., 1., 0., 0., 10., 1., 1., 2., 3., 2., 1., 5., 1.,
          0., 3., 15., 5., 3., 1., 2., 23., 0., 0., 2., 2., 0., 0., 5.,
          1., 0., 5., 3., 2., 5., 1., 2., 2., 0., 2., 11., 0., 7., 15.,
          0., 0., 2., 27., 1. ]
      - [ 17., 1., 0., 2., 0., 0., 9., 9., 6., 4., 3., 3., 6., 1., 1.,
          1., 1., 31., 1., 2., 9., 5., 1., 6., 0., 0., 0., 4., 0., 2.,
          0., 0., 5., 8., 1., 3., 8., 7., 9., 2., 8., 7., 0., 2., 5., 1.,
          0., 1., 2., 6. ]
      - [ 15., 2., 4., 2., 13., 6., 2., 2., 1., 6., 9., 3., 0., 2., 0.,
          5., 1., 7., 8., 5., 8., 5., 2., 2., 1., 3., 0., 3., 0., 5., 3.,
          0., 1., 4., 0., 9., 4., 4., 2., 4., 2., 3., 1., 10., 8., 4.,
          4., 9., 4., 3. ]
      - [ 0., 0., 1., 1., 0., 2., 0., 1., 1., 3., 3., 0., 0., 5., 1., 2.,
          1., 0., 7., 0., 1., 3., 0., 0., 0., 0., 0., 0., 0., 78., 2.,
          0., 4., 0., 0., 5., 2., 0., 1., 2., 1., 24., 0., 1., 1., 0.,
          8., 2., 37., 0. ]
      - [ 3., 2., 0., 4., 8., 0., 1., 1., 1., 11., 4., 2., 3., 7., 3.,
          1., 1., 9., 11., 1., 6., 3., 10., 0., 1., 2., 0., 1., 0., 11.,
          4., 0., 6., 2., 0., 9., 4., 2., 4., 0., 1., 7., 0., 2., 7., 1.,
          28., 4., 11., 1. ]
      - [ 0., 0., 0., 0., 0., 0., 80., 0., 0., 0., 3., 1., 0., 0., 0.,
          0., 0., 32., 6., 0., 3., 1., 6., 0., 0., 1., 0., 0., 0., 0.,
          0., 0., 0., 0., 1., 1., 0., 0., 1., 0., 0., 6., 0., 0., 22.,
          0., 20., 0., 8., 0. ]
      - [ 0., 4., 8., 16., 1., 1., 5., 0., 7., 4., 42., 2., 0., 34., 1.,
          2., 7., 0., 0., 4., 2., 0., 2., 0., 7., 0., 0., 2., 0., 1., 1.,
          1., 3., 9., 1., 2., 0., 14., 0., 2., 0., 3., 2., 0., 0., 0.,
          0., 0., 8., 2. ]
      - [ 0., 2., 2., 2., 3., 1., 0., 1., 0., 40., 11., 12., 2., 13., 1.,
          1., 1., 0., 1., 1., 7., 5., 0., 0., 2., 1., 0., 2., 0., 8.,
          10., 1., 1., 1., 1., 8., 5., 0., 0., 1., 3., 5., 1., 4., 1.,
          1., 25., 10., 2., 1. ]
      - [ 2., 0., 0., 2., 4., 0., 2., 5., 1., 1., 3., 2., 0., 0., 0., 1.,
          0., 27., 0., 0., 2., 1., 7., 0., 0., 1., 0., 4., 0., 1., 2.,
          0., 2., 3., 1., 5., 3., 4., 5., 0., 10., 4., 0., 6., 38., 1.,
          0., 0., 0., 2. ]
      - [ 2., 0., 4., 0., 3., 3., 13., 5., 4., 13., 2., 3., 1., 6., 2.,
          3., 1., 3., 0., 4., 1., 5., 7., 1., 0., 7., 1., 5., 0., 1., 7.,
          0., 10., 2., 6., 8., 5., 2., 2., 0., 2., 7., 2., 1., 1., 3.,
          4., 0., 30., 8. ]
      - [ 0., 1., 3., 42., 2., 2., 27., 3., 1., 0., 6., 6., 1., 28., 0.,
          0., 4., 0., 1., 0., 1., 0., 2., 1., 5., 2., 4., 1., 0., 0., 5.,
          1., 6., 14., 0., 2., 2., 9., 2., 0., 2., 0., 1., 2., 0., 1.,
          2., 3., 3., 3. ]
      - [ 2., 1., 0., 1., 3., 1., 0., 9., 3., 62., 2., 6., 6., 1., 1.,
          0., 1., 34., 1., 1., 7., 7., 0., 1., 1., 2., 0., 0., 0., 0.,
          2., 0., 1., 2., 1., 0., 8., 1., 5., 0., 7., 5., 0., 2., 7., 3.,
          3., 0., 0., 0. ]
      - [ 0., 0., 2., 2., 13., 0., 0., 1., 0., 51., 5., 4., 1., 37., 1.,
          0., 0., 9., 6., 0., 6., 4., 0., 0., 18., 1., 2., 1., 0., 0.,
          9., 0., 0., 1., 0., 0., 2., 0., 1., 13., 1., 0., 0., 0., 3.,
          0., 2., 3., 0., 1. ]
      - [ 2., 0., 0., 0., 3., 0., 5., 3., 2., 2., 0., 0., 14., 0., 3.,
          6., 0., 18., 5., 0., 0., 0., 18., 5., 1., 1., 0., 4., 0., 0.,
          0., 0., 1., 0., 1., 1., 5., 0., 1., 0., 5., 1., 0., 0., 67.,
          0., 16., 0., 9., 2. ]
      - [ 1., 2., 1., 0., 6., 4., 0., 2., 0., 17., 5., 2., 3., 11., 0.,
          0., 2., 2., 14., 1., 1., 0., 1., 0., 1., 0., 0., 0., 0., 9.,
          3., 0., 2., 3., 0., 17., 4., 1., 2., 4., 6., 1., 1., 2., 5.,
          1., 54., 2., 6., 1. ]
      - [ 0., 4., 3., 2., 4., 8., 14., 2., 1., 16., 4., 2., 2., 3., 11.,
          7., 6., 4., 7., 3., 2., 6., 3., 1., 3., 2., 2., 7., 0., 2., 2.,
          0., 1., 3., 2., 5., 5., 3., 2., 3., 2., 4., 0., 2., 3., 6., 7.,
          3., 15., 1. ]
      - [ 0., 5., 2., 0., 4., 2., 6., 1., 1., 18., 12., 5., 1., 16., 0.,
          2., 1., 3., 10., 2., 2., 6., 1., 0., 0., 3., 1., 1., 0., 3.,
          9., 0., 1., 0., 0., 4., 6., 0., 5., 4., 1., 8., 1., 2., 7., 3.,
          34., 3., 2., 2. ]
      - [ 3., 0., 2., 0., 0., 2., 3., 13., 0., 2., 0., 1., 11., 3., 3.,
          2., 2., 83., 7., 0., 19., 4., 0., 0., 0., 1., 0., 1., 0., 2.,
          0., 0., 0., 0., 2., 7., 0., 0., 4., 0., 2., 0., 0., 0., 1., 2.,
          1., 15., 0., 2. ]
      - [ 0., 4., 1., 3., 0., 4., 7., 0., 6., 8., 4., 1., 0., 4., 0., 2.,
          0., 0., 2., 0., 0., 1., 0., 1., 5., 2., 1., 3., 0., 22., 0.,
          0., 4., 2., 7., 10., 0., 2., 0., 0., 0., 41., 0., 0., 0., 2.,
          0., 1., 45., 5. ]
      - [ 1., 1., 0., 0., 2., 0., 0., 5., 0., 7., 9., 1., 3., 1., 0., 0.,
          0., 41., 0., 1., 5., 3., 0., 0., 0., 0., 0., 0., 0., 0., 2.,
          0., 0., 2., 0., 3., 4., 1., 2., 0., 4., 2., 0., 5., 71., 0.,
          9., 4., 7., 4. ]
      - [ 0., 0., 10., 5., 6., 0., 3., 0., 0., 59., 2., 1., 1., 60., 1.,
          0., 4., 0., 0., 1., 0., 0., 2., 1., 28., 0., 0., 0., 0., 5.,
          1., 0., 0., 0., 1., 0., 1., 0., 0., 0., 0., 0., 0., 0., 0., 0.,
          3., 0., 1., 4. ]
      - [ 0., 1., 4., 6., 0., 0., 0., 1., 0., 49., 103., 4., 0., 3., 0.,
          0., 1., 2., 0., 5., 2., 1., 0., 0., 2., 0., 0., 1., 0., 0., 7.,
          0., 0., 1., 1., 0., 2., 1., 1., 0., 0., 0., 1., 0., 0., 0., 0.,
          0., 1., 0. ]
      - [ 2., 1., 1., 3., 2., 1., 3., 6., 3., 8., 7., 3., 3., 59., 1.,
          4., 0., 3., 2., 1., 6., 4., 3., 7., 0., 1., 11., 5., 0., 0.,
          6., 1., 2., 1., 1., 3., 2., 2., 3., 0., 0., 1., 3., 2., 7., 3.,
          4., 5., 1., 3. ]
      - [ 1., 0., 1., 2., 1., 1., 1., 3., 1., 11., 7., 6., 2., 36., 2.,
          1., 0., 0., 0., 0., 5., 1., 1., 0., 5., 4., 0., 3., 0., 0., 3.,
          1., 8., 1., 4., 10., 0., 2., 2., 0., 4., 2., 4., 1., 53., 0.,
          3., 5., 1., 1. ]
      - [ 1., 1., 2., 0., 0., 0., 2., 0., 0., 114., 21., 1., 0., 2., 0.,
          0., 1., 0., 7., 0., 1., 2., 0., 0., 2., 0., 0., 0., 0., 26.,
          1., 0., 0., 0., 1., 0., 3., 0., 0., 0., 0., 0., 1., 0., 0., 0.,
          5., 3., 2., 2. ]
      - [ 4., 1., 0., 0., 6., 0., 3., 7., 1., 4., 11., 0., 2., 0., 0.,
          0., 3., 4., 0., 1., 4., 1., 6., 2., 0., 0., 1., 2., 0., 0., 5.,
          0., 1., 2., 0., 1., 0., 1., 4., 0., 3., 0., 0., 8., 3., 0., 0.,
          0., 2., 3. ]
      - [ 0., 1., 2., 1., 2., 1., 1., 2., 0., 6., 17., 5., 0., 15., 1.,
          2., 0., 2., 18., 4., 0., 0., 10., 1., 1., 2., 0., 3., 0., 17.,
          4., 1., 9., 1., 1., 8., 3., 2., 0., 0., 3., 7., 1., 2., 2., 0.,
          22., 6., 9., 5. ]
      - [ 7., 0., 0., 2., 1., 1., 1., 1., 9., 5., 10., 6., 0., 8., 0.,
          1., 0., 5., 2., 2., 6., 2., 6., 0., 0., 1., 0., 0., 0., 2., 4.,
          0., 13., 2., 10., 4., 7., 2., 2., 0., 5., 9., 2., 8., 8., 2.,
          5., 4., 30., 5. ]
      - [ 2., 1., 6., 1., 9., 5., 1., 5., 2., 13., 7., 2., 1., 6., 0.,
          4., 1., 5., 2., 3., 4., 4., 11., 13., 3., 6., 16., 3., 0., 0.,
          4., 2., 4., 0., 8., 4., 4., 0., 2., 4., 3., 1., 2., 4., 4., 2.,
          7., 3., 3., 3. ]
      - [ 0., 0., 2., 0., 2., 0., 0., 0., 0., 79., 17., 3., 0., 47., 0.,
          0., 1., 0., 1., 0., 2., 3., 0., 0., 5., 0., 0., 1., 0., 0., 0.,
          0., 1., 1., 0., 3., 2., 0., 1., 0., 1., 0., 0., 1., 0., 0.,
          15., 10., 2., 0. ]
      - [ 1., 3., 0., 2., 0., 1., 7., 2., 3., 6., 5., 1., 2., 9., 0., 2.,
          1., 3., 4., 0., 5., 3., 13., 1., 3., 2., 2., 2., 0., 9., 8.,
          0., 8., 1., 5., 11., 3., 5., 3., 0., 1., 7., 0., 2., 13., 2.,
          7., 1., 30., 1. ]
      - [ 0., 2., 0., 36., 1., 3., 1., 1., 0., 20., 12., 1., 2., 53., 0.,
          0., 2., 1., 1., 0., 0., 0., 0., 1., 11., 0., 0., 0., 0., 8.,
          1., 0., 1., 3., 0., 3., 7., 1., 1., 0., 0., 12., 0., 1., 0.,
          3., 6., 0., 3., 2. ]
      - [ 1., 7., 0., 3., 0., 4., 22., 0., 8., 1., 2., 1., 2., 7., 0.,
          3., 0., 1., 6., 2., 10., 5., 0., 1., 3., 2., 2., 6., 0., 29.,
          4., 0., 7., 0., 4., 9., 1., 2., 0., 4., 3., 14., 0., 1., 0.,
          4., 2., 1., 13., 3. ]
      - [ 0., 3., 0., 0., 0., 4., 0., 6., 0., 65., 19., 7., 8., 4., 0.,
          1., 0., 0., 0., 0., 7., 6., 0., 1., 0., 0., 0., 0., 0., 0., 5.,
          0., 0., 0., 3., 2., 18., 0., 1., 2., 3., 0., 0., 0., 1., 6.,
          13., 6., 0., 9. ]
      - [ 2., 2., 0., 6., 0., 0., 34., 0., 9., 0., 0., 0., 0., 2., 0.,
          0., 0., 0., 0., 2., 0., 0., 5., 0., 0., 0., 1., 0., 0., 41.,
          0., 0., 3., 1., 4., 9., 0., 1., 0., 2., 0., 61., 0., 0., 0.,
          0., 0., 0., 14., 1. ]
      - [ 2., 2., 1., 1., 0., 5., 1., 5., 6., 13., 14., 7., 5., 8., 2.,
          4., 1., 6., 7., 1., 8., 2., 0., 1., 4., 1., 0., 6., 0., 4., 5.,
          2., 4., 6., 0., 2., 2., 6., 0., 0., 1., 3., 2., 0., 1., 5.,
          24., 10., 8., 2. ]
      - [ 0., 1., 2., 2., 0., 2., 4., 2., 2., 26., 6., 2., 2., 9., 1.,
          0., 0., 3., 11., 0., 9., 5., 10., 0., 2., 4., 1., 0., 0., 8.,
          3., 0., 1., 4., 3., 10., 4., 2., 1., 3., 4., 8., 0., 1., 3.,
          3., 23., 8., 3., 2. ]
      - [ 0., 0., 3., 0., 2., 8., 0., 3., 0., 52., 3., 0., 5., 6., 3.,
          0., 1., 0., 3., 0., 3., 2., 1., 0., 0., 1., 1., 1., 0., 13.,
          1., 1., 0., 1., 2., 13., 8., 2., 1., 0., 4., 0., 0., 1., 4.,
          14., 5., 4., 28., 0. ]
      - [ 0., 0., 0., 1., 0., 0., 60., 0., 0., 4., 0., 1., 0., 3., 0.,
          0., 0., 34., 0., 0., 0., 0., 3., 0., 0., 0., 0., 0., 0., 0.,
          0., 0., 3., 1., 0., 0., 0., 0., 4., 0., 0., 1., 0., 0., 37.,
          0., 1., 0., 0., 0. ]
      - [ 3., 2., 2., 13., 2., 0., 18., 0., 22., 4., 4., 4., 0., 8., 0.,
          3., 1., 0., 0., 0., 2., 5., 1., 1., 3., 6., 2., 1., 0., 6., 7.,
          1., 16., 10., 5., 8., 2., 7., 0., 1., 1., 9., 3., 1., 0., 0.,
          1., 0., 10., 5. ]
      - [ 7., 3., 1., 4., 3., 2., 37., 0., 14., 5., 3., 1., 1., 3., 0.,
          4., 1., 19., 0., 2., 4., 1., 5., 2., 1., 7., 1., 4., 0., 0.,
          6., 0., 5., 2., 5., 2., 0., 0., 1., 1., 2., 3., 0., 1., 4., 2.,
          0., 4., 11., 7. ]
      - [ 5., 1., 0., 1., 0., 6., 11., 1., 3., 1., 4., 2., 4., 13., 2.,
          4., 0., 0., 1., 0., 1., 0., 0., 0., 0., 4., 0., 1., 0., 40.,
          3., 0., 10., 5., 0., 18., 3., 8., 2., 0., 1., 20., 1., 2., 6.,
          7., 1., 0., 6., 2. ]
      - [ 0., 12., 0., 0., 1., 1., 5., 0., 4., 49., 57., 2., 0., 37., 0.,
          0., 1., 0., 0., 0., 0., 0., 0., 0., 12., 0., 0., 0., 0., 0.,
          2., 0., 0., 0., 2., 1., 3., 0., 1., 1., 0., 0., 0., 0., 0., 2.,
          1., 4., 0., 2. ]
      - [ 2., 1., 2., 0., 0., 3., 1., 4., 3., 8., 3., 4., 5., 1., 1., 2.,
          0., 10., 14., 2., 10., 3., 2., 1., 1., 4., 2., 3., 0., 8., 7.,
          0., 2., 1., 3., 7., 11., 0., 5., 3., 4., 3., 1., 4., 4., 5.,
          18., 9., 10., 3. ]
      - [ 2., 0., 0., 2., 6., 1., 1., 4., 2., 0., 2., 1., 3., 1., 1., 1.,
          0., 69., 3., 3., 4., 2., 3., 0., 1., 2., 0., 0., 0., 0., 0.,
          0., 1., 1., 3., 0., 1., 1., 4., 0., 2., 4., 0., 1., 57., 0.,
          1., 3., 4., 3. ]
      - [ 0., 0., 0., 9., 0., 0., 1., 1., 1., 4., 5., 2., 0., 74., 0.,
          0., 3., 3., 5., 3., 1., 3., 1., 0., 4., 1., 0., 0., 0., 1., 5.,
          0., 5., 11., 7., 7., 1., 4., 3., 0., 4., 5., 4., 4., 3., 0.,
          6., 3., 5., 1. ]
      - [ 0., 3., 2., 0., 1., 9., 0., 2., 0., 65., 9., 0., 6., 6., 0.,
          0., 0., 0., 3., 0., 4., 1., 0., 0., 0., 0., 0., 0., 0., 0., 1.,
          0., 0., 0., 0., 3., 17., 0., 2., 1., 0., 1., 0., 0., 0., 13.,
          38., 11., 2., 0. ]
      - [ 12., 3., 1., 11., 2., 2., 23., 1., 13., 2., 11., 3., 3., 2.,
          0., 4., 0., 1., 1., 1., 7., 2., 0., 2., 2., 3., 1., 2., 0., 4.,
          3., 0., 11., 0., 3., 3., 2., 2., 3., 2., 0., 3., 1., 0., 1.,
          2., 38., 1., 0., 6. ]
      - [ 0., 0., 0., 8., 0., 0., 0., 0., 2., 4., 4., 2., 0., 73., 0.,
          0., 0., 0., 0., 0., 1., 2., 0., 0., 6., 0., 0., 0., 0., 27.,
          0., 0., 3., 4., 0., 34., 0., 2., 0., 0., 0., 20., 0., 0., 0.,
          0., 0., 7., 3., 0. ]
      - [ 6., 0., 2., 2., 0., 0., 11., 0., 2., 0., 2., 1., 0., 0., 0.,
          1., 0., 2., 0., 0., 1., 0., 13., 0., 0., 0., 2., 1., 0., 2.,
          0., 0., 6., 1., 2., 0., 1., 1., 1., 1., 0., 7., 0., 1., 0., 0.,
          2., 0., 14., 1. ]
      - [ 0., 9., 3., 0., 5., 13., 2., 4., 1., 7., 8., 6., 8., 5., 0.,
          3., 6., 2., 0., 2., 7., 2., 1., 18., 20., 3., 20., 4., 0., 0.,
          4., 0., 2., 0., 6., 2., 3., 0., 0., 4., 0., 0., 0., 5., 0., 6.,
          3., 3., 1., 2. ]
      - [ 0., 0., 3., 0., 4., 9., 15., 2., 13., 3., 0., 1., 2., 4., 2.,
          5., 5., 3., 7., 0., 3., 2., 13., 2., 2., 0., 2., 3., 0., 12.,
          2., 0., 3., 8., 1., 7., 3., 11., 1., 0., 2., 3., 2., 1., 2.,
          12., 16., 0., 8., 1. ]
      - [ 6., 11., 0., 6., 0., 13., 4., 8., 3., 0., 3., 10., 5., 7., 0.,
          2., 2., 2., 0., 13., 2., 3., 17., 0., 5., 0., 2., 3., 0., 5.,
          5., 1., 2., 1., 1., 4., 4., 0., 3., 5., 9., 6., 0., 2., 10.,
          7., 0., 1., 6., 1. ]
      - [ 3., 2., 0., 2., 1., 1., 53., 2., 12., 7., 2., 0., 3., 0., 0.,
          7., 0., 7., 0., 3., 18., 15., 1., 6., 0., 3., 5., 9., 0., 13.,
          0., 0., 7., 0., 1., 0., 1., 0., 1., 1., 4., 3., 0., 1., 0., 1.,
          0., 2., 3., 0. ]
      - [ 0., 0., 0., 1., 5., 2., 0., 0., 0., 83., 0., 0., 1., 6., 0.,
          0., 1., 0., 15., 0., 8., 4., 0., 0., 0., 0., 0., 0., 0., 1.,
          3., 0., 0., 0., 0., 9., 13., 0., 3., 2., 1., 1., 0., 1., 1.,
          5., 25., 4., 5., 1. ]
      - [ 0., 1., 1., 1., 8., 12., 0., 2., 0., 70., 2., 4., 3., 22., 3.,
          2., 0., 0., 0., 1., 1., 3., 0., 0., 1., 0., 0., 0., 0., 0., 7.,
          0., 1., 0., 2., 8., 8., 0., 2., 7., 0., 0., 0., 0., 0., 6.,
          12., 11., 0., 0. ]
      - [ 1., 2., 1., 5., 10., 5., 13., 11., 13., 5., 1., 6., 2., 7., 0.,
          2., 2., 20., 2., 2., 6., 5., 1., 2., 2., 9., 1., 3., 0., 1.,
          6., 0., 7., 3., 4., 5., 5., 0., 5., 0., 9., 2., 0., 0., 1., 0.,
          0., 1., 5., 8. ]
      - [ 2., 0., 1., 2., 1., 3., 23., 2., 3., 5., 4., 0., 1., 5., 0.,
          2., 0., 2., 2., 1., 2., 2., 8., 0., 0., 0., 0., 0., 0., 18.,
          3., 0., 2., 3., 2., 1., 8., 3., 3., 0., 2., 5., 1., 1., 0., 0.,
          55., 2., 16., 4. ]
      - [ 7., 2., 4., 1., 4., 1., 9., 3., 11., 2., 7., 3., 0., 4., 0.,
          0., 2., 7., 0., 4., 4., 6., 17., 4., 2., 4., 4., 2., 0., 0.,
          5., 1., 8., 4., 10., 1., 4., 6., 4., 0., 5., 2., 2., 8., 13.,
          0., 1., 0., 8., 4. ]
      - [ 2., 2., 1., 3., 2., 3., 2., 1., 1., 18., 13., 2., 1., 13., 2.,
          1., 1., 3., 19., 1., 3., 3., 0., 1., 2., 0., 1., 2., 0., 8.,
          5., 0., 1., 0., 2., 8., 4., 1., 2., 3., 1., 1., 0., 2., 2., 6.,
          29., 12., 9., 1. ]
      - [ 0., 1., 0., 0., 2., 3., 0., 1., 0., 86., 3., 2., 3., 3., 1.,
          0., 0., 10., 8., 0., 3., 0., 0., 0., 0., 1., 0., 0., 0., 0.,
          1., 0., 1., 0., 1., 6., 14., 0., 8., 0., 2., 1., 0., 2., 6.,
          3., 27., 1., 0., 0. ]
      - [ 8., 9., 0., 7., 0., 16., 0., 13., 0., 0., 4., 8., 12., 3., 8.,
          2., 1., 9., 3., 3., 6., 4., 5., 0., 4., 0., 0., 0., 0., 5., 4.,
          2., 0., 1., 1., 4., 2., 2., 0., 4., 6., 1., 1., 1., 15., 11.,
          0., 8., 6., 2. ]
      - [ 0., 1., 0., 9., 1., 0., 1., 0., 0., 19., 15., 4., 0., 74., 0.,
          2., 0., 3., 2., 0., 5., 7., 0., 0., 6., 1., 0., 1., 0., 0., 2.,
          0., 8., 13., 1., 4., 0., 3., 0., 1., 1., 2., 1., 2., 3., 0.,
          1., 3., 3., 1. ]
      - [ 30., 1., 0., 3., 0., 3., 0., 7., 6., 4., 5., 3., 7., 10., 2.,
          1., 0., 14., 26., 0., 0., 0., 2., 0., 0., 0., 0., 1., 0., 8.,
          1., 0., 5., 5., 1., 2., 1., 3., 2., 0., 2., 21., 0., 3., 9.,
          5., 3., 2., 0., 2. ]
      - [ 0., 0., 0., 0., 0., 0., 11., 29., 2., 4., 0., 2., 31., 0., 0.,
          0., 0., 4., 0., 2., 28., 19., 0., 0., 0., 1., 0., 0., 0., 0.,
          0., 0., 6., 1., 1., 0., 2., 1., 0., 0., 1., 0., 0., 2., 0., 0.,
          0., 10., 0., 0. ]
      - [ 20., 0., 0., 1., 0., 0., 3., 1., 1., 0., 0., 1., 1., 0., 0.,
          0., 0., 20., 0., 1., 2., 3., 28., 4., 0., 0., 3., 0., 0., 0.,
          0., 0., 0., 0., 9., 0., 1., 0., 0., 0., 0., 1., 0., 2., 75.,
          0., 0., 0., 1., 10. ]
      - [ 2., 0., 0., 5., 1., 1., 0., 0., 5., 18., 5., 6., 1., 68., 0.,
          0., 2., 3., 4., 1., 4., 12., 1., 0., 3., 2., 1., 0., 0., 0.,
          8., 0., 4., 8., 1., 2., 3., 7., 1., 0., 2., 2., 4., 4., 2., 0.,
          4., 2., 0., 1. ]
      - [ 1., 1., 2., 3., 2., 3., 6., 6., 5., 35., 3., 1., 5., 4., 0.,
          1., 1., 4., 2., 2., 1., 1., 4., 1., 0., 2., 3., 1., 0., 15.,
          3., 0., 2., 0., 1., 0., 6., 1., 0., 4., 3., 2., 1., 1., 9., 3.,
          21., 1., 24., 3. ]
      - [ 0., 3., 2., 2., 3., 3., 0., 15., 1., 21., 3., 0., 21., 2., 1.,
          2., 2., 1., 1., 0., 0., 1., 1., 33., 25., 0., 22., 4., 0., 0.,
          1., 3., 1., 1., 0., 1., 8., 0., 0., 2., 0., 1., 2., 5., 0., 1.,
          1., 0., 2., 2. ]
      - [ 0., 0., 0., 1., 0., 0., 31., 0., 4., 3., 4., 7., 0., 8., 0.,
          0., 0., 0., 2., 0., 2., 0., 0., 0., 1., 0., 0., 0., 0., 12.,
          1., 3., 6., 24., 0., 6., 0., 29., 0., 0., 0., 10., 0., 0., 0.,
          0., 0., 15., 31., 0. ]
      - [ 0., 2., 0., 1., 1., 1., 4., 0., 1., 33., 8., 5., 0., 35., 0.,
          0., 2., 65., 1., 0., 2., 1., 0., 0., 1., 0., 0., 0., 0., 0.,
          2., 1., 2., 0., 2., 10., 4., 0., 0., 1., 0., 1., 0., 1., 2.,
          2., 1., 4., 0., 4. ]
      - [ 0., 0., 0., 6., 0., 0., 11., 0., 21., 0., 3., 1., 0., 48., 0.,
          2., 0., 0., 0., 0., 2., 2., 0., 0., 4., 2., 0., 5., 0., 6., 6.,
          2., 17., 12., 0., 18., 0., 6., 0., 0., 0., 17., 8., 0., 0., 0.,
          0., 1., 0., 0. ]
      - [ 0., 7., 0., 2., 0., 2., 0., 0., 3., 76., 6., 0., 1., 34., 0.,
          0., 0., 1., 1., 2., 2., 0., 1., 0., 4., 0., 0., 0., 0., 3., 3.,
          0., 1., 2., 1., 1., 4., 3., 0., 12., 1., 5., 0., 0., 5., 0.,
          6., 3., 8., 1. ]
      - [ 4., 2., 2., 3., 5., 2., 12., 4., 5., 6., 5., 6., 4., 6., 0.,
          2., 0., 4., 6., 0., 3., 3., 23., 4., 0., 0., 5., 2., 0., 2.,
          1., 0., 2., 3., 2., 1., 6., 3., 2., 1., 0., 8., 0., 2., 9., 3.,
          12., 4., 13., 8. ]
      - [ 1., 1., 2., 1., 1., 1., 11., 2., 5., 6., 5., 1., 2., 1., 1.,
          2., 0., 18., 6., 1., 1., 0., 4., 13., 5., 2., 13., 5., 0., 2.,
          2., 1., 9., 0., 2., 4., 2., 2., 0., 0., 1., 17., 0., 7., 7.,
          3., 14., 2., 11., 3. ]
      - [ 0., 2., 0., 0., 0., 4., 4., 0., 2., 28., 5., 0., 1., 0., 1.,
          2., 2., 1., 6., 0., 2., 1., 1., 2., 1., 1., 0., 1., 0., 9., 0.,
          0., 1., 0., 1., 3., 6., 0., 0., 1., 3., 3., 0., 1., 2., 7.,
          65., 1., 24., 6. ]
      - [ 18., 0., 0., 2., 1., 0., 13., 2., 7., 0., 1., 0., 1., 1., 0.,
          0., 0., 2., 1., 0., 5., 0., 3., 2., 1., 0., 0., 0., 0., 1., 0.,
          0., 0., 4., 0., 1., 2., 7., 2., 0., 1., 5., 0., 1., 10., 0.,
          0., 1., 9., 1. ]
      - [ 0., 0., 7., 1., 0., 0., 0., 1., 0., 93., 4., 1., 0., 43., 0.,
          0., 4., 0., 1., 0., 0., 3., 0., 0., 23., 0., 0., 0., 0., 0.,
          0., 0., 1., 0., 2., 0., 2., 0., 0., 0., 4., 0., 0., 1., 0., 0.,
          8., 0., 0., 1. ]
      - [ 0., 0., 0., 1., 2., 0., 0., 2., 0., 10., 0., 2., 2., 3., 3.,
          1., 0., 64., 4., 0., 13., 5., 1., 0., 0., 0., 0., 0., 0., 3.,
          1., 0., 0., 1., 2., 5., 0., 1., 5., 1., 4., 3., 0., 5., 41.,
          2., 4., 6., 3., 0. ]
      - [ 0., 0., 1., 0., 3., 0., 0., 1., 0., 65., 3., 10., 0., 20., 0.,
          0., 0., 20., 2., 0., 13., 5., 0., 0., 5., 0., 0., 0., 0., 0.,
          8., 0., 4., 2., 0., 6., 1., 2., 4., 9., 3., 0., 0., 7., 5., 0.,
          0., 1., 0., 0. ]
      - [ 0., 0., 0., 2., 0., 0., 13., 0., 21., 3., 1., 4., 0., 3., 0.,
          6., 0., 0., 0., 0., 3., 1., 0., 0., 1., 20., 0., 4., 0., 0.,
          5., 0., 14., 4., 40., 11., 0., 2., 0., 0., 0., 0., 0., 0., 0.,
          1., 1., 1., 4., 35. ]
      - [ 0., 0., 0., 5., 0., 0., 133., 0., 14., 0., 1., 5., 0., 2., 0.,
          1., 0., 0., 0., 0., 2., 2., 0., 0., 2., 3., 0., 2., 0., 0., 0.,
          0., 9., 8., 0., 1., 0., 5., 0., 0., 0., 2., 1., 0., 0., 0., 0.,
          1., 2., 0. ]
      - [ 4., 0., 0., 0., 0., 2., 14., 0., 3., 1., 1., 4., 3., 2., 5.,
          0., 2., 5., 0., 2., 6., 3., 4., 2., 0., 1., 0., 2., 0., 3., 1.,
          0., 2., 2., 0., 4., 0., 1., 0., 1., 0., 15., 0., 1., 0., 2.,
          0., 2., 1., 4. ]
      - [ 1., 1., 0., 6., 1., 0., 0., 0., 5., 98., 5., 2., 0., 32., 0.,
          0., 0., 1., 0., 0., 3., 2., 5., 0., 4., 2., 0., 0., 0., 0., 3.,
          1., 2., 1., 0., 7., 3., 2., 2., 5., 1., 1., 0., 1., 1., 0., 0.,
          1., 0., 1. ]
      - [ 0., 1., 3., 1., 1., 1., 10., 1., 0., 16., 7., 4., 2., 15., 4.,
          1., 0., 1., 18., 0., 2., 2., 6., 0., 1., 0., 0., 0., 0., 15.,
          4., 0., 2., 1., 0., 12., 2., 2., 0., 0., 1., 6., 0., 3., 4.,
          1., 34., 3., 11., 2. ]
      - [ 3., 3., 0., 10., 1., 1., 23., 4., 16., 2., 8., 0., 1., 10., 0.,
          1., 1., 6., 0., 0., 10., 7., 1., 0., 1., 3., 0., 4., 0., 7.,
          5., 1., 11., 5., 6., 3., 1., 5., 2., 0., 5., 5., 2., 2., 1.,
          2., 2., 2., 12., 5. ]
      - [ 2., 12., 1., 4., 0., 7., 7., 4., 1., 2., 5., 2., 4., 6., 5.,
          0., 0., 8., 6., 3., 4., 1., 0., 11., 0., 0., 9., 2., 0., 9.,
          1., 0., 4., 8., 1., 2., 4., 5., 1., 6., 6., 2., 0., 0., 5., 4.,
          9., 6., 19., 3. ]
      - [ 1., 0., 0., 0., 0., 0., 47., 0., 0., 4., 0., 2., 0., 7., 0.,
          0., 0., 6., 0., 0., 2., 0., 0., 0., 0., 0., 0., 0., 0., 0., 0.,
          0., 0., 0., 0., 1., 0., 0., 0., 0., 0., 3., 0., 1., 0., 0., 1.,
          0., 1., 1. ]
      - [ 4., 1., 0., 2., 2., 3., 16., 7., 11., 1., 4., 1., 2., 8., 0.,
          0., 1., 14., 2., 1., 6., 8., 6., 0., 1., 7., 3., 2., 0., 10.,
          0., 0., 6., 3., 10., 6., 2., 1., 2., 1., 5., 10., 0., 2., 11.,
          2., 0., 0., 6., 10. ]
      - [ 1., 2., 0., 3., 1., 20., 0., 0., 0., 10., 1., 4., 2., 4., 7.,
          3., 2., 0., 2., 1., 0., 3., 2., 2., 0., 0., 0., 0., 0., 27.,
          0., 0., 3., 4., 0., 4., 6., 1., 0., 1., 3., 1., 0., 0., 5.,
          15., 21., 4., 33., 2. ]
      - [ 0., 4., 1., 0., 1., 6., 0., 0., 0., 54., 7., 22., 4., 3., 0.,
          1., 1., 1., 1., 4., 5., 7., 0., 0., 0., 3., 0., 1., 0., 1.,
          15., 0., 0., 1., 3., 4., 15., 1., 2., 2., 7., 0., 0., 3., 2.,
          2., 5., 9., 0., 2. ]
      - [ 0., 3., 2., 0., 1., 2., 0., 0., 0., 115., 14., 2., 0., 16., 0.,
          0., 0., 0., 1., 0., 0., 0., 0., 0., 0., 0., 0., 0., 0., 0., 1.,
          0., 0., 0., 2., 9., 4., 0., 0., 2., 0., 0., 0., 0., 0., 3.,
          16., 2., 4., 2. ]
      - [ 10., 4., 1., 5., 6., 4., 15., 1., 8., 6., 7., 1., 2., 8., 0.,
          1., 0., 6., 1., 3., 8., 7., 4., 1., 1., 1., 0., 1., 0., 10.,
          2., 0., 7., 3., 1., 7., 8., 1., 0., 3., 3., 8., 0., 1., 1., 3.,
          6., 0., 18., 6. ]
      - [ 0., 0., 0., 4., 0., 0., 176., 0., 5., 0., 0., 3., 0., 1., 0.,
          0., 0., 0., 0., 0., 0., 0., 0., 0., 0., 0., 0., 1., 0., 0., 1.,
          0., 2., 3., 0., 0., 0., 3., 0., 0., 0., 0., 0., 0., 0., 0., 0.,
          1., 0., 0. ]
      - [ 0., 0., 0., 1., 4., 0., 0., 0., 0., 176., 2., 0., 0., 4., 0.,
          0., 0., 0., 0., 0., 1., 2., 0., 0., 0., 0., 0., 0., 0., 0., 0.,
          0., 0., 0., 0., 1., 1., 0., 0., 1., 0., 0., 0., 0., 0., 0., 7.,
          0., 0., 0. ]
      - [ 0., 0., 0., 0., 7., 4., 2., 4., 2., 12., 5., 4., 1., 4., 0.,
          1., 2., 1., 16., 0., 5., 2., 0., 0., 1., 2., 0., 3., 0., 10.,
          5., 0., 0., 0., 0., 12., 10., 0., 2., 1., 2., 6., 0., 3., 7.,
          6., 33., 4., 19., 2. ]
      - [ 2., 0., 1., 1., 2., 3., 5., 1., 5., 17., 1., 5., 0., 5., 0.,
          3., 0., 5., 2., 0., 4., 0., 0., 0., 2., 2., 0., 5., 0., 19.,
          2., 0., 6., 8., 6., 6., 3., 7., 0., 0., 0., 7., 0., 1., 16.,
          5., 12., 2., 26., 4. ]
      - [ 0., 2., 1., 0., 1., 11., 0., 0., 0., 76., 4., 0., 0., 15., 1.,
          0., 0., 0., 4., 0., 0., 0., 1., 0., 1., 0., 1., 0., 0., 6., 1.,
          0., 3., 1., 3., 13., 3., 2., 0., 0., 0., 0., 0., 0., 0., 3.,
          16., 1., 26., 4. ]
      - [ 2., 3., 12., 0., 2., 6., 4., 0., 0., 53., 51., 2., 0., 7., 0.,
          1., 6., 0., 0., 0., 3., 3., 0., 0., 5., 0., 0., 1., 0., 0., 1.,
          0., 4., 2., 1., 2., 1., 2., 0., 2., 0., 1., 6., 2., 0., 0., 0.,
          1., 10., 5. ]
      - [ 18., 1., 1., 0., 4., 0., 1., 6., 2., 5., 0., 1., 1., 1., 0.,
          1., 0., 17., 2., 1., 10., 6., 8., 0., 0., 2., 1., 2., 0., 0.,
          1., 0., 1., 1., 2., 0., 2., 2., 7., 0., 6., 2., 0., 5., 23.,
          0., 2., 1., 6., 1. ]
      - [ 0., 0., 0., 0., 4., 0., 0., 3., 0., 51., 11., 0., 1., 58., 0.,
          0., 1., 5., 0., 0., 3., 3., 0., 0., 12., 0., 0., 1., 0., 0.,
          1., 0., 0., 0., 0., 1., 6., 0., 4., 0., 4., 0., 0., 3., 13.,
          1., 0., 3., 0., 0. ]
      - [ 0., 5., 3., 5., 1., 0., 7., 0., 5., 9., 26., 12., 1., 57., 0.,
          0., 1., 1., 0., 3., 1., 3., 0., 0., 9., 1., 0., 2., 0., 0., 8.,
          1., 5., 10., 1., 4., 1., 3., 0., 2., 0., 1., 1., 1., 0., 1.,
          1., 5., 3., 1. ]
      - [ 1., 0., 0., 16., 0., 0., 2., 0., 0., 1., 51., 2., 0., 108., 0.,
          0., 0., 0., 0., 0., 0., 1., 0., 0., 7., 0., 0., 0., 0., 0., 1.,
          0., 0., 2., 0., 1., 1., 2., 0., 0., 0., 0., 0., 0., 0., 0., 0.,
          4., 0., 0. ]
      - [ 0., 0., 0., 0., 0., 0., 0., 0., 0., 13., 5., 6., 0., 5., 0.,
          0., 0., 5., 12., 0., 3., 0., 0., 0., 0., 0., 0., 0., 0., 0.,
          1., 0., 3., 0., 0., 3., 1., 0., 0., 0., 0., 7., 0., 2., 0., 1.,
          122., 7., 4., 0. ]
      - [ 6., 0., 2., 2., 1., 0., 23., 4., 6., 12., 6., 5., 7., 8., 1.,
          4., 1., 5., 2., 3., 5., 5., 8., 3., 3., 5., 3., 6., 0., 0., 1.,
          0., 8., 8., 3., 1., 3., 6., 5., 2., 4., 0., 2., 6., 8., 0., 1.,
          2., 0., 4. ]
      - [ 2., 4., 0., 0., 1., 15., 1., 9., 1., 4., 5., 0., 7., 0., 4.,
          0., 1., 6., 9., 1., 4., 6., 2., 3., 0., 1., 2., 0., 0., 4., 0.,
          0., 1., 0., 3., 1., 5., 0., 1., 2., 2., 2., 0., 1., 6., 15.,
          31., 5., 28., 5. ]
      - [ 10., 2., 1., 2., 2., 6., 1., 3., 6., 10., 2., 5., 1., 7., 13.,
          1., 4., 11., 5., 4., 5., 5., 1., 1., 1., 0., 1., 1., 0., 0.,
          8., 0., 3., 2., 3., 6., 1., 0., 1., 2., 6., 6., 1., 4., 8., 5.,
          24., 4., 4., 1. ]
      - [ 0., 0., 0., 0., 5., 5., 0., 4., 0., 66., 4., 2., 0., 4., 1.,
          1., 1., 2., 23., 4., 5., 1., 1., 0., 0., 0., 0., 1., 0., 2.,
          1., 0., 0., 0., 0., 5., 7., 0., 3., 2., 3., 1., 0., 0., 2., 3.,
          24., 15., 1., 1. ]
      - [ 0., 1., 2., 1., 30., 1., 0., 2., 0., 50., 4., 0., 1., 18., 2.,
          0., 1., 5., 7., 0., 2., 3., 0., 0., 5., 3., 0., 1., 0., 0., 9.,
          1., 1., 0., 0., 3., 3., 0., 21., 2., 1., 0., 2., 2., 2., 3.,
          4., 7., 0., 1. ]
      - [ 0., 3., 0., 3., 0., 1., 4., 4., 2., 11., 9., 6., 3., 19., 0.,
          0., 0., 0., 3., 1., 4., 5., 0., 0., 2., 2., 0., 1., 0., 7., 5.,
          0., 3., 2., 2., 9., 10., 1., 0., 0., 6., 6., 0., 0., 2., 7.,
          29., 15., 11., 2. ]
      - [ 0., 2., 0., 2., 2., 0., 5., 3., 0., 21., 12., 7., 4., 12., 1.,
          2., 2., 3., 8., 1., 9., 10., 0., 1., 2., 2., 1., 1., 0., 5.,
          3., 0., 2., 2., 0., 7., 6., 1., 1., 0., 1., 3., 1., 6., 3., 1.,
          35., 8., 2., 0. ]
      - [ 2., 4., 0., 3., 3., 1., 19., 9., 9., 4., 6., 1., 5., 4., 0.,
          1., 0., 8., 7., 4., 4., 1., 4., 6., 1., 4., 7., 0., 0., 0., 4.,
          0., 2., 3., 6., 2., 2., 3., 8., 2., 3., 1., 0., 4., 11., 1.,
          3., 1., 2., 4. ]
      - [ 2., 0., 0., 1., 0., 0., 10., 1., 2., 16., 0., 1., 4., 4., 0.,
          2., 0., 4., 21., 1., 7., 1., 5., 0., 0., 0., 0., 1., 0., 22.,
          0., 0., 2., 0., 0., 3., 4., 1., 2., 0., 0., 17., 0., 7., 2.,
          1., 34., 8., 11., 4. ]
      - [ 0., 2., 0., 1., 1., 6., 24., 4., 5., 9., 2., 5., 3., 9., 3.,
          0., 1., 4., 2., 1., 1., 1., 0., 0., 1., 3., 0., 1., 0., 10.,
          2., 0., 2., 1., 0., 1., 2., 0., 0., 2., 2., 11., 0., 2., 6.,
          4., 49., 10., 6., 1. ]
      - [ 0., 0., 0., 1., 0., 0., 162., 0., 6., 0., 0., 0., 0., 8., 0.,
          8., 0., 0., 0., 0., 0., 0., 0., 0., 0., 1., 0., 7., 0., 0., 1.,
          0., 5., 0., 0., 0., 0., 2., 0., 0., 0., 0., 0., 0., 0., 0., 0.,
          0., 0., 0. ]
      - [ 4., 0., 2., 5., 1., 0., 4., 24., 3., 0., 14., 0., 8., 13., 1.,
          8., 0., 4., 0., 19., 4., 0., 2., 3., 0., 3., 6., 7., 0., 0.,
          1., 0., 2., 1., 5., 0., 0., 0., 1., 0., 28., 1., 1., 6., 9.,
          0., 0., 5., 0., 5. ]
      - [ 3., 0., 1., 2., 3., 3., 60., 7., 4., 11., 7., 2., 7., 5., 0.,
          3., 0., 1., 0., 2., 8., 3., 1., 1., 3., 2., 2., 3., 0., 3., 0.,
          0., 10., 7., 0., 3., 6., 8., 1., 0., 3., 1., 1., 1., 0., 4.,
          2., 0., 3., 3. ]
      - [ 0., 1., 0., 2., 1., 0., 0., 1., 0., 40., 11., 2., 1., 55., 1.,
          0., 1., 0., 2., 4., 2., 2., 0., 0., 4., 1., 1., 0., 0., 0., 3.,
          0., 0., 0., 0., 5., 3., 0., 1., 0., 1., 0., 0., 5., 9., 0.,
          32., 5., 3., 1. ]
      - [ 10., 1., 0., 0., 4., 0., 2., 6., 2., 2., 5., 6., 2., 2., 0.,
          1., 0., 10., 1., 3., 8., 6., 10., 0., 0., 3., 0., 2., 0., 1.,
          10., 0., 1., 2., 2., 5., 6., 3., 8., 0., 9., 10., 0., 4., 19.,
          0., 5., 3., 21., 5. ]
      - [ 10., 2., 0., 2., 0., 0., 9., 1., 4., 2., 0., 6., 2., 4., 0.,
          1., 0., 8., 0., 0., 0., 4., 16., 2., 1., 1., 0., 3., 0., 1.,
          6., 0., 9., 9., 3., 0., 0., 3., 0., 0., 3., 3., 1., 8., 10.,
          0., 0., 0., 6., 3. ]
      - [ 0., 1., 1., 1., 0., 2., 2., 0., 12., 24., 42., 2., 0., 24., 4.,
          0., 0., 0., 6., 0., 1., 6., 0., 0., 11., 1., 0., 0., 0., 14.,
          1., 1., 2., 5., 0., 1., 0., 4., 0., 1., 0., 0., 3., 0., 0., 2.,
          6., 9., 11., 0. ]
      - [ 0., 0., 2., 0., 0., 3., 2., 1., 0., 56., 9., 3., 1., 19., 1.,
          1., 1., 1., 2., 0., 3., 2., 0., 0., 1., 1., 0., 3., 0., 5., 5.,
          0., 6., 3., 0., 15., 2., 0., 0., 0., 1., 4., 0., 5., 19., 1.,
          4., 4., 15., 0. ]
      - [ 0., 3., 0., 2., 1., 1., 2., 0., 2., 9., 7., 5., 0., 8., 1., 0.,
          0., 0., 28., 2., 2., 5., 1., 0., 0., 0., 1., 0., 0., 5., 1.,
          0., 1., 2., 0., 7., 3., 3., 0., 0., 0., 2., 3., 5., 0., 4.,
          75., 6., 1., 2. ]
      - [ 1., 1., 0., 0., 0., 0., 0., 1., 0., 16., 6., 2., 2., 9., 2.,
          0., 2., 4., 19., 1., 5., 3., 0., 0., 0., 0., 0., 0., 0., 2.,
          2., 0., 1., 0., 0., 5., 10., 0., 5., 1., 2., 3., 0., 2., 2.,
          3., 76., 12., 0., 0. ]
      - [ 2., 1., 5., 7., 1., 3., 25., 1., 10., 2., 12., 4., 2., 6., 0.,
          2., 2., 6., 2., 4., 3., 4., 4., 3., 4., 2., 5., 2., 0., 0., 3.,
          2., 9., 5., 7., 1., 2., 7., 1., 2., 5., 1., 4., 9., 5., 0., 0.,
          4., 2., 8. ]
      - [ 24., 0., 0., 1., 0., 2., 5., 1., 1., 1., 0., 1., 1., 0., 0.,
          1., 0., 1., 0., 0., 0., 0., 3., 0., 0., 5., 1., 0., 0., 3., 0.,
          0., 6., 0., 1., 1., 0., 1., 2., 0., 3., 4., 0., 4., 13., 0.,
          1., 1., 21., 2. ]
      - [ 0., 2., 1., 0., 1., 1., 0., 0., 0., 99., 7., 4., 0., 16., 0.,
          0., 2., 0., 1., 1., 2., 0., 0., 0., 1., 0., 0., 0., 0., 0., 9.,
          0., 0., 0., 0., 6., 8., 0., 1., 1., 0., 1., 0., 1., 0., 2.,
          25., 8., 1., 0. ]
      - [ 5., 1., 2., 4., 4., 8., 5., 0., 7., 7., 3., 2., 1., 16., 0.,
          1., 3., 1., 1., 0., 4., 0., 0., 1., 2., 5., 0., 4., 0., 13.,
          3., 0., 4., 7., 4., 11., 0., 5., 0., 0., 0., 9., 0., 1., 0.,
          5., 4., 3., 40., 4. ]
      - [ 0., 3., 4., 0., 3., 4., 0., 3., 0., 30., 26., 5., 0., 26., 0.,
          2., 3., 2., 2., 2., 2., 2., 1., 2., 0., 0., 1., 1., 0., 0., 5.,
          0., 2., 1., 1., 8., 2., 0., 0., 1., 2., 1., 0., 0., 2., 2.,
          29., 11., 9., 1. ]
      - [ 0., 0., 0., 0., 1., 3., 0., 0., 0., 88., 10., 2., 0., 16., 1.,
          0., 0., 1., 3., 1., 2., 1., 0., 0., 0., 0., 0., 0., 0., 3., 1.,
          1., 0., 0., 0., 8., 7., 0., 0., 1., 0., 2., 1., 1., 20., 0.,
          19., 6., 1., 0. ]
      - [ 1., 5., 0., 6., 2., 0., 17., 2., 9., 17., 46., 1., 0., 8., 0.,
          0., 0., 10., 0., 2., 5., 1., 1., 0., 0., 2., 0., 1., 0., 1.,
          1., 0., 7., 2., 1., 2., 0., 2., 1., 0., 0., 3., 0., 1., 1., 0.,
          1., 1., 34., 6. ]
      - [ 1., 8., 3., 6., 0., 4., 4., 1., 1., 35., 48., 2., 1., 0., 0.,
          1., 3., 28., 0., 6., 10., 2., 0., 0., 1., 3., 0., 0., 0., 0.,
          1., 0., 0., 2., 2., 0., 1., 0., 0., 1., 1., 3., 0., 0., 0., 3.,
          3., 4., 8., 3. ]
      - [ 3., 0., 0., 1., 1., 1., 1., 1., 5., 6., 1., 3., 2., 0., 0., 1.,
          0., 12., 6., 1., 8., 3., 20., 0., 1., 2., 0., 0., 0., 6., 3.,
          0., 7., 2., 2., 6., 1., 2., 1., 0., 4., 23., 2., 10., 6., 3.,
          16., 6., 17., 4. ]
      - [ 2., 4., 2., 5., 1., 4., 37., 7., 6., 1., 6., 0., 1., 1., 0.,
          3., 4., 10., 0., 2., 0., 0., 17., 14., 0., 5., 11., 6., 0., 0.,
          4., 0., 2., 2., 3., 3., 1., 3., 1., 0., 4., 2., 2., 0., 4., 0.,
          0., 0., 2., 18. ]
      - [ 1., 1., 1., 0., 3., 1., 0., 2., 0., 11., 2., 1., 3., 5., 2.,
          0., 0., 14., 59., 1., 4., 0., 0., 0., 0., 0., 0., 2., 0., 0.,
          0., 0., 0., 1., 2., 3., 2., 0., 17., 0., 2., 0., 0., 8., 16.,
          3., 14., 7., 0., 0. ]
      - [ 1., 2., 0., 0., 1., 1., 0., 3., 0., 11., 4., 0., 3., 4., 3.,
          3., 2., 28., 47., 2., 8., 2., 2., 0., 0., 1., 0., 0., 0., 0.,
          3., 0., 1., 0., 2., 9., 2., 0., 12., 0., 3., 0., 0., 14., 15.,
          1., 5., 2., 2., 1. ]
      - [ 2., 1., 0., 0., 1., 4., 0., 0., 0., 4., 2., 2., 0., 3., 2., 1.,
          1., 59., 30., 0., 4., 0., 2., 0., 0., 0., 0., 1., 0., 0., 2.,
          0., 0., 0., 0., 3., 1., 0., 1., 2., 1., 0., 0., 0., 20., 4.,
          8., 5., 34., 0. ]
      - [ 0., 0., 1., 0., 3., 4., 1., 0., 1., 80., 8., 0., 2., 13., 4.,
          3., 1., 0., 0., 0., 1., 3., 0., 0., 2., 2., 0., 3., 0., 0., 1.,
          0., 2., 0., 2., 6., 10., 0., 0., 0., 2., 0., 0., 2., 1., 6.,
          32., 0., 2., 3. ]
      - [ 17., 1., 2., 1., 2., 1., 2., 1., 5., 8., 2., 4., 1., 2., 0.,
          2., 1., 11., 2., 1., 6., 2., 2., 1., 2., 3., 1., 5., 0., 3.,
          4., 0., 10., 1., 7., 7., 9., 1., 5., 1., 5., 10., 1., 2., 16.,
          1., 2., 2., 16., 9. ]
      - [ 0., 4., 0., 2., 2., 4., 0., 0., 0., 20., 11., 6., 3., 16., 0.,
          2., 1., 1., 1., 0., 3., 5., 0., 1., 1., 1., 0., 0., 0., 11.,
          4., 0., 3., 1., 2., 5., 8., 1., 0., 0., 1., 8., 0., 3., 4., 4.,
          28., 10., 21., 2. ]
      - [ 0., 0., 0., 1., 1., 1., 0., 1., 1., 37., 7., 2., 0., 12., 0.,
          0., 0., 48., 5., 1., 12., 10., 0., 0., 2., 0., 0., 0., 0., 1.,
          1., 0., 2., 1., 2., 7., 1., 2., 3., 0., 0., 1., 0., 2., 3., 1.,
          10., 13., 5., 4. ]
      - [ 0., 0., 0., 0., 2., 3., 2., 1., 0., 20., 6., 5., 2., 8., 2.,
          3., 0., 7., 7., 2., 5., 6., 0., 0., 0., 0., 1., 2., 1., 20.,
          9., 0., 2., 1., 1., 0., 11., 1., 1., 0., 2., 12., 0., 7., 15.,
          2., 24., 3., 3., 1. ]
      - [ 14., 0., 0., 0., 1., 0., 5., 0., 1., 0., 5., 1., 2., 0., 0.,
          0., 0., 59., 2., 1., 4., 4., 5., 0., 0., 0., 0., 0., 0., 0.,
          0., 0., 0., 0., 1., 1., 2., 0., 0., 0., 1., 1., 0., 12., 69.,
          0., 4., 1., 4., 0. ]
      - [ 0., 0., 1., 2., 1., 2., 0., 1., 0., 73., 12., 1., 0., 15., 0.,
          0., 0., 26., 9., 0., 2., 2., 0., 0., 1., 0., 0., 1., 0., 0.,
          2., 0., 1., 1., 1., 2., 5., 1., 3., 1., 2., 0., 0., 0., 2., 2.,
          22., 3., 2., 1. ]
      - [ 0., 0., 0., 21., 0., 0., 11., 0., 13., 0., 0., 1., 0., 6., 0.,
          0., 2., 1., 0., 0., 3., 2., 9., 0., 79., 5., 0., 0., 0., 1.,
          0., 4., 10., 0., 4., 3., 0., 0., 1., 1., 0., 1., 4., 2., 5.,
          0., 0., 1., 1., 9. ]
      - [ 7., 0., 0., 1., 3., 0., 43., 4., 0., 1., 4., 1., 1., 0., 0.,
          5., 1., 15., 4., 1., 4., 5., 32., 0., 0., 2., 1., 6., 0., 1.,
          1., 0., 2., 5., 1., 0., 1., 4., 4., 0., 7., 2., 0., 5., 17.,
          1., 1., 1., 1., 5. ]
      - [ 3., 2., 0., 0., 4., 3., 3., 2., 0., 13., 3., 5., 1., 8., 2.,
          1., 1., 5., 13., 1., 5., 0., 1., 0., 0., 1., 0., 1., 0., 15.,
          4., 0., 0., 0., 2., 7., 5., 0., 2., 2., 2., 3., 0., 2., 11.,
          4., 43., 4., 13., 3. ]
      - [ 2., 3., 1., 2., 3., 1., 10., 10., 4., 14., 4., 4., 10., 3., 2.,
          8., 2., 3., 1., 0., 6., 3., 0., 3., 4., 3., 2., 9., 0., 3., 4.,
          0., 8., 2., 3., 4., 10., 3., 1., 1., 5., 11., 0., 3., 0., 6.,
          6., 1., 7., 5. ]
      - [ 0., 0., 1., 6., 1., 0., 0., 2., 2., 40., 7., 4., 0., 67., 0.,
          0., 0., 1., 2., 1., 6., 6., 0., 0., 10., 1., 0., 0., 0., 0.,
          5., 0., 2., 2., 0., 6., 8., 1., 0., 0., 0., 1., 2., 2., 1., 3.,
          2., 7., 0., 1. ]
      - [ 0., 3., 0., 0., 0., 0., 0., 2., 0., 2., 15., 21., 1., 52., 0.,
          0., 0., 4., 1., 2., 9., 11., 0., 0., 0., 0., 0., 0., 0., 0.,
          6., 0., 0., 22., 2., 1., 6., 14., 0., 0., 4., 2., 0., 6., 1.,
          0., 2., 5., 4., 3. ]
      - [ 0., 5., 7., 9., 3., 7., 0., 1., 4., 16., 8., 2., 2., 15., 2.,
          3., 4., 0., 6., 2., 4., 1., 0., 2., 9., 0., 2., 1., 0., 21.,
          1., 2., 1., 1., 1., 10., 3., 2., 0., 2., 2., 3., 2., 1., 3.,
          4., 6., 8., 11., 1. ]
      - [ 0., 1., 1., 1., 4., 0., 0., 3., 0., 18., 1., 2., 1., 5., 0.,
          2., 0., 2., 36., 0., 7., 3., 2., 0., 0., 0., 0., 1., 0., 1.,
          2., 0., 0., 0., 0., 3., 5., 0., 6., 1., 1., 0., 0., 5., 2., 0.,
          69., 7., 0., 0. ]
      - [ 2., 1., 0., 10., 1., 3., 0., 10., 0., 5., 3., 4., 5., 1., 1.,
          0., 0., 7., 6., 2., 6., 5., 23., 16., 2., 3., 16., 3., 0., 0.,
          0., 0., 3., 6., 0., 1., 4., 5., 4., 0., 3., 1., 0., 3., 13.,
          3., 7., 9., 1., 2. ]
      - [ 2., 0., 0., 3., 0., 1., 0., 20., 2., 3., 15., 1., 7., 8., 0.,
          3., 0., 5., 0., 24., 1., 1., 4., 4., 0., 1., 5., 4., 0., 0.,
          1., 0., 2., 0., 6., 0., 5., 1., 1., 0., 44., 1., 0., 3., 10.,
          1., 0., 1., 0., 10. ]
      - [ 0., 1., 0., 1., 2., 13., 3., 4., 0., 14., 4., 0., 6., 8., 2.,
          0., 2., 6., 2., 0., 3., 0., 1., 2., 2., 1., 1., 0., 0., 12.,
          2., 0., 1., 7., 3., 1., 8., 7., 1., 0., 0., 5., 0., 0., 10.,
          17., 41., 2., 4., 1. ]
      - [ 0., 10., 1., 24., 7., 14., 2., 1., 2., 2., 17., 4., 0., 16.,
          0., 4., 0., 1., 0., 1., 4., 4., 0., 3., 18., 0., 2., 5., 0.,
          3., 4., 3., 3., 4., 2., 3., 1., 4., 0., 0., 2., 0., 2., 0., 0.,
          6., 12., 4., 4., 1. ]
      - [ 3., 2., 1., 1., 6., 1., 9., 13., 1., 5., 13., 1., 2., 3., 1.,
          6., 3., 8., 6., 3., 5., 3., 13., 3., 1., 4., 2., 6., 0., 3.,
          1., 0., 0., 0., 2., 7., 2., 1., 4., 1., 11., 0., 0., 0., 29.,
          3., 5., 4., 0., 3. ]
      - [ 0., 3., 2., 1., 7., 5., 1., 5., 1., 19., 2., 0., 4., 2., 4.,
          0., 0., 7., 20., 2., 7., 3., 2., 1., 0., 1., 0., 0., 0., 7.,
          1., 0., 2., 0., 1., 7., 9., 0., 7., 1., 2., 7., 0., 2., 8., 7.,
          28., 8., 2., 2. ]
      - [ 7., 0., 2., 2., 4., 0., 6., 10., 4., 16., 5., 4., 6., 6., 1.,
          5., 0., 7., 1., 3., 1., 5., 0., 0., 1., 2., 1., 5., 0., 0., 8.,
          1., 4., 8., 3., 5., 5., 10., 8., 3., 11., 3., 1., 3., 12., 1.,
          3., 0., 3., 4. ]
      - [ 3., 2., 1., 6., 1., 4., 2., 2., 2., 4., 10., 4., 0., 3., 0.,
          3., 1., 6., 8., 1., 4., 1., 7., 1., 0., 5., 2., 3., 0., 10.,
          1., 0., 6., 6., 1., 4., 3., 6., 2., 0., 2., 6., 0., 4., 6., 4.,
          24., 0., 8., 2. ]
      - [ 0., 2., 1., 5., 1., 0., 1., 2., 0., 2., 25., 7., 2., 27., 0.,
          0., 0., 4., 1., 0., 4., 6., 0., 0., 0., 0., 0., 2., 0., 0., 8.,
          0., 3., 11., 1., 2., 2., 15., 1., 0., 2., 0., 2., 4., 41., 0.,
          4., 10., 0., 2. ]
      - [ 12., 2., 1., 7., 2., 2., 12., 4., 4., 1., 4., 2., 2., 8., 0.,
          1., 3., 8., 4., 2., 5., 3., 7., 3., 2., 1., 3., 4., 0., 5., 9.,
          0., 7., 3., 2., 6., 3., 6., 2., 2., 2., 3., 1., 1., 11., 2.,
          15., 1., 8., 2. ]
      - [ 4., 0., 0., 0., 3., 1., 24., 0., 2., 56., 7., 2., 1., 13., 0.,
          0., 0., 0., 8., 0., 3., 4., 7., 0., 2., 1., 0., 1., 0., 2., 1.,
          1., 1., 1., 1., 4., 5., 0., 1., 1., 1., 8., 0., 4., 13., 1.,
          11., 1., 3., 1. ]
      - [ 0., 1., 0., 2., 0., 7., 2., 0., 0., 11., 8., 2., 0., 17., 0.,
          2., 0., 1., 2., 0., 4., 0., 0., 0., 0., 1., 0., 0., 0., 65.,
          3., 0., 1., 4., 0., 15., 5., 1., 0., 3., 1., 12., 1., 2., 1.,
          9., 3., 1., 10., 3. ]
      - [ 0., 1., 2., 1., 4., 0., 0., 2., 5., 4., 1., 2., 1., 16., 0.,
          3., 3., 12., 0., 2., 4., 4., 5., 0., 1., 6., 0., 7., 0., 1.,
          5., 0., 4., 1., 3., 7., 4., 1., 5., 0., 8., 3., 0., 7., 58.,
          2., 1., 1., 2., 1. ]
      - [ 4., 6., 1., 0., 6., 4., 0., 9., 2., 6., 7., 0., 11., 6., 2.,
          3., 0., 2., 1., 1., 2., 2., 24., 11., 3., 2., 17., 4., 0., 0.,
          4., 1., 3., 0., 2., 5., 5., 0., 7., 0., 2., 2., 4., 5., 5., 3.,
          4., 0., 6., 6. ]
      - [ 3., 3., 0., 2., 0., 0., 0., 7., 0., 3., 3., 6., 4., 0., 0., 0.,
          1., 14., 27., 0., 4., 0., 0., 1., 0., 1., 2., 0., 0., 4., 2.,
          0., 0., 2., 0., 0., 3., 2., 1., 0., 2., 0., 0., 0., 13., 0.,
          73., 11., 4., 2. ]
      - [ 2., 2., 1., 2., 1., 0., 6., 7., 3., 3., 6., 1., 9., 4., 1., 1.,
          0., 7., 2., 2., 4., 4., 20., 14., 9., 2., 10., 1., 0., 0., 2.,
          0., 7., 2., 2., 3., 4., 2., 4., 0., 4., 1., 0., 1., 22., 1.,
          7., 1., 9., 4. ]
      - [ 5., 1., 0., 0., 2., 1., 3., 1., 1., 3., 3., 0., 0., 6., 0., 0.,
          0., 12., 4., 2., 1., 0., 14., 0., 2., 1., 0., 1., 0., 13., 1.,
          0., 1., 3., 1., 4., 4., 1., 1., 0., 0., 5., 0., 3., 1., 2.,
          14., 0., 21., 3. ]
      - [ 0., 2., 5., 3., 8., 0., 0., 0., 0., 76., 18., 4., 0., 16., 0.,
          1., 0., 6., 0., 1., 10., 11., 0., 2., 5., 0., 2., 1., 0., 0.,
          4., 0., 0., 3., 1., 4., 2., 2., 1., 0., 2., 4., 0., 4., 0., 0.,
          0., 0., 2., 0. ]
      - [ 6., 2., 1., 14., 3., 4., 27., 3., 19., 1., 2., 2., 0., 9., 0.,
          4., 2., 4., 1., 1., 3., 3., 1., 5., 4., 4., 3., 2., 0., 0., 7.,
          0., 13., 1., 11., 1., 5., 2., 4., 0., 4., 2., 2., 1., 0., 0.,
          0., 3., 5., 9. ]
      - [ 1., 0., 0., 0., 1., 0., 0., 0., 0., 6., 3., 0., 0., 0., 0., 0.,
          0., 53., 5., 0., 2., 2., 5., 0., 0., 1., 0., 0., 0., 0., 0.,
          0., 0., 2., 0., 4., 4., 2., 5., 1., 3., 2., 0., 3., 70., 1.,
          22., 1., 1., 0. ]
      - [ 3., 1., 0., 1., 0., 0., 23., 1., 6., 0., 4., 7., 1., 5., 0.,
          8., 0., 14., 1., 1., 4., 5., 15., 0., 0., 2., 2., 9., 0., 9.,
          3., 0., 7., 6., 0., 2., 0., 4., 0., 1., 2., 11., 0., 3., 15.,
          0., 1., 5., 18., 0. ]
      - [ 0., 1., 4., 0., 0., 3., 1., 1., 2., 56., 8., 1., 2., 59., 2.,
          0., 5., 1., 0., 0., 0., 1., 0., 0., 6., 1., 0., 2., 0., 5., 2.,
          0., 0., 0., 1., 0., 2., 0., 0., 15., 0., 0., 0., 0., 0., 2.,
          14., 1., 1., 1. ]
      - [ 3., 0., 0., 1., 1., 6., 1., 1., 1., 9., 9., 2., 0., 16., 0.,
          0., 0., 3., 16., 0., 1., 2., 2., 0., 0., 0., 0., 0., 0., 30.,
          0., 0., 0., 2., 1., 14., 0., 2., 0., 1., 1., 6., 0., 1., 5.,
          4., 29., 15., 16., 0. ]
      - [ 1., 11., 3., 1., 1., 1., 0., 0., 1., 72., 18., 3., 0., 3., 0.,
          1., 1., 4., 7., 1., 2., 0., 0., 0., 1., 1., 0., 0., 0., 1., 6.,
          1., 1., 0., 0., 9., 2., 0., 0., 0., 1., 2., 0., 2., 2., 1.,
          36., 2., 0., 1. ]
      - [ 1., 5., 2., 0., 1., 2., 2., 1., 0., 2., 5., 2., 1., 4., 0., 2.,
          1., 63., 1., 5., 2., 2., 0., 0., 1., 0., 0., 3., 0., 10., 0.,
          0., 4., 1., 1., 5., 4., 2., 1., 1., 1., 3., 0., 3., 28., 4.,
          1., 2., 17., 4. ]
      - [ 9., 0., 0., 0., 0., 10., 0., 2., 0., 38., 1., 2., 2., 0., 0.,
          0., 0., 49., 0., 0., 2., 3., 0., 0., 0., 0., 1., 0., 0., 0.,
          0., 0., 0., 1., 0., 0., 14., 1., 1., 0., 1., 1., 0., 1., 8.,
          26., 17., 1., 6., 4. ]
      - [ 0., 1., 2., 1., 7., 0., 1., 2., 2., 17., 16., 2., 1., 40., 0.,
          1., 1., 48., 1., 2., 1., 1., 0., 0., 5., 1., 0., 0., 0., 0.,
          2., 0., 1., 2., 4., 7., 2., 1., 2., 0., 2., 0., 0., 0., 6., 2.,
          2., 2., 5., 7. ]
      - [ 9., 0., 0., 0., 2., 2., 0., 3., 2., 2., 1., 5., 4., 1., 0., 2.,
          1., 10., 3., 1., 1., 0., 16., 1., 0., 0., 0., 1., 0., 0., 3.,
          0., 3., 5., 2., 1., 2., 6., 6., 0., 2., 3., 0., 6., 14., 3.,
          2., 2., 10., 4. ]
      - [ 5., 2., 1., 3., 1., 1., 4., 4., 6., 0., 8., 3., 3., 4., 1., 0.,
          0., 4., 3., 0., 8., 6., 10., 0., 0., 8., 1., 1., 0., 3., 4.,
          0., 4., 3., 2., 1., 1., 2., 5., 0., 2., 3., 1., 8., 5., 1., 2.,
          3., 5., 4. ]
      - [ 0., 1., 0., 4., 1., 3., 0., 0., 2., 24., 21., 3., 1., 55., 0.,
          0., 0., 0., 0., 2., 2., 3., 0., 0., 3., 1., 0., 1., 0., 2., 6.,
          1., 11., 3., 1., 21., 1., 2., 0., 0., 0., 4., 0., 0., 0., 1.,
          4., 3., 11., 2. ]
      - [ 0., 8., 7., 2., 0., 11., 0., 9., 4., 20., 18., 0., 4., 11.,
          10., 1., 8., 0., 0., 2., 1., 0., 0., 1., 0., 1., 0., 1., 0.,
          5., 1., 0., 1., 1., 1., 14., 8., 0., 1., 1., 5., 1., 1., 1.,
          6., 9., 19., 3., 2., 1. ]
      - [ 4., 0., 0., 0., 2., 0., 3., 2., 3., 4., 9., 1., 1., 5., 0., 0.,
          2., 14., 7., 0., 6., 2., 23., 0., 2., 0., 0., 1., 0., 3., 2.,
          0., 4., 2., 6., 5., 2., 3., 7., 0., 0., 9., 1., 11., 10., 2.,
          10., 0., 23., 9. ]
      - [ 0., 13., 5., 9., 1., 2., 0., 3., 0., 17., 28., 7., 2., 16., 0.,
          1., 3., 6., 2., 3., 8., 3., 0., 0., 4., 1., 0., 1., 0., 0., 2.,
          0., 1., 2., 1., 3., 1., 0., 2., 0., 2., 4., 1., 1., 2., 2.,
          20., 16., 3., 2. ]
      - [ 0., 0., 0., 0., 5., 2., 0., 2., 0., 70., 3., 1., 0., 9., 1.,
          0., 1., 4., 6., 0., 6., 2., 0., 0., 3., 0., 0., 0., 0., 1., 4.,
          0., 3., 0., 1., 8., 5., 0., 0., 1., 3., 1., 0., 1., 7., 0.,
          42., 2., 6., 0. ]
      - [ 1., 0., 0., 1., 0., 0., 36., 0., 2., 45., 2., 4., 0., 3., 0.,
          0., 0., 11., 4., 0., 3., 6., 4., 0., 1., 3., 0., 0., 0., 7.,
          0., 1., 2., 2., 0., 2., 0., 1., 0., 0., 0., 25., 0., 2., 4.,
          0., 20., 4., 2., 2. ]
      - [ 13., 2., 0., 1., 0., 0., 0., 2., 2., 1., 0., 0., 2., 1., 0.,
          0., 0., 54., 1., 0., 5., 3., 11., 0., 0., 2., 0., 0., 0., 0.,
          0., 0., 0., 1., 2., 0., 5., 0., 2., 0., 0., 0., 0., 1., 84.,
          1., 0., 0., 0., 4. ]
      - [ 0., 1., 4., 4., 2., 0., 0., 1., 1., 45., 47., 4., 0., 43., 1.,
          0., 1., 3., 0., 0., 0., 3., 0., 0., 11., 1., 0., 0., 0., 0.,
          5., 0., 0., 2., 1., 3., 1., 1., 2., 0., 0., 1., 0., 1., 0., 1.,
          2., 6., 0., 2. ]
      - [ 0., 0., 1., 0., 0., 0., 86., 1., 9., 0., 2., 6., 3., 18., 1.,
          5., 0., 2., 0., 0., 3., 1., 7., 0., 3., 1., 0., 4., 0., 0., 2.,
          0., 13., 4., 0., 2., 0., 2., 0., 0., 1., 4., 1., 6., 5., 0.,
          2., 2., 0., 3. ]
      - [ 0., 0., 1., 17., 3., 0., 3., 2., 12., 0., 0., 6., 0., 23., 0.,
          2., 1., 17., 0., 1., 4., 5., 2., 0., 4., 3., 0., 3., 0., 0.,
          8., 0., 11., 5., 0., 1., 1., 6., 1., 1., 0., 2., 4., 1., 49.,
          0., 0., 1., 0., 0. ]
      - [ 1., 6., 1., 4., 2., 15., 0., 5., 3., 19., 4., 4., 3., 9., 1.,
          6., 1., 1., 5., 3., 2., 2., 2., 2., 1., 0., 2., 3., 0., 6., 1.,
          0., 4., 2., 3., 12., 7., 1., 4., 7., 4., 4., 0., 1., 0., 4.,
          22., 1., 8., 2. ]
      - [ 2., 3., 1., 1., 1., 2., 1., 14., 1., 4., 2., 6., 6., 2., 2.,
          1., 1., 16., 1., 0., 9., 4., 5., 1., 1., 6., 2., 1., 0., 1.,
          4., 0., 2., 3., 4., 4., 10., 3., 6., 0., 11., 1., 0., 2., 24.,
          3., 4., 3., 15., 4. ]
      - [ 3., 0., 0., 0., 0., 1., 9., 1., 0., 12., 2., 3., 3., 0., 0.,
          1., 0., 12., 6., 3., 6., 0., 20., 0., 0., 3., 1., 1., 0., 4.,
          2., 0., 7., 2., 1., 6., 5., 2., 3., 0., 4., 6., 0., 2., 15.,
          2., 6., 2., 20., 6. ]
      - [ 20., 3., 1., 9., 4., 1., 29., 3., 7., 3., 14., 9., 1., 18., 1.,
          1., 0., 2., 0., 2., 4., 7., 0., 1., 0., 1., 1., 1., 0., 1., 8.,
          2., 10., 2., 1., 3., 4., 3., 4., 0., 0., 1., 5., 0., 3., 2.,
          3., 4., 0., 1. ]
      - [ 1., 1., 1., 1., 0., 4., 3., 1., 6., 97., 5., 1., 4., 4., 4.,
          0., 3., 8., 0., 1., 4., 3., 1., 0., 0., 3., 0., 1., 0., 0., 2.,
          0., 1., 2., 1., 1., 10., 0., 1., 1., 1., 0., 0., 3., 9., 1.,
          6., 1., 2., 1. ]
      - [ 6., 0., 0., 1., 0., 0., 3., 1., 2., 6., 2., 0., 0., 1., 0., 0.,
          0., 2., 2., 0., 0., 1., 7., 0., 0., 0., 0., 0., 0., 14., 0.,
          0., 6., 2., 2., 3., 2., 2., 0., 0., 0., 3., 0., 3., 0., 0., 9.,
          0., 10., 0. ]
      - [ 0., 3., 1., 4., 2., 2., 0., 0., 0., 13., 4., 1., 0., 65., 1.,
          1., 1., 0., 4., 0., 4., 3., 0., 0., 2., 1., 0., 1., 0., 19.,
          2., 0., 1., 3., 0., 7., 2., 3., 0., 3., 0., 1., 1., 0., 0., 3.,
          3., 19., 19., 1. ]
      - [ 2., 0., 1., 0., 0., 1., 30., 0., 13., 1., 1., 0., 0., 7., 0.,
          0., 2., 0., 2., 3., 0., 0., 38., 0., 1., 1., 0., 0., 0., 12.,
          0., 0., 18., 3., 3., 8., 0., 8., 0., 0., 2., 10., 1., 1., 2.,
          0., 6., 0., 21., 2. ]
      - [ 5., 0., 0., 1., 3., 0., 28., 1., 9., 0., 9., 2., 1., 4., 0.,
          1., 1., 0., 0., 0., 1., 0., 25., 0., 0., 3., 1., 1., 0., 2.,
          0., 0., 3., 2., 5., 0., 0., 2., 0., 0., 2., 6., 0., 1., 1., 0.,
          0., 0., 20., 6. ]
      - [ 17., 2., 1., 0., 2., 0., 11., 3., 11., 1., 9., 2., 0., 7., 0.,
          2., 1., 1., 0., 4., 0., 4., 27., 3., 0., 3., 2., 3., 0., 2.,
          2., 0., 6., 0., 3., 2., 0., 2., 0., 1., 4., 3., 0., 2., 3., 1.,
          1., 0., 28., 5. ]
      - [ 0., 1., 0., 0., 0., 1., 0., 9., 0., 10., 2., 1., 21., 0., 0.,
          4., 2., 0., 0., 1., 0., 0., 0., 52., 26., 0., 49., 3., 0., 0.,
          0., 1., 1., 1., 1., 0., 2., 0., 0., 4., 0., 0., 1., 4., 0., 1.,
          1., 0., 0., 1. ]
      - [ 0., 4., 0., 2., 0., 1., 11., 0., 4., 0., 32., 7., 0., 0., 0.,
          0., 0., 0., 2., 0., 4., 5., 0., 0., 0., 4., 0., 0., 0., 42.,
          3., 0., 4., 8., 2., 5., 0., 3., 0., 0., 0., 54., 0., 0., 0.,
          0., 0., 1., 0., 2. ]
      - [ 4., 0., 6., 3., 2., 1., 2., 3., 11., 6., 3., 4., 1., 11., 0.,
          2., 5., 3., 1., 3., 10., 9., 6., 0., 0., 11., 1., 0., 0., 3.,
          5., 0., 13., 2., 6., 7., 4., 5., 0., 1., 2., 6., 2., 4., 6.,
          1., 7., 3., 7., 8. ]
      - [ 14., 0., 0., 1., 0., 0., 17., 0., 0., 3., 5., 1., 0., 12., 0.,
          0., 0., 44., 1., 0., 0., 1., 18., 0., 0., 2., 0., 0., 0., 0.,
          1., 0., 0., 1., 1., 1., 3., 0., 3., 0., 1., 0., 0., 4., 61.,
          0., 1., 1., 3., 1. ]
      - [ 0., 0., 0., 0., 0., 0., 0., 1., 0., 3., 0., 1., 0., 3., 0., 0.,
          0., 67., 11., 0., 1., 1., 1., 0., 0., 0., 0., 0., 0., 1., 0.,
          0., 0., 1., 0., 2., 1., 0., 3., 0., 0., 4., 0., 0., 68., 0.,
          29., 0., 2., 0. ]
      - [ 0., 0., 0., 20., 0., 0., 0., 1., 0., 2., 1., 3., 0., 57., 7.,
          2., 0., 2., 0., 0., 7., 6., 0., 1., 0., 1., 1., 1., 0., 0., 0.,
          0., 0., 47., 0., 1., 1., 20., 0., 0., 0., 0., 0., 2., 4., 0.,
          3., 11., 0., 0. ]
      - [ 1., 0., 0., 1., 1., 2., 0., 2., 0., 22., 4., 5., 3., 4., 0.,
          0., 1., 4., 6., 0., 6., 3., 5., 0., 0., 2., 1., 1., 0., 12.,
          0., 0., 2., 0., 2., 7., 10., 0., 1., 0., 2., 1., 0., 3., 0.,
          4., 57., 10., 15., 1. ]
      - [ 0., 2., 0., 6., 3., 2., 0., 1., 0., 24., 16., 6., 1., 61., 0.,
          0., 1., 0., 0., 1., 1., 3., 0., 0., 10., 0., 0., 1., 0., 0.,
          9., 0., 1., 2., 3., 2., 1., 0., 0., 1., 0., 2., 3., 4., 17.,
          1., 1., 9., 3., 2. ]
      - [ 3., 2., 1., 0., 6., 10., 1., 12., 0., 17., 5., 0., 11., 2., 4.,
          1., 1., 14., 11., 2., 4., 8., 3., 1., 0., 0., 1., 1., 0., 1.,
          4., 0., 0., 0., 0., 5., 0., 0., 8., 5., 6., 1., 0., 3., 14.,
          5., 12., 4., 10., 1. ]
      - [ 0., 0., 4., 1., 9., 7., 0., 5., 3., 6., 5., 2., 2., 6., 2., 2.,
          5., 22., 7., 2., 7., 2., 1., 0., 0., 1., 0., 0., 0., 2., 7.,
          0., 0., 1., 1., 6., 6., 0., 10., 2., 2., 2., 1., 6., 20., 14.,
          9., 5., 3., 2. ]
      - [ 4., 1., 1., 0., 4., 4., 0., 5., 1., 7., 4., 8., 5., 2., 4., 2.,
          0., 11., 0., 0., 9., 9., 17., 15., 4., 0., 15., 0., 0., 0., 2.,
          0., 1., 1., 1., 1., 5., 0., 4., 2., 3., 2., 2., 1., 22., 1.,
          12., 3., 4., 1. ]
      - [ 1., 3., 0., 1., 3., 0., 1., 3., 0., 19., 3., 1., 0., 6., 1.,
          0., 0., 5., 4., 0., 4., 2., 0., 2., 1., 0., 1., 0., 0., 9., 3.,
          0., 0., 1., 1., 4., 3., 1., 1., 0., 1., 2., 0., 0., 6., 1.,
          81., 3., 22., 0. ]
      - [ 0., 0., 0., 0., 0., 0., 0., 0., 6., 9., 0., 5., 0., 9., 0., 2.,
          0., 53., 0., 0., 7., 2., 2., 0., 0., 0., 0., 2., 0., 0., 3.,
          0., 1., 5., 0., 1., 1., 4., 0., 0., 0., 0., 2., 8., 76., 0.,
          0., 2., 1., 0. ]
      - [ 0., 2., 5., 3., 2., 6., 24., 1., 9., 42., 18., 1., 0., 18., 0.,
          0., 7., 0., 0., 1., 2., 2., 12., 1., 6., 2., 1., 0., 0., 0.,
          1., 1., 6., 0., 1., 5., 5., 0., 1., 3., 2., 1., 1., 0., 0., 2.,
          1., 1., 1., 5. ]
      - [ 1., 6., 8., 3., 3., 3., 11., 0., 12., 13., 6., 2., 1., 5., 1.,
          1., 12., 5., 1., 1., 3., 0., 8., 2., 6., 0., 3., 3., 0., 0.,
          3., 2., 10., 2., 8., 5., 5., 3., 0., 2., 2., 3., 3., 8., 5.,
          0., 2., 3., 10., 4. ]
      - [ 0., 0., 2., 1., 1., 11., 0., 0., 0., 17., 4., 2., 1., 6., 3.,
          4., 1., 0., 1., 0., 0., 3., 0., 0., 0., 0., 1., 0., 0., 47.,
          0., 0., 0., 4., 1., 13., 1., 4., 0., 0., 2., 5., 0., 2., 0.,
          8., 4., 7., 44., 0. ]
      - [ 2., 2., 0., 1., 6., 8., 5., 1., 2., 12., 5., 0., 0., 7., 0.,
          1., 1., 1., 5., 0., 3., 1., 5., 0., 1., 4., 0., 1., 0., 19.,
          0., 0., 6., 0., 6., 21., 2., 0., 6., 0., 0., 4., 0., 0., 5.,
          9., 17., 3., 24., 4. ]
      - [ 6., 0., 0., 1., 1., 2., 0., 19., 2., 6., 7., 5., 6., 4., 0.,
          1., 1., 11., 0., 2., 13., 9., 1., 0., 0., 2., 0., 5., 0., 0.,
          8., 0., 2., 4., 2., 0., 16., 2., 3., 0., 11., 1., 0., 4., 27.,
          4., 1., 1., 1., 9. ]
      - [ 0., 2., 7., 12., 5., 1., 14., 1., 2., 21., 6., 3., 1., 14., 0.,
          6., 2., 1., 0., 3., 1., 2., 2., 1., 2., 6., 2., 6., 0., 2.,
          10., 2., 6., 1., 5., 10., 0., 2., 6., 6., 1., 3., 4., 0., 1.,
          2., 6., 0., 5., 5. ]
      - [ 2., 0., 1., 0., 1., 13., 0., 1., 0., 8., 7., 4., 2., 10., 0.,
          2., 0., 6., 1., 1., 9., 4., 4., 1., 3., 0., 0., 1., 0., 7., 4.,
          0., 1., 8., 2., 4., 5., 3., 2., 0., 4., 6., 0., 2., 17., 18.,
          12., 0., 24., 0. ]
      - [ 10., 0., 0., 0., 0., 0., 0., 2., 0., 0., 0., 1., 5., 3., 0.,
          1., 0., 57., 0., 0., 2., 1., 9., 1., 0., 0., 1., 0., 0., 0.,
          0., 0., 0., 1., 0., 0., 5., 3., 4., 0., 0., 0., 0., 5., 88.,
          0., 1., 0., 0., 0. ]
      - [ 1., 1., 1., 3., 0., 2., 0., 9., 0., 38., 0., 2., 9., 4., 0.,
          0., 0., 11., 2., 1., 2., 1., 16., 5., 4., 2., 5., 1., 0., 0.,
          1., 0., 0., 2., 2., 0., 8., 2., 1., 1., 1., 0., 0., 4., 53.,
          1., 2., 0., 0., 2. ]
      - [ 1., 0., 0., 0., 2., 2., 0., 0., 0., 5., 2., 1., 1., 5., 0., 0.,
          0., 4., 36., 1., 0., 2., 0., 0., 0., 0., 0., 0., 0., 5., 0.,
          0., 0., 0., 0., 6., 10., 0., 6., 0., 0., 1., 0., 1., 0., 6.,
          49., 7., 7., 2. ]
      - [ 9., 0., 1., 0., 0., 0., 8., 1., 8., 1., 2., 0., 0., 0., 0., 1.,
          0., 1., 0., 2., 0., 0., 7., 1., 0., 2., 1., 2., 0., 0., 1., 0.,
          3., 1., 0., 0., 0., 0., 2., 0., 4., 2., 1., 1., 12., 0., 0.,
          0., 4., 1. ]
      - [ 1., 0., 0., 1., 0., 1., 4., 0., 1., 31., 2., 2., 1., 0., 1.,
          0., 0., 50., 4., 1., 6., 1., 0., 0., 1., 1., 0., 0., 0., 0.,
          2., 0., 2., 1., 0., 0., 1., 2., 2., 0., 1., 4., 0., 4., 41.,
          0., 1., 2., 4., 4. ]
      - [ 7., 2., 1., 1., 4., 5., 10., 5., 2., 1., 1., 2., 3., 3., 1.,
          0., 0., 12., 11., 2., 0., 2., 15., 0., 0., 3., 0., 0., 0., 7.,
          2., 0., 3., 7., 5., 5., 3., 6., 4., 0., 3., 10., 0., 1., 9.,
          5., 4., 0., 9., 6. ]
      - [ 3., 1., 1., 1., 0., 0., 55., 0., 7., 6., 5., 1., 4., 1., 0.,
          3., 1., 28., 0., 1., 6., 2., 19., 0., 0., 5., 0., 4., 0., 1.,
          1., 1., 3., 1., 1., 0., 1., 0., 0., 0., 0., 5., 0., 5., 23.,
          0., 1., 1., 0., 2. ]
      - [ 0., 0., 0., 0., 0., 5., 0., 0., 0., 75., 1., 2., 1., 0., 0.,
          0., 0., 57., 0., 0., 3., 1., 1., 0., 0., 0., 0., 0., 0., 0.,
          1., 0., 0., 3., 1., 0., 5., 1., 3., 0., 0., 0., 0., 1., 19.,
          6., 3., 0., 8., 3. ]
      - [ 0., 1., 0., 0., 8., 0., 0., 5., 0., 52., 7., 1., 3., 6., 1.,
          0., 2., 7., 6., 1., 16., 15., 0., 0., 0., 0., 0., 0., 0., 0.,
          3., 0., 0., 0., 0., 0., 17., 0., 2., 0., 7., 0., 1., 20., 3.,
          3., 8., 6., 0., 0. ]
      - [ 0., 0., 1., 0., 3., 26., 0., 2., 0., 9., 3., 3., 1., 2., 13.,
          10., 2., 9., 11., 1., 3., 4., 0., 0., 0., 2., 0., 3., 0., 2.,
          1., 0., 0., 0., 0., 16., 4., 0., 9., 1., 1., 0., 0., 1., 9.,
          28., 6., 4., 10., 0. ]
      - [ 1., 1., 0., 0., 1., 0., 0., 0., 0., 86., 25., 1., 0., 5., 0.,
          1., 0., 26., 0., 3., 9., 10., 0., 1., 1., 0., 1., 0., 0., 0.,
          4., 0., 0., 2., 0., 1., 2., 3., 1., 3., 2., 0., 0., 1., 6., 3.,
          0., 0., 1., 0. ]
      - [ 2., 6., 1., 2., 1., 13., 0., 5., 2., 23., 4., 1., 6., 7., 8.,
          3., 3., 12., 8., 1., 9., 6., 1., 1., 0., 0., 0., 0., 0., 0.,
          1., 0., 1., 1., 0., 5., 4., 0., 1., 1., 2., 0., 0., 0., 11.,
          13., 1., 5., 29., 0. ]
      - [ 1., 2., 5., 6., 4., 2., 3., 0., 1., 4., 12., 3., 1., 9., 0.,
          3., 2., 0., 1., 1., 5., 9., 0., 0., 6., 5., 0., 2., 0., 1., 4.,
          8., 37., 3., 2., 3., 2., 2., 1., 1., 2., 1., 32., 0., 0., 0.,
          1., 7., 3., 3. ]
      - [ 0., 1., 0., 5., 1., 1., 0., 1., 0., 17., 8., 15., 3., 49., 1.,
          3., 2., 0., 0., 0., 9., 9., 0., 0., 5., 1., 0., 0., 0., 0.,
          21., 2., 2., 3., 0., 4., 3., 2., 4., 4., 3., 0., 5., 5., 1.,
          1., 0., 8., 0., 1. ]
      - [ 0., 2., 0., 0., 0., 0., 0., 0., 0., 8., 0., 2., 0., 0., 0., 0.,
          0., 79., 1., 0., 7., 0., 0., 0., 0., 2., 0., 0., 0., 0., 2.,
          0., 0., 0., 1., 0., 2., 0., 4., 0., 2., 0., 0., 6., 64., 4.,
          4., 10., 0., 0. ]
      - [ 3., 1., 3., 1., 5., 2., 2., 1., 2., 13., 1., 1., 5., 12., 7.,
          2., 1., 2., 15., 0., 2., 1., 3., 0., 3., 0., 0., 3., 0., 0.,
          1., 0., 1., 0., 1., 8., 3., 1., 4., 1., 0., 1., 3., 2., 4., 6.,
          32., 2., 3., 0. ]
      - [ 0., 0., 2., 1., 2., 7., 5., 2., 3., 17., 2., 5., 3., 8., 1.,
          1., 0., 1., 1., 2., 0., 0., 1., 0., 0., 4., 0., 0., 0., 18.,
          5., 0., 9., 5., 1., 10., 8., 5., 3., 5., 0., 16., 0., 0., 1.,
          4., 24., 7., 10., 1. ]
      - [ 1., 2., 4., 2., 2., 1., 37., 0., 15., 1., 0., 6., 0., 3., 0.,
          2., 0., 7., 1., 1., 17., 7., 4., 2., 0., 5., 5., 3., 0., 2.,
          2., 1., 0., 3., 2., 3., 3., 1., 2., 0., 3., 26., 1., 4., 1.,
          0., 0., 3., 11., 4. ]
      - [ 0., 0., 3., 0., 5., 3., 7., 9., 0., 8., 1., 1., 8., 2., 2.,
          11., 1., 8., 1., 2., 4., 3., 4., 11., 1., 7., 7., 5., 0., 0.,
          3., 0., 2., 0., 4., 5., 13., 0., 1., 7., 8., 1., 3., 2., 9.,
          5., 3., 1., 4., 15. ]
      - [ 4., 1., 0., 0., 4., 0., 0., 4., 2., 15., 4., 1., 6., 6., 1.,
          0., 0., 6., 13., 2., 1., 3., 3., 1., 2., 1., 2., 2., 0., 10.,
          4., 1., 1., 3., 4., 5., 4., 3., 8., 1., 8., 2., 4., 1., 11.,
          0., 28., 5., 12., 1. ]
      - [ 0., 2., 6., 2., 2., 0., 0., 1., 3., 7., 3., 3., 5., 65., 2.,
          0., 3., 0., 0., 2., 0., 1., 0., 0., 5., 0., 0., 0., 0., 0., 3.,
          1., 6., 2., 3., 2., 12., 1., 0., 6., 3., 2., 2., 16., 3., 0.,
          8., 2., 6., 10. ]
      - [ 0., 2., 0., 0., 0., 3., 1., 1., 0., 29., 9., 0., 0., 21., 0.,
          0., 0., 1., 7., 0., 4., 0., 0., 0., 0., 0., 0., 0., 0., 24.,
          0., 0., 2., 0., 1., 10., 2., 0., 0., 0., 0., 16., 1., 1., 1.,
          9., 32., 1., 21., 1. ]
      - [ 0., 2., 0., 1., 0., 0., 0., 0., 0., 2., 7., 9., 0., 9., 0., 0.,
          0., 2., 12., 0., 2., 2., 0., 0., 0., 0., 0., 0., 0., 7., 1.,
          0., 1., 7., 0., 6., 9., 3., 0., 0., 0., 4., 0., 6., 4., 0.,
          80., 10., 11., 4. ]
      - [ 2., 1., 1., 1., 1., 0., 70., 1., 10., 1., 3., 0., 2., 4., 1.,
          2., 0., 17., 3., 2., 4., 4., 8., 3., 0., 0., 1., 5., 0., 0.,
          3., 0., 4., 2., 0., 3., 3., 1., 2., 0., 2., 0., 0., 5., 10.,
          0., 4., 1., 9., 4. ]
      - [ 1., 2., 1., 3., 0., 0., 0., 0., 0., 76., 23., 1., 0., 52., 0.,
          0., 3., 0., 0., 0., 1., 0., 0., 0., 10., 2., 0., 0., 0., 0.,
          4., 1., 4., 1., 0., 2., 3., 0., 0., 1., 1., 1., 1., 0., 0., 0.,
          0., 4., 1., 1. ]
      - [ 0., 1., 2., 7., 2., 0., 0., 1., 0., 1., 14., 2., 2., 52., 0.,
          0., 0., 34., 2., 1., 10., 6., 0., 0., 3., 0., 0., 1., 0., 0.,
          2., 0., 0., 5., 1., 5., 10., 3., 2., 0., 0., 0., 0., 0., 25.,
          0., 1., 1., 2., 2. ]
      - [ 0., 1., 1., 5., 2., 6., 30., 2., 11., 6., 3., 2., 1., 11., 0.,
          4., 2., 0., 0., 3., 2., 2., 1., 2., 1., 8., 3., 8., 0., 2., 2.,
          2., 15., 6., 7., 6., 0., 3., 0., 3., 1., 9., 3., 0., 0., 0.,
          4., 3., 17., 1. ]
      - [ 0., 3., 0., 3., 7., 1., 2., 0., 0., 16., 21., 3., 2., 24., 0.,
          0., 0., 4., 9., 3., 2., 3., 2., 0., 0., 0., 2., 0., 0., 7., 5.,
          0., 4., 1., 0., 4., 11., 0., 1., 0., 3., 1., 1., 2., 7., 4.,
          33., 3., 5., 1. ]
      - [ 2., 0., 2., 1., 2., 0., 46., 0., 3., 10., 0., 2., 0., 6., 0.,
          0., 0., 3., 1., 0., 0., 1., 10., 0., 2., 3., 0., 0., 0., 8.,
          2., 0., 14., 1., 1., 9., 4., 2., 2., 0., 3., 11., 1., 1., 7.,
          0., 13., 0., 25., 2. ]
      - [ 3., 5., 1., 4., 2., 4., 2., 5., 5., 7., 8., 5., 2., 5., 2., 4.,
          1., 1., 0., 2., 6., 5., 2., 4., 0., 6., 6., 5., 0., 3., 5., 0.,
          2., 5., 2., 9., 9., 7., 1., 0., 6., 6., 0., 0., 2., 2., 11.,
          2., 17., 9. ]
      - [ 11., 3., 1., 6., 0., 6., 4., 1., 6., 11., 12., 2., 0., 8., 1.,
          0., 1., 9., 4., 2., 6., 3., 3., 1., 2., 2., 0., 2., 0., 7., 3.,
          0., 5., 2., 2., 5., 2., 1., 0., 1., 2., 8., 0., 0., 3., 5.,
          23., 4., 13., 7. ]
      - [ 0., 2., 0., 2., 2., 27., 0., 0., 2., 13., 11., 1., 1., 8., 5.,
          1., 1., 0., 8., 1., 1., 1., 0., 0., 0., 0., 1., 0., 0., 10.,
          0., 0., 4., 4., 2., 6., 2., 3., 0., 0., 0., 6., 0., 0., 1.,
          23., 20., 8., 22., 1. ]
      - [ 9., 0., 1., 0., 5., 6., 38., 3., 3., 5., 0., 1., 1., 2., 1.,
          0., 0., 2., 0., 0., 5., 4., 52., 0., 0., 1., 0., 1., 0., 0.,
          2., 2., 13., 2., 3., 0., 0., 0., 3., 0., 0., 3., 0., 6., 11.,
          0., 2., 0., 7., 6. ]
      - [ 4., 2., 0., 3., 1., 4., 1., 1., 1., 8., 5., 3., 4., 21., 0.,
          1., 0., 10., 11., 2., 4., 3., 0., 2., 0., 2., 1., 1., 0., 24.,
          4., 0., 2., 5., 1., 8., 5., 2., 3., 1., 0., 3., 0., 2., 6., 4.,
          20., 5., 6., 4. ]
      - [ 0., 3., 1., 9., 5., 5., 14., 5., 5., 3., 5., 4., 5., 7., 1.,
          6., 0., 4., 2., 6., 5., 11., 5., 0., 3., 4., 3., 8., 0., 3.,
          3., 0., 4., 5., 2., 3., 5., 3., 0., 2., 5., 6., 3., 3., 2., 4.,
          5., 3., 5., 6. ]
      - [ 0., 3., 1., 1., 5., 0., 1., 3., 0., 27., 1., 3., 0., 12., 0.,
          0., 2., 0., 11., 2., 0., 1., 1., 0., 0., 0., 0., 1., 0., 8.,
          3., 0., 0., 1., 0., 16., 5., 0., 2., 0., 1., 4., 1., 3., 1.,
          2., 61., 5., 8., 4. ]
      - [ 0., 0., 0., 1., 4., 1., 0., 2., 0., 110., 13., 1., 0., 2., 0.,
          0., 1., 21., 0., 1., 5., 5., 0., 0., 0., 0., 0., 0., 0., 0.,
          3., 0., 2., 1., 1., 4., 7., 1., 1., 0., 3., 1., 0., 0., 1., 0.,
          3., 3., 0., 2. ]
      - [ 0., 0., 0., 0., 1., 0., 0., 2., 0., 75., 1., 4., 0., 0., 0.,
          0., 0., 22., 1., 1., 4., 0., 0., 0., 0., 1., 0., 0., 0., 0.,
          0., 0., 1., 1., 0., 0., 1., 0., 0., 1., 1., 0., 0., 0., 25.,
          0., 5., 0., 4., 0. ]
      - [ 1., 2., 2., 1., 0., 0., 1., 1., 0., 2., 2., 3., 0., 2., 0., 0.,
          1., 32., 0., 2., 6., 1., 0., 0., 0., 0., 0., 2., 0., 0., 2.,
          0., 0., 0., 0., 0., 1., 0., 1., 0., 2., 0., 0., 36., 45., 0.,
          0., 2., 0., 0. ]
      - [ 0., 0., 0., 0., 0., 0., 0., 0., 0., 71., 3., 2., 2., 2., 0.,
          0., 0., 11., 3., 0., 2., 1., 2., 0., 0., 0., 0., 0., 0., 0.,
          1., 0., 0., 2., 0., 0., 6., 1., 3., 0., 0., 0., 0., 4., 26.,
          1., 12., 0., 0., 0. ]
      - [ 5., 4., 1., 1., 8., 4., 3., 4., 5., 2., 7., 8., 2., 4., 2., 0.,
          2., 9., 4., 3., 4., 13., 2., 0., 0., 1., 2., 1., 0., 9., 6.,
          0., 10., 3., 0., 3., 2., 1., 7., 2., 7., 9., 1., 3., 9., 3.,
          3., 2., 19., 0. ]
      - [ 0., 1., 0., 0., 0., 4., 96., 1., 0., 18., 2., 1., 1., 1., 0.,
          0., 0., 0., 0., 0., 0., 0., 0., 0., 0., 0., 0., 0., 0., 36.,
          0., 0., 2., 2., 0., 1., 3., 1., 0., 0., 0., 10., 0., 1., 0.,
          3., 12., 0., 4., 0. ]
      - [ 0., 0., 0., 2., 0., 4., 0., 18., 0., 0., 5., 0., 0., 2., 0.,
          0., 0., 1., 0., 2., 2., 1., 0., 0., 0., 0., 0., 0., 0., 0., 0.,
          0., 0., 0., 5., 0., 9., 0., 2., 8., 20., 0., 0., 0., 7., 3.,
          0., 3., 0., 13. ]
      - [ 4., 0., 1., 3., 0., 1., 2., 0., 4., 1., 4., 7., 0., 50., 2.,
          9., 1., 1., 2., 0., 2., 3., 9., 1., 1., 0., 1., 17., 0., 5.,
          5., 1., 1., 9., 1., 2., 2., 5., 0., 4., 0., 4., 5., 8., 0., 1.,
          2., 9., 7., 3. ]
      - [ 2., 3., 1., 1., 2., 7., 1., 1., 4., 20., 12., 3., 0., 16., 1.,
          0., 0., 2., 12., 1., 6., 8., 0., 0., 1., 1., 0., 0., 0., 7.,
          3., 0., 6., 2., 2., 5., 3., 4., 1., 3., 1., 4., 1., 2., 2., 2.,
          21., 14., 8., 4. ]
      - [ 7., 0., 0., 8., 2., 0., 47., 0., 62., 0., 0., 0., 0., 4., 0.,
          0., 0., 5., 0., 0., 4., 3., 0., 0., 5., 4., 0., 3., 0., 0., 2.,
          0., 4., 0., 0., 0., 0., 0., 0., 0., 0., 36., 2., 0., 0., 0.,
          0., 2., 0., 0. ]
      - [ 1., 0., 3., 9., 0., 3., 3., 1., 6., 14., 1., 1., 7., 4., 2.,
          2., 1., 10., 3., 5., 3., 4., 3., 11., 1., 2., 16., 4., 0., 0.,
          0., 0., 8., 1., 2., 4., 7., 1., 0., 5., 0., 0., 0., 4., 6.,
          11., 20., 4., 5., 2. ]
      - [ 1., 1., 0., 1., 3., 3., 8., 1., 3., 42., 9., 2., 2., 6., 0.,
          0., 0., 2., 3., 0., 1., 2., 1., 0., 1., 2., 0., 0., 0., 14.,
          1., 0., 9., 1., 3., 17., 1., 4., 0., 0., 0., 11., 0., 1., 2.,
          3., 8., 3., 24., 4. ]
      - [ 1., 0., 1., 1., 1., 5., 2., 3., 1., 11., 5., 2., 1., 2., 1.,
          2., 0., 4., 4., 0., 2., 4., 1., 0., 0., 5., 0., 3., 0., 22.,
          1., 0., 2., 2., 6., 22., 8., 0., 1., 0., 3., 18., 0., 3., 12.,
          5., 2., 0., 28., 3. ]
      - [ 1., 2., 0., 6., 0., 2., 0., 1., 0., 71., 33., 7., 0., 33., 1.,
          0., 0., 2., 0., 0., 4., 5., 0., 0., 1., 1., 0., 0., 0., 0., 2.,
          0., 1., 7., 0., 3., 2., 6., 0., 0., 1., 1., 1., 2., 0., 2., 1.,
          1., 0., 1. ]
      - [ 1., 0., 0., 0., 2., 3., 0., 8., 0., 2., 2., 0., 6., 5., 4., 0.,
          1., 6., 30., 1., 2., 1., 0., 3., 1., 1., 4., 2., 0., 6., 2.,
          0., 0., 0., 0., 8., 0., 0., 2., 0., 2., 1., 0., 0., 3., 3., 0.,
          1., 21., 2. ]
      - [ 6., 3., 1., 5., 1., 2., 4., 4., 5., 0., 1., 6., 0., 13., 0.,
          2., 1., 7., 1., 2., 5., 5., 5., 2., 1., 0., 2., 3., 0., 9., 4.,
          0., 4., 10., 1., 0., 2., 5., 1., 0., 8., 9., 1., 5., 8., 2.,
          25., 8., 7., 4. ]
      - [ 5., 0., 2., 2., 1., 0., 2., 3., 5., 9., 1., 3., 1., 6., 0., 0.,
          1., 5., 17., 3., 5., 4., 4., 0., 0., 1., 0., 3., 0., 7., 0.,
          0., 2., 1., 0., 9., 7., 2., 2., 0., 1., 6., 0., 12., 10., 5.,
          28., 3., 17., 5. ]
      - [ 0., 0., 0., 1., 0., 2., 0., 0., 0., 23., 13., 1., 1., 15., 0.,
          0., 0., 2., 8., 1., 4., 3., 2., 0., 2., 1., 0., 0., 0., 11.,
          0., 1., 1., 0., 1., 8., 7., 1., 2., 1., 0., 3., 0., 2., 0., 3.,
          62., 6., 12., 0. ]
      - [ 6., 0., 1., 1., 7., 1., 2., 3., 7., 2., 11., 7., 5., 15., 0.,
          0., 0., 65., 1., 1., 6., 5., 0., 0., 1., 11., 0., 1., 0., 0.,
          5., 0., 2., 5., 0., 1., 1., 1., 13., 0., 1., 5., 0., 0., 2.,
          1., 0., 3., 1., 1. ]
      - [ 0., 2., 0., 0., 2., 0., 0., 0., 0., 8., 4., 2., 0., 3., 1., 0.,
          1., 21., 19., 2., 8., 2., 0., 0., 0., 1., 0., 0., 0., 2., 2.,
          0., 3., 1., 2., 4., 8., 0., 0., 0., 0., 2., 0., 3., 21., 3.,
          58., 11., 4., 0. ]
      - [ 8., 0., 0., 4., 3., 0., 45., 0., 5., 0., 9., 6., 0., 6., 0.,
          1., 0., 7., 0., 1., 6., 7., 18., 0., 1., 3., 1., 2., 0., 3.,
          1., 0., 6., 2., 1., 2., 0., 2., 1., 2., 0., 6., 2., 10., 6.,
          0., 1., 2., 17., 3. ]
      - [ 1., 2., 3., 3., 3., 1., 0., 3., 0., 38., 25., 3., 1., 16., 1.,
          0., 0., 42., 2., 0., 2., 6., 0., 0., 0., 2., 0., 0., 0., 0.,
          5., 0., 3., 1., 1., 4., 6., 1., 4., 1., 4., 0., 1., 2., 1., 1.,
          2., 1., 3., 5. ]
      - [ 0., 1., 0., 0., 12., 0., 0., 3., 1., 47., 31., 2., 0., 48., 0.,
          0., 0., 1., 1., 0., 3., 3., 0., 0., 12., 0., 0., 3., 0., 0.,
          5., 0., 1., 0., 0., 3., 3., 0., 1., 2., 2., 0., 0., 0., 2., 1.,
          3., 8., 1., 0. ]
      - [ 1., 1., 2., 3., 4., 3., 1., 0., 0., 14., 9., 4., 0., 12., 0.,
          1., 1., 2., 12., 1., 2., 2., 0., 0., 0., 0., 0., 2., 0., 17.,
          3., 0., 6., 2., 1., 13., 4., 3., 1., 0., 3., 9., 0., 2., 1.,
          1., 26., 13., 15., 3. ]
      - [ 2., 0., 2., 6., 1., 0., 5., 1., 3., 5., 10., 10., 1., 8., 0.,
          0., 2., 2., 0., 0., 6., 7., 3., 1., 2., 3., 2., 0., 0., 17.,
          7., 0., 5., 4., 0., 0., 1., 5., 1., 0., 2., 6., 2., 3., 3., 0.,
          6., 6., 47., 3. ]
      - [ 0., 6., 0., 20., 4., 4., 2., 0., 19., 2., 1., 5., 0., 41., 0.,
          1., 2., 0., 0., 2., 5., 4., 0., 0., 17., 2., 0., 1., 0., 1.,
          11., 4., 6., 16., 2., 2., 0., 7., 0., 4., 0., 1., 4., 0., 0.,
          0., 1., 2., 0., 1. ]
      - [ 0., 1., 3., 1., 3., 4., 0., 1., 2., 11., 6., 0., 2., 3., 0.,
